{"learner":{"attributes":{"best_iteration":"382","best_score":"-0.871795"},"feature_names":[],"feature_types":[],"gradient_booster":{"model":{"gbtree_model_param":{"num_parallel_tree":"1","num_trees":"433"},"iteration_indptr":[0,1,2,3,4,5,6,7,8,9,10,11,12,13,14,15,16,17,18,19,20,21,22,23,24,25,26,27,28,29,30,31,32,33,34,35,36,37,38,39,40,41,42,43,44,45,46,47,48,49,50,51,52,53,54,55,56,57,58,59,60,61,62,63,64,65,66,67,68,69,70,71,72,73,74,75,76,77,78,79,80,81,82,83,84,85,86,87,88,89,90,91,92,93,94,95,96,97,98,99,100,101,102,103,104,105,106,107,108,109,110,111,112,113,114,115,116,117,118,119,120,121,122,123,124,125,126,127,128,129,130,131,132,133,134,135,136,137,138,139,140,141,142,143,144,145,146,147,148,149,150,151,152,153,154,155,156,157,158,159,160,161,162,163,164,165,166,167,168,169,170,171,172,173,174,175,176,177,178,179,180,181,182,183,184,185,186,187,188,189,190,191,192,193,194,195,196,197,198,199,200,201,202,203,204,205,206,207,208,209,210,211,212,213,214,215,216,217,218,219,220,221,222,223,224,225,226,227,228,229,230,231,232,233,234,235,236,237,238,239,240,241,242,243,244,245,246,247,248,249,250,251,252,253,254,255,256,257,258,259,260,261,262,263,264,265,266,267,268,269,270,271,272,273,274,275,276,277,278,279,280,281,282,283,284,285,286,287,288,289,290,291,292,293,294,295,296,297,298,299,300,301,302,303,304,305,306,307,308,309,310,311,312,313,314,315,316,317,318,319,320,321,322,323,324,325,326,327,328,329,330,331,332,333,334,335,336,337,338,339,340,341,342,343,344,345,346,347,348,349,350,351,352,353,354,355,356,357,358,359,360,361,362,363,364,365,366,367,368,369,370,371,372,373,374,375,376,377,378,379,380,381,382,383,384,385,386,387,388,389,390,391,392,393,394,395,396,397,398,399,400,401,402,403,404,405,406,407,408,409,410,411,412,413,414,415,416,417,418,419,420,421,422,423,424,425,426,427,428,429,430,431,432,433],"tree_info":[0,0,0,0,0,0,0,0,0,0,0,0,0,0,0,0,0,0,0,0,0,0,0,0,0,0,0,0,0,0,0,0,0,0,0,0,0,0,0,0,0,0,0,0,0,0,0,0,0,0,0,0,0,0,0,0,0,0,0,0,0,0,0,0,0,0,0,0,0,0,0,0,0,0,0,0,0,0,0,0,0,0,0,0,0,0,0,0,0,0,0,0,0,0,0,0,0,0,0,0,0,0,0,0,0,0,0,0,0,0,0,0,0,0,0,0,0,0,0,0,0,0,0,0,0,0,0,0,0,0,0,0,0,0,0,0,0,0,0,0,0,0,0,0,0,0,0,0,0,0,0,0,0,0,0,0,0,0,0,0,0,0,0,0,0,0,0,0,0,0,0,0,0,0,0,0,0,0,0,0,0,0,0,0,0,0,0,0,0,0,0,0,0,0,0,0,0,0,0,0,0,0,0,0,0,0,0,0,0,0,0,0,0,0,0,0,0,0,0,0,0,0,0,0,0,0,0,0,0,0,0,0,0,0,0,0,0,0,0,0,0,0,0,0,0,0,0,0,0,0,0,0,0,0,0,0,0,0,0,0,0,0,0,0,0,0,0,0,0,0,0,0,0,0,0,0,0,0,0,0,0,0,0,0,0,0,0,0,0,0,0,0,0,0,0,0,0,0,0,0,0,0,0,0,0,0,0,0,0,0,0,0,0,0,0,0,0,0,0,0,0,0,0,0,0,0,0,0,0,0,0,0,0,0,0,0,0,0,0,0,0,0,0,0,0,0,0,0,0,0,0,0,0,0,0,0,0,0,0,0,0,0,0,0,0,0,0,0,0,0,0,0,0,0,0,0,0,0,0,0,0,0,0,0,0,0,0,0,0,0,0,0,0,0,0,0,0,0,0,0,0,0,0,0,0,0,0,0,0,0,0,0,0,0,0,0,0,0,0,0,0,0,0,0,0,0,0,0,0,0,0,0,0],"trees":[{"base_weights":[-9.294643E-3,-1.3171537E0,8.16531E-1,1.9951609E-1,-1.6503476E0,-1.0698682E0,1.154279E0,-1.3255217E0,7.02919E-1,-1.7032117E0,-9.9566925E-1,-4.7532395E-1,-1.214503E0,1.5645748E0,3.5524327E-1,-1.5479326E0,-1.0228877E0,-4.6306607E-1,1.2395993E0,-8.584293E-2,-1.6183355E0,-1.49197E0,-6.2309706E-1,-9.2935973E-1,6.29602E-2,-1.3012486E0,-2.0116709E-1,2.068292E0,1.221056E0,-9.098472E-2,1.0883636E0,-1.6075497E0,-9.6059716E-1,-5.50747E-1,-1.2228125E0,-1.2963171E0,-1.16215765E-1,1.3684787E0,-1.4177772E0,-8.1222825E-2,-5.106113E-2,-8.840666E-1,-1.5384811E0,-9.9186045E-1,-5.8510672E-2,-1.0415237E0,1.7268325E-1,-4.4062945E-1,3.0055353E-1,3.635439E-1,-1.3292056E0,3.9965126E-1,-1.0675837E0,2.1614108E0,1.8629419E0,6.537458E-1,1.3459989E0,5.015918E-1,-3.8251445E-1,1.1437709E0,-7.878448E-2,-8.149283E-2,-4.7915984E-2,-1.2951836E-2,-7.013326E-2,-1.0452063E0,2.1482214E-1,-1.329158E0,-1.6038937E-2,-7.3123306E-2,-8.414375E-1,-2.66097E-1,1.3021694E0,2.0503583E0,1.1111133E0,-7.8205995E-2,-3.975027E-2,-5.7249017E-2,-2.3418836E-2,-7.925675E-2,-1.1926523E0,2.4359967E-1,-1.2259834E0,-2.4843916E-1,5.3323872E-2,-1.1314785E0,-1.9841215E-1,4.7805212E-2,-3.975027E-2,-8.34767E-1,7.812369E-2,1.2459866E0,2.779989E-2,4.496677E-2,-2.5837654E-2,-1.372875E0,-5.0569206E-1,7.2465366E-1,-4.9327698E-1,-1.5570993E-2,-1.2296544E0,2.1712554E0,1.3524832E0,2.05627E0,1.6731663E0,1.1263053E0,-4.3715328E-1,8.463757E-1,1.4287113E0,8.172597E-1,-4.1121103E-2,-1.582397E0,6.8845965E-2,9.126542E-1,1.5552114E0,-3.323654E-2,-7.060092E-2,4.2780217E-2,-2.2864893E-2,-5.348153E-2,-7.5943984E-2,-5.260766E-3,-6.262518E-2,3.6629543E-2,-2.0452177E-2,3.2426517E-2,8.224931E-2,1.0484701E-1,4.755263E-2,5.7832092E-2,-3.867699E-2,-7.537546E-2,-2.2864893E-2,5.1529724E-2,-5.3226348E-2,-6.91951E-2,-2.7242003E-2,-7.241313E-2,-5.567511E-3,-5.97807E-2,-6.6687153E-3,-3.975027E-2,1.7206086E-2,-2.2445818E-2,-6.1097708E-2,-2.9726261E-2,3.8055386E-2,3.0304477E-2,8.074471E-2,5.4614455E-2,-6.225873E-3,-7.2107375E-2,-5.512293E-2,-6.2137503E-2,9.978908E-3,5.1864337E-2,-3.564101E-2,-3.923645E-3,-4.320407E-2,-7.002743E-2,-3.831393E-2,1.0411258E-1,1.1202629E-1,3.260482E-2,9.873695E-2,1.0408942E-1,5.0076343E-2,9.4570346E-2,6.1440565E-2,7.069138E-2,3.0849589E-2,-6.4008854E-2,3.800119E-2,8.0770165E-2,2.736715E-2,5.3605665E-2,7.7437736E-2,1.0451214E-2,6.4011954E-2,-9.919967E-3,5.2409112E-2,-7.997151E-2,-3.1584553E-2,-2.9796524E-2,1.7963951E-2,5.9244324E-2,2.197924E-2,7.980248E-2,3.467919E-2],"categories":[],"categories_nodes":[],"categories_segments":[],"categories_sizes":[],"default_left":[0,0,0,0,0,0,0,0,0,0,0,0,0,0,0,0,0,0,0,0,0,0,0,0,0,0,0,0,0,0,0,0,0,0,0,0,0,0,0,0,0,0,0,0,0,0,0,0,0,0,0,0,0,0,0,0,0,0,0,0,0,0,0,0,0,0,0,0,0,0,0,0,0,0,0,0,0,0,0,0,0,0,0,0,0,0,0,0,0,0,0,0,0,0,0,0,0,0,0,0,0,0,0,0,0,0,0,0,0,0,0,0,0,0,0,0,0,0,0,0,0,0,0,0,0,0,0,0,0,0,0,0,0,0,0,0,0,0,0,0,0,0,0,0,0,0,0,0,0,0,0,0,0,0,0,0,0,0,0,0,0,0,0,0,0,0,0,0,0,0,0,0,0,0,0,0,0,0,0,0,0,0,0,0,0,0,0,0,0],"id":0,"left_children":[1,3,5,7,9,11,13,15,17,19,21,23,25,27,29,31,33,35,37,-1,39,41,43,45,47,49,51,53,55,57,59,61,63,65,67,69,71,73,75,-1,-1,77,79,81,83,85,87,89,91,93,95,97,99,101,103,105,107,109,111,113,-1,-1,-1,-1,-1,115,117,119,-1,-1,121,123,125,127,129,-1,-1,-1,-1,-1,131,133,135,137,-1,139,141,-1,-1,143,145,147,149,-1,-1,151,153,155,157,-1,159,161,163,165,167,169,171,173,175,177,179,181,183,185,187,-1,-1,-1,-1,-1,-1,-1,-1,-1,-1,-1,-1,-1,-1,-1,-1,-1,-1,-1,-1,-1,-1,-1,-1,-1,-1,-1,-1,-1,-1,-1,-1,-1,-1,-1,-1,-1,-1,-1,-1,-1,-1,-1,-1,-1,-1,-1,-1,-1,-1,-1,-1,-1,-1,-1,-1,-1,-1,-1,-1,-1,-1,-1,-1,-1,-1,-1,-1,-1,-1,-1,-1,-1,-1],"loss_changes":[1.3627348E4,2.4681191E3,4.9286533E3,6.7688074E2,1.3687402E2,1.0045764E2,2.150038E3,1.3147644E1,4.1521585E2,1.5117188E0,5.4830963E1,5.6647514E1,8.275256E1,7.474092E2,7.286018E2,2.804657E0,8.355804E0,6.0422474E1,1.5743799E2,0E0,2.7978516E-1,2.2756958E0,3.6161835E1,1.5713074E1,1.2920418E1,4.0963257E1,3.9807877E1,2.9547363E1,1.8193579E2,2.3949535E2,1.2618585E2,4.953003E-2,3.9568357E0,1.16849985E1,5.941414E0,3.4176178E0,3.2040127E1,7.380493E1,7.153206E-1,0E0,0E0,7.099447E-1,1.4923096E-2,3.07193E1,1.5178237E1,8.43647E0,1.0210771E1,7.153129E0,1.8844612E1,7.6101694E0,3.0075073E1,1.3532923E1,3.446949E0,6.6342773E0,1.6923096E1,2.4147067E2,8.609863E1,7.836068E1,5.0324945E2,7.713245E1,0E0,0E0,0E0,0E0,0E0,1.6523914E0,5.865277E0,1.2834778E0,0E0,0E0,5.560521E0,1.966719E1,2.1638985E0,4.0283813E0,2.8088867E1,0E0,0E0,0E0,0E0,0E0,3.4960613E0,1.920507E1,8.774292E0,9.79425E0,0E0,6.432373E0,4.2295513E0,0E0,0E0,2.4072418E0,7.748623E0,2.885456E0,9.514635E0,0E0,0E0,1.3619263E1,2.3468018E1,1.5880043E1,1.887146E0,0E0,9.3785095E-1,2.6450195E0,6.165394E0,5.197632E0,2.5358337E1,4.693161E1,1.442953E2,6.8688034E1,7.587134E1,8.114786E1,2.917683E1,3.102539E0,1.3073874E2,6.791144E1,9.298096E0,0E0,0E0,0E0,0E0,0E0,0E0,0E0,0E0,0E0,0E0,0E0,0E0,0E0,0E0,0E0,0E0,0E0,0E0,0E0,0E0,0E0,0E0,0E0,0E0,0E0,0E0,0E0,0E0,0E0,0E0,0E0,0E0,0E0,0E0,0E0,0E0,0E0,0E0,0E0,0E0,0E0,0E0,0E0,0E0,0E0,0E0,0E0,0E0,0E0,0E0,0E0,0E0,0E0,0E0,0E0,0E0,0E0,0E0,0E0,0E0,0E0,0E0,0E0,0E0,0E0,0E0,0E0,0E0,0E0,0E0,0E0,0E0,0E0,0E0],"parents":[2147483647,0,0,1,1,2,2,3,3,4,4,5,5,6,6,7,7,8,8,9,9,10,10,11,11,12,12,13,13,14,14,15,15,16,16,17,17,18,18,20,20,21,21,22,22,23,23,24,24,25,25,26,26,27,27,28,28,29,29,30,30,31,31,32,32,33,33,34,34,35,35,36,36,37,37,38,38,41,41,42,42,43,43,44,44,45,45,46,46,47,47,48,48,49,49,50,50,51,51,52,52,53,53,54,54,55,55,56,56,57,57,58,58,59,59,65,65,66,66,67,67,70,70,71,71,72,72,73,73,74,74,80,80,81,81,82,82,83,83,85,85,86,86,89,89,90,90,91,91,92,92,95,95,96,96,97,97,98,98,100,100,101,101,102,102,103,103,104,104,105,105,106,106,107,107,108,108,109,109,110,110,111,111,112,112,113,113,114,114],"right_children":[2,4,6,8,10,12,14,16,18,20,22,24,26,28,30,32,34,36,38,-1,40,42,44,46,48,50,52,54,56,58,60,62,64,66,68,70,72,74,76,-1,-1,78,80,82,84,86,88,90,92,94,96,98,100,102,104,106,108,110,112,114,-1,-1,-1,-1,-1,116,118,120,-1,-1,122,124,126,128,130,-1,-1,-1,-1,-1,132,134,136,138,-1,140,142,-1,-1,144,146,148,150,-1,-1,152,154,156,158,-1,160,162,164,166,168,170,172,174,176,178,180,182,184,186,188,-1,-1,-1,-1,-1,-1,-1,-1,-1,-1,-1,-1,-1,-1,-1,-1,-1,-1,-1,-1,-1,-1,-1,-1,-1,-1,-1,-1,-1,-1,-1,-1,-1,-1,-1,-1,-1,-1,-1,-1,-1,-1,-1,-1,-1,-1,-1,-1,-1,-1,-1,-1,-1,-1,-1,-1,-1,-1,-1,-1,-1,-1,-1,-1,-1,-1,-1,-1,-1,-1,-1,-1,-1,-1],"split_conditions":[3.9270833E0,2E0,2E0,2E0,3.1215277E0,3E0,2E0,1.0152777E0,2.013E3,1.9118055E0,2E0,3.5E1,3.31125E1,1.2E2,1.5079166E1,3.2684138E-1,2E0,8.784722E-1,4E0,-8.584293E-2,6.235234E-1,3E0,3.7666667E0,3.9971706E-1,2E0,1E0,2.7E2,6E1,3E0,2E0,4E0,1.669E3,7E0,2.015E3,3.4069034E-1,2.9E1,2E0,9E1,8.9444447E-1,-8.1222825E-2,-5.106113E-2,1.66E2,3.2008767E-1,1.5E2,1.9E1,4.089537E-1,1.5001917E-1,1.44E2,3E0,3.46E2,2E0,2.4923688E-1,2.011E3,6.3234085E-1,5.3069444E0,2E0,2E0,4E0,3E0,5.0143055E1,-7.878448E-2,-8.149283E-2,-4.7915984E-2,-1.2951836E-2,-7.013326E-2,1.3346784E-1,3E0,4E0,-1.6038937E-2,-7.3123306E-2,1.3110948E-1,2E0,1.1E1,4.126445E-1,4E0,-7.8205995E-2,-3.975027E-2,-5.7249017E-2,-2.3418836E-2,-7.925675E-2,3.08E2,2E0,3.0263394E-1,2.007E3,5.3323872E-2,1.649E3,1.44E2,4.7805212E-2,-3.975027E-2,1E0,4E0,8.063889E0,4.2631946E0,4.496677E-2,-2.5837654E-2,1.3127084E1,3E0,3.7526262E-1,8E0,-1.5570993E-2,2.015E3,2.5E1,8E0,5.3478354E-1,4E0,4E0,1.3127084E1,2.1E2,2.013E3,2E0,2E0,5.9560925E-1,2E0,4E0,5E1,-3.323654E-2,-7.060092E-2,4.2780217E-2,-2.2864893E-2,-5.348153E-2,-7.5943984E-2,-5.260766E-3,-6.262518E-2,3.6629543E-2,-2.0452177E-2,3.2426517E-2,8.224931E-2,1.0484701E-1,4.755263E-2,5.7832092E-2,-3.867699E-2,-7.537546E-2,-2.2864893E-2,5.1529724E-2,-5.3226348E-2,-6.91951E-2,-2.7242003E-2,-7.241313E-2,-5.567511E-3,-5.97807E-2,-6.6687153E-3,-3.975027E-2,1.7206086E-2,-2.2445818E-2,-6.1097708E-2,-2.9726261E-2,3.8055386E-2,3.0304477E-2,8.074471E-2,5.4614455E-2,-6.225873E-3,-7.2107375E-2,-5.512293E-2,-6.2137503E-2,9.978908E-3,5.1864337E-2,-3.564101E-2,-3.923645E-3,-4.320407E-2,-7.002743E-2,-3.831393E-2,1.0411258E-1,1.1202629E-1,3.260482E-2,9.873695E-2,1.0408942E-1,5.0076343E-2,9.4570346E-2,6.1440565E-2,7.069138E-2,3.0849589E-2,-6.4008854E-2,3.800119E-2,8.0770165E-2,2.736715E-2,5.3605665E-2,7.7437736E-2,1.0451214E-2,6.4011954E-2,-9.919967E-3,5.2409112E-2,-7.997151E-2,-3.1584553E-2,-2.9796524E-2,1.7963951E-2,5.9244324E-2,2.197924E-2,7.980248E-2,3.467919E-2],"split_indices":[31,20,2,2,31,14,21,31,11,31,2,3,31,22,31,57,15,31,2,0,79,0,31,45,8,15,22,22,20,20,2,16,6,11,57,13,10,22,31,0,0,17,40,3,29,49,32,17,8,17,10,43,11,81,31,20,15,8,20,31,0,0,0,0,0,32,14,8,0,0,32,21,13,37,19,0,0,0,0,0,17,21,56,11,0,16,17,0,0,2,28,31,31,0,0,31,20,46,25,0,11,13,25,66,8,8,31,22,11,8,10,44,15,8,27,0,0,0,0,0,0,0,0,0,0,0,0,0,0,0,0,0,0,0,0,0,0,0,0,0,0,0,0,0,0,0,0,0,0,0,0,0,0,0,0,0,0,0,0,0,0,0,0,0,0,0,0,0,0,0,0,0,0,0,0,0,0,0,0,0,0,0,0,0,0,0,0,0,0],"split_type":[0,0,0,0,0,0,0,0,0,0,0,0,0,0,0,0,0,0,0,0,0,0,0,0,0,0,0,0,0,0,0,0,0,0,0,0,0,0,0,0,0,0,0,0,0,0,0,0,0,0,0,0,0,0,0,0,0,0,0,0,0,0,0,0,0,0,0,0,0,0,0,0,0,0,0,0,0,0,0,0,0,0,0,0,0,0,0,0,0,0,0,0,0,0,0,0,0,0,0,0,0,0,0,0,0,0,0,0,0,0,0,0,0,0,0,0,0,0,0,0,0,0,0,0,0,0,0,0,0,0,0,0,0,0,0,0,0,0,0,0,0,0,0,0,0,0,0,0,0,0,0,0,0,0,0,0,0,0,0,0,0,0,0,0,0,0,0,0,0,0,0,0,0,0,0,0,0,0,0,0,0,0,0,0,0,0,0,0,0],"sum_hessian":[1.2615177E4,4.8823735E3,7.732803E3,8.7947614E2,4.0028972E3,1.173936E3,6.558867E3,2.1785637E2,6.616198E2,3.7023384E3,3.0055884E2,2.305423E2,9.433937E2,4.332975E3,2.2258918E3,1.2319985E2,9.465652E1,2.0858588E2,4.530339E2,3.172945E3,5.2939343E2,1.2759113E2,1.7296771E2,1.2466361E2,1.05878685E2,8.687419E2,7.465179E1,1.7548049E3,2.5781704E3,1.3842296E3,8.4166235E2,1.10269966E2,1.2929885E1,2.9275211E1,6.538131E1,6.0502106E1,1.4808379E2,4.3254126E2,2.049265E1,5.2231854E2,7.074843E0,1.0490284E1,1.17100845E2,1.0417096E2,6.8796745E1,1.1319749E2,1.1466125E1,3.3666492E1,7.221219E1,1.4149686E1,8.545922E2,4.4400738E1,3.0251053E1,1.2007716E3,5.540334E2,4.6645172E2,2.1117185E3,4.5620538E2,9.2802423E2,8.2507306E2,1.6589287E1,1.05146805E2,5.1231623E0,5.611082E0,7.318803E0,1.7565126E1,1.1710085E1,5.8062504E1,7.318803E0,4.2693016E1,1.7809088E1,1.3466597E2,1.3417806E1,1.1661293E2,3.159283E2,1.5369486E1,5.1231623E0,5.367122E0,5.1231623E0,1.0002364E2,1.7077208E1,1.6589287E1,8.758167E1,5.9526264E1,9.270484E0,1.0197532E2,1.1222164E1,6.3429627E0,5.1231623E0,1.8784927E1,1.4881566E1,1.5369486E1,5.68427E1,8.782563E0,5.367122E0,8.1092334E2,4.3668858E1,3.2690655E1,1.1710085E1,5.8550425E0,2.439601E1,1.1846703E3,1.6101366E1,2.695759E2,2.8445746E2,3.2544278E2,1.4100894E2,3.0153467E2,1.810184E3,2.8811688E2,1.680885E2,2.5298662E2,6.750376E2,5.3036926E2,2.947038E2,1.0002364E1,7.562763E0,5.8550425E0,5.8550425E0,2.732353E1,3.0738972E1,6.8308825E0,1.0978205E1,1.6345327E1,1.1832065E2,5.611082E0,7.806723E0,1.1100185E2,5.611082E0,3.088535E2,7.074843E0,1.1222164E1,5.8550425E0,1.0490284E1,6.0990024E0,7.0260506E1,1.7321167E1,5.1231623E0,5.4403103E1,9.5632355E1,6.3429627E0,5.1231623E0,6.0990024E0,1.0490284E1,8.294643E0,7.562763E0,7.318803E0,6.5869226E0,8.782563E0,6.3429627E0,5.049974E1,6.4210297E2,1.6882039E2,2.0980568E1,2.268829E1,2.707957E1,5.611082E0,6.0990024E0,5.611082E0,1.6345327E1,8.050683E0,5.3207697E2,6.5259326E2,8.538604E0,7.562763E0,2.622571E2,7.318803E0,1.8858116E2,9.587632E1,2.0687816E2,1.18564606E2,8.270248E1,5.8306465E1,8.319039E1,2.1834428E2,4.5840103E2,1.351783E3,1.2515153E2,1.6296535E2,1.4759586E2,2.049265E1,2.4786346E2,5.1231623E0,2.0492648E2,4.701111E2,3.356891E2,1.9468016E2,2.805541E2,1.4149686E1],"tree_param":{"num_deleted":"0","num_feature":"98","num_nodes":"189","size_leaf_vector":"1"}},{"base_weights":[-5.8395015E-3,-1.2661551E0,7.781027E-1,-1.5519714E0,-7.6724684E-1,-1.0355898E0,1.0959133E0,-1.5985367E0,-8.728106E-1,-8.1288815E-2,-1.3103864E0,-1.1939849E0,-4.7425067E-1,1.8020778E0,7.460893E-1,-8.266671E-2,-1.432232E0,-1.4512311E0,-4.6341383E-1,-1.3787023E0,3.2112733E-1,-1.4770863E0,-8.8144875E-1,-1.2741745E0,-2.0775415E-1,7.7465045E-1,-7.763134E-1,1.8554101E0,-1.4379665E0,4.085363E-1,1.3252947E0,-1.2211658E0,-1.5396205E0,-1.8723903E-2,-1.5360079E0,4.327393E-1,-7.581246E-1,-7.660731E-2,-1.1506125E0,-5.9914106E-1,8.097495E-1,-1.6282574E0,-1.3826607E0,-1.4925951E0,-5.320509E-1,-1.0729215E0,-1.4801034E0,1.5862197E-1,-9.3452966E-1,2.503814E-1,1.2598318E0,-1.0645396E0,9.228681E-3,-7.897868E-1,1.8927252E0,-8.190985E-2,-8.9747494E-1,1.1228708E-1,1.1166087E0,1.3544375E0,-1.2457544E0,-7.9083584E-2,-4.5526403E-1,-1.5445415E0,-4.5303386E-2,-1.5911375E0,-5.2461118E-2,8.9677024E-1,-7.155561E-2,-1.1105384E0,-3.1283885E-1,-1.2295082E0,-9.011452E-3,-1.3236227E0,-2.7995664E-1,1.138857E0,-7.984407E-2,-8.232372E-2,-3.448022E-2,-1.5669948E0,-1.1330333E0,-7.679986E-2,-1.049294E0,6.903131E-1,-8.7111264E-1,-1.2050158E0,-6.4714116E-1,-1.4970039E0,-1.2902758E-2,4.3429142E-1,-4.646118E-2,-6.133364E-3,-1.1560439E0,5.367035E-1,-3.7614077E-2,1.6915139E0,1.7017536E-2,-5.381868E-1,-1.1771605E0,-8.29569E-1,7.710875E-1,1.04202265E-2,-7.245996E-2,1.6776198E0,2.0923765E0,-6.5989815E-2,-1.3821355E-2,-6.410389E-1,3.067661E-1,-1.0978118E0,1.2010738E0,1.1575986E0,1.6476694E0,-7.49078E-2,-3.086467E-2,3.552076E-3,-8.030927E-2,-7.747771E-2,-4.536952E-2,-8.164316E-2,-4.545611E-2,5.8852263E-2,2.3310422E-3,-6.379718E-2,-1.5410527E-2,3.337563E-2,-2.8737077E-2,-6.4671434E-2,-2.2725955E-2,-7.802146E-2,-5.3655107E-2,-3.1224018E-2,3.3146452E-2,2.6428236E-2,7.477772E-2,-8.1579596E-2,-6.722806E-2,-4.1989606E-2,-8.1634E-2,-2.7888954E-2,-7.064653E-2,9.8773595E-3,8.047252E-2,-5.3820074E-2,-1.4091553E-2,1.6244983E-2,-6.2504E-2,-3.7176277E-2,2.705198E-2,-7.627135E-2,-4.369922E-2,7.6142155E-2,7.2512175E-3,-3.1874064E-2,-7.211914E-2,-7.7253035E-3,6.37417E-2,5.1814597E-2,9.4940335E-2,-1.0190715E-2,-5.609299E-2,-6.260872E-2,-1.4659668E-2,-1.8595574E-2,-5.9044417E-2,5.453974E-2,-2.0455653E-3,-4.0114995E-2,4.0979397E-2,6.2012166E-2,9.8779015E-2,1.07409455E-1,9.609183E-2,-6.341659E-2,-2.3742478E-2,-4.5738085E-3,2.934224E-2,-1.7652033E-2,-6.439232E-2,4.5981806E-2,7.472226E-2,4.6264477E-2,7.862747E-2,5.9886675E-2,8.761834E-2],"categories":[],"categories_nodes":[],"categories_segments":[],"categories_sizes":[],"default_left":[0,0,0,0,0,0,0,0,0,0,0,0,0,0,0,0,0,0,0,0,0,0,0,0,0,0,0,0,0,0,0,0,0,0,0,0,0,0,0,0,0,0,0,0,0,0,0,0,0,0,0,0,0,0,0,0,0,0,0,0,0,0,0,0,0,0,0,0,0,0,0,0,0,0,0,0,0,0,0,0,0,0,0,0,0,0,0,0,0,0,0,0,0,0,0,0,0,0,0,0,0,0,0,0,0,0,0,0,0,0,0,0,0,0,0,0,0,0,0,0,0,0,0,0,0,0,0,0,0,0,0,0,0,0,0,0,0,0,0,0,0,0,0,0,0,0,0,0,0,0,0,0,0,0,0,0,0,0,0,0,0,0,0,0,0,0,0,0,0,0,0,0,0,0,0,0,0,0,0,0,0,0,0,0,0],"id":1,"left_children":[1,3,5,7,9,11,13,15,17,19,21,23,25,27,29,-1,31,33,35,37,39,41,43,45,47,49,51,53,55,57,59,61,63,-1,65,67,69,-1,71,73,75,77,79,81,83,85,87,89,91,93,95,97,99,101,103,-1,105,107,109,111,113,-1,115,117,-1,119,-1,121,-1,123,125,127,-1,129,131,133,-1,-1,-1,135,137,-1,139,141,143,145,147,149,-1,151,-1,-1,153,155,-1,157,-1,159,161,163,165,167,-1,169,171,-1,-1,173,175,177,179,181,183,-1,-1,-1,-1,-1,-1,-1,-1,-1,-1,-1,-1,-1,-1,-1,-1,-1,-1,-1,-1,-1,-1,-1,-1,-1,-1,-1,-1,-1,-1,-1,-1,-1,-1,-1,-1,-1,-1,-1,-1,-1,-1,-1,-1,-1,-1,-1,-1,-1,-1,-1,-1,-1,-1,-1,-1,-1,-1,-1,-1,-1,-1,-1,-1,-1,-1,-1,-1,-1,-1,-1,-1],"loss_changes":[1.2421275E4,6.862866E2,4.4687817E3,9.551123E1,6.548596E2,1.02232666E2,1.6279956E3,2.3753906E1,4.640695E1,4.0659067E2,6.8846924E1,7.0996826E1,9.7215195E1,3.801084E2,8.621304E2,0E0,1.4391113E1,6.903488E0,3.1462095E1,4.6891785E0,2.6783752E2,7.812256E0,5.836406E1,3.2939575E1,1.8507988E1,1.2499142E1,4.6815002E1,2.1364746E2,2.4187622E0,5.8494586E2,1.2338403E2,6.745599E1,7.2021484E-2,0E0,3.600464E-1,2.706583E1,1.3630547E1,0E0,5.7620697E0,4.74451E1,3.097516E2,3.4031982E0,1.8497742E1,3.165741E-1,7.430153E1,2.3122345E1,8.063721E0,1.4407152E1,4.0402317E0,7.713489E0,9.711216E0,8.331894E0,3.673378E1,1.6163784E1,8.752295E1,0E0,2.7630205E0,2.8845377E2,1.5518237E2,9.081763E1,2.0454102E0,0E0,4.883281E1,8.508301E-2,0E0,3.9361572E-1,0E0,5.778776E0,0E0,6.1533203E0,1.0844964E1,2.9842224E0,0E0,2.061203E0,4.745378E1,7.378943E1,0E0,0E0,0E0,1.4101562E0,2.6577896E1,0E0,1.3733492E0,1.7423847E1,1.659069E1,2.2688324E1,1.2173634E1,5.809387E0,0E0,1.1724849E1,0E0,0E0,1.7756329E0,1.0599864E1,0E0,3.9351273E-1,0E0,5.333379E0,7.838272E0,3.9606533E0,7.862894E0,1.0402804E1,0E0,1.311836E2,6.296875E0,0E0,0E0,4.1518814E1,1.7455693E2,3.8970184E0,6.408984E1,9.15282E1,2.8185547E1,0E0,0E0,0E0,0E0,0E0,0E0,0E0,0E0,0E0,0E0,0E0,0E0,0E0,0E0,0E0,0E0,0E0,0E0,0E0,0E0,0E0,0E0,0E0,0E0,0E0,0E0,0E0,0E0,0E0,0E0,0E0,0E0,0E0,0E0,0E0,0E0,0E0,0E0,0E0,0E0,0E0,0E0,0E0,0E0,0E0,0E0,0E0,0E0,0E0,0E0,0E0,0E0,0E0,0E0,0E0,0E0,0E0,0E0,0E0,0E0,0E0,0E0,0E0,0E0,0E0,0E0,0E0,0E0,0E0,0E0,0E0,0E0],"parents":[2147483647,0,0,1,1,2,2,3,3,4,4,5,5,6,6,7,7,8,8,9,9,10,10,11,11,12,12,13,13,14,14,16,16,17,17,18,18,19,19,20,20,21,21,22,22,23,23,24,24,25,25,26,26,27,27,28,28,29,29,30,30,31,31,32,32,34,34,35,35,36,36,38,38,39,39,40,40,41,41,42,42,43,43,44,44,45,45,46,46,47,47,48,48,49,49,50,50,51,51,52,52,53,53,54,54,56,56,57,57,58,58,59,59,60,60,62,62,63,63,65,65,67,67,69,69,70,70,71,71,73,73,74,74,75,75,79,79,80,80,82,82,83,83,84,84,85,85,86,86,87,87,89,89,92,92,93,93,95,95,97,97,98,98,99,99,100,100,101,101,103,103,104,104,107,107,108,108,109,109,110,110,111,111,112,112],"right_children":[2,4,6,8,10,12,14,16,18,20,22,24,26,28,30,-1,32,34,36,38,40,42,44,46,48,50,52,54,56,58,60,62,64,-1,66,68,70,-1,72,74,76,78,80,82,84,86,88,90,92,94,96,98,100,102,104,-1,106,108,110,112,114,-1,116,118,-1,120,-1,122,-1,124,126,128,-1,130,132,134,-1,-1,-1,136,138,-1,140,142,144,146,148,150,-1,152,-1,-1,154,156,-1,158,-1,160,162,164,166,168,-1,170,172,-1,-1,174,176,178,180,182,184,-1,-1,-1,-1,-1,-1,-1,-1,-1,-1,-1,-1,-1,-1,-1,-1,-1,-1,-1,-1,-1,-1,-1,-1,-1,-1,-1,-1,-1,-1,-1,-1,-1,-1,-1,-1,-1,-1,-1,-1,-1,-1,-1,-1,-1,-1,-1,-1,-1,-1,-1,-1,-1,-1,-1,-1,-1,-1,-1,-1,-1,-1,-1,-1,-1,-1,-1,-1,-1,-1,-1,-1],"split_conditions":[3.9270833E0,2.0286E4,2E0,3.1736112E0,2.0404E4,1.7E1,1.8E2,1.0826389E0,2E0,2E0,1.9118055E0,3.31125E1,4E0,4E0,1.7E1,-8.266671E-2,3E2,3E0,2.4E2,4.445E3,3.74E3,2E0,2E0,2E1,2.7E2,3.5E1,1.3127084E1,1E0,1.66E2,2.5065971E1,4E0,2E0,6.2399733E-1,-1.8723903E-2,3.699725E-1,4E0,3.7666667E0,-7.660731E-2,6E0,9.076389E-1,4E0,3E0,3.916E3,6E0,2.7E2,1.4E1,3.9461493E-1,3.5436866E-1,3.218E3,2.8829232E-1,1.5E1,6.03E2,4.305E3,4E0,1.7E1,-8.190985E-2,2.1E1,1.2E1,1E0,4.203E3,2.28E2,-7.9083584E-2,4E0,6.3343E-1,-4.5303386E-2,4.1259858E-1,-5.2461118E-2,1.4378572E-1,-7.155561E-2,2.9629007E-1,6.03E2,3.5883966E-1,-9.011452E-3,2.228E3,1.7E1,1.5E1,-7.984407E-2,-8.232372E-2,-3.448022E-2,3.1E1,4E0,-7.679986E-2,9E0,4.901E3,2.017E3,1E0,3.7552297E-1,2E0,-1.2902758E-2,6.216E3,-4.646118E-2,-6.133364E-3,7E0,7E0,-3.7614077E-2,1.8E1,1.7017536E-2,9E0,2E0,1E0,4.7E1,2E0,-7.245996E-2,1.707361E1,9E1,-6.5989815E-2,-1.3821355E-2,1E0,3.653E3,3.6797916E1,5.600347E1,1.3127084E1,2E0,-7.49078E-2,-3.086467E-2,3.552076E-3,-8.030927E-2,-7.747771E-2,-4.536952E-2,-8.164316E-2,-4.545611E-2,5.8852263E-2,2.3310422E-3,-6.379718E-2,-1.5410527E-2,3.337563E-2,-2.8737077E-2,-6.4671434E-2,-2.2725955E-2,-7.802146E-2,-5.3655107E-2,-3.1224018E-2,3.3146452E-2,2.6428236E-2,7.477772E-2,-8.1579596E-2,-6.722806E-2,-4.1989606E-2,-8.1634E-2,-2.7888954E-2,-7.064653E-2,9.8773595E-3,8.047252E-2,-5.3820074E-2,-1.4091553E-2,1.6244983E-2,-6.2504E-2,-3.7176277E-2,2.705198E-2,-7.627135E-2,-4.369922E-2,7.6142155E-2,7.2512175E-3,-3.1874064E-2,-7.211914E-2,-7.7253035E-3,6.37417E-2,5.1814597E-2,9.4940335E-2,-1.0190715E-2,-5.609299E-2,-6.260872E-2,-1.4659668E-2,-1.8595574E-2,-5.9044417E-2,5.453974E-2,-2.0455653E-3,-4.0114995E-2,4.0979397E-2,6.2012166E-2,9.8779015E-2,1.07409455E-1,9.609183E-2,-6.341659E-2,-2.3742478E-2,-4.5738085E-3,2.934224E-2,-1.7652033E-2,-6.439232E-2,4.5981806E-2,7.472226E-2,4.6264477E-2,7.862747E-2,5.9886675E-2,8.761834E-2],"split_indices":[31,18,2,31,18,9,22,31,2,2,31,31,14,2,9,0,3,0,22,1,1,2,2,0,22,3,31,9,17,31,2,2,70,0,48,2,31,0,28,31,2,15,1,28,3,0,56,46,1,42,29,16,1,8,9,0,22,9,9,1,17,0,2,74,0,47,0,32,0,56,16,33,0,1,9,9,0,0,0,27,2,0,6,1,7,15,46,10,0,18,0,0,12,6,0,9,0,25,10,2,13,8,0,31,22,0,0,9,1,31,31,31,15,0,0,0,0,0,0,0,0,0,0,0,0,0,0,0,0,0,0,0,0,0,0,0,0,0,0,0,0,0,0,0,0,0,0,0,0,0,0,0,0,0,0,0,0,0,0,0,0,0,0,0,0,0,0,0,0,0,0,0,0,0,0,0,0,0,0,0,0,0,0,0,0],"split_type":[0,0,0,0,0,0,0,0,0,0,0,0,0,0,0,0,0,0,0,0,0,0,0,0,0,0,0,0,0,0,0,0,0,0,0,0,0,0,0,0,0,0,0,0,0,0,0,0,0,0,0,0,0,0,0,0,0,0,0,0,0,0,0,0,0,0,0,0,0,0,0,0,0,0,0,0,0,0,0,0,0,0,0,0,0,0,0,0,0,0,0,0,0,0,0,0,0,0,0,0,0,0,0,0,0,0,0,0,0,0,0,0,0,0,0,0,0,0,0,0,0,0,0,0,0,0,0,0,0,0,0,0,0,0,0,0,0,0,0,0,0,0,0,0,0,0,0,0,0,0,0,0,0,0,0,0,0,0,0,0,0,0,0,0,0,0,0,0,0,0,0,0,0,0,0,0,0,0,0,0,0,0,0,0,0],"sum_hessian":[1.2569958E4,4.8201543E3,7.7498037E3,3.0631914E3,1.7569631E3,1.1551718E3,6.594632E3,2.865379E3,1.9781244E2,7.76912E2,9.8005115E2,9.0006915E2,2.5510265E2,2.1832705E3,4.4113613E3,2.148505E3,7.1687415E2,8.0927864E1,1.1688458E2,1.8335109E2,5.9356085E2,7.0400653E2,2.760446E2,8.3211835E2,6.7950806E1,4.9378597E1,2.0572406E2,2.1483354E3,3.4935104E1,2.7881633E3,1.6231981E3,2.4591426E2,4.709599E2,6.302085E0,7.462578E1,2.8810276E1,8.807431E1,1.0619371E2,7.715739E1,2.0577644E2,3.8778442E2,2.6442676E2,4.3957977E2,9.922104E1,1.7682356E2,4.23978E2,4.0814032E2,4.5696438E1,2.2254368E1,2.4461962E1,2.4916637E1,1.5024275E2,5.5481297E1,2.9603958E1,2.1187314E3,2.4009577E1,1.0925528E1,1.9665433E3,8.2162E2,1.6054734E3,1.7724789E1,1.6648537E2,7.9428894E1,4.6590314E2,5.056742E0,6.499614E1,9.629635E0,2.3482782E1,5.3274937E0,4.8330204E1,3.9744102E1,7.110893E1,6.0484548E0,6.1970203E1,1.4380623E2,3.4159763E2,4.6186802E1,2.5865286E2,5.7738976E0,2.498236E2,1.8975618E2,8.812783E1,1.1093207E1,3.8172066E1,1.3865149E2,3.2219116E2,1.0178681E2,4.0235098E2,5.7893476E0,3.693705E1,8.759389E0,5.1035028E0,1.7150866E1,1.9389723E1,5.07224E0,1.6384655E1,8.531982E0,2.7499237E1,1.2274352E2,2.6364935E1,2.911636E1,1.3818814E1,1.5785145E1,1.0244188E3,1.0943127E3,5.833531E0,5.0919967E0,4.0304163E2,1.5635017E3,2.974693E1,7.9187305E2,9.635892E2,6.4188416E2,1.1658621E1,6.0661674E0,5.5148346E1,2.4280548E1,4.6084558E2,5.0575747E0,5.9935146E1,5.0609956E0,1.7371332E1,6.11145E0,3.958018E1,8.750026E0,8.052681E0,3.169142E1,6.5072815E1,6.036119E0,2.916913E1,3.280107E1,1.0556956E2,3.823668E1,1.26921974E2,2.1467566E2,1.8869066E2,6.1132935E1,1.21266174E2,6.8490005E1,5.7946587E0,5.298548E0,2.5640606E1,1.2531461E1,1.02215805E2,3.643569E1,9.041022E0,3.1315015E2,9.449563E1,7.291185E0,3.834108E2,1.8940187E1,6.8594637E0,3.0077585E1,7.249062E0,9.901804E0,1.0421431E1,8.968291E0,5.379623E0,1.1005032E1,1.8341194E1,9.158044E0,1.1275826E2,9.985259E0,1.2343668E1,1.4021267E1,2.0644629E1,8.471731E0,6.898508E0,6.920306E0,4.1718915E2,6.072296E2,8.1574725E2,2.785655E2,8.302528E1,3.2001636E2,6.4584784E2,9.1765393E2,6.6281395E0,2.311879E1,4.0626694E2,3.856061E2,6.198165E2,3.4377267E2,1.2351593E2,5.183682E2],"tree_param":{"num_deleted":"0","num_feature":"98","num_nodes":"185","size_leaf_vector":"1"}},{"base_weights":[-1.9659272E-3,-1.2188402E0,7.4132967E-1,2.1364275E-1,-1.5426995E0,-9.740772E-1,1.037341E0,-1.2054772E0,6.719179E-1,-1.5942761E0,-9.1406006E-1,-1.1411316E0,-4.4628885E-1,1.3956236E0,3.3126873E-1,-1.4168882E0,-9.239151E-1,-3.833576E-1,1.1488075E0,-8.0313206E-2,-1.5199789E0,-1.3548665E0,-5.8886313E-1,-6.150624E-1,-1.2701138E0,1.492564E-1,-9.4100124E-1,1.8247757E0,1.1006626E0,-1.1029946E-1,9.5765E-1,-7.411544E-2,-7.846639E-1,-1.1467767E0,-3.7041098E-1,-1.2007576E0,-6.232093E-2,5.881167E-1,1.646471E0,-7.8241155E-2,-1.4178922E0,-8.871955E-1,-1.4260901E0,-9.2119414E-1,-7.137377E-2,-9.170032E-1,6.245373E-1,3.2928452E-2,-1.2901696E0,-7.55539E-2,3.0930585E-1,-1.1235477E0,-3.0357862E-1,-7.1237147E-1,1.8572792E0,7.4873513E-1,1.4723046E0,-4.210797E-1,4.3903193E-1,-1.030441E0,1.0299067E0,-1.9731869E-3,-6.510048E-2,-4.0548623E-1,-1.3168563E0,-6.096328E-2,1.3393332E-1,-7.836788E-2,-8.994721E-1,-3.8782862E-1,8.5870945E-1,7.379917E-1,-6.708657E-2,5.9039686E-3,1.7052615E0,-1.7357994E-2,-1.463415E0,-1.5674261E-2,-1.0944394E0,-1.4901329E0,-9.372786E-1,3.529934E-1,-1.1084509E0,7.542023E-1,-3.0659115E-1,-1.8020335E-1,-1.0440924E0,9.536883E-1,-9.424446E-3,-1.3352666E0,-5.356149E-1,3.0941324E-2,1.1299834E0,1.3193975E-2,-1.2054116E0,-7.4355316E-1,4.5690816E-2,1.1951372E-2,-6.990975E-2,1.6965686E0,1.00473724E-1,-1.1065066E0,8.2580554E-1,8.0859345E-1,1.5892498E0,-9.741108E-1,-2.085524E-1,1.1386125E0,8.018002E-2,-1.1539237E0,-2.5285354E-2,1.0769172E0,-7.230016E-2,1.6971238E-2,-4.860418E-2,-5.0641514E-2,-7.3616095E-2,-4.3793138E-2,5.7415366E-2,-5.367598E-2,2.775802E-3,-2.6269985E-2,4.8818443E-2,5.6644704E-2,-1.2951321E-2,-5.7880342E-2,4.4703837E-2,7.5593814E-2,9.6234106E-2,-7.552377E-2,-5.310289E-2,-3.34621E-2,-6.589528E-2,-7.625216E-2,-4.8507813E-2,-1.0222608E-2,-6.4082555E-2,6.910119E-2,-4.8982225E-2,-6.2354565E-2,-2.642912E-2,7.511938E-2,-3.5226617E-3,-6.9613144E-2,-8.30756E-3,1.6634924E-2,-5.976848E-2,-5.770507E-2,-1.7934239E-2,1.6217055E-2,8.46997E-2,-7.07983E-2,-5.190688E-2,-6.374364E-2,8.468292E-3,-3.6943424E-2,1.8213313E-2,-8.086817E-3,8.015375E-2,-5.100559E-2,-7.639032E-2,1.8676296E-2,-5.1489096E-2,6.576369E-2,9.366685E-2,-2.1514308E-2,-6.85609E-2,3.6057185E-2,7.89394E-2,9.0057045E-2,-3.0716524E-2,5.402981E-2,8.3184764E-2,-2.6356561E-2,-5.5365574E-2,1.3506778E-2,-2.0353034E-2,3.6047783E-2,7.321374E-2,-7.321704E-2,2.4502344E-2,-3.61031E-2,-6.499106E-2,4.3597553E-2,7.4076585E-2],"categories":[],"categories_nodes":[],"categories_segments":[],"categories_sizes":[],"default_left":[0,0,0,0,0,0,0,0,0,0,0,0,0,0,0,0,0,0,0,0,0,0,0,0,0,0,0,0,0,0,0,0,0,0,0,0,0,0,0,0,0,0,0,0,0,0,0,0,0,0,0,0,0,0,0,0,0,0,0,0,0,0,0,0,0,0,0,0,0,0,0,0,0,0,0,0,0,0,0,0,0,0,0,0,0,0,0,0,0,0,0,0,0,0,0,0,0,0,0,0,0,0,0,0,0,0,0,0,0,0,0,0,0,0,0,0,0,0,0,0,0,0,0,0,0,0,0,0,0,0,0,0,0,0,0,0,0,0,0,0,0,0,0,0,0,0,0,0,0,0,0,0,0,0,0,0,0,0,0,0,0,0,0,0,0,0,0,0,0,0,0,0,0,0,0,0,0,0,0,0,0,0,0,0,0],"id":2,"left_children":[1,3,5,7,9,11,13,15,17,19,21,23,25,27,29,31,33,35,37,-1,39,41,43,45,47,49,51,53,55,57,59,-1,61,63,65,67,69,71,73,-1,75,77,79,81,83,85,87,-1,89,-1,91,93,95,97,99,101,103,105,107,109,111,-1,-1,113,115,-1,117,-1,119,121,123,125,-1,-1,127,-1,129,-1,131,133,135,137,139,141,143,145,147,149,-1,151,153,155,157,-1,159,161,-1,-1,-1,163,-1,165,167,169,171,173,175,177,179,181,-1,183,-1,-1,-1,-1,-1,-1,-1,-1,-1,-1,-1,-1,-1,-1,-1,-1,-1,-1,-1,-1,-1,-1,-1,-1,-1,-1,-1,-1,-1,-1,-1,-1,-1,-1,-1,-1,-1,-1,-1,-1,-1,-1,-1,-1,-1,-1,-1,-1,-1,-1,-1,-1,-1,-1,-1,-1,-1,-1,-1,-1,-1,-1,-1,-1,-1,-1,-1,-1,-1,-1,-1,-1,-1],"loss_changes":[1.1321227E4,2.2022407E3,3.9466177E3,5.705572E2,1.2405957E2,1.0035986E2,1.67606E3,1.1441681E1,3.3402414E2,7.441406E-1,4.1615494E1,5.8139038E1,8.166052E1,5.544629E2,6.175044E2,3.81958E0,1.1261436E1,5.426249E1,1.2649304E2,0E0,1.4111328E-1,2.893158E0,2.9520233E1,6.529396E1,2.7788208E1,3.4060146E1,1.726152E1,1.488706E2,3.3998828E2,2.2385213E2,1.336601E2,0E0,5.1230116E0,7.9214325E0,1.2438196E1,5.0336456E0,4.522204E1,6.356656E1,2.1493347E1,0E0,7.6798706E0,1.933342E0,1.9433899E0,2.5366547E1,1.3505964E1,1.2870331E1,9.402752E0,0E0,2.2750488E1,0E0,2.6494623E1,1.3633011E1,1.9452332E1,1.5572673E1,3.9806152E1,1.9272919E2,9.7086914E1,9.820323E1,1.1887258E2,1.5463753E0,1.05284485E2,0E0,0E0,6.222182E0,1.0660553E0,0E0,2.0351707E1,0E0,5.7720127E0,2.1404673E1,1.2371164E1,6.0625443E1,0E0,0E0,6.9525146E0,0E0,1.4333801E0,0E0,4.1630363E-1,2.0213318E-1,3.537302E0,2.078625E1,6.697098E0,9.636497E0,7.98883E0,1.170907E1,8.538422E0,1.0957405E1,0E0,1.4116699E1,2.1354362E1,2.2784172E1,1.8216583E1,0E0,5.065262E0,8.792479E0,0E0,0E0,0E0,5.5891846E1,0E0,9.064293E0,1.004126E2,2.7212415E2,3.896582E1,1.3238602E1,5.7703545E1,2.0786514E1,1.9967603E2,6.8888855E-1,0E0,7.128601E1,0E0,0E0,0E0,0E0,0E0,0E0,0E0,0E0,0E0,0E0,0E0,0E0,0E0,0E0,0E0,0E0,0E0,0E0,0E0,0E0,0E0,0E0,0E0,0E0,0E0,0E0,0E0,0E0,0E0,0E0,0E0,0E0,0E0,0E0,0E0,0E0,0E0,0E0,0E0,0E0,0E0,0E0,0E0,0E0,0E0,0E0,0E0,0E0,0E0,0E0,0E0,0E0,0E0,0E0,0E0,0E0,0E0,0E0,0E0,0E0,0E0,0E0,0E0,0E0,0E0,0E0,0E0,0E0,0E0,0E0,0E0,0E0,0E0],"parents":[2147483647,0,0,1,1,2,2,3,3,4,4,5,5,6,6,7,7,8,8,9,9,10,10,11,11,12,12,13,13,14,14,15,15,16,16,17,17,18,18,20,20,21,21,22,22,23,23,24,24,25,25,26,26,27,27,28,28,29,29,30,30,32,32,33,33,34,34,35,35,36,36,37,37,38,38,40,40,41,41,42,42,43,43,44,44,45,45,46,46,48,48,50,50,51,51,52,52,53,53,54,54,55,55,56,56,57,57,58,58,59,59,60,60,63,63,64,64,66,66,68,68,69,69,70,70,71,71,74,74,76,76,78,78,79,79,80,80,81,81,82,82,83,83,84,84,85,85,86,86,87,87,89,89,90,90,91,91,92,92,94,94,95,95,99,99,101,101,102,102,103,103,104,104,105,105,106,106,107,107,108,108,109,109,111,111],"right_children":[2,4,6,8,10,12,14,16,18,20,22,24,26,28,30,32,34,36,38,-1,40,42,44,46,48,50,52,54,56,58,60,-1,62,64,66,68,70,72,74,-1,76,78,80,82,84,86,88,-1,90,-1,92,94,96,98,100,102,104,106,108,110,112,-1,-1,114,116,-1,118,-1,120,122,124,126,-1,-1,128,-1,130,-1,132,134,136,138,140,142,144,146,148,150,-1,152,154,156,158,-1,160,162,-1,-1,-1,164,-1,166,168,170,172,174,176,178,180,182,-1,184,-1,-1,-1,-1,-1,-1,-1,-1,-1,-1,-1,-1,-1,-1,-1,-1,-1,-1,-1,-1,-1,-1,-1,-1,-1,-1,-1,-1,-1,-1,-1,-1,-1,-1,-1,-1,-1,-1,-1,-1,-1,-1,-1,-1,-1,-1,-1,-1,-1,-1,-1,-1,-1,-1,-1,-1,-1,-1,-1,-1,-1,-1,-1,-1,-1,-1,-1,-1,-1,-1,-1,-1,-1],"split_conditions":[3.9270833E0,2E0,2E0,2E0,3.1215277E0,1.5079166E1,2E0,1.0152777E0,2.013E3,1.9118055E0,2E0,3E0,6E1,1.2E2,1.3734028E1,3.2684138E-1,1.6E1,8.784722E-1,1.6E1,-8.0313206E-2,1.7E1,3E0,3.7666667E0,1.7E1,1E0,3E1,1.7E1,1E0,1.7E1,1.6E1,1E0,-7.411544E-2,7E0,3E0,6E1,2.008E3,1.7E1,4E0,1.1388889E-1,-7.8241155E-2,3E0,1E0,3.2008767E-1,1.2E2,2E0,4.2069445E0,3.049822E-1,3.2928452E-2,2E0,-7.55539E-2,1.7E1,1E0,3.0794132E-1,4E0,1.7E1,1E0,3E0,1.2E1,2E0,1.6E1,4E0,-1.9731869E-3,-6.510048E-2,1E0,3E0,-6.096328E-2,2.014E3,-7.836788E-2,1.8E1,2E0,1.42E3,1E0,-6.708657E-2,5.9039686E-3,1.8E1,-1.7357994E-2,3.551192E-1,-1.5674261E-2,1.3176925E-1,4.0008476E-1,1.3099389E-1,2E0,3.0263394E-1,3.3E2,2.007E3,2E0,3.566516E-1,4E0,-9.424446E-3,1.7E1,3E0,2E0,1.2E1,1.3193975E-2,1.278E3,2E0,4.5690816E-2,1.1951372E-2,-6.990975E-2,1.5427083E1,1.00473724E-1,3E0,2E0,2E0,2E0,2E0,7.3E2,2.3E1,3E0,2E0,-2.5285354E-2,5.0143055E1,-7.230016E-2,1.6971238E-2,-4.860418E-2,-5.0641514E-2,-7.3616095E-2,-4.3793138E-2,5.7415366E-2,-5.367598E-2,2.775802E-3,-2.6269985E-2,4.8818443E-2,5.6644704E-2,-1.2951321E-2,-5.7880342E-2,4.4703837E-2,7.5593814E-2,9.6234106E-2,-7.552377E-2,-5.310289E-2,-3.34621E-2,-6.589528E-2,-7.625216E-2,-4.8507813E-2,-1.0222608E-2,-6.4082555E-2,6.910119E-2,-4.8982225E-2,-6.2354565E-2,-2.642912E-2,7.511938E-2,-3.5226617E-3,-6.9613144E-2,-8.30756E-3,1.6634924E-2,-5.976848E-2,-5.770507E-2,-1.7934239E-2,1.6217055E-2,8.46997E-2,-7.07983E-2,-5.190688E-2,-6.374364E-2,8.468292E-3,-3.6943424E-2,1.8213313E-2,-8.086817E-3,8.015375E-2,-5.100559E-2,-7.639032E-2,1.8676296E-2,-5.1489096E-2,6.576369E-2,9.366685E-2,-2.1514308E-2,-6.85609E-2,3.6057185E-2,7.89394E-2,9.0057045E-2,-3.0716524E-2,5.402981E-2,8.3184764E-2,-2.6356561E-2,-5.5365574E-2,1.3506778E-2,-2.0353034E-2,3.6047783E-2,7.321374E-2,-7.321704E-2,2.4502344E-2,-3.61031E-2,-6.499106E-2,4.3597553E-2,7.4076585E-2],"split_indices":[31,20,2,2,31,31,21,31,11,31,2,14,22,22,31,57,9,31,9,0,9,14,31,9,15,3,9,9,9,9,9,0,6,14,3,11,9,2,31,0,14,8,40,3,21,31,43,0,10,0,9,15,56,8,9,9,20,9,20,29,2,0,0,2,8,0,11,0,9,10,16,9,0,0,9,0,41,0,32,33,32,21,56,3,11,15,45,0,0,9,20,8,13,0,16,15,0,0,0,31,0,8,10,20,15,20,3,27,20,28,0,31,0,0,0,0,0,0,0,0,0,0,0,0,0,0,0,0,0,0,0,0,0,0,0,0,0,0,0,0,0,0,0,0,0,0,0,0,0,0,0,0,0,0,0,0,0,0,0,0,0,0,0,0,0,0,0,0,0,0,0,0,0,0,0,0,0,0,0,0,0,0,0,0,0],"split_type":[0,0,0,0,0,0,0,0,0,0,0,0,0,0,0,0,0,0,0,0,0,0,0,0,0,0,0,0,0,0,0,0,0,0,0,0,0,0,0,0,0,0,0,0,0,0,0,0,0,0,0,0,0,0,0,0,0,0,0,0,0,0,0,0,0,0,0,0,0,0,0,0,0,0,0,0,0,0,0,0,0,0,0,0,0,0,0,0,0,0,0,0,0,0,0,0,0,0,0,0,0,0,0,0,0,0,0,0,0,0,0,0,0,0,0,0,0,0,0,0,0,0,0,0,0,0,0,0,0,0,0,0,0,0,0,0,0,0,0,0,0,0,0,0,0,0,0,0,0,0,0,0,0,0,0,0,0,0,0,0,0,0,0,0,0,0,0,0,0,0,0,0,0,0,0,0,0,0,0,0,0,0,0,0,0],"sum_hessian":[1.2514597E4,4.7452876E3,7.7693096E3,8.750659E2,3.8702214E3,1.1430371E3,6.6262725E3,2.1320699E2,6.6185895E2,3.5753467E3,2.9487494E2,8.673448E2,2.7569226E2,4.395093E3,2.23118E3,1.1947038E2,9.3736595E1,2.0606606E2,4.5579288E2,3.0608506E3,5.144959E2,1.2384116E2,1.7103377E2,1.7191939E2,6.954254E2,1.25414246E2,1.5027803E2,1.7881886E3,2.606904E3,1.3091306E3,9.2204926E2,1.07048744E2,1.24216385E1,6.606464E1,2.767196E1,5.7337437E1,1.487286E2,2.153506E2,2.4044229E2,3.475135E2,1.6698244E2,1.8146105E1,1.0569505E2,1.036742E2,6.735956E1,1.384549E2,3.3464504E1,6.829417E0,6.88596E2,1.0284343E1,1.15129906E2,1.1622937E2,3.404866E1,2.2354265E1,1.7658344E3,1.3405145E3,1.2663894E3,8.362575E2,4.7287314E2,3.1871393E1,8.901779E2,5.5309606E0,6.890678E0,1.29605E1,5.3104137E1,9.785166E0,1.7886795E1,2.3969484E1,3.3367954E1,1.10318954E2,3.840966E1,2.0040446E2,1.4946129E1,9.01761E0,2.3142468E2,7.1616197E0,1.5982082E2,5.482265E0,1.266384E1,9.164014E1,1.4054921E1,1.3170499E1,9.050371E1,1.4446878E1,5.291268E1,2.0724207E1,1.1773068E2,2.3697598E1,9.766907E0,6.490358E2,3.9560158E1,8.674477E1,2.8385138E1,6.352026E0,1.0987734E2,2.5295815E1,8.752848E0,9.636979E0,1.2717287E1,8.647982E2,9.0103613E2,5.2933743E1,1.2875808E3,1.9089542E2,1.075494E3,2.3115932E2,6.050982E2,1.5958662E2,3.1328653E2,2.4829372E1,7.0420213E0,8.7414545E2,1.6032446E1,5.772405E0,7.1880946E0,2.0509975E1,3.2594162E1,9.032054E0,8.854742E0,2.8119102E1,5.24885E0,1.0077161E2,9.547344E0,3.0832724E1,7.5769377E0,1.47579365E1,1.8564653E2,1.27204185E2,1.0422049E2,1.4057458E2,1.9246231E1,5.738952E0,6.924888E0,8.4063354E1,7.5767784E0,5.0027456E0,9.0521755E0,7.4109135E0,5.759585E0,7.211186E1,1.8391842E1,7.14374E0,7.3031383E0,5.0396976E0,4.7872982E1,1.4214669E1,6.509537E0,1.0085888E2,1.6871807E1,1.3586005E1,1.0111592E1,5.0744864E2,1.4158719E2,1.8916023E1,2.0644133E1,2.5843306E1,6.090146E1,7.785605E0,2.0599531E1,7.241833E1,3.745901E1,5.0973077E0,2.0198505E1,2.766013E2,5.881969E2,1.563042E1,3.7303326E1,1.1321708E3,1.5540994E2,1.1229752E2,7.85979E1,1.3929141E2,9.3620264E2,5.4208866E1,1.7695045E2,1.7726822E2,4.2783E2,7.132596E1,8.826066E1,6.5161736E1,2.4812479E2,7.7722692E0,1.7057104E1,5.8231586E2,2.9182956E2],"tree_param":{"num_deleted":"0","num_feature":"98","num_nodes":"185","size_leaf_vector":"1"}},{"base_weights":[-7.831398E-3,-1.1797609E0,6.940682E-1,1.9854885E-1,-1.4942816E0,-9.460985E-1,9.754114E-1,-1.1612638E0,6.193913E-1,-1.5464545E0,-8.7027454E-1,-1.1167096E0,-4.4027254E-1,1.3203365E0,2.9470247E-1,-1.381146E0,-8.7411016E-1,-3.0918127E-1,1.1145926E0,-7.7801056E-2,-1.4720635E0,-1.3066748E0,-5.493905E-1,-6.308683E-1,-1.2349948E0,8.9703545E-2,-8.799243E-1,1.7295091E0,1.0405765E0,-1.528615E-1,8.592065E-1,-7.515573E-2,-1.1530874E0,-2.9754436E-1,-1.0993351E0,-6.757924E-1,3.151072E-1,1.2195052E0,-1.2565122E0,-7.389479E-2,-4.19379E-2,-8.287713E-1,-1.375982E0,4.0405235E-1,-7.2889954E-1,-8.909548E-1,4.2619035E-1,-1.2764556E0,-5.4479593E-1,-7.409785E-2,2.5526068E-1,-1.0477593E0,-2.9165018E-1,-7.470495E-1,1.7617227E0,7.071753E-1,1.3868911E0,4.0829083E-1,-4.1209882E-1,9.074592E-1,-7.017291E-2,-1.2430286E0,-2.2735143E-2,2.931157E-1,-1.0090683E0,-1.2799051E0,-6.648867E-1,-1.3555737E0,-4.3600652E-1,-4.7602648E-1,7.492004E-1,-9.7634986E-2,1.3861746E0,-7.350878E-2,-3.7341293E-2,-4.5792875E-1,-6.8839416E-2,-7.534369E-2,-1.1942788E0,9.255974E-1,-5.790242E-2,-1.069983E0,-2.4841367E-1,-1.923476E-1,-1.0215161E0,-7.016014E-2,9.4473964E-1,1.6139537E-2,-1.2947263E0,-1.2350913E0,1.1351574E-1,-3.4900423E-2,1.0922261E0,9.336E-3,-1.1195658E0,-1.2073374E0,2.2418717E-1,1.1280035E-2,-7.154715E-2,1.6080431E0,1.9070657E0,-1.053621E0,7.80781E-1,7.766737E-1,1.4946895E0,9.817419E-3,1.055931E0,-1.5255437E0,1.4231843E-2,-9.1194236E-1,9.6540034E-1,-6.7717634E-2,-3.24512E-2,-2.2648677E-2,5.5458125E-2,-2.920792E-2,-6.761546E-2,-6.756384E-2,-3.9027743E-2,-7.033517E-2,-1.0077315E-2,-7.295226E-2,-3.7835415E-2,-2.8296528E-2,4.144509E-2,-6.760088E-2,9.4621755E-5,1.9093573E-2,6.602388E-2,6.0841996E-2,-2.0589665E-2,5.3866338E-2,8.5086994E-2,-3.2126342E-3,-3.9268155E-2,-5.0172675E-2,-7.058417E-2,1.3922495E-3,6.621598E-2,-6.278511E-2,-3.7455946E-2,2.7819753E-2,-2.237246E-2,1.44272065E-2,-5.409359E-2,-5.4286953E-2,2.339957E-3,-4.7134064E-2,1.6859494E-2,6.8133816E-2,1.3450496E-2,-6.8780474E-2,-5.012253E-2,-2.9001284E-2,-7.200333E-2,-4.4014078E-2,2.6758635E-2,-3.6655124E-2,1.3205277E-2,9.668708E-4,7.326733E-2,-3.2007933E-2,-6.1837174E-2,-7.130885E-2,-3.6406484E-2,3.438049E-2,-3.4117773E-2,6.2914014E-2,8.865774E-2,9.5547214E-2,5.3884473E-2,-2.3677053E-2,-6.3779004E-2,3.1901408E-2,6.531818E-2,8.305464E-2,-2.727883E-2,5.050939E-2,7.882642E-2,1.6802592E-2,-2.4285719E-2,3.230694E-2,6.9228135E-2,-7.678945E-2,-4.383713E-2,-3.2649074E-2,1.510406E-2,-1.365961E-2,-5.373764E-2,3.9131485E-2,6.790439E-2],"categories":[],"categories_nodes":[],"categories_segments":[],"categories_sizes":[],"default_left":[0,0,0,0,0,0,0,0,0,0,0,0,0,0,0,0,0,0,0,0,0,0,0,0,0,0,0,0,0,0,0,0,0,0,0,0,0,0,0,0,0,0,0,0,0,0,0,0,0,0,0,0,0,0,0,0,0,0,0,0,0,0,0,0,0,0,0,0,0,0,0,0,0,0,0,0,0,0,0,0,0,0,0,0,0,0,0,0,0,0,0,0,0,0,0,0,0,0,0,0,0,0,0,0,0,0,0,0,0,0,0,0,0,0,0,0,0,0,0,0,0,0,0,0,0,0,0,0,0,0,0,0,0,0,0,0,0,0,0,0,0,0,0,0,0,0,0,0,0,0,0,0,0,0,0,0,0,0,0,0,0,0,0,0,0,0,0,0,0,0,0,0,0,0,0,0,0,0,0,0,0,0,0,0,0,0,0,0,0,0,0],"id":3,"left_children":[1,3,5,7,9,11,13,15,17,19,21,23,25,27,29,31,33,35,37,-1,39,41,43,45,47,49,51,53,55,57,59,-1,61,63,65,67,69,71,73,-1,-1,75,77,79,81,83,85,87,89,-1,91,93,95,97,99,101,103,105,107,109,-1,111,-1,113,115,117,119,121,123,125,127,129,131,-1,-1,133,-1,-1,135,137,-1,139,141,143,145,147,149,-1,151,153,155,157,159,-1,161,163,165,-1,-1,167,169,171,173,175,177,179,181,183,185,187,189,-1,-1,-1,-1,-1,-1,-1,-1,-1,-1,-1,-1,-1,-1,-1,-1,-1,-1,-1,-1,-1,-1,-1,-1,-1,-1,-1,-1,-1,-1,-1,-1,-1,-1,-1,-1,-1,-1,-1,-1,-1,-1,-1,-1,-1,-1,-1,-1,-1,-1,-1,-1,-1,-1,-1,-1,-1,-1,-1,-1,-1,-1,-1,-1,-1,-1,-1,-1,-1,-1,-1,-1,-1,-1,-1,-1,-1,-1,-1,-1],"loss_changes":[1.0251225E4,2.0239683E3,3.597551E3,4.9756348E2,1.2239844E2,9.8038086E1,1.5618042E3,1.1770538E1,3.0551715E2,2.0507812E-1,4.06707E1,4.8246582E1,6.756061E1,5.036548E2,5.657881E2,1.4567566E0,1.1601433E1,5.3221985E1,1.0925806E2,0E0,3.0456543E-1,2.9837494E0,2.9740871E1,4.6863632E1,1.8907593E1,3.4783325E1,1.53326645E1,1.442456E2,3.021101E2,1.8195473E2,1.0938818E2,0E0,2.2146378E0,1.1716366E1,4.3018417E0,2.3246025E1,3.0019335E1,9.128528E1,9.5391464E-1,0E0,0E0,3.085496E0,7.506256E-1,2.3804907E1,2.3521416E1,1.2209557E1,8.833457E0,1.927771E1,1.8573141E1,0E0,2.9296665E1,1.1098541E1,1.753192E1,1.6092186E1,3.644287E1,1.7442706E2,8.346826E1,1.0202384E2,4.0600858E2,1.0315454E2,0E0,1.6754494E0,0E0,1.0014552E1,1.0405884E0,5.6038666E-1,7.060302E0,1.2294846E0,1.8477554E1,1.3070004E1,1.1280706E1,2.0146456E1,3.4094666E1,0E0,0E0,1.5483942E0,0E0,0E0,6.461258E-1,7.6501102E0,0E0,4.0997467E0,1.01101265E1,1.0000574E1,7.897484E0,6.8344555E0,4.35763E0,0E0,1.3712158E1,1.8346729E0,9.555181E0,1.9072687E1,1.2399902E1,0E0,5.737915E0,3.5892677E-1,1.0643846E1,0E0,0E0,4.7789062E1,8.474121E-1,6.370949E0,9.567706E1,2.2921828E2,4.1718506E1,3.9896667E1,1.9385925E1,2.2766113E-1,1.1916607E2,2.8737812E0,6.645416E1,0E0,0E0,0E0,0E0,0E0,0E0,0E0,0E0,0E0,0E0,0E0,0E0,0E0,0E0,0E0,0E0,0E0,0E0,0E0,0E0,0E0,0E0,0E0,0E0,0E0,0E0,0E0,0E0,0E0,0E0,0E0,0E0,0E0,0E0,0E0,0E0,0E0,0E0,0E0,0E0,0E0,0E0,0E0,0E0,0E0,0E0,0E0,0E0,0E0,0E0,0E0,0E0,0E0,0E0,0E0,0E0,0E0,0E0,0E0,0E0,0E0,0E0,0E0,0E0,0E0,0E0,0E0,0E0,0E0,0E0,0E0,0E0,0E0,0E0,0E0,0E0,0E0,0E0,0E0,0E0],"parents":[2147483647,0,0,1,1,2,2,3,3,4,4,5,5,6,6,7,7,8,8,9,9,10,10,11,11,12,12,13,13,14,14,15,15,16,16,17,17,18,18,20,20,21,21,22,22,23,23,24,24,25,25,26,26,27,27,28,28,29,29,30,30,32,32,33,33,34,34,35,35,36,36,37,37,38,38,41,41,42,42,43,43,44,44,45,45,46,46,47,47,48,48,50,50,51,51,52,52,53,53,54,54,55,55,56,56,57,57,58,58,59,59,61,61,63,63,64,64,65,65,66,66,67,67,68,68,69,69,70,70,71,71,72,72,75,75,78,78,79,79,81,81,82,82,83,83,84,84,85,85,86,86,88,88,89,89,90,90,91,91,92,92,94,94,95,95,96,96,99,99,100,100,101,101,102,102,103,103,104,104,105,105,106,106,107,107,108,108,109,109,110,110],"right_children":[2,4,6,8,10,12,14,16,18,20,22,24,26,28,30,32,34,36,38,-1,40,42,44,46,48,50,52,54,56,58,60,-1,62,64,66,68,70,72,74,-1,-1,76,78,80,82,84,86,88,90,-1,92,94,96,98,100,102,104,106,108,110,-1,112,-1,114,116,118,120,122,124,126,128,130,132,-1,-1,134,-1,-1,136,138,-1,140,142,144,146,148,150,-1,152,154,156,158,160,-1,162,164,166,-1,-1,168,170,172,174,176,178,180,182,184,186,188,190,-1,-1,-1,-1,-1,-1,-1,-1,-1,-1,-1,-1,-1,-1,-1,-1,-1,-1,-1,-1,-1,-1,-1,-1,-1,-1,-1,-1,-1,-1,-1,-1,-1,-1,-1,-1,-1,-1,-1,-1,-1,-1,-1,-1,-1,-1,-1,-1,-1,-1,-1,-1,-1,-1,-1,-1,-1,-1,-1,-1,-1,-1,-1,-1,-1,-1,-1,-1,-1,-1,-1,-1,-1,-1,-1,-1,-1,-1,-1,-1],"split_conditions":[3.9270833E0,2E0,2E0,2E0,3.1215277E0,1.4913889E1,2E0,1.0152777E0,3.832E3,2.0270834E0,2E0,3E0,6E1,1.2E2,1.2156944E1,4.535E3,2E0,1.6E1,4E0,-7.7801056E-2,4.9554667E-1,3E0,1.8E2,1.7E1,2E0,3E1,1.7E1,1E0,1.7E1,2E0,4E0,-7.515573E-2,1.7E1,2E1,1.6E1,8.9444447E-1,2.17E3,1.2E1,8.048611E-1,-7.389479E-2,-4.19379E-2,1.3283207E-1,1.5E1,3E0,3.7666667E0,4.2069445E0,1.8E1,1E0,3E0,-7.409785E-2,1.7E1,1E0,1.9E1,4E0,1.7E1,1E0,3E0,1.6E1,3E0,1E0,-7.017291E-2,1.7E1,-2.2735143E-2,1E1,2.1715279E0,1.1E1,6E1,2.017E3,2E0,2.8125E-1,1.8E1,9E1,1.7E1,-7.350878E-2,-3.7341293E-2,1.0495E4,-6.8839416E-2,-7.534369E-2,4E0,1.7E1,-5.790242E-2,3E1,3E0,2E0,4.2113978E-1,2E0,1E0,1.6139537E-2,1.7E1,9E0,3.622E3,2E0,1.2E1,9.336E-3,2.7E2,1.7466E4,2.9410418E1,1.1280035E-2,-7.154715E-2,1.707361E1,6.682568E-1,3E0,4.1377083E1,2E0,3.487E3,4E0,2.3E1,5.316617E-1,2E0,4E0,5.0143055E1,-6.7717634E-2,-3.24512E-2,-2.2648677E-2,5.5458125E-2,-2.920792E-2,-6.761546E-2,-6.756384E-2,-3.9027743E-2,-7.033517E-2,-1.0077315E-2,-7.295226E-2,-3.7835415E-2,-2.8296528E-2,4.144509E-2,-6.760088E-2,9.4621755E-5,1.9093573E-2,6.602388E-2,6.0841996E-2,-2.0589665E-2,5.3866338E-2,8.5086994E-2,-3.2126342E-3,-3.9268155E-2,-5.0172675E-2,-7.058417E-2,1.3922495E-3,6.621598E-2,-6.278511E-2,-3.7455946E-2,2.7819753E-2,-2.237246E-2,1.44272065E-2,-5.409359E-2,-5.4286953E-2,2.339957E-3,-4.7134064E-2,1.6859494E-2,6.8133816E-2,1.3450496E-2,-6.8780474E-2,-5.012253E-2,-2.9001284E-2,-7.200333E-2,-4.4014078E-2,2.6758635E-2,-3.6655124E-2,1.3205277E-2,9.668708E-4,7.326733E-2,-3.2007933E-2,-6.1837174E-2,-7.130885E-2,-3.6406484E-2,3.438049E-2,-3.4117773E-2,6.2914014E-2,8.865774E-2,9.5547214E-2,5.3884473E-2,-2.3677053E-2,-6.3779004E-2,3.1901408E-2,6.531818E-2,8.305464E-2,-2.727883E-2,5.050939E-2,7.882642E-2,1.6802592E-2,-2.4285719E-2,3.230694E-2,6.9228135E-2,-7.678945E-2,-4.383713E-2,-3.2649074E-2,1.510406E-2,-1.365961E-2,-5.373764E-2,3.9131485E-2,6.790439E-2],"split_indices":[31,20,2,2,31,31,21,31,1,31,2,14,22,22,31,1,15,9,2,0,34,14,3,9,10,3,9,9,9,20,2,0,29,14,9,31,1,9,31,0,0,32,29,21,31,31,9,15,20,0,9,15,13,8,9,9,20,9,20,9,0,9,0,0,31,6,3,7,10,31,9,3,9,0,0,18,0,0,8,13,0,13,25,15,37,8,2,0,9,14,1,8,13,0,22,18,31,0,0,31,85,8,31,20,1,8,27,51,15,12,31,0,0,0,0,0,0,0,0,0,0,0,0,0,0,0,0,0,0,0,0,0,0,0,0,0,0,0,0,0,0,0,0,0,0,0,0,0,0,0,0,0,0,0,0,0,0,0,0,0,0,0,0,0,0,0,0,0,0,0,0,0,0,0,0,0,0,0,0,0,0,0,0,0,0,0,0,0,0,0,0],"split_type":[0,0,0,0,0,0,0,0,0,0,0,0,0,0,0,0,0,0,0,0,0,0,0,0,0,0,0,0,0,0,0,0,0,0,0,0,0,0,0,0,0,0,0,0,0,0,0,0,0,0,0,0,0,0,0,0,0,0,0,0,0,0,0,0,0,0,0,0,0,0,0,0,0,0,0,0,0,0,0,0,0,0,0,0,0,0,0,0,0,0,0,0,0,0,0,0,0,0,0,0,0,0,0,0,0,0,0,0,0,0,0,0,0,0,0,0,0,0,0,0,0,0,0,0,0,0,0,0,0,0,0,0,0,0,0,0,0,0,0,0,0,0,0,0,0,0,0,0,0,0,0,0,0,0,0,0,0,0,0,0,0,0,0,0,0,0,0,0,0,0,0,0,0,0,0,0,0,0,0,0,0,0,0,0,0,0,0,0,0,0,0],"sum_hessian":[1.2460335E4,4.6671416E3,7.7931934E3,8.672036E2,3.7999382E3,1.1407162E3,6.6524775E3,2.0454027E2,6.626634E2,3.5053772E3,2.9456097E2,8.521013E2,2.886148E2,4.4145977E3,2.23788E3,1.13681335E2,9.085894E1,2.3061089E2,4.320525E2,3.0883093E3,4.1706775E2,1.2351256E2,1.710484E2,1.6807755E2,6.840238E2,1.3122556E2,1.5738924E2,1.7905638E3,2.6240337E3,1.2486354E3,9.892446E2,7.04258E1,4.3255535E1,2.6174498E1,6.468444E1,1.4523793E2,8.537295E1,4.1421085E2,1.7841633E1,4.1194055E2,5.127174E0,1.7284718E1,1.06227844E2,2.6903343E1,1.4414507E2,1.3501468E2,3.3062862E1,6.44461E2,3.956281E1,1.17480545E1,1.194775E2,1.2184555E2,3.554369E1,2.2706589E1,1.7678573E3,1.3384928E3,1.2855408E3,3.9437823E2,8.5425714E2,9.691753E2,2.0069302E1,3.7629562E1,5.625972E0,1.4623271E1,1.1551227E1,4.4318344E1,2.0366096E1,3.6658787E1,1.0857915E2,3.0213085E1,5.5159863E1,4.6572865E1,3.6763797E2,1.124373E1,6.5979023E0,1.1403555E1,5.881162E0,5.7508167E1,4.8719673E1,2.0474802E1,6.4285407E0,8.358414E1,6.056092E1,2.164891E1,1.1336576E2,1.733483E1,1.5728034E1,7.091224E0,6.3736975E2,1.8884579E1,2.067823E1,8.9431496E1,3.0046011E1,6.6098847E0,1.15235664E2,1.2324806E1,2.3218884E1,9.650926E0,1.3055663E1,8.6514923E2,9.0270807E2,5.3173E1,1.2853198E3,1.942347E2,1.091306E3,2.4478473E2,1.4959349E2,2.3581152E2,6.184456E2,2.945713E1,9.3971814E2,3.0612377E1,7.0171857E0,7.8714952E0,6.7517757E0,6.36887E0,5.182357E0,3.7283386E1,7.034956E0,7.0472746E0,1.3318821E1,3.0033302E1,6.625484E0,9.896648E1,9.612668E0,1.0019355E1,2.019373E1,3.4588226E1,2.0571636E1,8.429504E0,3.814336E1,1.880273E2,1.7961069E2,5.7211795E0,5.6823754E0,2.8936493E1,1.978318E1,6.6259093E0,1.3848892E1,5.1095882E1,3.2488255E1,1.1651624E1,4.8909298E1,1.44906435E1,7.1582665E0,1.0692174E2,6.4440293E0,5.0989604E0,1.2235869E1,9.089567E0,6.638467E0,4.9631506E2,1.410547E2,5.4135447E0,1.3471034E1,5.8359327E0,1.4842297E1,2.6380106E1,6.3051388E1,8.024317E0,2.2021694E1,2.3903343E1,9.133232E1,7.10435E0,5.2204556E0,1.5524364E1,7.694518E0,2.8020355E2,5.849457E2,8.972083E2,5.4997606E0,1.558244E1,3.7590557E1,1.01252356E3,2.727963E2,1.1623311E2,7.800159E1,1.59627E2,9.31679E2,1.4780128E2,9.698345E1,6.7895874E1,8.169762E1,2.3079979E2,5.0117316E0,1.8601297E2,4.3243265E2,6.527181E0,2.2929949E1,6.4329767E2,2.9642047E2],"tree_param":{"num_deleted":"0","num_feature":"98","num_nodes":"191","size_leaf_vector":"1"}},{"base_weights":[-1.6400671E-3,-1.1360766E0,6.6386205E-1,2.0174271E-1,-1.4520935E0,-9.1746765E-1,9.2803264E-1,-1.121027E0,6.099117E-1,-1.5017557E0,-8.7242305E-1,-1.0733501E0,-4.29377E-1,1.2524569E0,2.9060656E-1,-1.3191288E0,-8.5879517E-1,-3.177453E-1,1.0237695E0,-7.569647E-2,-1.4267926E0,-1.3095804E0,-5.4971135E-1,-5.9266E-1,-1.1929426E0,1.0171627E-1,-8.652125E-1,1.5959157E0,9.3948406E-1,-8.227869E-2,8.887924E-1,-1.3846054E0,-6.657701E-1,-1.0935469E0,-2.9133302E-1,-1.0485967E0,-3.5455626E-2,-3.0516618E-1,1.2067778E0,-1.4366374E0,-8.9063746E-1,-8.641403E-1,-1.373979E0,2.6040843E-1,-7.4015355E-1,-8.627565E-1,5.284034E-1,-1.2310477E0,-5.465389E-1,-7.1098305E-2,2.4765415E-1,-1.0516827E0,-2.1764068E-1,-6.4314884E-1,1.6238747E0,6.4827776E-1,1.2533585E0,4.4467366E-1,-3.4422362E-1,-9.434336E-1,9.544826E-1,-1.4131674E0,-4.5004476E-2,3.56954E-3,-6.0454097E-2,-5.0314915E-1,-1.217196E0,-5.603211E-2,1.5931377E-1,-1.1840483E0,-1.5330166E-2,-3.3132377E-1,8.4554875E-1,-1.174115E0,1.0868833E-1,1.2910131E0,-6.2493205E-2,-7.401001E-2,-1.3388466E0,-5.7426866E-2,-2.333347E-2,-1.4005372E-2,-1.087775E0,-7.192386E-2,-1.0037695E0,6.2250143E-1,-6.778623E-2,-1.0874385E0,-2.706997E-1,-9.7010866E-2,-9.900319E-1,8.0461943E-1,-1.3933367E-2,-1.3091347E0,-9.454413E-1,-1.2426329E0,1.226791E-1,5.684079E-2,1.3359151E0,-6.8304366E-1,-1.2324626E0,-6.06784E-1,4.6858404E-2,1.5742497E-1,-1.2703412E0,1.4378265E0,1.7962701E0,-1.1071256E0,7.185588E-1,6.3412327E-1,1.3634846E0,1.6716205E-1,1.2516937E0,-1.4609605E0,6.0128406E-2,-1.9901946E-2,-1.0552028E0,9.9425185E-1,-6.344805E-2,-7.227316E-2,-4.760052E-2,9.393557E-3,-5.0400116E-2,-6.4058155E-2,-2.869209E-2,-3.575934E-2,4.7777604E-2,-7.346554E-2,-4.748427E-2,-2.2030534E-2,4.0978115E-2,-2.4306572E-3,5.690393E-2,-2.9346554E-2,-6.993038E-2,-4.7652232E-3,6.091363E-2,4.909921E-2,8.1177056E-2,-3.2730125E-2,-6.9983415E-2,-3.3512834E-2,-6.724383E-2,-6.419768E-2,-1.5145293E-2,-4.892907E-3,5.081112E-2,-6.1276384E-2,-2.2089422E-2,-1.9716285E-2,4.4828456E-2,-4.0715154E-2,2.1513514E-2,-5.4201704E-2,-1.8790608E-2,1.0252851E-2,7.85948E-2,-6.653329E-2,-9.207893E-3,-2.2535834E-2,-5.3035807E-2,-3.407245E-2,-6.98684E-2,-3.5220884E-2,2.4253475E-2,-3.3378758E-2,1.9044245E-2,8.343771E-2,3.2720234E-2,-2.2935554E-2,-6.570258E-2,-6.586503E-2,-2.6523275E-2,-3.6151547E-3,-4.836244E-2,-3.3316325E-2,4.0825173E-2,-7.3501006E-2,-4.0172294E-2,5.422662E-2,8.4782384E-2,9.0009324E-2,4.1909266E-2,-3.4512635E-2,-6.9406055E-2,3.0817036E-2,7.233436E-2,7.813101E-2,-3.0474309E-2,5.9777386E-2,8.071776E-2,2.4139974E-2,-1.7589932E-2,4.278803E-2,7.752009E-2,-7.5086586E-2,-5.1485736E-2,8.879204E-3,-6.0019117E-2,-6.408579E-2,-1.8105345E-2,4.0921584E-2,6.592546E-2],"categories":[],"categories_nodes":[],"categories_segments":[],"categories_sizes":[],"default_left":[0,0,0,0,0,0,0,0,0,0,0,0,0,0,0,0,0,0,0,0,0,0,0,0,0,0,0,0,0,0,0,0,0,0,0,0,0,0,0,0,0,0,0,0,0,0,0,0,0,0,0,0,0,0,0,0,0,0,0,0,0,0,0,0,0,0,0,0,0,0,0,0,0,0,0,0,0,0,0,0,0,0,0,0,0,0,0,0,0,0,0,0,0,0,0,0,0,0,0,0,0,0,0,0,0,0,0,0,0,0,0,0,0,0,0,0,0,0,0,0,0,0,0,0,0,0,0,0,0,0,0,0,0,0,0,0,0,0,0,0,0,0,0,0,0,0,0,0,0,0,0,0,0,0,0,0,0,0,0,0,0,0,0,0,0,0,0,0,0,0,0,0,0,0,0,0,0,0,0,0,0,0,0,0,0,0,0,0,0,0,0,0,0,0,0,0,0,0,0,0,0,0,0],"id":4,"left_children":[1,3,5,7,9,11,13,15,17,19,21,23,25,27,29,31,33,35,37,-1,39,41,43,45,47,49,51,53,55,57,59,61,63,65,67,69,71,73,75,77,79,81,83,85,87,89,91,93,95,-1,97,99,101,103,105,107,109,111,113,115,117,119,-1,-1,-1,121,123,-1,125,127,-1,129,131,133,135,137,-1,-1,139,-1,-1,-1,141,-1,143,145,-1,147,149,151,153,155,-1,157,159,161,163,165,167,169,171,173,-1,175,177,179,181,183,185,187,189,191,193,195,197,-1,199,201,-1,-1,-1,-1,-1,-1,-1,-1,-1,-1,-1,-1,-1,-1,-1,-1,-1,-1,-1,-1,-1,-1,-1,-1,-1,-1,-1,-1,-1,-1,-1,-1,-1,-1,-1,-1,-1,-1,-1,-1,-1,-1,-1,-1,-1,-1,-1,-1,-1,-1,-1,-1,-1,-1,-1,-1,-1,-1,-1,-1,-1,-1,-1,-1,-1,-1,-1,-1,-1,-1,-1,-1,-1,-1,-1,-1,-1,-1,-1,-1,-1,-1,-1,-1,-1],"loss_changes":[9.314681E3,1.9288735E3,3.249238E3,4.717796E2,1.0492285E2,8.426672E1,1.3776226E3,9.573944E0,2.565658E2,9.399414E-1,4.0698425E1,4.7775635E1,6.2868866E1,4.7315283E2,5.0168793E2,4.0210724E0,1.1878532E1,4.2600708E1,1.1267325E2,0E0,1.317627E0,2.3686218E0,2.6517235E1,5.1933796E1,1.59375E1,2.7735823E1,1.7772842E1,1.3275E2,2.1058142E2,1.9149593E2,1.0484601E2,1.6851807E-1,5.072906E0,4.0892334E0,1.0701414E1,5.4208107E0,3.9410316E1,2.0514874E1,8.564557E1,6.964111E-2,7.2177887E-1,2.0923576E0,1.1016846E0,2.028166E1,2.2271332E1,1.32932205E1,7.7207174E0,1.2946899E1,1.8477833E1,0E0,2.3438065E1,6.854576E0,1.6113455E1,1.3587829E1,6.4072754E1,1.4906223E2,7.4967285E1,1.02971214E2,4.184541E2,1.4327888E0,7.50282E1,6.1767578E-2,0E0,0E0,0E0,4.674838E0,1.4273224E0,0E0,1.3996046E1,1.8347244E0,0E0,1.4586105E1,1.0000633E1,1.6011906E0,9.015407E0,3.8801636E1,0E0,0E0,5.695648E0,0E0,0E0,0E0,4.859352E-1,0E0,3.3670368E0,7.990204E0,0E0,6.5221405E0,9.038527E0,8.175075E0,6.387947E0,1.1321312E1,0E0,1.1789978E1,7.5149536E0,7.2992134E-1,6.626044E0,2.3115349E1,2.7296925E0,5.093878E0,3.8420486E0,5.031681E0,0E0,7.386064E0,2.2301102E-1,8.96604E1,2.5231934E0,4.5072517E0,8.515674E1,1.9698419E2,3.7808838E1,5.651501E1,1.2597458E1,2.784668E0,1.0106313E2,0E0,3.401003E0,4.567743E1,0E0,0E0,0E0,0E0,0E0,0E0,0E0,0E0,0E0,0E0,0E0,0E0,0E0,0E0,0E0,0E0,0E0,0E0,0E0,0E0,0E0,0E0,0E0,0E0,0E0,0E0,0E0,0E0,0E0,0E0,0E0,0E0,0E0,0E0,0E0,0E0,0E0,0E0,0E0,0E0,0E0,0E0,0E0,0E0,0E0,0E0,0E0,0E0,0E0,0E0,0E0,0E0,0E0,0E0,0E0,0E0,0E0,0E0,0E0,0E0,0E0,0E0,0E0,0E0,0E0,0E0,0E0,0E0,0E0,0E0,0E0,0E0,0E0,0E0,0E0,0E0,0E0,0E0,0E0,0E0,0E0,0E0,0E0,0E0,0E0],"parents":[2147483647,0,0,1,1,2,2,3,3,4,4,5,5,6,6,7,7,8,8,9,9,10,10,11,11,12,12,13,13,14,14,15,15,16,16,17,17,18,18,20,20,21,21,22,22,23,23,24,24,25,25,26,26,27,27,28,28,29,29,30,30,31,31,32,32,33,33,34,34,35,35,36,36,37,37,38,38,39,39,40,40,41,41,42,42,43,43,44,44,45,45,46,46,47,47,48,48,50,50,51,51,52,52,53,53,54,54,55,55,56,56,57,57,58,58,59,59,60,60,61,61,65,65,66,66,68,68,69,69,71,71,72,72,73,73,74,74,75,75,78,78,82,82,84,84,85,85,87,87,88,88,89,89,90,90,91,91,93,93,94,94,95,95,96,96,97,97,98,98,99,99,100,100,101,101,103,103,104,104,105,105,106,106,107,107,108,108,109,109,110,110,111,111,112,112,113,113,114,114,116,116,117,117],"right_children":[2,4,6,8,10,12,14,16,18,20,22,24,26,28,30,32,34,36,38,-1,40,42,44,46,48,50,52,54,56,58,60,62,64,66,68,70,72,74,76,78,80,82,84,86,88,90,92,94,96,-1,98,100,102,104,106,108,110,112,114,116,118,120,-1,-1,-1,122,124,-1,126,128,-1,130,132,134,136,138,-1,-1,140,-1,-1,-1,142,-1,144,146,-1,148,150,152,154,156,-1,158,160,162,164,166,168,170,172,174,-1,176,178,180,182,184,186,188,190,192,194,196,198,-1,200,202,-1,-1,-1,-1,-1,-1,-1,-1,-1,-1,-1,-1,-1,-1,-1,-1,-1,-1,-1,-1,-1,-1,-1,-1,-1,-1,-1,-1,-1,-1,-1,-1,-1,-1,-1,-1,-1,-1,-1,-1,-1,-1,-1,-1,-1,-1,-1,-1,-1,-1,-1,-1,-1,-1,-1,-1,-1,-1,-1,-1,-1,-1,-1,-1,-1,-1,-1,-1,-1,-1,-1,-1,-1,-1,-1,-1,-1,-1,-1,-1,-1,-1,-1,-1,-1],"split_conditions":[3.9270833E0,2E0,2E0,2E0,3.1215277E0,1.5079166E1,2E0,1.0152777E0,2.013E3,1.9118055E0,2E0,3E0,6E1,1.8E2,1.5079166E1,3.2684138E-1,1.6E1,8.784722E-1,1.2E1,-7.569647E-2,4.5347E-1,3E0,2.4E2,1.7E1,2E0,3E1,1.7E1,1E0,1.7E1,2E0,1E0,3.8587886E-1,7E0,3E0,6E1,1.8E1,1.7E1,1E0,4E0,1.7E1,4E0,1E0,6E0,4E0,3.7666667E0,4.2069445E0,3.049822E-1,1.7E1,3E0,-7.1098305E-2,1.8E1,2E1,3.0794132E-1,4E0,1.7E1,1E0,3E0,1.7E1,3E0,4E0,4E0,1.8E1,-4.5004476E-2,3.56954E-3,-6.0454097E-2,1E0,4.2E1,-5.603211E-2,2.014E3,2.008E3,-1.5330166E-2,2E0,2.008E3,1.8E2,3.5776895E-1,1.7E1,-6.2493205E-2,-7.401001E-2,9E1,-5.7426866E-2,-2.333347E-2,-1.4005372E-2,1.3176925E-1,-7.192386E-2,1.277E3,2.015E3,-6.778623E-2,3.0263394E-1,1.674E3,1.25E2,3.566516E-1,4E0,-1.3933367E-2,3.9104542E-1,6.03E2,1E1,2.013E3,2E0,4E0,1.4E3,5.2058334E1,4E0,4.6858404E-2,2E0,1.3369809E-1,2.1179167E1,6.682568E-1,4E0,2E0,2E0,3.2E1,4E0,2.3E1,1.1395139E1,4E0,-1.9901946E-2,3.5E1,5.2058334E1,-6.344805E-2,-7.227316E-2,-4.760052E-2,9.393557E-3,-5.0400116E-2,-6.4058155E-2,-2.869209E-2,-3.575934E-2,4.7777604E-2,-7.346554E-2,-4.748427E-2,-2.2030534E-2,4.0978115E-2,-2.4306572E-3,5.690393E-2,-2.9346554E-2,-6.993038E-2,-4.7652232E-3,6.091363E-2,4.909921E-2,8.1177056E-2,-3.2730125E-2,-6.9983415E-2,-3.3512834E-2,-6.724383E-2,-6.419768E-2,-1.5145293E-2,-4.892907E-3,5.081112E-2,-6.1276384E-2,-2.2089422E-2,-1.9716285E-2,4.4828456E-2,-4.0715154E-2,2.1513514E-2,-5.4201704E-2,-1.8790608E-2,1.0252851E-2,7.85948E-2,-6.653329E-2,-9.207893E-3,-2.2535834E-2,-5.3035807E-2,-3.407245E-2,-6.98684E-2,-3.5220884E-2,2.4253475E-2,-3.3378758E-2,1.9044245E-2,8.343771E-2,3.2720234E-2,-2.2935554E-2,-6.570258E-2,-6.586503E-2,-2.6523275E-2,-3.6151547E-3,-4.836244E-2,-3.3316325E-2,4.0825173E-2,-7.3501006E-2,-4.0172294E-2,5.422662E-2,8.4782384E-2,9.0009324E-2,4.1909266E-2,-3.4512635E-2,-6.9406055E-2,3.0817036E-2,7.233436E-2,7.813101E-2,-3.0474309E-2,5.9777386E-2,8.071776E-2,2.4139974E-2,-1.7589932E-2,4.278803E-2,7.752009E-2,-7.5086586E-2,-5.1485736E-2,8.879204E-3,-6.0019117E-2,-6.408579E-2,-1.8105345E-2,4.0921584E-2,6.592546E-2],"split_indices":[31,20,2,2,31,31,21,31,11,31,2,14,22,22,31,57,9,31,9,0,40,14,22,9,10,3,9,9,9,20,9,49,6,14,3,9,9,9,2,9,8,8,28,2,31,31,43,9,20,0,9,0,56,8,9,9,20,9,20,12,2,9,0,0,0,2,0,0,11,11,0,10,11,3,40,9,0,0,3,0,0,0,32,0,16,11,0,56,16,17,45,0,0,56,16,14,11,8,8,16,31,8,0,8,32,31,85,8,10,20,13,8,27,31,2,0,14,31,0,0,0,0,0,0,0,0,0,0,0,0,0,0,0,0,0,0,0,0,0,0,0,0,0,0,0,0,0,0,0,0,0,0,0,0,0,0,0,0,0,0,0,0,0,0,0,0,0,0,0,0,0,0,0,0,0,0,0,0,0,0,0,0,0,0,0,0,0,0,0,0,0,0,0,0,0,0,0,0,0,0,0,0,0],"split_type":[0,0,0,0,0,0,0,0,0,0,0,0,0,0,0,0,0,0,0,0,0,0,0,0,0,0,0,0,0,0,0,0,0,0,0,0,0,0,0,0,0,0,0,0,0,0,0,0,0,0,0,0,0,0,0,0,0,0,0,0,0,0,0,0,0,0,0,0,0,0,0,0,0,0,0,0,0,0,0,0,0,0,0,0,0,0,0,0,0,0,0,0,0,0,0,0,0,0,0,0,0,0,0,0,0,0,0,0,0,0,0,0,0,0,0,0,0,0,0,0,0,0,0,0,0,0,0,0,0,0,0,0,0,0,0,0,0,0,0,0,0,0,0,0,0,0,0,0,0,0,0,0,0,0,0,0,0,0,0,0,0,0,0,0,0,0,0,0,0,0,0,0,0,0,0,0,0,0,0,0,0,0,0,0,0,0,0,0,0,0,0,0,0,0,0,0,0,0,0,0,0,0,0],"sum_hessian":[1.2335818E4,4.560735E3,7.7750835E3,8.715394E2,3.6891953E3,1.1125952E3,6.6624883E3,2.0510403E2,6.664354E2,3.3966064E3,2.9258887E2,8.423676E2,2.702276E2,4.414646E3,2.2478423E3,1.1454281E2,9.0561226E1,2.056672E2,4.6076822E2,2.9055598E3,4.9104663E2,1.22961945E2,1.6962692E2,1.6900899E2,6.7335864E2,1.2214851E2,1.480791E2,2.102856E3,2.31179E3,1.3852161E3,8.626261E2,1.03092155E2,1.1450654E1,6.340452E1,2.715671E1,5.6548317E1,1.491189E2,5.569138E1,4.050768E2,4.8054352E2,1.0503133E1,1.7352737E1,1.0560921E2,3.2216057E1,1.3741086E2,1.3638124E2,3.2627754E1,6.3502014E2,3.833849E1,9.912474E0,1.1223604E2,1.1448792E2,3.359118E1,2.566297E1,2.0771929E3,1.2007885E3,1.1110017E3,4.597146E2,9.255015E2,2.939454E1,8.3323157E2,9.5543274E1,7.5488863E0,5.227129E0,6.2235246E0,1.1857351E1,5.1547165E1,9.037881E0,1.811883E1,4.7315132E1,9.233187E0,1.1209717E2,3.7021725E1,1.7374346E1,3.831703E1,3.921064E2,1.2970398E1,3.226684E2,1.578751E2,5.4679565E0,5.0351763E0,5.4284916E0,1.1924245E1,8.748236E1,1.8126848E1,2.6821537E1,5.394519E0,7.8225845E1,5.918502E1,1.9688528E1,1.1669271E2,2.4310604E1,8.317148E0,4.958636E2,1.3915659E2,1.8371912E1,1.9966578E1,9.638783E1,1.58482065E1,3.924316E1,7.524477E1,2.5479685E1,8.111494E0,1.1602309E1,1.4060659E1,1.0035298E3,1.0736632E3,4.565731E1,1.1551311E3,1.6877043E2,9.422313E2,3.4298038E2,1.1673422E2,2.45332E2,6.801695E2,5.775141E0,2.36194E1,8.191331E2,1.4098437E1,8.729538E1,8.247891E0,5.2707944E0,6.586557E0,4.598373E1,5.5634327E0,8.6835575E0,9.435271E0,1.8963594E1,2.8351538E1,1.02939316E2,9.157851E0,9.331721E0,2.7690004E1,5.8050685E0,1.1569278E1,3.3138714E1,5.178317E0,2.052832E2,1.8682323E2,1.3847989E1,1.4402713E2,5.919037E0,6.005208E0,1.2355525E1,5.771323E0,9.744415E0,1.7077124E1,6.370312E1,1.452272E1,5.4115772E1,5.0692472E0,8.110705E0,1.1577822E1,1.0054073E2,1.6151972E1,1.4358157E1,9.952447E0,4.8637204E2,9.491527E0,2.7225008E1,1.1193157E2,5.138798E0,1.3233114E1,5.795497E0,1.4171082E1,2.9462618E1,6.692522E1,9.674646E0,6.1735597E0,3.0224764E1,9.018396E0,6.634974E1,8.895029E0,1.0746235E1,1.473345E1,5.15203E0,6.450279E0,8.343755E0,5.7169046E0,4.2557196E2,5.779578E2,1.0684169E3,5.246378E0,1.9775568E1,2.5881744E1,1.0145502E3,1.4058092E2,9.648031E1,7.229012E1,5.67861E2,3.7437027E2,2.1331165E2,1.2966873E2,5.1859753E1,6.487447E1,2.2187325E2,2.3458763E1,6.229788E2,5.719068E1,1.7161528E1,6.457874E0,5.334225E2,2.8571063E2],"tree_param":{"num_deleted":"0","num_feature":"98","num_nodes":"203","size_leaf_vector":"1"}},{"base_weights":[1.4021272E-3,-1.1004976E0,6.404409E-1,-1.3684988E0,-6.489924E-1,-8.712873E-1,8.922929E-1,-1.4186351E0,-7.4134326E-1,-4.280989E-2,-1.1449733E0,-1.03917E0,-4.0848777E-1,1.2008669E0,2.8549704E-1,-7.3570214E-2,-1.2569212E0,-1.2306598E0,-3.959898E-1,-1.1824433E0,2.890653E-1,-1.2941769E0,-7.1278995E-1,-5.6572443E-1,-1.1553746E0,-2.5854852E-2,-8.69034E-1,1.5813441E0,9.4361854E-1,-9.047462E-2,8.294957E-1,-1.0478356E0,-1.3731214E0,-1.823581E-2,-1.3081349E0,3.3807355E-1,-6.277329E-1,-7.102517E-2,-1.0155028E0,-3.9178804E-1,7.5371736E-1,-1.3673649E0,-1.1035578E0,-1.2800375E0,-4.1274446E-1,-8.1778556E-1,4.2887792E-1,2.9499097E-2,-1.1767199E0,-2.763224E-1,7.9060537E-1,1.4517913E-2,-9.5513964E-1,-5.6618387E-1,1.6078602E0,6.41432E-1,1.257683E0,-3.6457434E-1,3.8500288E-1,-9.207151E-1,8.888858E-1,-1.3840644E0,-3.790919E-1,-1.3783892E0,-4.0113173E-2,-1.3424654E0,-4.1026544E-2,8.1691045E-1,-6.6963516E-2,-9.463805E-1,-1.6964181E-1,-7.26546E-2,-8.41092E-1,-1.1883333E0,-9.862573E-2,1.029791E0,-7.089472E-2,-1.4310932E0,-1.2748367E0,-1.3484514E0,-8.7850237E-1,-1.3583372E0,-8.748792E-1,9.512234E-1,-6.8487775E-1,-8.8791674E-1,9.843201E-3,-1.7689673E-2,9.221342E-1,-1.2166573E0,-5.6636536E-1,-6.944846E-2,-1.5960237E-1,4.9039624E-3,1.0814674E0,-1.1394023E0,-3.7874448E-1,2.456991E-2,-6.683236E-2,1.4420385E0,1.7147503E0,-1.0046458E0,7.1003777E-1,1.1321445E0,1.5513046E0,-8.3918065E-1,-1.8865384E-1,4.895205E-1,-1.1369914E0,-9.42587E-3,-1.074584E0,9.284882E-1,-6.6075884E-2,-7.053606E-2,-4.165861E-2,1.7037911E-2,-5.9007745E-2,-6.965009E-2,-5.546396E-2,-6.9169044E-2,-4.4582725E-2,-2.0162628E-3,5.234033E-2,-5.2844197E-2,-9.508956E-3,-3.975193E-2,4.9763634E-3,-7.150003E-3,-5.365768E-2,-6.309098E-2,-2.5164992E-2,-1.9755835E-2,3.272286E-2,8.464821E-2,3.929597E-2,-7.199995E-2,-3.9891705E-2,-1.994261E-2,-7.00345E-2,-7.237756E-2,-4.9999878E-2,-6.781036E-2,-2.1310415E-2,-7.024833E-2,-4.185296E-2,-6.122675E-2,-2.1748705E-2,6.484824E-2,-1.8045573E-4,-4.1286208E-2,8.36245E-3,-4.7780883E-2,1.031335E-2,2.3819854E-2,-2.3323886E-2,4.536591E-3,7.204958E-2,-6.426953E-2,-4.818218E-2,-5.8503367E-2,-9.608742E-3,-3.1224916E-2,2.2217117E-3,2.9434416E-2,-3.025504E-2,2.0585515E-2,7.446478E-2,-4.0365417E-2,-6.462961E-2,-4.9616974E-2,5.083095E-3,4.9577996E-2,8.027651E-2,7.498895E-2,8.6717084E-2,-1.9132119E-2,-6.239596E-2,2.7271112E-2,5.6586176E-2,5.0610334E-2,7.283466E-2,6.4604096E-2,8.022161E-2,-4.405242E-2,1.6839398E-2,-2.220041E-2,8.838565E-3,7.133829E-3,4.2301174E-2,-7.310382E-2,-1.7358998E-2,-1.7747251E-2,-6.3441895E-2,3.8958088E-2,6.6764995E-2],"categories":[],"categories_nodes":[],"categories_segments":[],"categories_sizes":[],"default_left":[0,0,0,0,0,0,0,0,0,0,0,0,0,0,0,0,0,0,0,0,0,0,0,0,0,0,0,0,0,0,0,0,0,0,0,0,0,0,0,0,0,0,0,0,0,0,0,0,0,0,0,0,0,0,0,0,0,0,0,0,0,0,0,0,0,0,0,0,0,0,0,0,0,0,0,0,0,0,0,0,0,0,0,0,0,0,0,0,0,0,0,0,0,0,0,0,0,0,0,0,0,0,0,0,0,0,0,0,0,0,0,0,0,0,0,0,0,0,0,0,0,0,0,0,0,0,0,0,0,0,0,0,0,0,0,0,0,0,0,0,0,0,0,0,0,0,0,0,0,0,0,0,0,0,0,0,0,0,0,0,0,0,0,0,0,0,0,0,0,0,0,0,0,0,0,0,0,0,0,0,0,0,0,0,0,0,0,0,0,0,0,0,0,0,0],"id":5,"left_children":[1,3,5,7,9,11,13,15,17,19,21,23,25,27,29,-1,31,33,35,37,39,41,43,45,47,49,51,53,55,57,59,61,63,-1,65,67,69,-1,71,73,75,77,79,81,83,85,87,-1,89,91,93,-1,95,97,99,101,103,105,107,109,111,113,115,117,-1,119,-1,121,-1,123,125,-1,127,129,131,133,-1,135,137,139,141,143,145,147,149,151,-1,153,155,157,159,-1,161,163,165,167,169,-1,-1,171,173,175,177,179,181,183,185,187,189,-1,191,193,-1,-1,-1,-1,-1,-1,-1,-1,-1,-1,-1,-1,-1,-1,-1,-1,-1,-1,-1,-1,-1,-1,-1,-1,-1,-1,-1,-1,-1,-1,-1,-1,-1,-1,-1,-1,-1,-1,-1,-1,-1,-1,-1,-1,-1,-1,-1,-1,-1,-1,-1,-1,-1,-1,-1,-1,-1,-1,-1,-1,-1,-1,-1,-1,-1,-1,-1,-1,-1,-1,-1,-1,-1,-1,-1,-1,-1,-1,-1,-1,-1,-1,-1],"loss_changes":[8.628728E3,5.4339014E2,2.9537212E3,8.767139E1,5.0424603E2,8.567169E1,1.2445981E3,2.0437988E1,3.516387E1,2.862144E2,5.8561768E1,4.4046997E1,5.224782E1,4.2987207E2,4.587624E2,0E0,1.4339355E1,5.347351E0,2.150256E1,5.3399963E0,1.85739E2,8.040649E0,4.0143494E1,4.0984505E1,2.496283E1,3.3560585E1,1.3711929E1,1.0206006E2,2.4897485E2,1.7309074E2,9.6097046E1,5.2587616E1,1.3983154E-1,0E0,2.2592163E-1,2.5735613E1,1.37756195E1,0E0,6.7017593E0,5.556036E1,2.1054398E2,1.0674438E0,9.567551E0,1.4191895E0,5.9212463E1,9.400803E0,7.3793273E0,0E0,1.50061035E1,1.6078072E1,8.801056E0,0E0,1.2898003E1,1.8912735E1,2.8632324E1,1.5241803E2,4.5776978E1,7.016695E1,7.7826904E1,3.2419987E0,7.8877014E1,1.1272888E0,4.6767445E1,6.317139E-2,0E0,1.04003906E-1,0E0,4.868187E0,0E0,4.485882E0,6.8774495E0,0E0,1.2257473E1,2.5894318E0,3.941701E1,4.880435E1,0E0,4.4299316E-1,2.2501984E1,1.7140808E0,2.2007164E1,4.5429993E-1,1.9471426E0,8.805962E0,1.5993675E1,9.1940155E0,0E0,4.329947E0,6.7290373E0,9.255798E0,9.130634E0,0E0,1.0909941E1,4.4214816E0,7.067421E0,3.7693024E0,9.5042515E0,0E0,0E0,4.953015E1,1.8708496E0,7.7181854E0,8.894214E1,3.383203E1,3.2086792E0,1.1497147E1,5.7540665E1,5.6169212E1,7.5839157E0,0E0,3.0517483E0,5.1933105E1,0E0,0E0,0E0,0E0,0E0,0E0,0E0,0E0,0E0,0E0,0E0,0E0,0E0,0E0,0E0,0E0,0E0,0E0,0E0,0E0,0E0,0E0,0E0,0E0,0E0,0E0,0E0,0E0,0E0,0E0,0E0,0E0,0E0,0E0,0E0,0E0,0E0,0E0,0E0,0E0,0E0,0E0,0E0,0E0,0E0,0E0,0E0,0E0,0E0,0E0,0E0,0E0,0E0,0E0,0E0,0E0,0E0,0E0,0E0,0E0,0E0,0E0,0E0,0E0,0E0,0E0,0E0,0E0,0E0,0E0,0E0,0E0,0E0,0E0,0E0,0E0,0E0,0E0,0E0,0E0,0E0,0E0,0E0],"parents":[2147483647,0,0,1,1,2,2,3,3,4,4,5,5,6,6,7,7,8,8,9,9,10,10,11,11,12,12,13,13,14,14,16,16,17,17,18,18,19,19,20,20,21,21,22,22,23,23,24,24,25,25,26,26,27,27,28,28,29,29,30,30,31,31,32,32,34,34,35,35,36,36,38,38,39,39,40,40,41,41,42,42,43,43,44,44,45,45,46,46,48,48,49,49,50,50,52,52,53,53,54,54,55,55,56,56,57,57,58,58,59,59,60,60,61,61,62,62,63,63,65,65,67,67,69,69,70,70,72,72,73,73,74,74,75,75,77,77,78,78,79,79,80,80,81,81,82,82,83,83,84,84,85,85,87,87,88,88,89,89,90,90,92,92,93,93,94,94,95,95,96,96,99,99,100,100,101,101,102,102,103,103,104,104,105,105,106,106,107,107,108,108,110,110,111,111],"right_children":[2,4,6,8,10,12,14,16,18,20,22,24,26,28,30,-1,32,34,36,38,40,42,44,46,48,50,52,54,56,58,60,62,64,-1,66,68,70,-1,72,74,76,78,80,82,84,86,88,-1,90,92,94,-1,96,98,100,102,104,106,108,110,112,114,116,118,-1,120,-1,122,-1,124,126,-1,128,130,132,134,-1,136,138,140,142,144,146,148,150,152,-1,154,156,158,160,-1,162,164,166,168,170,-1,-1,172,174,176,178,180,182,184,186,188,190,-1,192,194,-1,-1,-1,-1,-1,-1,-1,-1,-1,-1,-1,-1,-1,-1,-1,-1,-1,-1,-1,-1,-1,-1,-1,-1,-1,-1,-1,-1,-1,-1,-1,-1,-1,-1,-1,-1,-1,-1,-1,-1,-1,-1,-1,-1,-1,-1,-1,-1,-1,-1,-1,-1,-1,-1,-1,-1,-1,-1,-1,-1,-1,-1,-1,-1,-1,-1,-1,-1,-1,-1,-1,-1,-1,-1,-1,-1,-1,-1,-1,-1,-1,-1,-1],"split_conditions":[3.9270833E0,2.0286E4,2E0,3.1215277E0,2.0404E4,1.4034722E1,2E0,1.0826389E0,2E0,2E0,2.0270834E0,3E0,2.7E2,1.2E2,1.4034722E1,-7.3570214E-2,3.3E2,3E0,2.4E2,4.105E3,3.905E3,9.9375E-1,2E0,1.7E1,1E0,1.7E1,1E0,1E0,1.7E1,1.6E1,1E0,2E0,6.287764E-1,-1.823581E-2,3.8188836E-1,4E0,3.7666667E0,-7.102517E-2,3E1,8.784722E-1,4E0,2.5394E4,3.916E3,3.7666667E0,1.8E2,3.9718845E-1,4E0,2.9499097E-2,2E0,3E1,4.305E3,1.4517913E-2,1.7E1,4E0,1.6E1,1E0,4.605E3,1.2E1,4E0,4E0,4E0,4.682286E-1,2E0,3.60956E-1,-4.0113173E-2,3.180671E-1,-4.1026544E-2,1.1E1,-6.6963516E-2,6E0,2E0,-7.26546E-2,2E0,3.6140844E-1,1.7E1,9E1,-7.089472E-2,4.7537294E-1,2.5519E4,3.1E1,2E0,3.7609932E-1,2.2E1,2E0,4.652E3,4.2113978E-1,9.843201E-3,1.2071E4,1.8E1,1.7E1,3.639E3,-6.944846E-2,2E0,4E0,2.2061806E1,1.1E1,2.8E1,2.456991E-2,-6.683236E-2,1.5079166E1,4.139E3,3E0,3.02375E1,1.2984028E1,2E0,1.3127084E1,3.843E3,3.714E3,2.57E2,-9.42587E-3,3.082E3,1.7E1,-6.6075884E-2,-7.053606E-2,-4.165861E-2,1.7037911E-2,-5.9007745E-2,-6.965009E-2,-5.546396E-2,-6.9169044E-2,-4.4582725E-2,-2.0162628E-3,5.234033E-2,-5.2844197E-2,-9.508956E-3,-3.975193E-2,4.9763634E-3,-7.150003E-3,-5.365768E-2,-6.309098E-2,-2.5164992E-2,-1.9755835E-2,3.272286E-2,8.464821E-2,3.929597E-2,-7.199995E-2,-3.9891705E-2,-1.994261E-2,-7.00345E-2,-7.237756E-2,-4.9999878E-2,-6.781036E-2,-2.1310415E-2,-7.024833E-2,-4.185296E-2,-6.122675E-2,-2.1748705E-2,6.484824E-2,-1.8045573E-4,-4.1286208E-2,8.36245E-3,-4.7780883E-2,1.031335E-2,2.3819854E-2,-2.3323886E-2,4.536591E-3,7.204958E-2,-6.426953E-2,-4.818218E-2,-5.8503367E-2,-9.608742E-3,-3.1224916E-2,2.2217117E-3,2.9434416E-2,-3.025504E-2,2.0585515E-2,7.446478E-2,-4.0365417E-2,-6.462961E-2,-4.9616974E-2,5.083095E-3,4.9577996E-2,8.027651E-2,7.498895E-2,8.6717084E-2,-1.9132119E-2,-6.239596E-2,2.7271112E-2,5.6586176E-2,5.0610334E-2,7.283466E-2,6.4604096E-2,8.022161E-2,-4.405242E-2,1.6839398E-2,-2.220041E-2,8.838565E-3,7.133829E-3,4.2301174E-2,-7.310382E-2,-1.7358998E-2,-1.7747251E-2,-6.3441895E-2,3.8958088E-2,6.6764995E-2],"split_indices":[31,18,2,31,18,31,21,31,2,2,31,14,3,22,31,0,3,0,22,1,1,31,2,9,15,9,15,9,9,9,9,2,74,0,48,2,31,0,3,31,2,18,1,31,3,42,0,0,10,3,1,0,9,8,9,9,1,9,2,12,2,65,21,57,0,54,0,13,0,28,15,0,15,37,9,22,0,34,18,27,2,34,13,21,1,37,0,18,9,9,1,0,8,28,31,0,27,0,0,31,1,8,31,31,15,31,1,1,17,0,1,9,0,0,0,0,0,0,0,0,0,0,0,0,0,0,0,0,0,0,0,0,0,0,0,0,0,0,0,0,0,0,0,0,0,0,0,0,0,0,0,0,0,0,0,0,0,0,0,0,0,0,0,0,0,0,0,0,0,0,0,0,0,0,0,0,0,0,0,0,0,0,0,0,0,0,0,0,0,0,0,0,0,0,0],"split_type":[0,0,0,0,0,0,0,0,0,0,0,0,0,0,0,0,0,0,0,0,0,0,0,0,0,0,0,0,0,0,0,0,0,0,0,0,0,0,0,0,0,0,0,0,0,0,0,0,0,0,0,0,0,0,0,0,0,0,0,0,0,0,0,0,0,0,0,0,0,0,0,0,0,0,0,0,0,0,0,0,0,0,0,0,0,0,0,0,0,0,0,0,0,0,0,0,0,0,0,0,0,0,0,0,0,0,0,0,0,0,0,0,0,0,0,0,0,0,0,0,0,0,0,0,0,0,0,0,0,0,0,0,0,0,0,0,0,0,0,0,0,0,0,0,0,0,0,0,0,0,0,0,0,0,0,0,0,0,0,0,0,0,0,0,0,0,0,0,0,0,0,0,0,0,0,0,0,0,0,0,0,0,0,0,0,0,0,0,0,0,0,0,0,0,0],"sum_hessian":[1.2251989E4,4.4970195E3,7.754969E3,2.8206982E3,1.6763213E3,1.1071144E3,6.647855E3,2.6107285E3,2.0996983E2,7.548446E2,9.214767E2,8.114952E2,2.9561923E2,4.4061934E3,2.2416614E3,1.9623065E3,6.48422E2,8.581654E1,1.2415329E2,1.6966508E2,5.851795E2,6.8351184E2,2.3796484E2,1.610809E2,6.504143E2,1.6204471E2,1.3357451E2,1.7753121E3,2.630881E3,1.3260367E3,9.1562476E2,2.3521109E2,4.1321088E2,7.5160995E0,7.8300446E1,2.9680208E1,9.447308E1,6.684039E1,1.028247E2,2.3743034E2,3.4774918E2,4.8942468E2,1.9408717E2,8.1195496E1,1.5676935E2,1.28654E2,3.2426884E1,7.5364475E0,6.4287787E2,1.2451002E2,3.753469E1,9.07048E0,1.2450403E2,2.1404612E1,1.7539076E3,1.3423456E3,1.2885355E3,8.412896E2,4.847471E2,2.9574291E1,8.860505E2,1.5580586E2,7.940523E1,4.0803098E2,5.179907E0,7.151232E1,6.788123E0,2.348799E1,6.1922193E0,5.508801E1,3.9385075E1,2.721415E1,7.561055E1,6.3054035E1,1.7437631E2,3.0899313E2,3.8756035E1,2.8124924E2,2.0817545E2,9.055659E1,1.0353058E2,6.607368E1,1.5121815E1,2.5660439E1,1.3110892E2,1.2045334E2,8.200668E0,1.7524912E1,1.4901972E1,6.0246344E2,4.0414387E1,1.0786499E1,1.13723526E2,1.041572E1,2.7118973E1,9.360387E1,3.0900164E1,9.174026E0,1.2230587E1,6.931288E2,1.0607788E3,5.31624E1,1.2891832E3,9.0602026E2,3.825153E2,2.264885E2,6.148011E2,4.5423264E2,3.0514462E1,5.5221004E0,2.405219E1,8.7102484E2,1.502565E1,1.4712592E2,8.679945E0,4.2125282E1,3.7279945E1,3.83055E2,2.4975983E1,6.366542E1,7.8469014E0,5.1413894E0,1.83466E1,4.7717453E1,7.370554E0,1.1262866E1,2.812221E1,1.9267103E1,5.6343445E1,5.618487E1,6.869162E0,1.25458336E2,4.891798E1,8.147953E1,2.2751361E2,2.7609247E2,5.156761E0,2.6675253E1,1.815002E2,6.804925E1,2.2507336E1,4.937894E1,5.415164E1,5.9092514E1,6.9811645E0,7.4313884E0,7.6904263E0,1.8575869E1,7.084571E0,1.1253861E2,1.8570301E1,1.13554016E2,6.899329E0,8.312198E0,9.212714E0,6.177765E0,8.724207E0,4.705535E2,1.3190996E2,1.4650696E1,2.5763689E1,3.405919E1,7.966433E1,5.3401017E0,5.0756183E0,1.1024112E1,1.609486E1,3.152724E1,6.2076626E1,1.3101174E1,1.779899E1,1.8645183E2,5.0667697E2,9.5076294E1,9.657025E2,1.5670032E1,3.7492367E1,9.288694E2,3.6031384E2,6.6455206E2,2.4146815E2,6.936858E1,3.1314673E2,2.1894427E2,7.544221E0,3.6177933E2,2.5302174E2,2.3094504E2,2.2328761E2,2.1013973E1,9.500489E0,5.7133965E0,1.8338793E1,6.39282E2,2.3174283E2],"tree_param":{"num_deleted":"0","num_feature":"98","num_nodes":"195","size_leaf_vector":"1"}},{"base_weights":[-4.798331E-4,-1.0694087E0,6.0960567E-1,2.0905878E-1,-1.3796376E0,2.8384852E-1,1.1249799E0,-2.6981762E-1,8.0447495E-1,-1.4128865E0,-4.3603885E-1,-5.5275973E-2,1.0173593E0,1.4320533E0,8.332127E-1,-8.785702E-1,-2.7883E-2,-3.9345866E-1,1.0942994E0,-1.4312162E0,-1.0461566E0,-5.1932055E-1,4.7629606E-2,-6.426086E-1,9.8155074E-2,-9.067203E-1,1.0831869E0,-6.8503544E-2,1.4693913E0,6.586795E-1,1.2420342E0,-1.1358144E0,-1.4441305E-1,-1.457697E-1,1.1460203E0,-1.2360222E0,1.525012E-1,6.765411E-1,1.3912203E0,-7.20679E-2,-1.3693877E0,-1.1636498E0,-5.8044165E-1,-8.0389374E-1,-2.0303816E-1,-1.1357509E0,-5.070052E-1,3.1930703E-1,-2.7568966E-1,-5.058774E-1,-1.2016838E0,1.450475E0,8.6311793E-1,1.4878469E0,-5.3518564E-2,-1.0309795E-1,8.0860305E-1,1.3853183E0,9.3269193E-1,-1.2192656E0,-1.2594322E-2,-1.008662E0,7.569817E-1,-4.7387883E-1,2.438004E-1,5.5910265E-1,8.017074E-2,-6.6779636E-2,-3.693525E-2,-8.280185E-1,9.605996E-1,7.942778E-1,-3.2638603E-1,1.3126406E-1,1.4929813E0,-1.3759767E0,-3.9980363E-2,-2.4211831E-2,-1.2129134E0,-6.410143E-2,-3.2996672E-1,-2.2489429E-1,-1.005769E0,-6.761121E-2,-4.3533497E-2,-1.1974827E0,6.86131E-4,-2.205835E-1,-7.9065764E-1,-2.0858033E-1,7.614337E-1,-4.5272425E-1,2.4602316E-1,2.5606764E-2,-8.485261E-1,-1.7656242E-2,-6.879911E-2,8.1173164E-1,1.5071759E0,5.776861E-1,1.1806406E0,1.4002094E0,1.7004553E0,1.3495648E0,-5.422456E-1,-1.465503E-1,1.0858239E0,1.1271775E0,1.5554677E0,1.0995506E0,2.5519663E-1,-4.1672453E-2,-6.417229E-2,-2.716339E-2,-6.697664E-2,-7.405365E-5,5.251493E-2,-5.029067E-2,-1.3203675E-2,-4.2148616E-2,2.2183476E-2,-2.930747E-3,4.3903623E-2,-6.3527815E-2,-1.6270664E-2,-1.0355845E-3,6.183542E-2,2.4813047E-2,6.1131973E-2,1.0802028E-3,-3.269663E-2,-3.0312423E-2,3.9108884E-2,7.71264E-2,2.532557E-2,-6.9208875E-2,-4.521374E-2,-6.2017918E-2,-2.4877192E-2,2.2867672E-2,-3.4794178E-2,-4.4411745E-2,7.709143E-3,-5.6580316E-2,-2.3367068E-2,-5.705309E-2,6.2118582E-3,-6.5068215E-2,-3.8806926E-2,-6.752982E-2,-4.922694E-3,-4.6644744E-2,-8.845177E-3,-1.7244635E-2,1.006154E-2,2.9724007E-2,6.577556E-2,-2.6877409E-2,2.4228662E-2,-1.3896822E-2,2.995422E-2,-3.7233324E-3,-6.444686E-2,4.8087314E-2,-9.83586E-3,8.338102E-2,7.089866E-2,2.2867164E-2,6.935254E-2,6.0378052E-2,1.454481E-2,7.516122E-2,6.389087E-2,8.5527785E-2,4.8423044E-2,3.943843E-2,7.588934E-2,2.3812536E-2,-4.370358E-2,5.225528E-2,-6.6406064E-2,3.236607E-2,6.4405285E-2,6.539514E-2,2.857445E-2,8.426602E-2,6.4102426E-2,3.831622E-2,6.873909E-2,2.598742E-2,-4.3715462E-2],"categories":[],"categories_nodes":[],"categories_segments":[],"categories_sizes":[],"default_left":[0,0,0,0,0,0,0,0,0,0,0,0,0,0,0,0,0,0,0,0,0,0,0,0,0,0,0,0,0,0,0,0,0,0,0,0,0,0,0,0,0,0,0,0,0,0,0,0,0,0,0,0,0,0,0,0,0,0,0,0,0,0,0,0,0,0,0,0,0,0,0,0,0,0,0,0,0,0,0,0,0,0,0,0,0,0,0,0,0,0,0,0,0,0,0,0,0,0,0,0,0,0,0,0,0,0,0,0,0,0,0,0,0,0,0,0,0,0,0,0,0,0,0,0,0,0,0,0,0,0,0,0,0,0,0,0,0,0,0,0,0,0,0,0,0,0,0,0,0,0,0,0,0,0,0,0,0,0,0,0,0,0,0,0,0,0,0,0,0,0,0,0,0,0,0,0,0,0,0,0,0,0,0,0,0,0,0,0,0,0,0],"id":6,"left_children":[1,3,5,7,9,11,13,15,17,19,21,23,25,27,29,31,33,35,37,39,41,43,-1,45,47,49,51,-1,53,55,57,59,61,63,65,67,69,71,73,-1,75,77,79,81,83,85,87,89,91,93,95,97,99,101,-1,103,105,107,109,111,-1,113,115,117,119,121,-1,-1,-1,123,125,127,129,131,133,135,-1,-1,137,-1,139,141,143,-1,145,147,-1,149,151,153,155,157,159,-1,161,-1,-1,163,165,167,169,171,173,175,177,179,181,183,185,187,189,-1,-1,-1,-1,-1,-1,-1,-1,-1,-1,-1,-1,-1,-1,-1,-1,-1,-1,-1,-1,-1,-1,-1,-1,-1,-1,-1,-1,-1,-1,-1,-1,-1,-1,-1,-1,-1,-1,-1,-1,-1,-1,-1,-1,-1,-1,-1,-1,-1,-1,-1,-1,-1,-1,-1,-1,-1,-1,-1,-1,-1,-1,-1,-1,-1,-1,-1,-1,-1,-1,-1,-1,-1,-1,-1,-1,-1,-1,-1,-1],"loss_changes":[7.902796E3,1.7467114E3,1.2949265E3,2.4563217E2,1.1055859E2,1.1762612E3,2.6647412E2,7.034352E1,1.3372441E2,2.1509277E1,1.4610554E1,2.9153482E2,1.9033447E2,1.5416064E2,1.0866235E2,2.549231E1,4.7625595E1,3.493081E1,3.7436584E1,6.8359375E-2,8.442673E0,1.0259438E1,0E0,4.4232758E1,2.1218405E2,5.3037796E0,1.15625854E2,0E0,6.888135E1,1.2313382E2,1.900531E1,7.1029053E0,2.9116644E1,4.006364E1,7.535351E0,4.893303E-1,3.781399E1,1.5667469E1,2.2870728E1,0E0,6.97937E-1,3.8331146E0,5.826973E0,6.8591614E0,1.02394085E1,1.0213882E1,4.267044E1,3.7646387E2,8.822858E1,8.4305E0,3.666771E0,1.8345215E1,8.149164E1,2.4181885E1,0E0,1.14323586E2,2.3856378E2,1.1902466E1,1.6452957E1,1.1967316E0,0E0,2.1994247E0,4.091917E0,1.8705421E1,3.1553347E1,3.0645146E0,0E0,0E0,0E0,4.4008684E0,7.0905E0,1.4338341E1,1.6575139E0,7.454632E0,7.350067E0,5.745239E-1,0E0,0E0,1.7874908E0,0E0,8.256858E0,4.401462E0,2.4969673E0,0E0,9.416204E0,4.9600067E0,0E0,3.627153E1,2.2931854E1,4.1165768E1,8.040515E1,5.6922592E1,4.500173E1,0E0,5.8789225E0,0E0,0E0,7.181427E0,4.7210693E0,4.606247E1,9.906372E0,1.0878784E1,1.385498E0,2.72921E0,4.686657E1,2.8780237E2,6.1074463E1,1.2021622E1,4.3991394E0,9.811829E0,9.584452E0,0E0,0E0,0E0,0E0,0E0,0E0,0E0,0E0,0E0,0E0,0E0,0E0,0E0,0E0,0E0,0E0,0E0,0E0,0E0,0E0,0E0,0E0,0E0,0E0,0E0,0E0,0E0,0E0,0E0,0E0,0E0,0E0,0E0,0E0,0E0,0E0,0E0,0E0,0E0,0E0,0E0,0E0,0E0,0E0,0E0,0E0,0E0,0E0,0E0,0E0,0E0,0E0,0E0,0E0,0E0,0E0,0E0,0E0,0E0,0E0,0E0,0E0,0E0,0E0,0E0,0E0,0E0,0E0,0E0,0E0,0E0,0E0,0E0,0E0,0E0,0E0,0E0,0E0,0E0,0E0],"parents":[2147483647,0,0,1,1,2,2,3,3,4,4,5,5,6,6,7,7,8,8,9,9,10,10,11,11,12,12,13,13,14,14,15,15,16,16,17,17,18,18,19,19,20,20,21,21,23,23,24,24,25,25,26,26,28,28,29,29,30,30,31,31,32,32,33,33,34,34,35,35,36,36,37,37,38,38,40,40,41,41,42,42,43,43,44,44,45,45,46,46,47,47,48,48,49,49,50,50,51,51,52,52,53,53,55,55,56,56,57,57,58,58,59,59,61,61,62,62,63,63,64,64,65,65,69,69,70,70,71,71,72,72,73,73,74,74,75,75,78,78,80,80,81,81,82,82,84,84,85,85,87,87,88,88,89,89,90,90,91,91,92,92,94,94,97,97,98,98,99,99,100,100,101,101,102,102,103,103,104,104,105,105,106,106,107,107,108,108,109,109,110,110],"right_children":[2,4,6,8,10,12,14,16,18,20,22,24,26,28,30,32,34,36,38,40,42,44,-1,46,48,50,52,-1,54,56,58,60,62,64,66,68,70,72,74,-1,76,78,80,82,84,86,88,90,92,94,96,98,100,102,-1,104,106,108,110,112,-1,114,116,118,120,122,-1,-1,-1,124,126,128,130,132,134,136,-1,-1,138,-1,140,142,144,-1,146,148,-1,150,152,154,156,158,160,-1,162,-1,-1,164,166,168,170,172,174,176,178,180,182,184,186,188,190,-1,-1,-1,-1,-1,-1,-1,-1,-1,-1,-1,-1,-1,-1,-1,-1,-1,-1,-1,-1,-1,-1,-1,-1,-1,-1,-1,-1,-1,-1,-1,-1,-1,-1,-1,-1,-1,-1,-1,-1,-1,-1,-1,-1,-1,-1,-1,-1,-1,-1,-1,-1,-1,-1,-1,-1,-1,-1,-1,-1,-1,-1,-1,-1,-1,-1,-1,-1,-1,-1,-1,-1,-1,-1,-1,-1,-1,-1,-1,-1],"split_conditions":[3.9270833E0,2E0,1.7E1,1.6E1,3.7666667E0,2.5065971E1,3.3E2,8.6041665E-1,2.5138888E-1,3.1215277E0,1.7E1,1.2E1,1E0,8.219178E-2,1.5079166E1,4.676E3,2E0,2E0,4.176E3,1.9118055E0,3.0366084E-1,2E0,4.7629606E-2,1E0,4E0,4E0,6E1,-6.8503544E-2,4E0,2E0,4E0,1.8E1,2E0,4.197E3,2.5E1,1.4E3,3.905E3,9E0,1.6438356E-1,-7.20679E-2,6.235234E-1,3.14E2,4E0,2.4657534E-1,1.602E3,2E0,2E0,2E0,1.6E1,3.2876712E-1,3.685E3,9.589041E-2,5.600347E1,2.2061806E1,-5.3518564E-2,2E0,3E0,2E0,3.019735E-1,2.4657534E-1,-1.2594322E-2,6E0,1.2E1,2E0,1.1E1,1.3E1,8.017074E-2,-6.6779636E-2,-3.693525E-2,2.228E3,7.638889E-2,1.8E1,1.48E2,1.9576389E0,4.1157672E-1,4.5347E-1,-3.9980363E-2,-2.4211831E-2,4.68E2,-6.410143E-2,5E0,8.16E2,1.8E1,-6.761121E-2,3.565E3,4.06E2,6.86131E-4,3E1,1.2984028E1,1.6E1,4.729E3,2E0,3.925E3,2.5606764E-2,2.0156E4,-1.7656242E-2,-6.879911E-2,3.872892E-1,1.2E1,2E0,1.9E1,2E1,4.6230608E-1,2E0,2.5E1,2E0,3.639E3,1E1,1.193E3,3.02375E1,1.2E1,-4.1672453E-2,-6.417229E-2,-2.716339E-2,-6.697664E-2,-7.405365E-5,5.251493E-2,-5.029067E-2,-1.3203675E-2,-4.2148616E-2,2.2183476E-2,-2.930747E-3,4.3903623E-2,-6.3527815E-2,-1.6270664E-2,-1.0355845E-3,6.183542E-2,2.4813047E-2,6.1131973E-2,1.0802028E-3,-3.269663E-2,-3.0312423E-2,3.9108884E-2,7.71264E-2,2.532557E-2,-6.9208875E-2,-4.521374E-2,-6.2017918E-2,-2.4877192E-2,2.2867672E-2,-3.4794178E-2,-4.4411745E-2,7.709143E-3,-5.6580316E-2,-2.3367068E-2,-5.705309E-2,6.2118582E-3,-6.5068215E-2,-3.8806926E-2,-6.752982E-2,-4.922694E-3,-4.6644744E-2,-8.845177E-3,-1.7244635E-2,1.006154E-2,2.9724007E-2,6.577556E-2,-2.6877409E-2,2.4228662E-2,-1.3896822E-2,2.995422E-2,-3.7233324E-3,-6.444686E-2,4.8087314E-2,-9.83586E-3,8.338102E-2,7.089866E-2,2.2867164E-2,6.935254E-2,6.0378052E-2,1.454481E-2,7.516122E-2,6.389087E-2,8.5527785E-2,4.8423044E-2,3.943843E-2,7.588934E-2,2.3812536E-2,-4.370358E-2,5.225528E-2,-6.6406064E-2,3.236607E-2,6.4405285E-2,6.539514E-2,2.857445E-2,8.426602E-2,6.4102426E-2,3.831622E-2,6.873909E-2,2.598742E-2,-4.3715462E-2],"split_indices":[31,20,9,9,31,31,22,31,31,31,9,9,9,4,31,1,10,21,1,31,56,21,0,9,8,8,22,0,21,15,8,29,21,1,13,16,1,4,4,0,79,16,25,4,1,10,4,8,9,4,1,4,31,31,0,20,20,8,54,4,0,6,9,8,9,9,0,0,0,1,31,9,17,31,45,40,0,0,17,0,12,16,29,0,18,17,0,22,31,9,1,10,1,0,18,0,0,39,9,10,29,14,35,8,13,20,1,6,16,31,6,0,0,0,0,0,0,0,0,0,0,0,0,0,0,0,0,0,0,0,0,0,0,0,0,0,0,0,0,0,0,0,0,0,0,0,0,0,0,0,0,0,0,0,0,0,0,0,0,0,0,0,0,0,0,0,0,0,0,0,0,0,0,0,0,0,0,0,0,0,0,0,0,0,0,0,0,0,0,0,0],"split_type":[0,0,0,0,0,0,0,0,0,0,0,0,0,0,0,0,0,0,0,0,0,0,0,0,0,0,0,0,0,0,0,0,0,0,0,0,0,0,0,0,0,0,0,0,0,0,0,0,0,0,0,0,0,0,0,0,0,0,0,0,0,0,0,0,0,0,0,0,0,0,0,0,0,0,0,0,0,0,0,0,0,0,0,0,0,0,0,0,0,0,0,0,0,0,0,0,0,0,0,0,0,0,0,0,0,0,0,0,0,0,0,0,0,0,0,0,0,0,0,0,0,0,0,0,0,0,0,0,0,0,0,0,0,0,0,0,0,0,0,0,0,0,0,0,0,0,0,0,0,0,0,0,0,0,0,0,0,0,0,0,0,0,0,0,0,0,0,0,0,0,0,0,0,0,0,0,0,0,0,0,0,0,0,0,0,0,0,0,0,0,0],"sum_hessian":[1.2116288E4,4.4022925E3,7.713995E3,8.597108E2,3.5425818E3,4.727434E3,2.986561E3,4.767894E2,3.829214E2,3.4215225E3,1.2105928E2,3.2334404E3,1.4939939E3,1.4532083E3,1.5333528E3,1.3485007E2,3.4193933E2,7.4525795E1,3.083956E2,3.2558855E3,1.6563692E2,1.1480027E2,6.259005E0,6.690676E2,2.5643728E3,4.8999847E1,1.444994E3,1.8639841E1,1.4345684E3,1.0764208E3,4.5693204E2,9.945465E1,3.539542E1,3.115304E2,3.0408941E1,2.8806162E1,4.571963E1,1.2948827E2,1.7890733E2,2.7779133E3,4.7797217E2,1.3107097E2,3.456595E1,5.9617805E1,5.518247E1,1.4270897E2,5.2635864E2,1.6113229E3,9.5304987E2,2.1922777E1,2.707707E1,5.393107E2,9.056833E2,1.4246304E3,9.938096E0,1.770621E2,8.993587E2,3.099077E2,1.4702429E2,9.0528534E1,8.926115E0,1.8009283E1,1.7386135E1,1.6898721E2,1.4254317E2,1.4292067E1,1.6116873E1,2.2596422E1,6.2097397E0,2.0645012E1,2.5074621E1,1.1607044E2,1.3417825E1,1.3540855E1,1.6536649E2,4.7110938E2,6.862802E0,9.593445E0,1.2147752E2,8.010352E0,2.6555597E1,1.5959189E1,4.3658615E1,5.814316E0,4.9368153E1,1.3539586E2,7.3131175E0,2.6278537E2,2.6357327E2,7.3467224E2,8.7665063E2,7.1168396E2,2.413659E2,5.396144E0,1.6526632E1,5.129664E0,2.1947407E1,4.5219845E1,4.9409088E2,4.784278E2,4.272555E2,1.0141729E3,4.1045743E2,4.0620346E1,1.3644176E2,2.0241553E2,6.969432E2,1.26147964E2,1.8375977E2,1.1746994E2,2.9554358E1,1.490626E1,7.562228E1,8.581168E0,9.428115E0,5.1260576E0,1.2260078E1,4.6725834E1,1.2226138E2,2.1643066E1,1.2090011E2,5.144825E0,9.147242E0,1.0166016E1,1.0478996E1,5.7090864E0,1.9365534E1,6.972226E1,4.6348183E1,6.958771E0,6.4590535E0,6.380312E0,7.160543E0,1.5692125E2,8.4452305E0,4.6115753E2,9.951856E0,1.1628251E2,5.195012E0,8.346682E0,1.8208916E1,5.31515E0,1.064404E1,3.449501E1,9.163604E0,5.7766876E0,4.359147E1,1.0694112E2,2.8454739E1,2.4650076E1,2.381353E2,2.1356071E2,5.0012558E1,5.51417E2,1.8325526E2,6.752565E2,2.0139415E2,6.5301373E2,5.8670204E1,9.725204E1,1.4411386E2,6.4171095E0,1.0109524E1,3.9404438E1,5.8154073E0,1.7022368E2,3.2386722E2,4.1786182E2,6.0565964E1,4.1436124E2,1.2894276E1,5.445523E2,4.696206E2,4.035522E2,6.9052367E0,1.0685917E1,2.993443E1,3.3422012E1,1.03019745E2,1.0083518E2,1.01580345E2,2.2133577E2,4.756074E2,9.41682E1,3.197977E1,1.2108839E2,6.2671375E1,5.4848442E1,6.26215E1,2.4383194E1,5.171163E0],"tree_param":{"num_deleted":"0","num_feature":"98","num_nodes":"191","size_leaf_vector":"1"}},{"base_weights":[-4.4632484E-3,-1.041219E0,5.782066E-1,1.7626424E-1,-1.3455716E0,-8.508995E-1,8.12945E-1,-1.0523294E0,5.4237115E-1,-1.3779593E0,-4.383324E-1,-1.0085292E0,-4.257213E-1,1.0965252E0,2.5698125E-1,-1.2399566E0,-7.933888E-1,-3.0317768E-1,9.113906E-1,-1.3969994E0,-1.0102139E0,-1.0170405E0,-2.8362332E-2,-5.6161517E-1,-1.1213053E0,-5.6754254E-2,-8.7343585E-1,1.4590539E0,8.5307354E-1,-1.1678194E-1,7.167554E-1,-6.868561E-2,-1.0700732E0,-8.9915895E-1,7.730453E-3,-1.0066524E0,-4.5212008E-2,9.961544E-1,-1.2055285E0,-7.042224E-2,-1.3262796E0,-1.3320849E0,-7.846807E-1,-4.3629497E-1,-1.2092949E0,-1.4952019E-1,6.1029185E-2,-7.133004E-1,8.715853E-1,2.916413E-2,-1.1429089E0,-3.9142805E-1,4.626815E-1,-1.0710182E0,-3.6152315E-1,-6.9446516E-1,1.4848707E0,5.814363E-1,1.140097E0,3.9152232E-1,-3.4621805E-1,7.5772643E-1,-6.444465E-2,-1.2681578E0,-7.3029625E-1,-3.5076386E-1,-1.0790735E0,-1.1249056E0,-1.34335775E-2,-4.1019893E-1,5.6729996E-1,-1.389272E-1,1.1336064E0,-6.9043286E-2,-3.1865615E-2,-1.3363605E0,-3.9272998E-2,-6.8498254E-2,-3.6541324E-2,1.4450611E-1,-9.2234415E-1,2.1090945E-3,-3.776003E-2,-6.413016E-2,-3.7746318E-2,-5.504727E-2,-4.1525863E-2,-9.1545314E-1,-3.5265842E-1,6.718086E-2,1.2775873E-3,-1.1811339E0,-5.3075325E-1,-5.6027097E-1,5.0013596E-1,-3.6052305E-1,7.954841E-1,-1.2173363E0,-4.2040503E-1,-4.6742603E-2,-1.1067667E0,1.1722419E-3,-5.904759E-2,1.3325691E0,1.5828161E0,-1.0003159E0,6.4232814E-1,6.264918E-1,1.2297633E0,5.2708086E-2,9.396867E-1,-1.4031415E0,4.0526602E-2,-7.8556347E-1,8.071283E-1,-6.8157226E-2,-3.77991E-2,-5.485169E-4,-4.844346E-2,-5.493323E-2,1.1711328E-2,-3.592114E-2,-6.0837537E-2,-6.8665914E-2,-4.5902964E-2,-2.7259057E-2,3.7839513E-2,3.7265416E-2,-1.0459297E-2,-5.2579667E-2,1.38361575E-2,7.981967E-2,4.753716E-2,-6.899583E-2,-6.1904546E-2,4.7692053E-2,-4.379182E-2,-5.3393412E-2,-1.7810872E-2,-2.6172502E-2,1.0315756E-2,-5.1308412E-2,4.169476E-3,-2.7141024E-3,-4.8817255E-2,-6.266301E-2,-4.6387345E-2,-5.5527546E-2,-1.0238867E-3,-1.3895141E-2,-4.827764E-2,5.6625605E-2,-1.6207775E-2,-3.788964E-2,1.5411136E-2,5.3630363E-2,2.338479E-3,-6.3206114E-2,-2.3727614E-2,-4.1748982E-2,4.846995E-3,3.108919E-2,-2.3352776E-2,-3.4621846E-2,-6.657874E-2,4.5559622E-2,7.439184E-2,8.035515E-2,6.77497E-2,-2.767911E-2,-5.8929116E-2,2.7781993E-2,6.34656E-2,6.95902E-2,-2.8001634E-2,3.6665015E-2,6.520122E-2,-4.423109E-3,5.2232146E-2,3.0232966E-2,6.103879E-2,-7.0895374E-2,-3.382446E-2,-2.883291E-2,1.54341385E-2,-6.2735535E-2,-2.5468847E-2,4.9665626E-2,2.3947733E-2],"categories":[],"categories_nodes":[],"categories_segments":[],"categories_sizes":[],"default_left":[0,0,0,0,0,0,0,0,0,0,0,0,0,0,0,0,0,0,0,0,0,0,0,0,0,0,0,0,0,0,0,0,0,0,0,0,0,0,0,0,0,0,0,0,0,0,0,0,0,0,0,0,0,0,0,0,0,0,0,0,0,0,0,0,0,0,0,0,0,0,0,0,0,0,0,0,0,0,0,0,0,0,0,0,0,0,0,0,0,0,0,0,0,0,0,0,0,0,0,0,0,0,0,0,0,0,0,0,0,0,0,0,0,0,0,0,0,0,0,0,0,0,0,0,0,0,0,0,0,0,0,0,0,0,0,0,0,0,0,0,0,0,0,0,0,0,0,0,0,0,0,0,0,0,0,0,0,0,0,0,0,0,0,0,0,0,0,0,0,0,0,0,0,0,0,0,0,0,0,0,0,0,0,0,0,0,0,0,0],"id":7,"left_children":[1,3,5,7,9,11,13,15,17,19,21,23,25,27,29,31,33,35,37,39,41,43,45,47,49,51,53,55,57,59,61,-1,63,65,-1,67,69,71,73,-1,75,77,79,81,83,85,-1,87,89,-1,91,93,95,97,99,101,103,105,107,109,111,113,-1,115,117,119,121,123,-1,125,127,129,131,-1,-1,133,-1,-1,-1,135,137,-1,-1,-1,-1,-1,139,141,143,-1,-1,145,147,149,151,153,155,157,159,161,163,-1,-1,165,167,169,171,173,175,177,179,181,183,185,187,-1,-1,-1,-1,-1,-1,-1,-1,-1,-1,-1,-1,-1,-1,-1,-1,-1,-1,-1,-1,-1,-1,-1,-1,-1,-1,-1,-1,-1,-1,-1,-1,-1,-1,-1,-1,-1,-1,-1,-1,-1,-1,-1,-1,-1,-1,-1,-1,-1,-1,-1,-1,-1,-1,-1,-1,-1,-1,-1,-1,-1,-1,-1,-1,-1,-1,-1,-1,-1,-1,-1,-1,-1,-1],"loss_changes":[7.24414E3,1.5990195E3,2.576137E3,3.890963E2,1.0082471E2,7.219464E1,1.0394258E3,8.667221E0,2.0812672E2,2.1922363E1,2.8547947E1,3.917694E1,4.8650433E1,3.8416016E2,3.8309988E2,1.1069489E0,8.786079E0,3.6818943E1,8.445938E1,6.9384766E-1,1.1125473E1,5.045685E0,1.100662E1,3.5653946E1,2.3853699E1,2.8462875E1,1.3077354E1,9.848926E1,2.0320654E2,1.4361337E2,8.311389E1,0E0,2.7406769E0,7.290539E0,0E0,4.4502487E0,3.369564E1,6.984799E1,9.447746E-1,0E0,1.447937E0,5.3939056E-1,1.30546875E1,2.1649606E0,2.6208496E-1,6.745636E0,0E0,1.03411255E1,6.3045692E0,0E0,1.3930237E1,1.5255597E1,1.7876827E1,8.58329E0,8.9990635E0,7.5181093E0,2.3735107E1,1.3023273E2,5.7734375E1,7.1098404E1,3.467611E2,7.536426E1,0E0,5.777931E-1,3.8372545E0,9.306427E0,2.0080109E0,1.134861E0,0E0,1.5278543E1,7.939066E0,1.8931732E1,3.220941E1,0E0,0E0,2.1044922E-1,0E0,0E0,0E0,1.2313449E1,6.879074E0,0E0,0E0,0E0,0E0,0E0,7.3220053E0,1.0381836E1,1.0027094E1,0E0,0E0,9.523682E0,1.1332026E1,9.357481E0,8.899272E0,5.3271036E0,9.501097E0,2.0923615E0,4.170788E0,8.205533E0,1.4102554E-1,0E0,0E0,4.342285E1,3.6271973E0,3.350689E0,6.9746216E1,1.7409052E2,3.8880005E1,3.3393078E1,1.3036667E1,1.4790955E0,1.0310982E2,3.3659286E0,5.7586365E1,0E0,0E0,0E0,0E0,0E0,0E0,0E0,0E0,0E0,0E0,0E0,0E0,0E0,0E0,0E0,0E0,0E0,0E0,0E0,0E0,0E0,0E0,0E0,0E0,0E0,0E0,0E0,0E0,0E0,0E0,0E0,0E0,0E0,0E0,0E0,0E0,0E0,0E0,0E0,0E0,0E0,0E0,0E0,0E0,0E0,0E0,0E0,0E0,0E0,0E0,0E0,0E0,0E0,0E0,0E0,0E0,0E0,0E0,0E0,0E0,0E0,0E0,0E0,0E0,0E0,0E0,0E0,0E0,0E0,0E0,0E0,0E0,0E0,0E0],"parents":[2147483647,0,0,1,1,2,2,3,3,4,4,5,5,6,6,7,7,8,8,9,9,10,10,11,11,12,12,13,13,14,14,15,15,16,16,17,17,18,18,19,19,20,20,21,21,22,22,23,23,24,24,25,25,26,26,27,27,28,28,29,29,30,30,32,32,33,33,35,35,36,36,37,37,38,38,40,40,41,41,42,42,43,43,44,44,45,45,47,47,48,48,50,50,51,51,52,52,53,53,54,54,55,55,56,56,57,57,58,58,59,59,60,60,61,61,63,63,64,64,65,65,66,66,67,67,69,69,70,70,71,71,72,72,75,75,79,79,80,80,86,86,87,87,88,88,91,91,92,92,93,93,94,94,95,95,96,96,97,97,98,98,99,99,100,100,103,103,104,104,105,105,106,106,107,107,108,108,109,109,110,110,111,111,112,112,113,113,114,114],"right_children":[2,4,6,8,10,12,14,16,18,20,22,24,26,28,30,32,34,36,38,40,42,44,46,48,50,52,54,56,58,60,62,-1,64,66,-1,68,70,72,74,-1,76,78,80,82,84,86,-1,88,90,-1,92,94,96,98,100,102,104,106,108,110,112,114,-1,116,118,120,122,124,-1,126,128,130,132,-1,-1,134,-1,-1,-1,136,138,-1,-1,-1,-1,-1,140,142,144,-1,-1,146,148,150,152,154,156,158,160,162,164,-1,-1,166,168,170,172,174,176,178,180,182,184,186,188,-1,-1,-1,-1,-1,-1,-1,-1,-1,-1,-1,-1,-1,-1,-1,-1,-1,-1,-1,-1,-1,-1,-1,-1,-1,-1,-1,-1,-1,-1,-1,-1,-1,-1,-1,-1,-1,-1,-1,-1,-1,-1,-1,-1,-1,-1,-1,-1,-1,-1,-1,-1,-1,-1,-1,-1,-1,-1,-1,-1,-1,-1,-1,-1,-1,-1,-1,-1,-1,-1,-1,-1,-1,-1],"split_conditions":[3.9270833E0,2E0,2E0,2E0,3.7666667E0,1.4034722E1,2E0,2.015E3,2.013E3,3.1215277E0,2E0,3E0,2E1,1.2E2,1.2156944E1,9.7152776E-1,1.8E1,8.784722E-1,4E0,1.9118055E0,2E0,2.4657534E-1,1.7E1,1.8E1,1E0,9E0,3.31125E1,1E0,1.7E1,2E0,4E0,-6.868561E-2,1.5E1,2E0,7.730453E-3,1.8E1,1.6E1,1.2E1,8E0,-7.042224E-2,4.5347E-1,2E0,3.2876712E-1,1.0778E4,1.8E1,3E0,6.1029185E-2,9.589041E-2,1.5E1,2.916413E-2,2E0,3.2446548E-1,2E0,1.7E1,1.193E3,4E0,1.6E1,1E0,3E0,1.6E1,3E0,1E0,-6.444465E-2,3.076516E-1,2E0,1.0152777E0,3E0,2.008E3,-1.34335775E-2,2E0,1.312E3,1E0,9E1,-6.9043286E-2,-3.1865615E-2,1.7E1,-3.9272998E-2,-6.8498254E-2,-3.6541324E-2,2E0,2.9304886E-1,2.1090945E-3,-3.776003E-2,-6.413016E-2,-3.7746318E-2,-5.504727E-2,1.4E1,3.9971706E-1,2E0,6.718086E-2,1.2775873E-3,1.7E1,3E0,2E0,3.4718856E-1,1.6E1,8E0,3.4807262E-1,1.44E2,3E0,1.5841E4,1.1722419E-3,-5.904759E-2,1.5079166E1,9E1,3E0,2E0,2E0,2E0,2E0,2.3E1,5.703296E-1,2E0,2.9E1,4E0,-6.8157226E-2,-3.77991E-2,-5.485169E-4,-4.844346E-2,-5.493323E-2,1.1711328E-2,-3.592114E-2,-6.0837537E-2,-6.8665914E-2,-4.5902964E-2,-2.7259057E-2,3.7839513E-2,3.7265416E-2,-1.0459297E-2,-5.2579667E-2,1.38361575E-2,7.981967E-2,4.753716E-2,-6.899583E-2,-6.1904546E-2,4.7692053E-2,-4.379182E-2,-5.3393412E-2,-1.7810872E-2,-2.6172502E-2,1.0315756E-2,-5.1308412E-2,4.169476E-3,-2.7141024E-3,-4.8817255E-2,-6.266301E-2,-4.6387345E-2,-5.5527546E-2,-1.0238867E-3,-1.3895141E-2,-4.827764E-2,5.6625605E-2,-1.6207775E-2,-3.788964E-2,1.5411136E-2,5.3630363E-2,2.338479E-3,-6.3206114E-2,-2.3727614E-2,-4.1748982E-2,4.846995E-3,3.108919E-2,-2.3352776E-2,-3.4621846E-2,-6.657874E-2,4.5559622E-2,7.439184E-2,8.035515E-2,6.77497E-2,-2.767911E-2,-5.8929116E-2,2.7781993E-2,6.34656E-2,6.95902E-2,-2.8001634E-2,3.6665015E-2,6.520122E-2,-4.423109E-3,5.2232146E-2,3.0232966E-2,6.103879E-2,-7.0895374E-2,-3.382446E-2,-2.883291E-2,1.54341385E-2,-6.2735535E-2,-2.5468847E-2,4.9665626E-2,2.3947733E-2],"split_indices":[31,20,2,2,31,31,21,11,11,31,2,14,0,22,31,31,9,31,2,31,2,4,9,9,15,0,31,9,9,20,2,0,9,15,0,9,9,9,12,0,40,10,4,18,29,20,0,4,29,0,10,56,8,9,16,8,9,9,20,9,20,9,0,44,15,31,8,11,0,10,16,9,22,0,0,9,0,0,0,21,56,0,0,0,0,0,0,45,15,0,0,9,20,15,56,9,12,56,17,8,18,0,0,31,22,8,10,20,15,10,27,44,15,27,8,0,0,0,0,0,0,0,0,0,0,0,0,0,0,0,0,0,0,0,0,0,0,0,0,0,0,0,0,0,0,0,0,0,0,0,0,0,0,0,0,0,0,0,0,0,0,0,0,0,0,0,0,0,0,0,0,0,0,0,0,0,0,0,0,0,0,0,0,0,0,0,0,0,0],"split_type":[0,0,0,0,0,0,0,0,0,0,0,0,0,0,0,0,0,0,0,0,0,0,0,0,0,0,0,0,0,0,0,0,0,0,0,0,0,0,0,0,0,0,0,0,0,0,0,0,0,0,0,0,0,0,0,0,0,0,0,0,0,0,0,0,0,0,0,0,0,0,0,0,0,0,0,0,0,0,0,0,0,0,0,0,0,0,0,0,0,0,0,0,0,0,0,0,0,0,0,0,0,0,0,0,0,0,0,0,0,0,0,0,0,0,0,0,0,0,0,0,0,0,0,0,0,0,0,0,0,0,0,0,0,0,0,0,0,0,0,0,0,0,0,0,0,0,0,0,0,0,0,0,0,0,0,0,0,0,0,0,0,0,0,0,0,0,0,0,0,0,0,0,0,0,0,0,0,0,0,0,0,0,0,0,0,0,0,0,0],"sum_hessian":[1.19899E4,4.3136865E3,7.6762134E3,8.6278046E2,3.4509062E3,1.0826047E3,6.5936084E3,1.9764441E2,6.6513605E2,3.3314575E3,1.19448616E2,7.8879614E2,2.9380856E2,4.365783E3,2.2278254E3,1.1240656E2,8.523785E1,2.0214095E2,4.629951E2,3.1647996E3,1.6665802E2,4.891712E1,7.0531494E1,1.6014531E2,6.286508E2,1.6168706E2,1.321215E2,1.7519404E3,2.6138425E3,1.2292666E3,9.9855896E2,5.8925804E1,5.3480762E1,7.6728584E1,8.509255E0,5.3458065E1,1.4868288E2,4.4567902E2,1.7316061E1,2.7076726E3,4.57127E2,6.6642456E1,1.00015564E2,1.2979414E1,3.5937706E1,6.5096855E1,5.434638E0,1.4527245E2,1.4872859E1,7.542308E0,6.211085E2,9.8481575E1,6.3205494E1,9.453987E1,3.7581642E1,2.0446947E1,1.7314935E3,1.34447E3,1.2693726E3,3.820803E2,8.471863E2,9.791787E2,1.9380287E1,3.205872E1,2.1422043E1,1.9682938E1,5.704565E1,4.5623158E1,7.8349075E0,9.337336E1,5.5309517E1,4.813861E1,3.975404E2,1.2139839E1,5.1762223E0,4.473181E2,9.808913E0,6.1489998E1,5.152462E0,1.2899317E1,8.711625E1,5.5380354E0,7.441379E0,2.9375425E1,6.5622816E0,5.698536E0,5.939832E1,9.2105576E1,5.316687E1,9.16901E0,5.7038493E0,5.837292E2,3.7379303E1,8.31133E1,1.5368272E1,1.8172235E1,4.5033257E1,7.647105E1,1.8068827E1,2.7168688E1,1.0412955E1,8.643505E0,1.1803442E1,6.8341473E2,1.0480787E3,4.926686E1,1.2952031E3,1.8985825E2,1.0795143E3,2.3680804E2,1.4527223E2,2.2624893E2,6.209374E2,2.9909805E1,9.4926886E2,2.5641787E1,6.416933E0,5.5958548E0,1.5826188E1,8.253228E0,1.1429709E1,1.7478418E1,3.9567234E1,1.81666E1,2.745656E1,8.417044E1,9.202918E0,4.5027233E1,1.0282282E1,1.4584542E1,3.355407E1,1.10403435E2,2.87137E2,3.009051E2,1.4641301E2,7.229811E0,5.669505E0,6.859697E1,1.8519274E1,1.9795038E1,3.9603283E1,8.289037E1,9.215204E0,3.669753E1,1.6469341E1,4.5131638E2,1.3241283E2,1.6946999E1,2.0432306E1,4.997818E1,3.313512E1,8.484924E0,6.883348E0,1.1316493E1,6.855741E0,3.255209E1,1.2481167E1,7.127947E1,5.1915708E0,9.689872E0,8.378954E0,1.0302603E1,1.6866085E1,5.0977435E0,5.3152113E0,1.8586626E2,4.9754846E2,9.4164136E2,1.0643744E2,1.5223158E1,3.4043705E1,1.1395345E3,1.5566856E2,1.1530993E2,7.454831E1,1.4187851E2,9.376358E2,2.0810217E2,2.8705881E1,6.771477E1,7.755747E1,2.2081065E2,5.4382825E0,1.8772392E2,4.3321344E2,9.770336E0,2.013947E1,6.0436505E2,3.4490384E2],"tree_param":{"num_deleted":"0","num_feature":"98","num_nodes":"189","size_leaf_vector":"1"}},{"base_weights":[-4.6856743E-3,-1.014001E0,5.513461E-1,1.8740208E-1,-1.3167497E0,-8.3155483E-1,7.7726233E-1,-1.013032E0,5.373601E-1,-1.3495423E0,-4.2377007E-1,-9.7974646E-1,-4.3111357E-1,1.0514879E0,2.3820852E-1,-1.2077432E0,-7.600692E-1,-1.7954378E-1,9.559853E-1,-1.3674299E0,-9.8829633E-1,-9.3210745E-1,-6.754945E-2,-5.3317636E-1,-1.0909135E0,-7.4454E-2,-8.558606E-1,1.4017453E0,8.1941557E-1,-7.11193E-2,7.324761E-1,-6.61939E-2,-9.9259746E-1,-9.830596E-1,-3.855382E-1,-9.178707E-1,6.654881E-2,1.039397E0,-1.096004E0,-6.897644E-2,-1.2932732E0,-1.279509E0,-7.820097E-1,-3.0803275E-1,-1.13239E0,8.9258194E-2,-5.5146385E-2,-8.0472314E-1,-9.860444E-2,1.624029E-2,-1.1076297E0,-3.968522E-1,4.146934E-1,-1.044279E0,-1.9016993E-1,1.4768873E0,1.2379537E0,3.7275007E-1,9.1833687E-1,3.8897637E-1,-3.027128E-1,9.366494E-1,3.9292237E-1,-7.821422E-1,-6.469052E-2,-6.630363E-1,-1.2044923E0,1.9811554E-1,-1.0037172E0,-6.395777E-2,-6.865368E-1,-4.6117235E-2,1.1414311E0,1.493183E0,8.4587187E-1,-6.582814E-2,-3.241902E-2,-6.515046E-2,-8.1803817E-1,-6.5871604E-2,-3.611602E-2,2.4042027E-3,-1.0320824E0,6.8037584E-3,-3.2958608E-2,-1.2234256E0,-3.254628E-2,7.2872704E-1,-1.467748E-1,-9.3094605E-1,5.8412965E-2,1.4541958E-1,-7.105078E-1,-1.1426898E0,-5.552359E-1,-2.4334735E-1,-1.2366979E0,-4.5361128E-1,7.474229E-1,-1.1061863E0,1.0588024E-3,3.942045E-1,-6.408405E-1,1.3931446E0,1.544798E0,1.1041164E0,1.445372E0,7.463661E-1,-4.9179155E-1,5.0289506E-1,9.8696023E-1,6.3636315E-1,-4.584664E-2,-1.3490788E0,5.154776E-2,3.977174E-1,1.2901126E0,-2.0845104E-2,8.241713E-1,-5.209304E-2,-1.04411915E-2,-5.602398E-2,1.5410267E-2,-6.501898E-2,-3.373106E-2,5.7459947E-2,-2.8629718E-2,-3.1646203E-2,-5.8393594E-2,1.1016541E-2,-4.3750837E-2,-2.8177187E-2,9.410282E-3,1.4546605E-2,7.409668E-2,7.681542E-2,2.8981803E-2,2.936103E-2,5.7701655E-2,-5.3549703E-2,-2.089171E-2,2.0011751E-2,-5.0554987E-2,-5.8141645E-2,-2.2262616E-2,-6.647021E-2,-3.822893E-2,7.425429E-2,1.3110901E-2,-1.46446945E-2,3.9158765E-2,-5.1244844E-2,2.2026518E-2,3.8076166E-2,-3.2585602E-2,5.8681518E-2,-6.402583E-3,-1.0915099E-2,-6.022952E-2,-7.17491E-2,-5.421973E-2,-6.557384E-2,6.946578E-3,-2.1003015E-2,3.383004E-2,-3.7784174E-2,-7.1642324E-2,9.751574E-3,-3.805675E-2,5.1215302E-2,4.4737672E-4,-5.827201E-2,-2.1729074E-2,5.626439E-2,-2.9717777E-2,-5.1070936E-2,-1.2581959E-2,7.031843E-2,2.7379636E-2,7.7540986E-2,3.2842156E-2,6.432953E-2,4.5811117E-2,7.867581E-2,6.2090922E-2,5.015418E-2,1.3688642E-2,-5.91173E-2,2.4978243E-2,1.1041376E-2,5.6753606E-2,3.563574E-2,5.6086328E-2,3.4559655E-3,5.3069092E-2,-9.67938E-3,4.615627E-2,-6.842664E-2,-2.1272214E-2,-2.5743995E-2,1.4750282E-2,8.991615E-3,5.3019244E-2,6.577007E-2,2.167566E-2,-5.786219E-3,3.495143E-2,5.6571793E-2,2.9978922E-2],"categories":[],"categories_nodes":[],"categories_segments":[],"categories_sizes":[],"default_left":[0,0,0,0,0,0,0,0,0,0,0,0,0,0,0,0,0,0,0,0,0,0,0,0,0,0,0,0,0,0,0,0,0,0,0,0,0,0,0,0,0,0,0,0,0,0,0,0,0,0,0,0,0,0,0,0,0,0,0,0,0,0,0,0,0,0,0,0,0,0,0,0,0,0,0,0,0,0,0,0,0,0,0,0,0,0,0,0,0,0,0,0,0,0,0,0,0,0,0,0,0,0,0,0,0,0,0,0,0,0,0,0,0,0,0,0,0,0,0,0,0,0,0,0,0,0,0,0,0,0,0,0,0,0,0,0,0,0,0,0,0,0,0,0,0,0,0,0,0,0,0,0,0,0,0,0,0,0,0,0,0,0,0,0,0,0,0,0,0,0,0,0,0,0,0,0,0,0,0,0,0,0,0,0,0,0,0,0,0,0,0,0,0,0,0,0,0,0,0,0,0,0,0,0,0,0,0,0,0],"id":8,"left_children":[1,3,5,7,9,11,13,15,17,19,21,23,25,27,29,31,33,35,37,39,41,43,45,47,49,51,53,55,57,59,61,-1,63,65,67,69,71,73,75,-1,77,79,81,83,85,87,-1,89,91,-1,93,95,97,99,101,103,105,107,109,111,113,115,117,119,-1,121,123,125,127,-1,129,131,133,135,137,-1,-1,-1,139,-1,-1,141,143,-1,-1,145,-1,147,149,151,153,155,157,159,161,163,165,167,169,171,-1,173,175,177,179,181,183,185,187,189,191,193,195,197,199,201,203,205,207,-1,-1,-1,-1,-1,-1,-1,-1,-1,-1,-1,-1,-1,-1,-1,-1,-1,-1,-1,-1,-1,-1,-1,-1,-1,-1,-1,-1,-1,-1,-1,-1,-1,-1,-1,-1,-1,-1,-1,-1,-1,-1,-1,-1,-1,-1,-1,-1,-1,-1,-1,-1,-1,-1,-1,-1,-1,-1,-1,-1,-1,-1,-1,-1,-1,-1,-1,-1,-1,-1,-1,-1,-1,-1,-1,-1,-1,-1,-1,-1,-1,-1,-1,-1,-1,-1,-1,-1,-1,-1],"loss_changes":[6.659584E3,1.5333813E3,2.3910735E3,3.5732556E2,9.802002E1,6.3365112E1,9.7203955E2,8.541229E0,1.9771487E2,1.9630371E1,2.1796583E1,3.832831E1,4.4191227E1,3.5319873E2,3.393319E2,1.3549042E0,6.8223534E0,4.4305084E1,7.229425E1,9.892578E-1,8.419312E0,5.8583336E0,1.1797248E1,1.8586674E1,1.5188599E1,2.5378965E1,1.651384E1,1.9536377E1,1.15617676E2,1.4565227E2,5.8857727E1,0E0,1.6152382E0,2.985653E0,1.2402739E1,4.2150764E0,2.228273E1,3.386432E1,7.976246E-1,0E0,1.0145264E0,3.8906097E-1,1.8512005E1,2.1854277E0,8.350792E-1,9.692038E0,0E0,1.0645039E1,9.356461E0,0E0,1.136377E1,1.218902E1,1.8831303E1,6.8585815E0,8.31575E0,4.5859375E0,1.3730591E1,1.5461043E2,6.0738647E1,4.926841E1,3.3704932E2,1.0097629E2,5.756537E1,3.7917366E0,0E0,1.1036593E1,6.641731E-1,1.4023085E1,2.70689E-1,0E0,6.9119873E0,2.036727E1,4.623497E0,3.7693176E0,2.1856705E1,0E0,0E0,0E0,7.3824596E-1,0E0,0E0,1.0004003E1,4.972267E0,0E0,0E0,4.5046997E-1,0E0,5.7107115E0,6.645276E0,1.1386597E1,7.158358E0,1.2840694E1,4.0748615E0,8.353943E0,2.0613007E1,1.3802441E1,3.0665398E-1,3.8096752E0,9.529909E0,3.391655E0,0E0,1.075065E1,2.3597584E0,5.276245E0,2.430542E0,1.047168E1,3.6095276E0,4.0226288E1,9.964772E1,5.440999E1,6.729285E1,7.0281586E1,2.407479E1,3.5499268E0,9.393886E1,3.0486637E1,6.3898926E0,1.1389362E1,1.0221321E1,0E0,0E0,0E0,0E0,0E0,0E0,0E0,