{"learner":{"attributes":{"best_iteration":"306","best_score":"-0.870118"},"feature_names":[],"feature_types":[],"gradient_booster":{"model":{"gbtree_model_param":{"num_parallel_tree":"1","num_trees":"357"},"iteration_indptr":[0,1,2,3,4,5,6,7,8,9,10,11,12,13,14,15,16,17,18,19,20,21,22,23,24,25,26,27,28,29,30,31,32,33,34,35,36,37,38,39,40,41,42,43,44,45,46,47,48,49,50,51,52,53,54,55,56,57,58,59,60,61,62,63,64,65,66,67,68,69,70,71,72,73,74,75,76,77,78,79,80,81,82,83,84,85,86,87,88,89,90,91,92,93,94,95,96,97,98,99,100,101,102,103,104,105,106,107,108,109,110,111,112,113,114,115,116,117,118,119,120,121,122,123,124,125,126,127,128,129,130,131,132,133,134,135,136,137,138,139,140,141,142,143,144,145,146,147,148,149,150,151,152,153,154,155,156,157,158,159,160,161,162,163,164,165,166,167,168,169,170,171,172,173,174,175,176,177,178,179,180,181,182,183,184,185,186,187,188,189,190,191,192,193,194,195,196,197,198,199,200,201,202,203,204,205,206,207,208,209,210,211,212,213,214,215,216,217,218,219,220,221,222,223,224,225,226,227,228,229,230,231,232,233,234,235,236,237,238,239,240,241,242,243,244,245,246,247,248,249,250,251,252,253,254,255,256,257,258,259,260,261,262,263,264,265,266,267,268,269,270,271,272,273,274,275,276,277,278,279,280,281,282,283,284,285,286,287,288,289,290,291,292,293,294,295,296,297,298,299,300,301,302,303,304,305,306,307,308,309,310,311,312,313,314,315,316,317,318,319,320,321,322,323,324,325,326,327,328,329,330,331,332,333,334,335,336,337,338,339,340,341,342,343,344,345,346,347,348,349,350,351,352,353,354,355,356,357],"tree_info":[0,0,0,0,0,0,0,0,0,0,0,0,0,0,0,0,0,0,0,0,0,0,0,0,0,0,0,0,0,0,0,0,0,0,0,0,0,0,0,0,0,0,0,0,0,0,0,0,0,0,0,0,0,0,0,0,0,0,0,0,0,0,0,0,0,0,0,0,0,0,0,0,0,0,0,0,0,0,0,0,0,0,0,0,0,0,0,0,0,0,0,0,0,0,0,0,0,0,0,0,0,0,0,0,0,0,0,0,0,0,0,0,0,0,0,0,0,0,0,0,0,0,0,0,0,0,0,0,0,0,0,0,0,0,0,0,0,0,0,0,0,0,0,0,0,0,0,0,0,0,0,0,0,0,0,0,0,0,0,0,0,0,0,0,0,0,0,0,0,0,0,0,0,0,0,0,0,0,0,0,0,0,0,0,0,0,0,0,0,0,0,0,0,0,0,0,0,0,0,0,0,0,0,0,0,0,0,0,0,0,0,0,0,0,0,0,0,0,0,0,0,0,0,0,0,0,0,0,0,0,0,0,0,0,0,0,0,0,0,0,0,0,0,0,0,0,0,0,0,0,0,0,0,0,0,0,0,0,0,0,0,0,0,0,0,0,0,0,0,0,0,0,0,0,0,0,0,0,0,0,0,0,0,0,0,0,0,0,0,0,0,0,0,0,0,0,0,0,0,0,0,0,0,0,0,0,0,0,0,0,0,0,0,0,0,0,0,0,0,0,0,0,0,0,0,0,0,0,0,0,0,0,0,0,0,0,0,0,0,0,0,0,0,0,0,0,0,0,0,0,0,0,0,0,0,0,0],"trees":[{"base_weights":[-9.294643E-3,-1.3171537E0,8.16531E-1,1.9951609E-1,-1.6503476E0,-1.0698682E0,1.154279E0,-1.3255217E0,7.02919E-1,-1.7032117E0,-9.9566925E-1,-1.2291363E0,-5.0964135E-1,1.5645748E0,3.5524327E-1,-1.5479326E0,-1.0228877E0,-4.496561E-1,1.2544693E0,-8.584293E-2,-1.6183355E0,-1.49197E0,-6.2309706E-1,-1.3092889E0,-2.6627478E-1,7.569057E-1,-8.1774986E-1,2.068292E0,1.221056E0,-9.098472E-2,1.0883636E0,-1.6075497E0,-9.6059716E-1,-1.2467741E0,-4.6678275E-1,-1.2836064E0,-1.1149843E-1,1.3839747E0,-1.4141816E0,-1.6244565E0,-1.0212226E0,-1.5119762E0,-6.407627E-3,-9.9186045E-1,-5.8510672E-2,-8.740353E-1,-1.4170781E0,1.18430465E-1,-1.05996E0,2.0863518E-1,1.2476401E0,-1.0571234E0,-1.4624053E-1,-6.861084E-1,2.1031752E0,8.481841E-1,1.6119007E0,-1.0078043E0,1.0397829E-1,-1.0355848E0,1.168726E0,-1.6241186E0,-1.0830984E-2,1.9278536E-2,-1.180235E0,-5.0115633E-1,-1.4221675E0,-1.2912071E0,1.7036945E-2,-1.3404489E0,4.2539503E-2,-4.803493E-1,9.437611E-1,-3.845423E-2,1.5557369E0,-1.5778136E0,-4.3301773E-1,-1.6261231E0,-2.5034139E-2,1.0531874E-2,-7.241313E-2,-8.840666E-1,-1.5610758E0,2.4359967E-1,-1.2259834E0,-2.4843916E-1,1.0664774E0,-1.176612E0,-4.303317E-1,2.944264E-1,-1.4490409E0,4.236522E-1,-1.0755833E0,-1.8160361E-1,-1.2667638E0,-7.82305E-2,8.026418E-2,1.4176849E0,-5.1419344E-2,-5.411595E-1,-1.1713516E0,-8.9309895E-1,5.807344E-1,2.4071233E-1,-1.3724922E0,1.9278413E0,2.267582E0,-1.1167145E0,9.326034E-1,8.633579E-1,1.7436782E0,-4.6204376E-1,-1.1852292E0,6.4903945E-1,-1.8569392E-1,-1.1072365E0,2.0014955E-2,1.220676E0,-1.5563118E0,-8.160639E-2,-2.5034139E-2,1.9278536E-2,-7.356092E-2,-4.1753933E-2,4.03705E-2,-7.352495E-2,9.463196E-3,-7.223233E-2,-2.5095919E-3,-6.1097708E-2,5.3108543E-2,-7.2446026E-2,-3.0297471E-2,-3.0834833E-2,4.8455555E-2,-5.969672E-3,6.494756E-2,-5.276329E-2,2.319143E-2,5.937106E-2,9.7700536E-2,-8.13381E-2,-2.5034139E-2,-5.4584324E-2,1.9278536E-2,-8.138987E-2,-2.5034139E-2,1.1872653E-2,-6.476168E-2,-7.83987E-2,-2.5034139E-2,4.5028932E-2,-7.049435E-2,-6.374462E-2,5.005155E-2,-7.241313E-2,-5.567511E-3,7.643649E-2,-8.756674E-3,-6.264386E-2,1.3218942E-2,-2.7889688E-2,5.0072607E-2,-4.6183106E-2,7.3552035E-2,-7.426273E-2,-3.1152768E-2,-4.631295E-2,3.1942636E-2,-6.5936156E-2,2.0014955E-2,-4.381826E-2,2.5833933E-2,-1.7855544E-2,-7.142075E-2,-2.4727985E-2,3.5627864E-2,8.174433E-2,-4.028663E-2,-3.321645E-2,6.506405E-2,-6.2404346E-2,-1.6708443E-2,-5.6684483E-2,2.8606167E-2,5.00821E-2,-6.7343907E-3,-4.059212E-2,5.2690763E-2,-2.5095919E-3,-7.514792E-2,7.625723E-2,1.05879545E-1,1.13537095E-1,2.7471377E-2,-6.1205816E-2,7.976829E-3,3.7845936E-2,6.931419E-2,9.532132E-2,-2.987126E-2,5.9185933E-2,9.146866E-2,-5.97589E-2,-5.169232E-3,-8.348015E-2,-4.1191373E-2,1.6667545E-2,7.0924185E-2,-7.678463E-2,1.1780365E-2,-5.877748E-2,8.128201E-4,4.9175754E-2,8.2031086E-2,-8.054476E-2,-2.5034139E-2],"categories":[],"categories_nodes":[],"categories_segments":[],"categories_sizes":[],"default_left":[0,0,0,0,0,0,0,0,0,0,0,0,0,0,0,0,0,0,0,0,0,0,0,0,0,0,0,0,0,0,0,0,0,0,0,0,0,0,0,0,0,0,0,0,0,0,0,0,0,0,0,0,0,0,0,0,0,0,0,0,0,0,0,0,0,0,0,0,0,0,0,0,0,0,0,0,0,0,0,0,0,0,0,0,0,0,0,0,0,0,0,0,0,0,0,0,0,0,0,0,0,0,0,0,0,0,0,0,0,0,0,0,0,0,0,0,0,0,0,0,0,0,0,0,0,0,0,0,0,0,0,0,0,0,0,0,0,0,0,0,0,0,0,0,0,0,0,0,0,0,0,0,0,0,0,0,0,0,0,0,0,0,0,0,0,0,0,0,0,0,0,0,0,0,0,0,0,0,0,0,0,0,0,0,0,0,0,0,0,0,0,0,0,0,0,0,0,0,0,0,0,0,0,0,0,0,0,0,0,0,0,0,0,0,0,0,0],"id":0,"left_children":[1,3,5,7,9,11,13,15,17,19,21,23,25,27,29,31,33,35,37,-1,39,41,43,45,47,49,51,53,55,57,59,61,63,65,67,69,71,73,75,77,79,81,-1,83,85,87,89,91,93,95,97,99,101,103,105,107,109,111,113,115,117,119,-1,-1,121,123,125,127,129,131,-1,133,135,137,139,141,143,145,-1,-1,-1,147,149,151,153,155,157,159,161,163,165,167,169,171,173,175,-1,177,-1,179,181,183,185,187,189,191,193,195,197,199,201,203,205,207,209,211,-1,213,215,-1,-1,-1,-1,-1,-1,-1,-1,-1,-1,-1,-1,-1,-1,-1,-1,-1,-1,-1,-1,-1,-1,-1,-1,-1,-1,-1,-1,-1,-1,-1,-1,-1,-1,-1,-1,-1,-1,-1,-1,-1,-1,-1,-1,-1,-1,-1,-1,-1,-1,-1,-1,-1,-1,-1,-1,-1,-1,-1,-1,-1,-1,-1,-1,-1,-1,-1,-1,-1,-1,-1,-1,-1,-1,-1,-1,-1,-1,-1,-1,-1,-1,-1,-1,-1,-1,-1,-1,-1,-1,-1,-1,-1,-1,-1,-1,-1,-1],"loss_changes":[1.3627348E4,2.4681191E3,4.9286533E3,6.7688074E2,1.3687402E2,1.0420874E2,2.150038E3,1.3147644E1,4.217936E2,1.5117188E0,5.4830963E1,7.020105E1,1.0277961E2,7.474092E2,7.286018E2,2.804657E0,1.13276825E1,6.054386E1,1.569342E2,0E0,2.7978516E-1,3.3147888E0,3.6161835E1,3.834131E1,2.1958342E1,1.3661612E1,3.376985E1,1.7014502E2,3.745088E2,2.4770888E2,1.4504059E2,2.2125244E0,4.5737047E0,8.127899E0,1.1611409E1,8.661339E0,6.047583E1,1.0467114E2,2.7282486E0,1.6601562E-1,4.5528574E0,2.524231E0,0E0,3.07193E1,1.5178237E1,2.2325531E1,3.7328735E1,1.83351E1,4.028551E0,1.0398249E1,1.1947792E1,8.526566E0,3.1261908E1,1.4779007E1,4.5615723E1,2.20336E2,1.2259766E2,2.2983246E1,1.8062265E2,3.6584435E0,1.169093E2,1.708374E-1,0E0,0E0,6.1359653E0,6.974248E0,4.498268E0,1.9761162E0,2.6285841E1,3.9637375E0,0E0,2.3311148E1,1.536478E1,2.4549026E1,5.372522E1,1.2574768E-1,2.801634E0,1.6882324E-1,0E0,0E0,0E0,5.6060934E0,6.448364E-2,2.037706E1,1.0924606E1,9.79425E0,6.162348E0,1.1379868E1,1.342994E1,2.0274391E1,1.8887451E1,1.21507015E1,4.2134027E0,3.1866786E0,2.2557087E0,7.66934E0,0E0,1.3699589E1,0E0,7.6795416E0,7.702774E0,1.0633188E1,8.957732E0,9.854164E0,2.2014236E0,6.140161E1,3.5805664E0,7.722603E0,1.0002661E2,2.9111835E2,4.912256E1,1.5983981E1,3.0615631E1,9.594748E1,4.2537848E2,2.323986E0,0E0,7.7840454E1,9.448624E-2,0E0,0E0,0E0,0E0,0E0,0E0,0E0,0E0,0E0,0E0,0E0,0E0,0E0,0E0,0E0,0E0,0E0,0E0,0E0,0E0,0E0,0E0,0E0,0E0,0E0,0E0,0E0,0E0,0E0,0E0,0E0,0E0,0E0,0E0,0E0,0E0,0E0,0E0,0E0,0E0,0E0,0E0,0E0,0E0,0E0,0E0,0E0,0E0,0E0,0E0,0E0,0E0,0E0,0E0,0E0,0E0,0E0,0E0,0E0,0E0,0E0,0E0,0E0,0E0,0E0,0E0,0E0,0E0,0E0,0E0,0E0,0E0,0E0,0E0,0E0,0E0,0E0,0E0,0E0,0E0,0E0,0E0,0E0,0E0,0E0,0E0,0E0,0E0,0E0,0E0,0E0,0E0,0E0,0E0,0E0,0E0,0E0,0E0],"parents":[2147483647,0,0,1,1,2,2,3,3,4,4,5,5,6,6,7,7,8,8,9,9,10,10,11,11,12,12,13,13,14,14,15,15,16,16,17,17,18,18,20,20,21,21,22,22,23,23,24,24,25,25,26,26,27,27,28,28,29,29,30,30,31,31,32,32,33,33,34,34,35,35,36,36,37,37,38,38,39,39,40,40,41,41,43,43,44,44,45,45,46,46,47,47,48,48,49,49,50,50,51,51,52,52,53,53,54,54,55,55,56,56,57,57,58,58,59,59,60,60,61,61,64,64,65,65,66,66,67,67,68,68,69,69,71,71,72,72,73,73,74,74,75,75,76,76,77,77,81,81,82,82,83,83,84,84,85,85,86,86,87,87,88,88,89,89,90,90,91,91,92,92,93,93,94,94,95,95,97,97,99,99,100,100,101,101,102,102,103,103,104,104,105,105,106,106,107,107,108,108,109,109,110,110,111,111,112,112,113,113,114,114,115,115,117,117,118,118],"right_children":[2,4,6,8,10,12,14,16,18,20,22,24,26,28,30,32,34,36,38,-1,40,42,44,46,48,50,52,54,56,58,60,62,64,66,68,70,72,74,76,78,80,82,-1,84,86,88,90,92,94,96,98,100,102,104,106,108,110,112,114,116,118,120,-1,-1,122,124,126,128,130,132,-1,134,136,138,140,142,144,146,-1,-1,-1,148,150,152,154,156,158,160,162,164,166,168,170,172,174,176,-1,178,-1,180,182,184,186,188,190,192,194,196,198,200,202,204,206,208,210,212,-1,214,216,-1,-1,-1,-1,-1,-1,-1,-1,-1,-1,-1,-1,-1,-1,-1,-1,-1,-1,-1,-1,-1,-1,-1,-1,-1,-1,-1,-1,-1,-1,-1,-1,-1,-1,-1,-1,-1,-1,-1,-1,-1,-1,-1,-1,-1,-1,-1,-1,-1,-1,-1,-1,-1,-1,-1,-1,-1,-1,-1,-1,-1,-1,-1,-1,-1,-1,-1,-1,-1,-1,-1,-1,-1,-1,-1,-1,-1,-1,-1,-1,-1,-1,-1,-1,-1,-1,-1,-1,-1,-1,-1,-1,-1,-1,-1,-1,-1,-1],"split_conditions":[3.9270833E0,2E0,2E0,2E0,3.1215277E0,1.7E1,2E0,1.0152777E0,3.728E3,1.9118055E0,2E0,3.31125E1,4E0,1.2E2,1.5079166E1,3.2684138E-1,1.6E1,8.784722E-1,4E0,-8.584293E-2,6.235234E-1,5.4587835E-1,3.7666667E0,3E0,2.7E2,3.5E1,1.3127084E1,1E0,1.7E1,1.2E1,1E0,5.553474E-1,1.3110948E-1,3E0,6E1,2.018E3,1.7E1,1.2E1,9.7152776E-1,7.5317013E-1,6.03E2,3E0,-6.407627E-3,1.5E2,1.9E1,3.5E1,1E0,3.5436866E-1,3.082E3,3.6540094E-1,5.375776E-1,6.03E2,4.305E3,4E0,1.7E1,1E0,3E0,2E0,2E0,5.536361E-1,4E0,4.7740555E-1,-1.0830984E-2,1.9278536E-2,3E0,6E0,2E0,3.015903E-1,3.925E3,1.8E1,4.2539503E-2,2E0,2.008E3,1E0,1.7E1,1.553E3,1.1E1,6.8420804E-1,-2.5034139E-2,1.0531874E-2,-7.241313E-2,3E0,5.403E3,3E0,5.186646E-1,1.602E3,2E0,4.6559823E-1,3.9779064E-1,1.1E1,2E0,2E0,5.294E3,7E0,5E0,1.4034722E1,8.026418E-2,5.4587835E-1,-5.1419344E-2,3.9598852E-1,2E0,2.8727165E-1,3.227887E-1,2E0,5.377E3,1.604861E1,6.814355E-1,2E0,3.02375E1,2E0,2E0,1E0,3E0,1.7E1,3E0,1.8E1,2.0014955E-2,5.0143055E1,3.3826727E-1,-8.160639E-2,-2.5034139E-2,1.9278536E-2,-7.356092E-2,-4.1753933E-2,4.03705E-2,-7.352495E-2,9.463196E-3,-7.223233E-2,-2.5095919E-3,-6.1097708E-2,5.3108543E-2,-7.2446026E-2,-3.0297471E-2,-3.0834833E-2,4.8455555E-2,-5.969672E-3,6.494756E-2,-5.276329E-2,2.319143E-2,5.937106E-2,9.7700536E-2,-8.13381E-2,-2.5034139E-2,-5.4584324E-2,1.9278536E-2,-8.138987E-2,-2.5034139E-2,1.1872653E-2,-6.476168E-2,-7.83987E-2,-2.5034139E-2,4.5028932E-2,-7.049435E-2,-6.374462E-2,5.005155E-2,-7.241313E-2,-5.567511E-3,7.643649E-2,-8.756674E-3,-6.264386E-2,1.3218942E-2,-2.7889688E-2,5.0072607E-2,-4.6183106E-2,7.3552035E-2,-7.426273E-2,-3.1152768E-2,-4.631295E-2,3.1942636E-2,-6.5936156E-2,2.0014955E-2,-4.381826E-2,2.5833933E-2,-1.7855544E-2,-7.142075E-2,-2.4727985E-2,3.5627864E-2,8.174433E-2,-4.028663E-2,-3.321645E-2,6.506405E-2,-6.2404346E-2,-1.6708443E-2,-5.6684483E-2,2.8606167E-2,5.00821E-2,-6.7343907E-3,-4.059212E-2,5.2690763E-2,-2.5095919E-3,-7.514792E-2,7.625723E-2,1.05879545E-1,1.13537095E-1,2.7471377E-2,-6.1205816E-2,7.976829E-3,3.7845936E-2,6.931419E-2,9.532132E-2,-2.987126E-2,5.9185933E-2,9.146866E-2,-5.97589E-2,-5.169232E-3,-8.348015E-2,-4.1191373E-2,1.6667545E-2,7.0924185E-2,-7.678463E-2,1.1780365E-2,-5.877748E-2,8.128201E-4,4.9175754E-2,8.2031086E-2,-8.054476E-2,-2.5034139E-2],"split_indices":[31,20,2,2,31,9,21,31,1,31,2,31,14,22,31,57,9,31,2,0,79,97,31,14,22,3,31,9,9,9,9,52,32,14,3,7,9,9,31,40,16,0,0,3,29,3,15,46,1,40,71,16,1,8,9,9,20,20,20,67,2,47,0,0,6,28,10,45,1,9,0,10,11,9,9,16,12,74,0,0,0,28,1,21,87,1,21,49,42,9,10,20,1,6,12,31,0,97,0,38,10,56,57,8,18,31,85,10,31,20,15,9,20,9,20,29,0,31,36,0,0,0,0,0,0,0,0,0,0,0,0,0,0,0,0,0,0,0,0,0,0,0,0,0,0,0,0,0,0,0,0,0,0,0,0,0,0,0,0,0,0,0,0,0,0,0,0,0,0,0,0,0,0,0,0,0,0,0,0,0,0,0,0,0,0,0,0,0,0,0,0,0,0,0,0,0,0,0,0,0,0,0,0,0,0,0,0,0,0,0,0,0,0,0,0,0,0],"split_type":[0,0,0,0,0,0,0,0,0,0,0,0,0,0,0,0,0,0,0,0,0,0,0,0,0,0,0,0,0,0,0,0,0,0,0,0,0,0,0,0,0,0,0,0,0,0,0,0,0,0,0,0,0,0,0,0,0,0,0,0,0,0,0,0,0,0,0,0,0,0,0,0,0,0,0,0,0,0,0,0,0,0,0,0,0,0,0,0,0,0,0,0,0,0,0,0,0,0,0,0,0,0,0,0,0,0,0,0,0,0,0,0,0,0,0,0,0,0,0,0,0,0,0,0,0,0,0,0,0,0,0,0,0,0,0,0,0,0,0,0,0,0,0,0,0,0,0,0,0,0,0,0,0,0,0,0,0,0,0,0,0,0,0,0,0,0,0,0,0,0,0,0,0,0,0,0,0,0,0,0,0,0,0,0,0,0,0,0,0,0,0,0,0,0,0,0,0,0,0,0,0,0,0,0,0,0,0,0,0,0,0,0,0,0,0,0,0],"sum_hessian":[1.2615177E4,4.8823735E3,7.732803E3,8.7947614E2,4.0028972E3,1.173936E3,6.558867E3,2.1785637E2,6.616198E2,3.7023384E3,3.0055884E2,9.1314264E2,2.6079333E2,4.332975E3,2.2258918E3,1.2319985E2,9.465652E1,2.1419696E2,4.4742282E2,3.172945E3,5.2939343E2,1.2759113E2,1.7296771E2,8.426382E2,7.050447E1,5.0743702E1,2.1004964E2,1.7548049E3,2.5781704E3,1.3842296E3,8.4166235E2,1.10269966E2,1.2929885E1,6.6601105E1,2.805541E1,6.0990025E1,1.5320694E2,4.2717413E2,2.0248688E1,5.2231854E2,7.074843E0,1.2563945E2,1.9516808E0,1.0417096E2,6.8796745E1,1.6906435E2,6.7357385E2,4.806014E1,2.2444328E1,2.463997E1,2.6103731E1,1.5442674E2,5.5622902E1,2.1712448E1,1.7330925E3,1.321044E3,1.2571263E3,2.4200842E2,1.1422212E3,3.0251053E1,8.1141125E2,1.08806206E2,1.4637606E0,1.7077206E0,1.1222164E1,1.3417806E1,5.31833E1,9.758404E0,1.8297007E1,5.9770226E1,1.2198005E0,1.1392937E2,3.9277576E1,4.610846E1,3.8106567E2,1.6833246E1,3.4154413E0,5.2109875E2,1.2198005E0,1.9516808E0,5.1231623E0,1.0490284E1,1.1514916E2,1.6589287E1,8.758167E1,5.9526264E1,9.270484E0,9.953572E1,6.9528625E1,1.2198005E1,6.6137585E2,3.8789654E1,9.270484E0,4.635242E0,1.7809088E1,2.122453E1,3.4154413E0,2.463997E1,1.4637606E0,2.9031252E1,1.2539549E2,2.732353E1,2.8299372E1,9.514443E0,1.2198005E1,8.448338E2,8.882587E2,5.391518E1,1.2671288E3,1.8931303E2,1.0678134E3,6.0258144E1,1.8175027E2,3.9594724E2,7.462739E2,2.9031252E1,1.2198005E0,7.967737E2,1.4637606E1,1.075864E2,1.2198005E0,1.7077206E0,9.514443E0,1.0978205E1,2.439601E0,5.171954E1,1.4637606E0,8.538604E0,1.2198005E0,8.294643E0,1.0002364E1,5.123162E1,8.538604E0,1.0465888E2,9.270484E0,1.0002364E1,2.9275211E1,1.4881566E1,3.1226892E1,2.0004729E2,1.8101839E2,1.5613446E1,1.2198005E0,1.7077206E0,1.7077206E0,5.1987897E2,1.2198005E0,2.9275212E0,7.562763E0,1.1392937E2,1.2198005E0,1.2198005E1,4.3912816E0,8.611791E1,1.4637606E0,5.1231623E0,5.4403103E1,6.5869226E0,2.683561E0,9.465652E1,4.879202E0,6.4405464E1,5.1231623E0,6.0990024E0,6.0990024E0,6.328325E2,2.8543331E1,4.879202E0,3.3910454E1,8.050683E0,1.2198005E0,2.1956408E0,2.439601E0,3.1714814E0,1.4637606E1,1.4149686E1,7.074843E0,2.268829E1,1.9516808E0,2.7811451E1,1.2198005E0,1.1441728E2,1.0978205E1,2.366413E1,3.6594014E0,1.7565126E1,1.0734244E1,4.1473217E0,5.367122E0,1.2198005E0,1.0978205E1,2.7347928E2,5.7135455E2,8.86307E2,1.9516808E0,4.976786E1,4.1473217E0,9.1533826E2,3.5179047E2,1.10269966E2,7.904307E1,1.436925E2,9.2412085E2,1.9028887E1,4.1229256E1,7.611555E1,1.0563472E2,2.8177393E2,1.14173325E2,1.7687106E2,5.694029E2,2.732353E1,1.7077206E0,5.1134036E2,2.8543332E2,1.3417806E1,1.2198005E0],"tree_param":{"num_deleted":"0","num_feature":"98","num_nodes":"217","size_leaf_vector":"1"}},{"base_weights":[-5.887484E-3,-1.2661778E0,7.7804834E-1,1.8507074E-1,-1.5933143E0,-1.0354775E0,1.095807E0,-1.2872361E0,6.634418E-1,-1.642056E0,-9.2850965E-1,-1.2083033E0,-5.391418E-1,1.4740235E0,3.5232353E-1,-1.4794317E0,-1.0067167E0,-3.8815108E-1,1.1851994E0,-8.277031E-2,-1.5462141E0,-1.4506129E0,-5.558059E-1,-6.682624E-1,-1.3378081E0,2.6352469E-2,-9.801388E-1,1.8786637E0,1.105611E0,-8.7238364E-2,1.001973E0,-1.5143095E0,1.044552E-1,-1.2516294E0,-5.3232247E-1,-7.7915245E-1,2.9128128E-1,1.29914E0,-1.3465537E0,-1.5501469E0,-8.501261E-3,-1.4811928E0,-1.3804132E-1,2.669938E-1,-7.835205E-1,-9.415279E-1,4.7161946E-1,4.56264E-1,-1.3570747E0,-7.9490244E-2,2.385719E-1,-1.1973027E0,-2.4374186E-1,-6.6946423E-1,1.9120542E0,7.771861E-1,1.4624624E0,-3.9237845E-1,4.5074168E-1,-1.057759E0,1.0743256E0,-1.5360967E0,2.0400963E-3,4.2147677E-2,-3.0309891E-2,-1.3344731E0,2.774622E-1,-7.9488796E-1,8.8454014E-1,-8.9913833E-1,6.562987E-1,-8.3141524E-1,7.4043214E-1,-2.088844E-2,1.4672676E0,-1.5151154E0,-4.1102785E-1,-1.554098E0,-8.585413E-3,-1.4970838E0,-8.586676E-3,-4.955987E-2,4.3302994E-2,6.903371E-1,-7.302494E-2,-1.1962376E0,-3.1320557E-1,-1.0358082E0,-6.5591646E-4,-5.93026E-2,1.0235548E0,-5.8190536E-2,1.2517252E0,-1.4037892E0,-5.7830733E-1,-7.7662766E-2,1.1943299E0,7.847731E-2,-1.2659254E0,-8.342133E-1,4.3585387E-1,1.4318311E-1,-1.3187715E0,1.7182248E0,2.086463E0,-1.1696408E0,8.568383E-1,7.321345E-1,1.59013E0,-9.2164606E-1,-1.941321E-1,1.2067984E0,6.507023E-2,-1.1302905E0,1.9431973E-2,1.124585E0,-1.4148872E0,-7.7557445E-2,-3.802435E-4,-6.8855695E-2,1.5646104E-3,-4.990871E-2,7.18705E-2,-4.5064803E-2,4.3457E-2,-9.337513E-3,6.503989E-2,-7.052607E-2,-3.330339E-2,-2.527892E-2,5.5373337E-2,-7.0603274E-2,-4.836223E-3,1.7327173E-2,6.712554E-2,-5.3896613E-2,2.291707E-2,5.6980826E-2,9.00565E-2,-7.8383826E-2,-2.3276309E-2,2.9678209E-2,-5.5746984E-2,-7.7972434E-2,-4.1889276E-2,-7.9055525E-2,-5.333602E-2,4.254341E-2,-4.387438E-2,-6.2817454E-2,2.5688363E-2,-7.178019E-2,-8.339945E-3,-1.8752644E-2,-5.7682086E-2,7.549635E-2,-1.7542826E-2,-2.5024062E-2,7.434566E-2,7.080855E-2,-2.810335E-2,8.091943E-2,-3.9375685E-3,-7.382267E-2,-5.6794245E-2,-6.5468386E-2,4.1211946E-3,-3.5915334E-2,9.737246E-3,2.9164066E-3,8.0066994E-2,-4.90538E-2,8.117344E-2,-6.487622E-2,6.010546E-3,3.5497826E-2,-5.2235644E-2,3.7095826E-2,-4.1898545E-2,-3.4031242E-2,4.174362E-2,-9.171392E-4,-7.1376145E-2,6.644356E-2,1.0023444E-1,1.0449512E-1,-2.5732605E-2,-6.336039E-2,1.1564619E-2,3.4640856E-2,7.011266E-2,8.96886E-2,-3.2993488E-2,4.6912648E-2,8.355447E-2,-2.1713717E-2,-5.4014843E-2,-2.9617587E-2,3.8735492E-3,3.894316E-2,7.704533E-2,-7.218165E-2,2.3239981E-2,-6.026074E-2,9.4383415E-3,4.5409206E-2,7.698205E-2,-3.829103E-2,-7.7750295E-2],"categories":[],"categories_nodes":[],"categories_segments":[],"categories_sizes":[],"default_left":[0,0,0,0,0,0,0,0,0,0,0,0,0,0,0,0,0,0,0,0,0,0,0,0,0,0,0,0,0,0,0,0,0,0,0,0,0,0,0,0,0,0,0,0,0,0,0,0,0,0,0,0,0,0,0,0,0,0,0,0,0,0,0,0,0,0,0,0,0,0,0,0,0,0,0,0,0,0,0,0,0,0,0,0,0,0,0,0,0,0,0,0,0,0,0,0,0,0,0,0,0,0,0,0,0,0,0,0,0,0,0,0,0,0,0,0,0,0,0,0,0,0,0,0,0,0,0,0,0,0,0,0,0,0,0,0,0,0,0,0,0,0,0,0,0,0,0,0,0,0,0,0,0,0,0,0,0,0,0,0,0,0,0,0,0,0,0,0,0,0,0,0,0,0,0,0,0,0,0,0,0,0,0,0,0,0,0,0,0,0,0,0,0,0,0,0,0,0,0,0,0,0,0,0,0,0,0,0,0],"id":1,"left_children":[1,3,5,7,9,11,13,15,17,19,21,23,25,27,29,31,33,35,37,-1,39,41,43,45,47,49,51,53,55,57,59,61,63,65,67,69,71,73,75,77,-1,79,81,83,85,87,89,91,93,-1,95,97,99,101,103,105,107,109,111,113,115,117,-1,-1,-1,119,121,123,125,127,129,131,133,135,137,139,141,143,-1,145,-1,-1,-1,147,-1,149,151,153,155,157,159,-1,161,163,165,167,169,171,173,175,177,179,181,183,185,187,189,191,193,195,197,199,201,203,-1,205,207,-1,-1,-1,-1,-1,-1,-1,-1,-1,-1,-1,-1,-1,-1,-1,-1,-1,-1,-1,-1,-1,-1,-1,-1,-1,-1,-1,-1,-1,-1,-1,-1,-1,-1,-1,-1,-1,-1,-1,-1,-1,-1,-1,-1,-1,-1,-1,-1,-1,-1,-1,-1,-1,-1,-1,-1,-1,-1,-1,-1,-1,-1,-1,-1,-1,-1,-1,-1,-1,-1,-1,-1,-1,-1,-1,-1,-1,-1,-1,-1,-1,-1,-1,-1,-1,-1,-1,-1,-1,-1,-1,-1],"loss_changes":[1.2420467E4,2.2891E3,4.467455E3,6.260888E2,1.2596094E2,9.851453E1,1.8541001E3,1.0266205E1,3.6845053E2,2.1298828E0,5.193712E1,5.9019653E1,7.493549E1,6.495664E2,6.355098E2,7.1883545E0,9.997231E0,5.951355E1,1.3113354E2,0E0,2.2432861E0,4.3020935E0,3.014484E1,5.268003E1,2.4468628E1,4.585401E1,2.6701675E1,1.784043E2,2.6730542E2,2.1819702E2,1.3497278E2,4.283722E0,2.4409616E0,7.9442596E0,1.2975935E1,2.5033989E1,4.2088634E1,9.539807E1,2.5007095E0,2.2478027E0,0E0,2.0238647E0,3.9929347E0,2.688173E1,2.396521E1,1.2028053E1,9.758514E0,1.1868656E1,2.403186E1,0E0,3.577785E1,1.148909E1,1.6293274E1,1.4787675E1,6.588916E1,1.8629156E2,1.01082275E2,8.879494E1,1.4021356E2,3.6893616E0,1.1019476E2,2.8154907E0,0E0,0E0,0E0,3.3561935E0,7.2065973E0,5.8047256E0,2.753971E0,1.4721466E1,6.601825E0,1.00900135E1,1.3591442E1,2.5586176E1,3.9644714E1,1.7555618E-1,3.7705705E0,4.576416E-1,0E0,2.2251434E0,0E0,0E0,0E0,8.06927E0,0E0,7.4740677E0,9.613924E0,9.163559E0,7.592615E0,1.2895824E1,1.0931501E1,0E0,3.0059433E0,1.085083E1,1.9596367E1,1.5785812E1,1.3506657E1,1.4004907E1,5.56604E0,7.757678E0,8.073093E0,8.084208E0,2.1626492E0,1.0653247E2,1.0712402E1,6.7703857E0,1.0177228E2,2.4505803E2,4.764917E1,1.7377075E1,6.690554E1,2.2028763E1,1.9345068E2,3.1683197E0,0E0,7.50791E1,4.1193008E-1,0E0,0E0,0E0,0E0,0E0,0E0,0E0,0E0,0E0,0E0,0E0,0E0,0E0,0E0,0E0,0E0,0E0,0E0,0E0,0E0,0E0,0E0,0E0,0E0,0E0,0E0,0E0,0E0,0E0,0E0,0E0,0E0,0E0,0E0,0E0,0E0,0E0,0E0,0E0,0E0,0E0,0E0,0E0,0E0,0E0,0E0,0E0,0E0,0E0,0E0,0E0,0E0,0E0,0E0,0E0,0E0,0E0,0E0,0E0,0E0,0E0,0E0,0E0,0E0,0E0,0E0,0E0,0E0,0E0,0E0,0E0,0E0,0E0,0E0,0E0,0E0,0E0,0E0,0E0,0E0,0E0,0E0,0E0,0E0,0E0,0E0,0E0,0E0,0E0,0E0,0E0,0E0],"parents":[2147483647,0,0,1,1,2,2,3,3,4,4,5,5,6,6,7,7,8,8,9,9,10,10,11,11,12,12,13,13,14,14,15,15,16,16,17,17,18,18,20,20,21,21,22,22,23,23,24,24,25,25,26,26,27,27,28,28,29,29,30,30,31,31,32,32,33,33,34,34,35,35,36,36,37,37,38,38,39,39,41,41,42,42,43,43,44,44,45,45,46,46,47,47,48,48,50,50,51,51,52,52,53,53,54,54,55,55,56,56,57,57,58,58,59,59,60,60,61,61,65,65,66,66,67,67,68,68,69,69,70,70,71,71,72,72,73,73,74,74,75,75,76,76,77,77,79,79,83,83,85,85,86,86,87,87,88,88,89,89,90,90,92,92,93,93,94,94,95,95,96,96,97,97,98,98,99,99,100,100,101,101,102,102,103,103,104,104,105,105,106,106,107,107,108,108,109,109,110,110,111,111,112,112,113,113,115,115,116,116],"right_children":[2,4,6,8,10,12,14,16,18,20,22,24,26,28,30,32,34,36,38,-1,40,42,44,46,48,50,52,54,56,58,60,62,64,66,68,70,72,74,76,78,-1,80,82,84,86,88,90,92,94,-1,96,98,100,102,104,106,108,110,112,114,116,118,-1,-1,-1,120,122,124,126,128,130,132,134,136,138,140,142,144,-1,146,-1,-1,-1,148,-1,150,152,154,156,158,160,-1,162,164,166,168,170,172,174,176,178,180,182,184,186,188,190,192,194,196,198,200,202,204,-1,206,208,-1,-1,-1,-1,-1,-1,-1,-1,-1,-1,-1,-1,-1,-1,-1,-1,-1,-1,-1,-1,-1,-1,-1,-1,-1,-1,-1,-1,-1,-1,-1,-1,-1,-1,-1,-1,-1,-1,-1,-1,-1,-1,-1,-1,-1,-1,-1,-1,-1,-1,-1,-1,-1,-1,-1,-1,-1,-1,-1,-1,-1,-1,-1,-1,-1,-1,-1,-1,-1,-1,-1,-1,-1,-1,-1,-1,-1,-1,-1,-1,-1,-1,-1,-1,-1,-1,-1,-1,-1,-1,-1,-1],"split_conditions":[3.9270833E0,2E0,2E0,2E0,3.1736112E0,1.4034722E1,2E0,4.445E3,3.764E3,2.0270834E0,2E0,3E0,3.5E1,1.8E2,1.4034722E1,2E0,1.1340277E0,1.6E1,4E0,-8.277031E-2,6.454588E-1,5.3399336E-1,2.7E2,1.7E1,1E0,3E1,1.7E1,1E0,1.7E1,1.6E1,1E0,4.58746E-1,3E0,4.489733E-1,6E0,2E0,3.1388888E-1,1.2E1,1.1E1,5.935015E-1,-8.501261E-3,5.730897E-1,1.5E1,4E0,3.7666667E0,3.9971706E-1,4E0,8E0,2E0,-7.9490244E-2,1.7E1,1E0,4.32E3,4E0,1.7E1,1E0,3E0,1.2E1,2E0,5.536361E-1,4E0,6.3840014E-1,2.0400963E-3,4.2147677E-2,-3.0309891E-2,5.223539E-1,1.6E1,4.2678225E-1,5E0,2E0,9.7152776E-1,2.228E3,1.8E1,1E0,1.7E1,1.8E1,1.360912E-1,6.276684E-1,-8.585413E-3,6E0,-8.586676E-3,-4.955987E-2,4.3302994E-2,1.577E3,-7.302494E-2,5.186646E-1,1.602E3,4.2069445E0,8.22E2,3.6540094E-1,1.122E3,-5.8190536E-2,3.1239903E-1,1.7E1,3E0,2E0,1.2E1,1.2E1,4.015E3,1.428E3,2.4678E4,2E0,8.16E2,2.1179167E1,6.8565553E-1,2E0,4.1377083E1,2E0,2E0,2E0,3.293E3,2.3E1,3E0,1.8E1,1.9431973E-2,5.0143055E1,2E0,-7.7557445E-2,-3.802435E-4,-6.8855695E-2,1.5646104E-3,-4.990871E-2,7.18705E-2,-4.5064803E-2,4.3457E-2,-9.337513E-3,6.503989E-2,-7.052607E-2,-3.330339E-2,-2.527892E-2,5.5373337E-2,-7.0603274E-2,-4.836223E-3,1.7327173E-2,6.712554E-2,-5.3896613E-2,2.291707E-2,5.6980826E-2,9.00565E-2,-7.8383826E-2,-2.3276309E-2,2.9678209E-2,-5.5746984E-2,-7.7972434E-2,-4.1889276E-2,-7.9055525E-2,-5.333602E-2,4.254341E-2,-4.387438E-2,-6.2817454E-2,2.5688363E-2,-7.178019E-2,-8.339945E-3,-1.8752644E-2,-5.7682086E-2,7.549635E-2,-1.7542826E-2,-2.5024062E-2,7.434566E-2,7.080855E-2,-2.810335E-2,8.091943E-2,-3.9375685E-3,-7.382267E-2,-5.6794245E-2,-6.5468386E-2,4.1211946E-3,-3.5915334E-2,9.737246E-3,2.9164066E-3,8.0066994E-2,-4.90538E-2,8.117344E-2,-6.487622E-2,6.010546E-3,3.5497826E-2,-5.2235644E-2,3.7095826E-2,-4.1898545E-2,-3.4031242E-2,4.174362E-2,-9.171392E-4,-7.1376145E-2,6.644356E-2,1.0023444E-1,1.0449512E-1,-2.5732605E-2,-6.336039E-2,1.1564619E-2,3.4640856E-2,7.011266E-2,8.96886E-2,-3.2993488E-2,4.6912648E-2,8.355447E-2,-2.1713717E-2,-5.4014843E-2,-2.9617587E-2,3.8735492E-3,3.894316E-2,7.704533E-2,-7.218165E-2,2.3239981E-2,-6.026074E-2,9.4383415E-3,4.5409206E-2,7.698205E-2,-3.829103E-2,-7.7750295E-2],"split_indices":[31,20,2,2,31,31,21,1,1,31,2,14,22,22,31,10,31,9,2,0,94,76,3,9,15,3,9,9,9,9,9,48,28,67,28,10,31,9,12,68,0,69,29,2,31,45,0,9,10,0,9,15,1,8,9,9,20,9,20,67,2,83,0,0,0,63,9,42,6,8,31,1,9,9,9,29,32,70,0,28,0,0,0,16,0,87,1,31,16,40,16,0,57,9,20,8,13,9,3,1,18,8,16,31,85,10,31,20,15,20,1,27,20,29,0,31,15,0,0,0,0,0,0,0,0,0,0,0,0,0,0,0,0,0,0,0,0,0,0,0,0,0,0,0,0,0,0,0,0,0,0,0,0,0,0,0,0,0,0,0,0,0,0,0,0,0,0,0,0,0,0,0,0,0,0,0,0,0,0,0,0,0,0,0,0,0,0,0,0,0,0,0,0,0,0,0,0,0,0,0,0,0,0,0,0,0,0,0,0],"split_type":[0,0,0,0,0,0,0,0,0,0,0,0,0,0,0,0,0,0,0,0,0,0,0,0,0,0,0,0,0,0,0,0,0,0,0,0,0,0,0,0,0,0,0,0,0,0,0,0,0,0,0,0,0,0,0,0,0,0,0,0,0,0,0,0,0,0,0,0,0,0,0,0,0,0,0,0,0,0,0,0,0,0,0,0,0,0,0,0,0,0,0,0,0,0,0,0,0,0,0,0,0,0,0,0,0,0,0,0,0,0,0,0,0,0,0,0,0,0,0,0,0,0,0,0,0,0,0,0,0,0,0,0,0,0,0,0,0,0,0,0,0,0,0,0,0,0,0,0,0,0,0,0,0,0,0,0,0,0,0,0,0,0,0,0,0,0,0,0,0,0,0,0,0,0,0,0,0,0,0,0,0,0,0,0,0,0,0,0,0,0,0,0,0,0,0,0,0,0,0,0,0,0,0,0,0,0,0,0,0],"sum_hessian":[1.2569494E4,4.820012E3,7.7494824E3,8.8672797E2,3.9332842E3,1.1550533E3,6.594429E3,2.1704051E2,6.6968744E2,3.6632354E3,2.7004892E2,8.5567114E2,2.993821E2,4.3702583E3,2.224171E3,1.2626031E2,9.0780205E1,2.22168E2,4.4751947E2,3.2010745E3,4.621607E2,1.1127575E2,1.5877315E2,1.6669699E2,6.889742E2,1.315871E2,1.6779501E2,2.0807734E3,2.2894846E3,1.3271014E3,8.970696E2,1.235829E2,2.6774125E0,5.879044E1,3.1989761E1,1.409227E2,8.124531E1,4.2871228E2,1.8807165E1,4.6071765E2,1.4430361E0,1.0861675E2,2.6589978E0,3.4379047E1,1.24394104E2,1.3460255E2,3.209444E1,7.0793285E0,6.8189484E2,1.4519849E1,1.1706725E2,1.2909802E2,3.8696987E1,2.6667265E1,2.0541062E3,1.1938833E3,1.0956014E3,8.4697266E2,4.8012878E2,2.9979965E1,8.670896E2,1.2188748E2,1.6954192E0,1.221688E0,1.4557245E0,5.58897E1,2.9007385E0,2.735876E1,4.631E0,1.3039677E2,1.052593E1,2.2972418E1,5.827289E1,4.853366E1,3.8017862E2,1.5410916E1,3.3962493E0,4.592738E2,1.4438465E0,1.0717288E2,1.4438744E0,1.4444993E0,1.2144984E0,2.809452E1,6.284526E0,6.543192E1,5.8962185E1,1.222514E2,1.2351142E1,1.681356E1,1.5280881E1,2.1788049E0,4.9005237E0,6.4254895E2,3.9345882E1,8.8653076E1,2.8414183E1,6.582257E0,1.2251577E2,2.0584494E1,1.8112494E1,1.21901E1,1.4477164E1,9.780264E2,1.0760797E3,4.6388542E1,1.1474948E3,1.6402484E2,9.3157654E2,2.2980429E2,6.1716833E2,1.6146649E2,3.1866232E2,2.8756483E1,1.2234814E0,8.504661E2,1.6623446E1,1.2068419E2,1.2032896E0,5.4189533E1,1.7001677E0,1.4478986E0,1.4528399E0,2.6145239E1,1.2135212E0,1.4501692E0,3.1808307E0,3.924247E1,9.11543E1,2.910367E0,7.615564E0,1.2316387E1,1.0656031E1,3.617938E1,2.2093508E1,1.4750025E1,3.3783634E1,1.9410155E2,1.8607707E2,1.4205907E1,1.2050093E0,1.4638585E0,1.9323907E0,4.5470023E2,4.5735745E0,8.7428856E1,1.9744028E1,2.5899899E1,2.1946218E0,6.34662E1,1.9657189E0,5.787541E0,5.3174644E1,1.9134865E1,1.0311654E2,1.701246E0,1.0649896E1,1.3607328E1,3.206233E0,1.2333776E1,2.9471042E0,3.6721308E0,1.2283927E0,5.01905E2,1.4064397E2,1.8212797E1,2.1133085E1,2.596116E1,6.2691914E1,7.7965674E0,2.0617615E1,4.121045E0,2.461212E0,1.19847595E2,2.6681757E0,2.1847818E0,1.8399712E1,1.4940338E1,3.1721556E0,5.570994E0,6.619106E0,1.2074449E0,1.326972E1,4.1695367E2,5.6107275E2,1.074855E3,1.2247943E0,4.3457436E1,2.9311075E0,8.8394006E2,2.6355472E2,9.2891106E1,7.1133736E1,1.04305626E2,8.2727094E2,5.7353344E1,1.7245096E2,2.4977368E2,3.6739465E2,7.2253426E1,8.9213066E1,6.61982E1,2.5246411E2,2.7292538E1,1.4639453E0,5.6110614E2,2.8936E2,4.0994115E0,1.25240345E1],"tree_param":{"num_deleted":"0","num_feature":"98","num_nodes":"209","size_leaf_vector":"1"}},{"base_weights":[-1.9130983E-3,-1.219289E0,7.4173677E-1,1.9285347E-1,-1.53957E0,-9.740924E-1,1.0378885E0,-1.2111425E0,6.456578E-1,-1.5910821E0,-9.120577E-1,-1.1401818E0,-4.4970065E-1,1.3906881E0,3.4128338E-1,-1.2469109E0,2.7372557E-1,-3.211014E-1,1.1756296E0,-8.0196545E-2,-1.5115232E0,-1.3552899E0,-5.847357E-1,-6.142673E-1,-1.2691039E0,1.3451919E-1,-9.3681806E-1,1.8252431E0,1.0921865E0,-9.252974E-2,9.5452344E-1,-8.35268E-1,-1.3669015E0,-2.8063738E-1,6.564087E-2,-1.1698403E0,-1.6822282E-2,1.2839636E0,-1.2855546E0,-1.5583264E0,-1.4052163E0,-1.3747144E0,-3.7517312E-3,-9.11932E-1,-7.675006E-2,-9.081E-1,5.851682E-1,6.10901E-1,-1.2887162E0,-7.524997E-2,2.919431E-1,-1.1117793E0,-3.2921585E-1,-6.1057943E-1,1.8557857E0,7.568103E-1,1.4454126E0,-3.960859E-1,4.423128E-1,-9.576776E-1,1.0227884E0,-1.327488E0,-4.3550503E-1,-1.4857616E0,-9.259601E-1,-5.3924512E-2,2.7148833E-2,-1.2239411E0,4.218821E-2,-3.3637577E-1,8.863046E-1,4.1997004E-2,1.4300305E0,-1.4632819E0,-2.4096856E-1,-1.5609963E0,-2.1000264E-2,-3.204822E-1,-1.4513763E0,-7.5628066E-1,-1.4273776E0,3.6392322E-1,-1.0996479E0,7.425365E-1,-3.1028113E-1,-1.8708302E-1,-1.0329306E0,9.086673E-1,-2.126561E-1,-5.193453E-2,1.2253449E0,-1.3334644E0,-5.4117143E-1,-4.0600732E-1,5.9531933E-1,2.754729E-1,-1.1936389E0,-7.5859463E-1,8.551838E-1,3.1612253E-1,-1.2943858E0,1.7026873E0,2.000554E0,-1.0165132E0,8.28947E-1,8.1195426E-1,1.5564204E0,-9.355745E-1,-1.9001459E-1,1.0927174E0,1.0555636E-1,-1.0396907E0,1.0572271E-2,1.0688971E0,-1.4238288E0,-7.02028E-2,-2.441982E-4,-5.2556124E-2,7.872575E-3,-7.502512E-2,1.3866738E-3,4.661117E-2,-5.2779764E-2,-7.913174E-2,-4.611465E-2,-4.9151555E-2,-4.261888E-3,5.7383485E-2,-1.4578185E-2,-4.8752543E-2,2.510775E-2,5.6383904E-2,8.696682E-2,-7.577312E-2,-2.2697888E-2,2.9262096E-2,-4.892982E-2,-7.8184016E-2,-2.1047143E-2,-3.3766083E-2,4.765245E-2,-7.4928984E-2,-5.2471895E-2,-5.3130515E-2,2.0355135E-2,-7.206965E-2,-2.0442653E-2,6.529212E-2,-6.720512E-2,-6.232809E-2,-2.414611E-2,7.52793E-2,-4.60714E-3,-6.817957E-2,-8.752628E-3,1.6203E-2,-5.9924353E-2,-5.4114636E-2,2.1040434E-2,1.4733714E-2,8.1592485E-2,-3.0251805E-2,4.4619482E-2,7.1316594E-3,7.673028E-2,-7.053126E-2,-5.2517693E-2,-6.41076E-2,8.335865E-3,-3.2080818E-2,5.9951004E-2,9.11104E-2,2.011438E-2,-3.5339836E-2,7.818287E-2,-6.4738855E-2,-3.2676805E-2,1.7384036E-2,-5.2072544E-2,6.570863E-2,-1.8780952E-2,-2.8182967E-2,4.8173707E-2,-4.955164E-4,-7.103316E-2,6.671005E-2,9.365876E-2,1.0016848E-1,1.6755857E-2,-1.6519178E-2,-6.4380325E-2,3.6181044E-2,7.935744E-2,8.6868994E-2,-2.6933042E-2,6.922149E-2,9.029977E-2,-2.526058E-2,-5.3231694E-2,-2.8359799E-2,3.2337871E-3,4.0241E-2,7.753281E-2,-6.942558E-2,2.4678966E-2,-5.5612292E-2,1.8868139E-2,4.0179767E-2,6.9274954E-2,-7.357543E-2,-2.1485224E-2],"categories":[],"categories_nodes":[],"categories_segments":[],"categories_sizes":[],"default_left":[0,0,0,0,0,0,0,0,0,0,0,0,0,0,0,0,0,0,0,0,0,0,0,0,0,0,0,0,0,0,0,0,0,0,0,0,0,0,0,0,0,0,0,0,0,0,0,0,0,0,0,0,0,0,0,0,0,0,0,0,0,0,0,0,0,0,0,0,0,0,0,0,0,0,0,0,0,0,0,0,0,0,0,0,0,0,0,0,0,0,0,0,0,0,0,0,0,0,0,0,0,0,0,0,0,0,0,0,0,0,0,0,0,0,0,0,0,0,0,0,0,0,0,0,0,0,0,0,0,0,0,0,0,0,0,0,0,0,0,0,0,0,0,0,0,0,0,0,0,0,0,0,0,0,0,0,0,0,0,0,0,0,0,0,0,0,0,0,0,0,0,0,0,0,0,0,0,0,0,0,0,0,0,0,0,0,0,0,0,0,0,0,0,0,0,0,0,0,0,0,0,0,0,0,0,0,0,0,0,0,0],"id":2,"left_children":[1,3,5,7,9,11,13,15,17,19,21,23,25,27,29,31,33,35,37,-1,39,41,43,45,47,49,51,53,55,57,59,61,63,65,-1,67,69,71,73,75,77,79,-1,81,83,85,87,89,91,-1,93,95,97,99,101,103,105,107,109,111,113,115,117,119,121,-1,-1,123,-1,125,127,129,131,133,135,137,-1,139,141,143,145,147,149,151,153,155,157,159,161,-1,163,165,167,169,171,173,175,177,179,181,183,185,187,189,191,193,195,197,199,201,203,205,-1,207,209,-1,-1,-1,-1,-1,-1,-1,-1,-1,-1,-1,-1,-1,-1,-1,-1,-1,-1,-1,-1,-1,-1,-1,-1,-1,-1,-1,-1,-1,-1,-1,-1,-1,-1,-1,-1,-1,-1,-1,-1,-1,-1,-1,-1,-1,-1,-1,-1,-1,-1,-1,-1,-1,-1,-1,-1,-1,-1,-1,-1,-1,-1,-1,-1,-1,-1,-1,-1,-1,-1,-1,-1,-1,-1,-1,-1,-1,-1,-1,-1,-1,-1,-1,-1,-1,-1,-1,-1,-1,-1,-1,-1,-1,-1,-1,-1],"loss_changes":[1.1325743E4,2.1459932E3,3.9474321E3,5.589333E2,1.2355371E2,9.909619E1,1.6273638E3,1.1731049E1,3.4084354E2,1.2275391E0,4.2109848E1,5.806714E1,7.8885056E1,5.6830273E2,5.9284106E2,9.210388E0,3.746451E0,6.094879E1,1.161499E2,0E0,3.68042E-1,3.001831E0,2.8494724E1,6.1435875E1,2.6453735E1,3.314274E1,1.5690933E1,1.3421191E2,3.0794678E2,2.1219205E2,1.21496216E2,9.235832E0,7.0471497E0,3.639888E0,0E0,7.818054E0,5.0743076E1,7.46496E1,3.101448E0,4.0124512E-1,7.913086E0,2.924286E0,0E0,2.5412918E1,1.3321149E1,1.2335342E1,9.126561E0,9.244859E0,2.2334473E1,0E0,2.4898048E1,1.3598663E1,1.8544895E1,1.492312E1,3.5754395E1,1.7229346E2,8.8002686E1,9.249574E1,1.0354846E2,3.3206863E0,1.0213794E2,2.2073326E0,1.0755358E1,2.8288574E0,9.843113E0,0E0,0E0,5.1475067E0,0E0,2.100142E1,1.4483032E1,2.1253992E1,3.2496643E1,1.3905334E-1,2.9509532E0,4.0234375E-1,0E0,4.30996E0,1.467041E0,4.628583E0,1.0117798E0,2.4514288E1,7.669533E0,9.99246E0,7.4456415E0,1.1639871E1,8.954262E0,1.0538387E1,5.221039E0,0E0,1.8536005E0,1.2709595E1,2.1515535E1,1.4335577E1,1.8585272E1,1.0372075E1,5.191498E0,8.609643E0,6.048608E0,6.539374E0,2.1554298E0,5.187036E1,3.5598145E0,9.402931E0,1.0174432E2,2.4014096E2,4.3818848E1,1.2245178E1,5.8102516E1,2.0024246E1,1.8210732E2,3.5441399E0,0E0,7.2464355E1,1.6999817E-1,0E0,0E0,0E0,0E0,0E0,0E0,0E0,0E0,0E0,0E0,0E0,0E0,0E0,0E0,0E0,0E0,0E0,0E0,0E0,0E0,0E0,0E0,0E0,0E0,0E0,0E0,0E0,0E0,0E0,0E0,0E0,0E0,0E0,0E0,0E0,0E0,0E0,0E0,0E0,0E0,0E0,0E0,0E0,0E0,0E0,0E0,0E0,0E0,0E0,0E0,0E0,0E0,0E0,0E0,0E0,0E0,0E0,0E0,0E0,0E0,0E0,0E0,0E0,0E0,0E0,0E0,0E0,0E0,0E0,0E0,0E0,0E0,0E0,0E0,0E0,0E0,0E0,0E0,0E0,0E0,0E0,0E0,0E0,0E0,0E0,0E0,0E0,0E0,0E0,0E0,0E0,0E0,0E0,0E0,0E0,0E0],"parents":[2147483647,0,0,1,1,2,2,3,3,4,4,5,5,6,6,7,7,8,8,9,9,10,10,11,11,12,12,13,13,14,14,15,15,16,16,17,17,18,18,20,20,21,21,22,22,23,23,24,24,25,25,26,26,27,27,28,28,29,29,30,30,31,31,32,32,33,33,35,35,36,36,37,37,38,38,39,39,40,40,41,41,43,43,44,44,45,45,46,46,47,47,48,48,50,50,51,51,52,52,53,53,54,54,55,55,56,56,57,57,58,58,59,59,60,60,61,61,62,62,63,63,64,64,67,67,69,69,70,70,71,71,72,72,73,73,74,74,75,75,77,77,78,78,79,79,80,80,81,81,82,82,83,83,84,84,85,85,86,86,87,87,88,88,90,90,91,91,92,92,93,93,94,94,95,95,96,96,97,97,98,98,99,99,100,100,101,101,102,102,103,103,104,104,105,105,106,106,107,107,108,108,109,109,110,110,111,111,113,113,114,114],"right_children":[2,4,6,8,10,12,14,16,18,20,22,24,26,28,30,32,34,36,38,-1,40,42,44,46,48,50,52,54,56,58,60,62,64,66,-1,68,70,72,74,76,78,80,-1,82,84,86,88,90,92,-1,94,96,98,100,102,104,106,108,110,112,114,116,118,120,122,-1,-1,124,-1,126,128,130,132,134,136,138,-1,140,142,144,146,148,150,152,154,156,158,160,162,-1,164,166,168,170,172,174,176,178,180,182,184,186,188,190,192,194,196,198,200,202,204,206,-1,208,210,-1,-1,-1,-1,-1,-1,-1,-1,-1,-1,-1,-1,-1,-1,-1,-1,-1,-1,-1,-1,-1,-1,-1,-1,-1,-1,-1,-1,-1,-1,-1,-1,-1,-1,-1,-1,-1,-1,-1,-1,-1,-1,-1,-1,-1,-1,-1,-1,-1,-1,-1,-1,-1,-1,-1,-1,-1,-1,-1,-1,-1,-1,-1,-1,-1,-1,-1,-1,-1,-1,-1,-1,-1,-1,-1,-1,-1,-1,-1,-1,-1,-1,-1,-1,-1,-1,-1,-1,-1,-1,-1,-1,-1,-1,-1,-1],"split_conditions":[3.9270833E0,2E0,2E0,2E0,3.1215277E0,1.5079166E1,2E0,2E0,3.832E3,1.9118055E0,2E0,3E0,6E1,1.2E2,1.3734028E1,2E0,3.3E1,8.784722E-1,4E0,-8.0196545E-2,1.7E1,5.4587835E-1,3.7666667E0,1.7E1,1E0,3E1,1.7E1,1E0,1.7E1,1.6E1,1E0,1.0152777E0,3.018841E-1,2.0902777E0,6.564087E-2,4.8247138E-1,1.7E1,1.2E1,1.1E1,5.007041E-1,3E0,3E0,-3.7517312E-3,1.2E2,2E0,4.2069445E0,3.049822E-1,8E0,2E0,-7.524997E-2,2E0,1E0,3.0794132E-1,4E0,1.7E1,1E0,3E0,1.2E1,2E0,1.8E1,4E0,1.8E1,1.4E1,5.935195E-1,4E1,-5.3924512E-2,2.7148833E-2,2.035E3,4.218821E-2,2E0,1.42E3,1E0,1.7E1,1.8E1,1.360912E-1,6.4470506E-1,-2.1000264E-2,4.901E3,3.551192E-1,3.1893563E-1,5.730897E-1,3E0,3.0263394E-1,3.3E2,1.602E3,2E0,4.2116302E-1,4E0,8.121528E0,-5.193453E-2,4.920833E0,1.7E1,3E0,1.8E1,4E0,1.2E1,4.1377083E1,2E0,2.3351389E1,2E0,5.256E3,1.5427083E1,6.814355E-1,3E0,2E0,2E0,3.2E1,2E0,3.293E3,4.083E3,3E0,5.536361E-1,1.0572271E-2,3.6797916E1,4.015793E-1,-7.02028E-2,-2.441982E-4,-5.2556124E-2,7.872575E-3,-7.502512E-2,1.3866738E-3,4.661117E-2,-5.2779764E-2,-7.913174E-2,-4.611465E-2,-4.9151555E-2,-4.261888E-3,5.7383485E-2,-1.4578185E-2,-4.8752543E-2,2.510775E-2,5.6383904E-2,8.696682E-2,-7.577312E-2,-2.2697888E-2,2.9262096E-2,-4.892982E-2,-7.8184016E-2,-2.1047143E-2,-3.3766083E-2,4.765245E-2,-7.4928984E-2,-5.2471895E-2,-5.3130515E-2,2.0355135E-2,-7.206965E-2,-2.0442653E-2,6.529212E-2,-6.720512E-2,-6.232809E-2,-2.414611E-2,7.52793E-2,-4.60714E-3,-6.817957E-2,-8.752628E-3,1.6203E-2,-5.9924353E-2,-5.4114636E-2,2.1040434E-2,1.4733714E-2,8.1592485E-2,-3.0251805E-2,4.4619482E-2,7.1316594E-3,7.673028E-2,-7.053126E-2,-5.2517693E-2,-6.41076E-2,8.335865E-3,-3.2080818E-2,5.9951004E-2,9.11104E-2,2.011438E-2,-3.5339836E-2,7.818287E-2,-6.4738855E-2,-3.2676805E-2,1.7384036E-2,-5.2072544E-2,6.570863E-2,-1.8780952E-2,-2.8182967E-2,4.8173707E-2,-4.955164E-4,-7.103316E-2,6.671005E-2,9.365876E-2,1.0016848E-1,1.6755857E-2,-1.6519178E-2,-6.4380325E-2,3.6181044E-2,7.935744E-2,8.6868994E-2,-2.6933042E-2,6.922149E-2,9.029977E-2,-2.526058E-2,-5.3231694E-2,-2.8359799E-2,3.2337871E-3,4.0241E-2,7.753281E-2,-6.942558E-2,2.4678966E-2,-5.5612292E-2,1.8868139E-2,4.0179767E-2,6.9274954E-2,-7.357543E-2,-2.1485224E-2],"split_indices":[31,20,2,2,31,31,21,10,1,31,2,14,22,22,31,15,13,31,2,0,9,97,31,9,15,3,9,9,9,9,9,31,57,31,0,58,9,9,12,38,14,0,0,3,21,31,43,9,10,0,8,15,56,8,9,9,20,9,20,29,2,29,9,75,13,0,0,1,0,8,16,9,9,29,32,87,0,1,41,47,69,21,56,3,1,15,48,0,31,0,31,9,20,9,12,9,31,15,31,8,18,31,85,8,10,20,13,20,1,1,20,67,0,31,33,0,0,0,0,0,0,0,0,0,0,0,0,0,0,0,0,0,0,0,0,0,0,0,0,0,0,0,0,0,0,0,0,0,0,0,0,0,0,0,0,0,0,0,0,0,0,0,0,0,0,0,0,0,0,0,0,0,0,0,0,0,0,0,0,0,0,0,0,0,0,0,0,0,0,0,0,0,0,0,0,0,0,0,0,0,0,0,0,0,0,0,0,0,0,0,0],"split_type":[0,0,0,0,0,0,0,0,0,0,0,0,0,0,0,0,0,0,0,0,0,0,0,0,0,0,0,0,0,0,0,0,0,0,0,0,0,0,0,0,0,0,0,0,0,0,0,0,0,0,0,0,0,0,0,0,0,0,0,0,0,0,0,0,0,0,0,0,0,0,0,0,0,0,0,0,0,0,0,0,0,0,0,0,0,0,0,0,0,0,0,0,0,0,0,0,0,0,0,0,0,0,0,0,0,0,0,0,0,0,0,0,0,0,0,0,0,0,0,0,0,0,0,0,0,0,0,0,0,0,0,0,0,0,0,0,0,0,0,0,0,0,0,0,0,0,0,0,0,0,0,0,0,0,0,0,0,0,0,0,0,0,0,0,0,0,0,0,0,0,0,0,0,0,0,0,0,0,0,0,0,0,0,0,0,0,0,0,0,0,0,0,0,0,0,0,0,0,0,0,0,0,0,0,0,0,0,0,0,0,0],"sum_hessian":[1.2508468E4,4.7431523E3,7.765315E3,8.769617E2,3.866191E3,1.1426718E3,6.622643E3,2.1344981E2,6.6351184E2,3.571475E3,2.9471573E2,8.6692E2,2.757518E2,4.395514E3,2.2271292E3,2.0858554E2,4.864281E0,2.3507994E2,4.284319E2,3.0583843E3,5.130909E2,1.23857574E2,1.7085817E2,1.7181134E2,6.9510864E2,1.25708405E2,1.500434E2,1.7877762E3,2.6077378E3,1.3048865E3,9.222426E2,4.887497E1,1.5971057E2,3.6479788E0,1.2163025E0,6.128643E1,1.7379352E2,4.1082684E2,1.7605045E1,3.4676453E2,1.6632635E2,1.2193378E2,1.9237974E0,1.03437996E2,6.742017E1,1.3819885E2,3.3612488E1,6.8652825E0,6.8824335E2,1.0262952E1,1.1544546E2,1.1585326E2,3.4190136E1,2.1904034E1,1.7658722E3,1.3392799E3,1.2684579E3,8.325962E2,4.722903E2,3.133981E1,8.9090283E2,2.0864391E1,2.8010578E1,1.2393355E2,3.577702E1,1.6957796E0,1.9521992E0,6.0064793E1,1.2216358E0,1.2883527E2,4.4958252E1,4.3368046E1,3.674588E2,1.4702685E1,2.9023595E0,3.4558267E2,1.181881E0,7.113195E0,1.5921317E2,1.0773963E1,1.1115981E2,1.3146439E1,9.029156E1,1.4471356E1,5.2948814E1,2.0764208E1,1.1743465E2,2.3816513E1,9.795974E0,1.6758059E0,5.1894765E0,6.4863226E2,3.9611046E1,3.4874508E1,8.0570946E1,6.32361E0,1.0952965E2,2.5357006E1,8.83313E0,9.528544E0,1.2375489E1,8.6444586E2,9.014263E2,5.1839016E1,1.2874409E3,1.9038031E2,1.0780776E3,2.291495E2,6.0344666E2,1.6034955E2,3.1194077E2,2.9388908E1,1.9509022E0,8.749762E2,1.5926627E1,1.9664396E1,1.199994E0,1.3363592E1,1.4646986E1,1.2274664E2,1.1869069E0,1.9294368E0,3.3847584E1,2.549808E1,3.4566715E1,3.522363E1,9.361163E1,3.6814808E1,8.143445E0,1.3160832E1,3.0207212E1,1.8816739E2,1.792914E2,1.3503132E1,1.1995534E0,1.4664221E0,1.4359374E0,3.4440024E2,1.18241E0,5.9305205E0,1.1826745E0,1.4003876E2,1.91744E1,8.596932E0,2.177031E0,1.0924142E2,1.9183933E0,8.625326E0,4.521113E0,7.20959E1,1.8195652E1,7.1401567E0,7.3311996E0,4.990858E0,4.795796E1,1.424478E1,6.5194283E0,1.13825195E2,3.6094522E0,1.3641844E1,1.0174669E1,7.562985E0,2.2329886E0,1.477612E0,3.7118645E0,5.0658255E2,1.4204974E2,1.8956818E1,2.0654228E1,3.093384E1,3.9406683E0,9.805882E0,7.076506E1,3.8438845E0,2.4797254E0,9.107746E1,1.845219E1,5.1165514E0,2.0240456E1,6.3844976E0,2.448632E0,4.093952E0,5.4345927E0,1.2042736E0,1.1171216E1,2.762327E2,5.882132E2,8.997024E2,1.7238922E0,1.5309584E1,3.6529434E1,1.1321254E3,1.5531558E2,1.1280279E2,7.7577515E1,6.421186E2,4.3595898E2,5.399886E1,1.7515065E2,2.427384E2,3.6070828E2,1.0014669E2,6.0202858E1,6.377996E1,2.481608E2,2.8162073E1,1.2268357E0,4.7798166E2,3.9699454E2,1.4739492E1,1.1871345E0],"tree_param":{"num_deleted":"0","num_feature":"98","num_nodes":"211","size_leaf_vector":"1"}},{"base_weights":[-7.765217E-3,-1.1804471E0,6.9467986E-1,1.7879462E-1,-1.4913851E0,-9.459455E-1,9.7619176E-1,-1.1656392E0,5.9472775E-1,-1.5435903E0,-8.671989E-1,-1.1157254E0,-4.4276032E-1,1.316205E0,3.0398738E-1,-1.383856E0,-8.80519E-1,-3.926046E-1,1.0504398E0,-7.77532E-2,-1.4728675E0,-1.3053349E0,-5.4485327E-1,-6.291163E-1,-1.23412E0,7.684382E-2,-8.755854E-1,1.730318E0,1.0331087E0,-1.3626464E-1,8.57338E-1,-1.3990637E0,2.2645372E-3,-3.1361872E-1,-1.1023263E0,-6.551148E-1,3.1019235E-1,1.1533308E0,-1.2740741E0,-1.4778252E0,-7.974548E-1,-1.3247569E0,3.514055E-3,4.2091888E-1,-7.2640437E-1,-8.820507E-1,3.945853E-1,-1.2753217E0,-5.4933876E-1,-7.376571E-2,2.3960397E-1,-1.0760667E0,-2.2413467E-1,-6.5050024E-1,1.7605398E0,7.151719E-1,1.3628772E0,4.1243634E-1,-3.9062256E-1,9.0501463E-1,-1.3899992E0,-1.4135257E0,-1.3195566E-2,2.744511E-1,-1.0207794E0,-1.1628653E0,2.3760209E-2,-1.2930397E0,-4.3306294E-1,-7.15202E-2,5.6356084E-1,-5.7302322E-2,1.3020908E0,-1.4332385E0,-3.272903E-1,-1.4795843E0,-1.9275393E-2,-5.800414E-2,-4.7448236E-3,-1.4804544E0,-1.0923988E0,9.344457E-1,-1.1312956E0,-1.0623444E0,-2.5445932E-1,-1.9867018E-1,-1.0102788E0,-9.05605E-2,9.016479E-1,2.8864434E-1,-1.2931601E0,-1.24186E0,1.1254416E-1,-4.5900233E-2,1.0629023E0,3.1515066E-2,-1.1087914E0,-5.5613106E-1,1.0297511E0,2.9610753E-1,-1.3343568E0,1.613358E0,1.8996269E0,-9.685097E-1,7.83954E-1,7.799008E-1,1.465261E0,3.9531857E-2,1.0136257E0,-1.4969596E0,2.978526E-2,-8.382877E-1,9.593917E-1,5.0591845E-3,-7.618935E-2,-7.1767166E-2,-2.8715257E-2,-5.247124E-2,3.744584E-2,-6.0694613E-2,2.2117546E-2,-6.0102414E-2,2.4468038E-2,-7.015921E-2,-3.589827E-2,-2.7945105E-2,3.997327E-2,-1.2897924E-2,4.4459134E-2,6.71395E-2,-1.8910589E-2,9.117415E-2,5.4641288E-2,-7.4165136E-2,-2.1124996E-2,-4.831123E-2,1.8231757E-2,-7.406529E-2,-2.0033348E-2,-1.9367294E-2,-7.465774E-2,-2.4953747E-2,-6.449178E-2,6.353915E-2,-1.1426157E-2,-6.726975E-2,-9.889523E-4,-6.0869724E-2,-1.9761372E-2,2.7310906E-2,-2.2623928E-2,1.3941683E-2,-5.4112375E-2,-5.6177575E-2,-1.7566105E-2,-1.6532226E-2,7.026933E-2,5.4968774E-2,-3.4128785E-2,-5.5300303E-2,4.8627745E-2,-6.8542324E-2,-5.067743E-2,3.1707436E-2,-7.655995E-2,7.233305E-2,-1.1883581E-2,-3.6167126E-2,1.2147005E-2,-7.6779266E-5,7.1716815E-2,-5.765261E-2,1.2519443E-2,7.239332E-2,-3.414619E-2,7.0177875E-2,-6.745092E-3,-3.475801E-2,4.8296504E-2,-6.949701E-2,-2.0001654E-2,6.372439E-2,8.8655986E-2,9.5172904E-2,-2.5503838E-2,-5.3788032E-2,1.8972293E-2,3.2274496E-2,6.464964E-2,8.0256365E-2,-2.367271E-2,4.775567E-2,7.758425E-2,1.9303432E-2,-2.4184935E-2,3.0097945E-2,6.72466E-2,-7.54591E-2,1.5364493E-2,-3.3849113E-2,1.6876658E-2,-4.782429E-2,2.8476832E-2,3.8754042E-2,6.7784175E-2],"categories":[],"categories_nodes":[],"categories_segments":[],"categories_sizes":[],"default_left":[0,0,0,0,0,0,0,0,0,0,0,0,0,0,0,0,0,0,0,0,0,0,0,0,0,0,0,0,0,0,0,0,0,0,0,0,0,0,0,0,0,0,0,0,0,0,0,0,0,0,0,0,0,0,0,0,0,0,0,0,0,0,0,0,0,0,0,0,0,0,0,0,0,0,0,0,0,0,0,0,0,0,0,0,0,0,0,0,0,0,0,0,0,0,0,0,0,0,0,0,0,0,0,0,0,0,0,0,0,0,0,0,0,0,0,0,0,0,0,0,0,0,0,0,0,0,0,0,0,0,0,0,0,0,0,0,0,0,0,0,0,0,0,0,0,0,0,0,0,0,0,0,0,0,0,0,0,0,0,0,0,0,0,0,0,0,0,0,0,0,0,0,0,0,0,0,0,0,0,0,0,0,0,0,0,0,0,0,0,0,0,0,0,0,0,0,0,0,0,0,0,0,0,0,0],"id":3,"left_children":[1,3,5,7,9,11,13,15,17,19,21,23,25,27,29,31,33,35,37,-1,39,41,43,45,47,49,51,53,55,57,59,61,-1,63,65,67,69,71,73,75,77,79,-1,81,83,85,87,89,91,-1,93,95,97,99,101,103,105,107,109,111,113,115,-1,117,119,121,-1,123,125,-1,127,129,131,133,135,137,-1,-1,-1,139,141,143,145,147,149,151,153,155,157,159,161,163,165,167,169,-1,171,173,175,177,179,181,183,185,187,189,191,193,195,197,199,201,203,-1,-1,-1,-1,-1,-1,-1,-1,-1,-1,-1,-1,-1,-1,-1,-1,-1,-1,-1,-1,-1,-1,-1,-1,-1,-1,-1,-1,-1,-1,-1,-1,-1,-1,-1,-1,-1,-1,-1,-1,-1,-1,-1,-1,-1,-1,-1,-1,-1,-1,-1,-1,-1,-1,-1,-1,-1,-1,-1,-1,-1,-1,-1,-1,-1,-1,-1,-1,-1,-1,-1,-1,-1,-1,-1,-1,-1,-1,-1,-1,-1,-1,-1,-1,-1,-1,-1,-1,-1,-1,-1,-1],"loss_changes":[1.02574E4,1.9717661E3,3.5975957E3,4.8681598E2,1.2236914E2,9.698572E1,1.5189194E3,1.1582153E1,2.9943646E2,5.5078125E-1,4.0993744E1,4.83385E1,6.51811E1,5.1570264E2,5.444044E2,2.5583038E0,1.1215775E1,3.9057846E1,1.1028854E2,0E0,5.2197266E-1,3.4180603E0,3.0436554E1,4.4073456E1,1.8616089E1,3.3825035E1,2.0398605E1,1.3000244E2,2.741731E2,1.7393977E2,1.0734192E2,1.4921417E0,0E0,1.1614575E1,6.8261414E0,2.1205315E1,2.636337E1,7.863562E1,2.508728E0,3.9587402E-1,1.3859141E0,2.8242188E0,0E0,2.3237099E1,2.2721802E1,1.169239E1,8.48214E0,1.8368652E1,1.8755058E1,0E0,2.843834E1,7.432144E0,1.6579882E1,1.5399416E1,3.314258E1,1.5573627E2,7.5680176E1,8.84832E1,3.9597968E2,9.276819E1,4.336254E0,1.2255859E0,0E0,1.0628037E1,4.093294E0,4.702591E0,0E0,1.4736862E0,1.8358137E1,0E0,1.3953688E1,2.238632E1,4.0399353E1,2.1435165E-1,2.1825125E0,3.383789E-1,0E0,0E0,0E0,4.0309143E-1,5.573429E0,8.682947E0,1.727171E0,8.249046E0,1.0016632E1,9.874016E0,8.116966E0,7.058764E0,6.009263E0,8.793652E0,1.24678955E1,1.178895E1,1.0474429E1,1.791107E1,1.2314148E1,0E0,7.4280243E0,8.878844E0,3.8465414E0,7.6696997E0,1.522522E-1,4.4622314E1,9.313965E0,8.066238E0,8.982568E1,2.0183994E2,4.6736572E1,4.4563126E1,1.9801682E1,5.633484E0,1.3461273E2,5.516615E0,6.7699036E1,0E0,0E0,0E0,0E0,0E0,0E0,0E0,0E0,0E0,0E0,0E0,0E0,0E0,0E0,0E0,0E0,0E0,0E0,0E0,0E0,0E0,0E0,0E0,0E0,0E0,0E0,0E0,0E0,0E0,0E0,0E0,0E0,0E0,0E0,0E0,0E0,0E0,0E0,0E0,0E0,0E0,0E0,0E0,0E0,0E0,0E0,0E0,0E0,0E0,0E0,0E0,0E0,0E0,0E0,0E0,0E0,0E0,0E0,0E0,0E0,0E0,0E0,0E0,0E0,0E0,0E0,0E0,0E0,0E0,0E0,0E0,0E0,0E0,0E0,0E0,0E0,0E0,0E0,0E0,0E0,0E0,0E0,0E0,0E0,0E0,0E0,0E0,0E0,0E0,0E0,0E0,0E0],"parents":[2147483647,0,0,1,1,2,2,3,3,4,4,5,5,6,6,7,7,8,8,9,9,10,10,11,11,12,12,13,13,14,14,15,15,16,16,17,17,18,18,20,20,21,21,22,22,23,23,24,24,25,25,26,26,27,27,28,28,29,29,30,30,31,31,33,33,34,34,35,35,36,36,37,37,38,38,39,39,40,40,41,41,43,43,44,44,45,45,46,46,47,47,48,48,50,50,51,51,52,52,53,53,54,54,55,55,56,56,57,57,58,58,59,59,60,60,61,61,63,63,64,64,65,65,67,67,68,68,70,70,71,71,72,72,73,73,74,74,75,75,79,79,80,80,81,81,82,82,83,83,84,84,85,85,86,86,87,87,88,88,89,89,90,90,91,91,92,92,93,93,94,94,96,96,97,97,98,98,99,99,100,100,101,101,102,102,103,103,104,104,105,105,106,106,107,107,108,108,109,109,110,110,111,111,112,112],"right_children":[2,4,6,8,10,12,14,16,18,20,22,24,26,28,30,32,34,36,38,-1,40,42,44,46,48,50,52,54,56,58,60,62,-1,64,66,68,70,72,74,76,78,80,-1,82,84,86,88,90,92,-1,94,96,98,100,102,104,106,108,110,112,114,116,-1,118,120,122,-1,124,126,-1,128,130,132,134,136,138,-1,-1,-1,140,142,144,146,148,150,152,154,156,158,160,162,164,166,168,170,-1,172,174,176,178,180,182,184,186,188,190,192,194,196,198,200,202,204,-1,-1,-1,-1,-1,-1,-1,-1,-1,-1,-1,-1,-1,-1,-1,-1,-1,-1,-1,-1,-1,-1,-1,-1,-1,-1,-1,-1,-1,-1,-1,-1,-1,-1,-1,-1,-1,-1,-1,-1,-1,-1,-1,-1,-1,-1,-1,-1,-1,-1,-1,-1,-1,-1,-1,-1,-1,-1,-1,-1,-1,-1,-1,-1,-1,-1,-1,-1,-1,-1,-1,-1,-1,-1,-1,-1,-1,-1,-1,-1,-1,-1,-1,-1,-1,-1,-1,-1,-1,-1,-1,-1],"split_conditions":[3.9270833E0,2E0,2E0,2E0,3.1215277E0,1.4913889E1,2E0,1.0152777E0,3.74E3,1.9118055E0,2E0,3E0,6E1,1.2E2,1.2156944E1,5.582192E-1,2E0,1.7E1,4E0,-7.77532E-2,4.9646157E-1,5.4587835E-1,1.8E2,1.7E1,2E0,3E1,3.0855742E-1,1E0,1.7E1,2E0,4E0,5.553474E-1,2.2645372E-3,2E1,4.2672497E-1,8.784722E-1,1E0,1.2E1,1.1E1,6.738986E-1,3.61E3,3.7666667E0,3.514055E-3,3E0,3.7666667E0,4.2069445E0,1.8E1,1E0,3E0,-7.376571E-2,1.7E1,9E1,1.7E1,4E0,1.7E1,1E0,3E0,1.6E1,3E0,1E0,1E0,1.9E1,-1.3195566E-2,4.197E3,1.1E1,5.606609E-1,2.3760209E-2,2.017E3,2E0,-7.15202E-2,2.008E3,9E1,9E1,1.553E3,9.7152776E-1,6.633976E-1,-1.9275393E-2,-5.800414E-2,-4.7448236E-3,6.57E2,9E1,3.1130564E-1,1.2E2,3.0263394E-1,3E0,2E0,3.566516E-1,3.7461472E-1,6E0,8E0,1.7E1,2E0,2.4E2,2E0,1.2E1,3.1515066E-2,2E0,1.5079166E1,2.3351389E1,2E0,1.4904992E-1,1.707361E1,6.8565553E-1,2E0,4.1377083E1,2E0,3.487E3,4E0,2.3E1,6.479708E-1,2E0,1.8E1,5.0143055E1,5.0591845E-3,-7.618935E-2,-7.1767166E-2,-2.8715257E-2,-5.247124E-2,3.744584E-2,-6.0694613E-2,2.2117546E-2,-6.0102414E-2,2.4468038E-2,-7.015921E-2,-3.589827E-2,-2.7945105E-2,3.997327E-2,-1.2897924E-2,4.4459134E-2,6.71395E-2,-1.8910589E-2,9.117415E-2,5.4641288E-2,-7.4165136E-2,-2.1124996E-2,-4.831123E-2,1.8231757E-2,-7.406529E-2,-2.0033348E-2,-1.9367294E-2,-7.465774E-2,-2.4953747E-2,-6.449178E-2,6.353915E-2,-1.1426157E-2,-6.726975E-2,-9.889523E-4,-6.0869724E-2,-1.9761372E-2,2.7310906E-2,-2.2623928E-2,1.3941683E-2,-5.4112375E-2,-5.6177575E-2,-1.7566105E-2,-1.6532226E-2,7.026933E-2,5.4968774E-2,-3.4128785E-2,-5.5300303E-2,4.8627745E-2,-6.8542324E-2,-5.067743E-2,3.1707436E-2,-7.655995E-2,7.233305E-2,-1.1883581E-2,-3.6167126E-2,1.2147005E-2,-7.6779266E-5,7.1716815E-2,-5.765261E-2,1.2519443E-2,7.239332E-2,-3.414619E-2,7.0177875E-2,-6.745092E-3,-3.475801E-2,4.8296504E-2,-6.949701E-2,-2.0001654E-2,6.372439E-2,8.8655986E-2,9.5172904E-2,-2.5503838E-2,-5.3788032E-2,1.8972293E-2,3.2274496E-2,6.464964E-2,8.0256365E-2,-2.367271E-2,4.775567E-2,7.758425E-2,1.9303432E-2,-2.4184935E-2,3.0097945E-2,6.72466E-2,-7.54591E-2,1.5364493E-2,-3.3849113E-2,1.6876658E-2,-4.782429E-2,2.8476832E-2,3.8754042E-2,6.7784175E-2],"split_indices":[31,20,2,2,31,31,21,31,1,31,2,14,22,22,31,43,15,9,2,0,34,97,3,9,10,3,56,9,9,20,2,52,0,14,48,31,20,9,12,91,1,31,0,21,31,31,9,15,20,0,9,3,9,8,9,9,20,9,20,9,15,9,0,1,25,83,0,7,10,0,11,3,22,16,31,94,0,0,0,1,3,54,3,56,25,15,45,45,8,9,9,20,3,8,13,0,10,31,31,8,32,31,85,10,31,20,1,8,27,86,15,29,31,0,0,0,0,0,0,0,0,0,0,0,0,0,0,0,0,0,0,0,0,0,0,0,0,0,0,0,0,0,0,0,0,0,0,0,0,0,0,0,0,0,0,0,0,0,0,0,0,0,0,0,0,0,0,0,0,0,0,0,0,0,0,0,0,0,0,0,0,0,0,0,0,0,0,0,0,0,0,0,0,0,0,0,0,0,0,0,0,0,0,0,0],"split_type":[0,0,0,0,0,0,0,0,0,0,0,0,0,0,0,0,0,0,0,0,0,0,0,0,0,0,0,0,0,0,0,0,0,0,0,0,0,0,0,0,0,0,0,0,0,0,0,0,0,0,0,0,0,0,0,0,0,0,0,0,0,0,0,0,0,0,0,0,0,0,0,0,0,0,0,0,0,0,0,0,0,0,0,0,0,0,0,0,0,0,0,0,0,0,0,0,0,0,0,0,0,0,0,0,0,0,0,0,0,0,0,0,0,0,0,0,0,0,0,0,0,0,0,0,0,0,0,0,0,0,0,0,0,0,0,0,0,0,0,0,0,0,0,0,0,0,0,0,0,0,0,0,0,0,0,0,0,0,0,0,0,0,0,0,0,0,0,0,0,0,0,0,0,0,0,0,0,0,0,0,0,0,0,0,0,0,0,0,0,0,0,0,0,0,0,0,0,0,0,0,0,0,0,0,0],"sum_hessian":[1.2450166E4,4.6637266E3,7.786439E3,8.683267E2,3.7953997E3,1.1400387E3,6.6464004E3,2.0473921E2,6.635875E2,3.501104E3,2.9429562E2,8.515123E2,2.8852637E2,4.4131763E3,2.2332239E3,1.1379363E2,9.094558E1,2.0960405E2,4.539835E2,2.9943328E3,5.067713E2,1.234506E2,1.7084502E2,1.6787007E2,6.836423E2,1.3149263E2,1.5703372E2,1.7898601E3,2.6233164E3,1.2441321E3,9.890918E2,1.12616325E2,1.1773072E0,2.6255386E1,6.469019E1,1.5265273E2,5.6951332E1,4.3522287E2,1.8760622E1,5.0189926E2,4.8720307E0,1.2176836E2,1.6822468E0,2.6825691E1,1.4401933E2,1.3472166E2,3.314842E1,6.4403015E2,3.961211E1,1.1714383E1,1.1977825E2,1.1958127E2,3.7452457E1,2.217825E1,1.7676819E3,1.3372317E3,1.2860847E3,3.9386496E2,8.502671E2,9.691293E2,1.9962526E1,1.1095747E2,1.6588489E0,1.4668806E1,1.1586579E1,6.255255E1,2.1376448E0,3.8170616E1,1.144821E2,6.6463766E0,5.030496E1,4.769424E1,3.8752863E2,1.5620801E1,3.13982E0,5.0073825E2,1.1610132E0,2.7838895E0,2.0881412E0,6.969558E1,5.2072777E1,2.0456093E1,6.3695984E0,8.340148E1,6.0617847E1,2.1687805E1,1.1303385E2,1.7360088E1,1.5788329E1,7.0917068E0,6.369385E2,1.89298E1,2.0682312E1,8.963781E1,3.0140438E1,1.906549E0,1.1767472E2,3.0051954E1,7.400504E0,9.539915E0,1.2638334E1,8.649706E2,9.027113E2,5.1971397E1,1.2852603E3,1.9341132E2,1.0926733E3,2.4374258E2,1.5012239E2,2.334263E2,6.168408E2,2.8878609E1,9.402507E2,1.6636274E0,1.8298899E1,1.07453636E2,3.50384E0,3.5504305E0,1.1118376E1,1.0386104E1,1.2004756E0,6.1369617E1,1.1829333E0,3.0826399E1,7.3442183E0,1.0437239E2,1.01097145E1,1.4338301E1,3.5966656E1,8.299615E0,3.9394627E1,1.0878152E2,2.787471E2,1.4438106E1,1.1826952E0,1.4263129E0,1.7135072E0,4.9956824E2,1.1700345E0,1.1622266E0,6.853335E1,1.3882319E1,3.8190456E1,1.5795298E1,4.660796E0,5.1644187E0,1.2051797E0,6.7003746E1,1.6397736E1,1.1670511E1,4.8947334E1,1.4523453E1,7.164354E0,9.585212E1,1.718173E1,1.5630524E1,1.7295638E0,1.4308524E1,1.4798046E0,2.1303189E0,4.9613876E0,4.9539645E2,1.4154199E2,2.3702047E0,1.6559595E1,3.6494138E0,1.7032898E1,2.634479E1,6.3293022E1,8.054396E0,2.2086042E1,1.14110435E2,3.5642831E0,1.16825E0,2.8883705E1,5.447082E0,1.9534218E0,3.8316476E0,5.7082677E0,1.14684305E1,1.1699039E0,2.8001303E2,5.849576E2,9.014881E2,1.2232099E0,4.8328075E1,3.643323E0,1.0121991E3,2.730612E2,1.16455025E2,7.695629E1,1.6003899E2,9.326344E2,1.4678723E2,9.695535E1,6.819864E1,8.1923744E1,2.3201808E2,1.4082112E0,1.8675146E2,4.3008932E2,2.6937578E1,1.94103E0,6.4378796E2,2.964627E2],"tree_param":{"num_deleted":"0","num_feature":"98","num_nodes":"205","size_leaf_vector":"1"}},{"base_weights":[-1.459205E-3,-1.1369255E0,6.647662E-1,1.8356217E-1,-1.4494408E0,-9.17203E-1,9.2912793E-1,-1.1247704E0,5.8746785E-1,-1.4991523E0,-8.6933124E-1,-1.0727341E0,-4.3021157E-1,1.248811E0,3.0000958E-1,-1.3220323E0,-8.6338896E-1,-2.6549643E-1,1.0478921E0,-7.559862E-2,-1.4202073E0,-1.3080274E0,-5.452767E-1,-5.914909E-1,-1.1923623E0,4.1820567E-2,-9.0735805E-1,1.5972627E0,9.3125063E-1,-6.70765E-2,8.870557E-1,-1.3879898E0,-6.621629E-1,-1.099478E0,-2.9122373E-1,-1.0329218E0,1.1219093E-2,1.1453347E0,-1.2618067E0,-1.4299966E0,-8.8779795E-1,-8.466961E-1,-1.3746676E0,2.733542E-1,-7.375255E-1,-8.5418415E-1,4.9431598E-1,4.251515E-1,-1.2120126E0,-7.085106E-2,1.6626438E-1,-1.0910276E0,-2.736312E-1,-5.5133253E-1,1.6234027E0,6.527339E-1,1.2313926E0,4.4876552E-1,-3.2431608E-1,-8.728826E-1,9.4874966E-1,-1.4205871E0,-3.988509E-1,3.1405047E-2,-9.566013E-1,-1.1576737E0,1.9088084E-2,-1.1283315E0,1.656932E-1,-1.0836307E0,4.1018277E-2,-2.8060588E-1,8.64726E-1,-4.1658673E-2,1.2951672E0,-1.3527445E0,7.097545E-4,-1.4317856E0,-1.8254299E-2,-1.2370868E0,1.4654032E-2,-1.0275768E0,1.6283807E-1,-1.4382592E0,-1.0095083E0,6.2866116E-1,-6.648636E-2,-1.0794601E0,-2.7681717E-1,-1.0334999E-1,-9.795184E-1,6.7873836E-1,-8.8631696E-1,-5.3922143E-2,1.0552651E0,-1.2516487E0,-5.492276E-1,-1.4349984E-2,1.2549736E0,1.9084273E-1,-1.1885821E0,-6.7504215E-1,8.2287383E-1,2.3562962E-1,-1.1834806E0,1.44586E0,1.7878627E0,-1.0301039E0,7.1845424E-1,6.438083E-1,1.3351225E0,1.850264E-1,1.2118553E0,-1.4348642E0,7.413736E-2,-1.0065863E0,1.0300351E-1,9.876295E-1,-1.247034E0,-7.1898535E-2,-5.952354E-3,4.7943216E-2,-5.612553E-2,2.1883676E-2,-6.359482E-2,-6.252738E-2,-2.6181003E-2,-6.42029E-2,9.674616E-4,-5.1730573E-2,5.097357E-2,-6.03224E-2,-2.0002652E-2,2.6715416E-2,-2.1665795E-2,5.4619636E-2,-1.0289977E-2,-4.888515E-2,1.8702768E-2,8.7097764E-2,5.495554E-2,-7.206761E-2,-2.197142E-2,-7.167822E-2,-1.8551676E-2,-6.6408336E-2,-1.7712208E-2,5.2357018E-2,-3.5664883E-2,-5.8472287E-2,5.5617036E-4,4.281525E-2,-2.7013034E-2,-7.241889E-2,-1.7632058E-2,-5.8479108E-2,5.503151E-3,-5.9226733E-3,5.4346662E-2,-5.6410056E-2,2.811147E-2,-1.9965058E-2,4.3937054E-2,1.8029876E-2,-4.961464E-2,-5.0892513E-2,3.0580178E-2,8.738614E-3,6.5810375E-2,-5.8366146E-2,-4.401114E-3,6.7165375E-2,-6.1188056E-3,-6.644865E-2,-4.85994E-2,-6.238407E-2,6.1680973E-3,-3.4092046E-2,1.5742002E-2,-3.9296243E-3,7.989712E-2,-3.9052144E-2,7.84022E-2,-6.1500996E-2,1.613384E-2,-4.228922E-2,2.9821038E-2,6.975474E-2,-4.0408533E-2,5.2303858E-2,-2.1574946E-2,-6.482105E-2,3.1554892E-3,8.327743E-2,5.206279E-2,8.949954E-2,7.1225204E-3,-2.9481173E-2,-6.649621E-2,3.0776346E-2,7.25955E-2,7.554765E-2,-2.6778651E-2,3.3443075E-2,7.095071E-2,2.5878021E-2,-1.795511E-2,4.064734E-2,7.5713046E-2,-7.271607E-2,2.7725443E-2,9.9340845E-3,-6.2282164E-2,-5.5918027E-2,9.078515E-3,3.467556E-2,-4.263864E-2,4.1785806E-2,6.957067E-2,-2.2066804E-2,-7.068457E-2],"categories":[],"categories_nodes":[],"categories_segments":[],"categories_sizes":[],"default_left":[0,0,0,0,0,0,0,0,0,0,0,0,0,0,0,0,0,0,0,0,0,0,0,0,0,0,0,0,0,0,0,0,0,0,0,0,0,0,0,0,0,0,0,0,0,0,0,0,0,0,0,0,0,0,0,0,0,0,0,0,0,0,0,0,0,0,0,0,0,0,0,0,0,0,0,0,0,0,0,0,0,0,0,0,0,0,0,0,0,0,0,0,0,0,0,0,0,0,0,0,0,0,0,0,0,0,0,0,0,0,0,0,0,0,0,0,0,0,0,0,0,0,0,0,0,0,0,0,0,0,0,0,0,0,0,0,0,0,0,0,0,0,0,0,0,0,0,0,0,0,0,0,0,0,0,0,0,0,0,0,0,0,0,0,0,0,0,0,0,0,0,0,0,0,0,0,0,0,0,0,0,0,0,0,0,0,0,0,0,0,0,0,0,0,0,0,0,0,0,0,0,0,0,0,0,0,0,0,0,0,0,0,0,0,0,0,0,0,0,0,0],"id":4,"left_children":[1,3,5,7,9,11,13,15,17,19,21,23,25,27,29,31,33,35,37,-1,39,41,43,45,47,49,51,53,55,57,59,61,63,65,67,69,71,73,75,77,79,81,83,85,87,89,91,93,95,-1,97,99,101,103,105,107,109,111,113,115,117,119,121,-1,123,125,-1,127,129,131,-1,133,135,137,139,141,-1,143,-1,145,147,149,151,153,155,157,-1,159,161,163,165,167,169,-1,171,173,175,177,179,181,183,185,187,189,191,193,195,197,199,201,203,205,207,209,211,213,215,217,219,-1,-1,-1,-1,-1,-1,-1,-1,-1,-1,-1,-1,-1,-1,-1,-1,-1,-1,-1,-1,-1,-1,-1,-1,-1,-1,-1,-1,-1,-1,-1,-1,-1,-1,-1,-1,-1,-1,-1,-1,-1,-1,-1,-1,-1,-1,-1,-1,-1,-1,-1,-1,-1,-1,-1,-1,-1,-1,-1,-1,-1,-1,-1,-1,-1,-1,-1,-1,-1,-1,-1,-1,-1,-1,-1,-1,-1,-1,-1,-1,-1,-1,-1,-1,-1,-1,-1,-1,-1,-1,-1,-1,-1,-1,-1,-1,-1,-1,-1,-1,-1,-1],"loss_changes":[9.323195E3,1.8809497E3,3.24918E3,4.620147E2,1.04973145E2,8.381128E1,1.3381807E3,9.494934E0,2.6252283E2,1.2866211E0,4.09767E1,4.7805176E1,6.107378E1,4.8680322E2,4.8358948E2,4.1157684E0,1.2054237E1,4.9891983E1,9.9092926E1,0E0,1.2868652E0,2.6444397E0,2.701649E1,4.883917E1,2.1934387E1,2.5140442E1,1.5393036E1,1.1898828E2,1.9239282E2,1.8345877E2,9.456671E1,2.7949982E0,5.3209505E0,6.000969E0,1.0941951E1,6.7400513E0,4.3488876E1,7.418701E1,2.1123943E0,3.9172363E-1,3.6410131E0,3.497901E0,1.0242767E0,1.9707932E1,2.1479897E1,1.2795357E1,9.182348E0,9.502663E0,1.6809937E1,0E0,2.5049091E1,1.3255341E1,1.4476078E1,1.3223198E1,5.80791E1,1.3355219E2,6.687073E1,9.237304E1,4.0825568E2,3.9867077E0,7.248041E1,2.1035614E0,5.71048E0,0E0,5.1779985E0,3.013771E0,0E0,1.8222027E0,2.0589228E1,4.6413727E0,0E0,1.6427261E1,1.10667E1,1.8922136E1,3.0508179E1,7.301979E-1,0E0,3.7164307E-1,0E0,1.9673252E-1,3.9002001E0,2.3124866E0,2.234776E0,4.6099854E-1,3.5643826E0,9.6471615E0,0E0,6.956398E0,8.877178E0,8.9039955E0,7.778084E0,9.502781E0,8.8537E-1,0E0,2.4462214E0,1.2281799E1,1.8646954E1,2.4422846E1,8.415222E0,1.224001E1,6.4685516E0,5.649743E0,9.458316E0,7.1690574E0,2.1366959E0,8.753467E1,3.506836E0,5.230892E0,8.640021E1,1.733074E2,5.179065E1,6.226698E1,1.3002914E1,1.0235626E1,1.1198149E2,3.6913986E0,3.1273158E0,4.9173584E1,1.3851528E0,0E0,0E0,0E0,0E0,0E0,0E0,0E0,0E0,0E0,0E0,0E0,0E0,0E0,0E0,0E0,0E0,0E0,0E0,0E0,0E0,0E0,0E0,0E0,0E0,0E0,0E0,0E0,0E0,0E0,0E0,0E0,0E0,0E0,0E0,0E0,0E0,0E0,0E0,0E0,0E0,0E0,0E0,0E0,0E0,0E0,0E0,0E0,0E0,0E0,0E0,0E0,0E0,0E0,0E0,0E0,0E0,0E0,0E0,0E0,0E0,0E0,0E0,0E0,0E0,0E0,0E0,0E0,0E0,0E0,0E0,0E0,0E0,0E0,0E0,0E0,0E0,0E0,0E0,0E0,0E0,0E0,0E0,0E0,0E0,0E0,0E0,0E0,0E0,0E0,0E0,0E0,0E0,0E0,0E0,0E0,0E0,0E0,0E0,0E0,0E0,0E0,0E0],"parents":[2147483647,0,0,1,1,2,2,3,3,4,4,5,5,6,6,7,7,8,8,9,9,10,10,11,11,12,12,13,13,14,14,15,15,16,16,17,17,18,18,20,20,21,21,22,22,23,23,24,24,25,25,26,26,27,27,28,28,29,29,30,30,31,31,32,32,33,33,34,34,35,35,36,36,37,37,38,38,39,39,40,40,41,41,42,42,43,43,44,44,45,45,46,46,47,47,48,48,50,50,51,51,52,52,53,53,54,54,55,55,56,56,57,57,58,58,59,59,60,60,61,61,62,62,64,64,65,65,67,67,68,68,69,69,71,71,72,72,73,73,74,74,75,75,77,77,79,79,80,80,81,81,82,82,83,83,84,84,85,85,87,87,88,88,89,89,90,90,91,91,92,92,94,94,95,95,96,96,97,97,98,98,99,99,100,100,101,101,102,102,103,103,104,104,105,105,106,106,107,107,108,108,109,109,110,110,111,111,112,112,113,113,114,114,115,115,116,116,117,117,118,118],"right_children":[2,4,6,8,10,12,14,16,18,20,22,24,26,28,30,32,34,36,38,-1,40,42,44,46,48,50,52,54,56,58,60,62,64,66,68,70,72,74,76,78,80,82,84,86,88,90,92,94,96,-1,98,100,102,104,106,108,110,112,114,116,118,120,122,-1,124,126,-1,128,130,132,-1,134,136,138,140,142,-1,144,-1,146,148,150,152,154,156,158,-1,160,162,164,166,168,170,-1,172,174,176,178,180,182,184,186,188,190,192,194,196,198,200,202,204,206,208,210,212,214,216,218,220,-1,-1,-1,-1,-1,-1,-1,-1,-1,-1,-1,-1,-1,-1,-1,-1,-1,-1,-1,-1,-1,-1,-1,-1,-1,-1,-1,-1,-1,-1,-1,-1,-1,-1,-1,-1,-1,-1,-1,-1,-1,-1,-1,-1,-1,-1,-1,-1,-1,-1,-1,-1,-1,-1,-1,-1,-1,-1,-1,-1,-1,-1,-1,-1,-1,-1,-1,-1,-1,-1,-1,-1,-1,-1,-1,-1,-1,-1,-1,-1,-1,-1,-1,-1,-1,-1,-1,-1,-1,-1,-1,-1,-1,-1,-1,-1,-1,-1,-1,-1,-1,-1],"split_conditions":[3.9270833E0,2E0,2E0,2E0,3.1215277E0,1.5079166E1,2E0,1.0152777E0,3.832E3,1.9118055E0,2E0,3E0,1.2E2,1.8E2,1.5079166E1,3.2684138E-1,1.6E1,8.784722E-1,4E0,-7.559862E-2,4.5347E-1,3E0,2.4E2,1.7E1,1E0,3E1,1.7E1,1E0,1.7E1,2E0,1E0,1.9E1,1.3110948E-1,2E0,6E1,4.8247138E-1,1.7E1,1.2E1,1.553E3,6.610375E-1,1.8694E4,3.1893563E-1,6E0,4E0,3.7666667E0,4.2069445E0,1.154E3,8E0,2E0,-7.085106E-2,1.8E1,1E0,3.0794132E-1,4E0,1.7E1,1E0,3E0,1.7E1,3E0,4E1,4E0,5.553474E-1,6E0,3.1405047E-2,3E0,6E0,1.9088084E-2,5E0,3.925E3,1.8E1,4.1018277E-2,1.229194E-1,1.42E3,1E0,9E1,1.2E1,7.097545E-4,6.58961E-1,-1.8254299E-2,3.114363E-1,4.6912166E-1,3.007452E-1,1.2E1,5.317922E-1,3.1664664E-1,4.496E3,-6.648636E-2,5.186646E-1,1.674E3,2E0,4.281358E-1,4E0,6.2215276E0,-5.3922143E-2,3.1239903E-1,1.7E1,3E0,2E0,1.2E1,1.2E1,4.015E3,3.6050913E-1,2.3351389E1,3.5E1,4.489733E-1,6E1,6.814355E-1,4E0,2E0,2E0,2E0,4E0,2.3E1,6E0,4E0,4.0787324E-1,1.93E2,1.7E1,2E0,-7.1898535E-2,-5.952354E-3,4.7943216E-2,-5.612553E-2,2.1883676E-2,-6.359482E-2,-6.252738E-2,-2.6181003E-2,-6.42029E-2,9.674616E-4,-5.1730573E-2,5.097357E-2,-6.03224E-2,-2.0002652E-2,2.6715416E-2,-2.1665795E-2,5.4619636E-2,-1.0289977E-2,-4.888515E-2,1.8702768E-2,8.7097764E-2,5.495554E-2,-7.206761E-2,-2.197142E-2,-7.167822E-2,-1.8551676E-2,-6.6408336E-2,-1.7712208E-2,5.2357018E-2,-3.5664883E-2,-5.8472287E-2,5.5617036E-4,4.281525E-2,-2.7013034E-2,-7.241889E-2,-1.7632058E-2,-5.8479108E-2,5.503151E-3,-5.9226733E-3,5.4346662E-2,-5.6410056E-2,2.811147E-2,-1.9965058E-2,4.3937054E-2,1.8029876E-2,-4.961464E-2,-5.0892513E-2,3.0580178E-2,8.738614E-3,6.5810375E-2,-5.8366146E-2,-4.401114E-3,6.7165375E-2,-6.1188056E-3,-6.644865E-2,-4.85994E-2,-6.238407E-2,6.1680973E-3,-3.4092046E-2,1.5742002E-2,-3.9296243E-3,7.989712E-2,-3.9052144E-2,7.84022E-2,-6.1500996E-2,1.613384E-2,-4.228922E-2,2.9821038E-2,6.975474E-2,-4.0408533E-2,5.2303858E-2,-2.1574946E-2,-6.482105E-2,3.1554892E-3,8.327743E-2,5.206279E-2,8.949954E-2,7.1225204E-3,-2.9481173E-2,-6.649621E-2,3.0776346E-2,7.25955E-2,7.554765E-2,-2.6778651E-2,3.3443075E-2,7.095071E-2,2.5878021E-2,-1.795511E-2,4.064734E-2,7.5713046E-2,-7.271607E-2,2.7725443E-2,9.9340845E-3,-6.2282164E-2,-5.5918027E-2,9.078515E-3,3.467556E-2,-4.263864E-2,4.1785806E-2,6.957067E-2,-2.2066804E-2,-7.068457E-2],"split_indices":[31,20,2,2,31,31,21,31,1,31,2,14,22,22,31,57,9,31,2,0,40,14,22,9,15,3,9,9,9,20,9,9,32,10,3,58,9,9,16,87,18,47,28,2,31,31,16,9,10,0,9,15,56,8,9,9,20,9,20,14,2,52,0,0,6,28,0,28,1,9,0,32,16,9,22,12,0,79,0,48,40,57,9,60,54,1,0,87,16,15,48,0,31,0,57,9,20,8,13,9,3,57,31,22,67,22,85,8,10,20,15,8,27,19,2,48,17,9,15,0,0,0,0,0,0,0,0,0,0,0,0,0,0,0,0,0,0,0,0,0,0,0,0,0,0,0,0,0,0,0,0,0,0,0,0,0,0,0,0,0,0,0,0,0,0,0,0,0,0,0,0,0,0,0,0,0,0,0,0,0,0,0,0,0,0,0,0,0,0,0,0,0,0,0,0,0,0,0,0,0,0,0,0,0,0,0,0,0,0,0,0,0,0,0,0,0,0,0,0,0,0],"split_type":[0,0,0,0,0,0,0,0,0,0,0,0,0,0,0,0,0,0,0,0,0,0,0,0,0,0,0,0,0,0,0,0,0,0,0,0,0,0,0,0,0,0,0,0,0,0,0,0,0,0,0,0,0,0,0,0,0,0,0,0,0,0,0,0,0,0,0,0,0,0,0,0,0,0,0,0,0,0,0,0,0,0,0,0,0,0,0,0,0,0,0,0,0,0,0,0,0,0,0,0,0,0,0,0,0,0,0,0,0,0,0,0,0,0,0,0,0,0,0,0,0,0,0,0,0,0,0,0,0,0,0,0,0,0,0,0,0,0,0,0,0,0,0,0,0,0,0,0,0,0,0,0,0,0,0,0,0,0,0,0,0,0,0,0,0,0,0,0,0,0,0,0,0,0,0,0,0,0,0,0,0,0,0,0,0,0,0,0,0,0,0,0,0,0,0,0,0,0,0,0,0,0,0,0,0,0,0,0,0,0,0,0,0,0,0,0,0,0,0,0,0],"sum_hessian":[1.2322503E4,4.556325E3,7.7661772E3,8.7204407E2,3.6842812E3,1.1116249E3,6.6545522E3,2.0528842E2,6.667556E2,3.3920234E3,2.922578E2,8.4162964E2,2.699952E2,4.411757E3,2.2427954E3,1.14681526E2,9.0606895E1,2.3388768E2,4.3286795E2,2.902526E3,4.8949765E2,1.2287566E2,1.6938214E2,1.6874457E2,6.728851E2,1.3618362E2,1.3381158E2,2.101643E3,2.310114E3,1.3804631E3,8.6233234E2,1.0325703E2,1.1424501E1,6.348844E1,2.7118456E1,6.126007E1,1.7262761E2,4.158289E2,1.703906E1,4.7900433E2,1.0493328E1,1.723919E1,1.05636475E2,3.2132812E1,1.3724933E2,1.3604422E2,3.270035E1,7.828697E0,6.650564E2,9.887435E0,1.26296196E2,1.0318456E2,3.0627016E1,2.5019987E1,2.076623E3,1.1998699E3,1.110244E3,4.5909543E2,9.213677E2,2.8759668E1,8.335727E2,9.954045E1,3.7165728E0,1.9121255E0,9.512376E0,6.1298557E1,2.1898859E0,9.056602E0,1.8061855E1,6.0032772E1,1.2272981E0,1.2914314E2,4.3484463E1,4.668734E1,3.6914154E2,1.5849368E1,1.1896918E0,4.7785706E2,1.147268E0,7.297909E0,3.195419E0,1.4604578E1,2.6346111E0,8.74658E1,1.8170677E1,2.6800575E1,5.332237E0,7.800873E1,5.9240604E1,1.9721884E1,1.16322334E2,2.9295498E1,3.4048522E0,2.1018057E0,5.7268915E0,6.266904E2,3.836593E1,1.09171684E2,1.7124512E1,7.2296968E0,9.5954865E1,2.2700966E1,7.9260497E0,1.1424664E1,1.35953245E1,1.0033008E3,1.0733221E3,4.4546104E1,1.1553239E3,1.6767036E2,9.4257367E2,3.4210098E2,1.1699447E2,2.4260129E2,6.7876636E2,2.526651E1,3.493158E0,8.196104E2,1.3962274E1,9.812505E1,1.4153957E0,1.1791865E0,2.5373862E0,1.6827781E0,7.829598E0,5.2618824E1,8.679731E0,7.869921E0,1.1866808E0,7.4193616E0,1.0642493E1,5.0241127E1,9.791645E0,1.9986946E1,1.091562E2,3.5841656E1,7.6428056E0,1.3942279E1,3.274506E1,1.1017705E2,2.589645E2,1.3920666E1,1.9287028E0,4.767062E2,1.1508509E0,6.15817E0,1.1397387E0,1.140013E0,2.055406E0,1.27388E1,1.8657784E0,1.2166888E0,1.4179225E0,8.632704E1,1.1387564E0,1.5858583E1,2.3120944E0,1.0471141E1,1.6329433E1,7.6063225E1,1.9455006E0,5.415488E1,5.0857215E0,1.3349176E1,6.372707E0,1.13937744E2,2.3845894E0,1.7072556E1,1.2222942E1,2.176453E0,1.2283989E0,4.4883885E0,1.238503E0,4.8800757E2,1.3868289E2,1.840163E1,1.9964298E1,3.5704082E1,7.34676E1,3.6608534E0,1.3463658E1,4.492344E0,2.737353E0,9.357518E1,2.3796864E0,2.0308563E1,2.3924022E0,5.9746275E0,1.9514223E0,4.9017916E0,6.5228715E0,1.2429268E1,1.1660568E0,6.482198E2,3.5508102E2,1.071848E3,1.4741626E0,1.924254E1,2.5303566E1,1.01475977E3,1.4056407E2,9.646383E1,7.1206535E1,1.0641412E2,8.3615955E2,2.1236618E2,1.2973479E2,5.2038208E1,6.495626E1,2.4051784E2,2.083446E0,6.2101245E2,5.77539E1,2.3147665E1,2.1188438E0,2.328772E0,1.164386E0,5.977806E2,2.2182985E2,3.0183504E0,1.0943924E1],"tree_param":{"num_deleted":"0","num_feature":"98","num_nodes":"221","size_leaf_vector":"1"}},{"base_weights":[1.6386072E-3,-1.1014129E0,6.4145625E-1,1.7860964E-1,-1.4065492E0,-8.7135786E-1,8.935227E-1,-1.0947889E0,5.6293434E-1,-1.4409009E0,-4.222936E-1,-1.0384762E0,-4.1069433E-1,1.197947E0,2.9417592E-1,-1.2933551E0,-8.1041723E-1,-2.379533E-1,1.0142509E0,-1.460266E0,-1.0454829E0,-1.0048434E0,1.4501621E-3,-5.64671E-1,-1.1546587E0,-3.407751E-2,-8.6567104E-1,1.5816667E0,9.383368E-1,-7.515421E-2,8.266963E-1,-1.3209325E0,1.1307842E-2,-1.0591483E0,-3.7670857E-1,-1.0754033E0,5.3236317E-2,1.1039144E0,-1.1664349E0,-7.370084E-2,-1.3768855E0,-1.3753985E0,-8.037629E-1,-6.911468E-2,-1.1219689E0,-6.789069E-2,1.4510325E-1,-8.0944574E-1,3.980529E-1,4.7226778E-1,-1.1745068E0,-2.793999E-1,7.6504755E-1,-1.0582745E0,-3.0336124E-1,-4.8216105E-1,1.6064625E0,6.4949465E-1,1.2386912E0,-3.422239E-1,3.8739845E-1,-8.541028E-1,8.824111E-1,-1.3431239E0,6.634625E-3,-1.1456562E0,4.595472E-1,-5.9272873E-1,8.3359575E-1,-1.1263391E0,3.9776657E-2,-2.5802165E-1,9.1060317E-1,-1.0617002E0,1.1793263E0,-1.3488964E0,-1.6823548E-1,-1.3861519E0,-8.946925E-1,-1.3878063E0,-1.6389398E-2,1.5451433E-1,-1.0033891E0,6.1608267E-1,-7.0301145E-1,-1.2138202E0,-3.6579683E-1,1.0715321E-2,1.4006528E0,-1.0130177E0,-4.2585853E-1,1.0461698E0,7.115401E-2,-5.262203E-2,1.1216397E0,-1.2143316E0,-5.6696373E-1,-7.349337E-1,2.4397217E-3,-5.2818265E-2,8.975653E-1,-8.092346E-1,-1.3548496E0,-1.1222422E0,2.6762983E-1,5.425686E-1,-1.2539208E0,1.4445477E0,1.7108732E0,-9.293455E-1,7.135881E-1,7.091027E-1,1.3309029E0,-8.034265E-1,-1.7251405E-1,4.9973473E-1,-1.2114674E0,-9.8809195E-1,1.8067327E-1,9.2095333E-1,-1.2976955E0,-6.79033E-2,2.6002922E-3,-6.23263E-2,-1.877202E-2,-4.1280854E-2,6.943818E-2,-3.7222255E-2,2.7627064E-2,6.686684E-2,-2.6803745E-3,-6.2187668E-2,-2.0442463E-2,-1.8280521E-2,4.734681E-2,5.6462664E-2,-5.584474E-3,-6.51273E-2,1.7540691E-2,4.505349E-2,7.607823E-2,-7.019519E-2,-1.9213453E-2,-4.6095844E-2,3.1925265E-2,-6.963149E-2,-4.155522E-2,1.8763794E-2,-5.46478E-2,-7.0026346E-2,-1.6648633E-2,4.512937E-2,-5.0443906E-2,-5.8129586E-2,-1.50141185E-2,6.6757515E-2,-1.1044004E-2,1.3432902E-3,-5.081708E-2,-6.376449E-2,3.3502628E-3,3.9901007E-2,-4.182347E-2,5.7718637E-3,-6.517914E-2,7.829936E-2,1.9174183E-2,-5.58858E-2,-2.6267646E-3,-2.9779393E-2,5.8282536E-2,-1.3168228E-2,7.483031E-2,1.6552625E-2,-4.298308E-2,4.522715E-3,7.053547E-2,-7.518842E-2,-5.780224E-2,-6.1428946E-2,3.086125E-3,1.1127416E-2,-4.9609434E-2,4.661069E-2,-7.955822E-3,2.1613843E-4,6.270268E-2,-4.6821594E-2,1.13116605E-2,2.657636E-2,-7.092756E-2,-4.9627153E-3,-6.4117275E-2,4.4137735E-2,-1.870515E-2,-2.559792E-2,5.417774E-2,-6.5665625E-2,-1.7028032E-2,4.9788445E-2,8.0369316E-2,8.569454E-2,-2.503701E-2,-1.355614E-2,-5.9442718E-2,2.7654542E-2,5.622722E-2,7.308239E-2,-2.2225907E-2,4.1622728E-2,7.018788E-2,-1.6478477E-2,-4.777543E-2,-2.1472028E-2,9.739665E-3,7.2194426E-3,4.3272283E-2,4.8373006E-2,-7.201312E-2,-1.3400306E-3,-6.07825E-2,4.216961E-2,-4.2728662E-2,3.845486E-2,6.676357E-2,-6.740626E-2,-1.6920608E-2],"categories":[],"categories_nodes":[],"categories_segments":[],"categories_sizes":[],"default_left":[0,0,0,0,0,0,0,0,0,0,0,0,0,0,0,0,0,0,0,0,0,0,0,0,0,0,0,0,0,0,0,0,0,0,0,0,0,0,0,0,0,0,0,0,0,0,0,0,0,0,0,0,0,0,0,0,0,0,0,0,0,0,0,0,0,0,0,0,0,0,0,0,0,0,0,0,0,0,0,0,0,0,0,0,0,0,0,0,0,0,0,0,0,0,0,0,0,0,0,0,0,0,0,0,0,0,0,0,0,0,0,0,0,0,0,0,0,0,0,0,0,0,0,0,0,0,0,0,0,0,0,0,0,0,0,0,0,0,0,0,0,0,0,0,0,0,0,0,0,0,0,0,0,0,0,0,0,0,0,0,0,0,0,0,0,0,0,0,0,0,0,0,0,0,0,0,0,0,0,0,0,0,0,0,0,0,0,0,0,0,0,0,0,0,0,0,0,0,0,0,0,0,0,0,0,0,0,0,0,0,0,0,0,0,0,0,0,0,0,0,0,0,0,0,0,0,0],"id":5,"left_children":[1,3,5,7,9,11,13,15,17,19,21,23,25,27,29,31,33,35,37,39,41,43,45,47,49,51,53,55,57,59,61,63,-1,65,67,69,71,73,75,-1,77,79,81,83,85,-1,87,89,91,93,95,97,99,101,103,105,107,109,111,113,115,117,119,121,-1,123,125,127,129,131,-1,133,135,137,139,141,143,145,147,149,-1,151,153,155,157,159,161,163,165,167,169,171,173,-1,175,177,179,181,183,-1,185,187,189,191,193,195,197,199,201,203,205,207,209,211,213,215,217,219,221,223,225,-1,-1,-1,-1,-1,-1,-1,-1,-1,-1,-1,-1,-1,-1,-1,-1,-1,-1,-1,-1,-1,-1,-1,-1,-1,-1,-1,-1,-1,-1,-1,-1,-1,-1,-1,-1,-1,-1,-1,-1,-1,-1,-1,-1,-1,-1,-1,-1,-1,-1,-1,-1,-1,-1,-1,-1,-1,-1,-1,-1,-1,-1,-1,-1,-1,-1,-1,-1,-1,-1,-1,-1,-1,-1,-1,-1,-1,-1,-1,-1,-1,-1,-1,-1,-1,-1,-1,-1,-1,-1,-1,-1,-1,-1,-1,-1,-1,-1,-1,-1,-1,-1,-1,-1,-1,-1],"loss_changes":[8.637118E3,1.75502E3,2.9543564E3,4.242959E2,1.2205713E2,8.477637E1,1.211104E3,1.030423E1,2.4084996E2,2.5313965E1,3.0553253E1,4.401758E1,5.0737556E1,4.3712158E2,4.401906E2,5.1891785E0,8.807301E0,5.8760605E1,8.457086E1,1.7988281E0,1.222583E1,5.63451E0,1.43823185E1,3.843964E1,2.1567078E1,3.219558E1,1.4206398E1,9.1623535E1,2.272395E2,1.6348186E2,8.658295E1,3.8805084E0,0E0,7.579487E0,9.032127E0,6.8193054E0,4.8156353E1,6.815048E1,2.9254284E0,0E0,9.397583E-1,4.456787E-1,1.9071835E1,3.4142768E0,2.7686386E0,0E0,1.1223627E1,9.664871E0,7.014664E0,9.651878E0,1.4872864E1,1.6120983E1,1.0261507E1,6.253502E0,1.695752E1,1.7956455E1,2.7188477E1,1.3647296E2,6.1931152E1,6.551648E1,8.7623726E1,4.3261337E0,7.57782E1,2.429062E0,0E0,3.5002823E0,5.453907E0,5.3277645E0,2.4678364E0,4.6237717E0,0E0,1.752663E1,1.0866337E1,5.3253975E0,3.6370667E1,2.2942352E-1,2.909668E0,5.571289E-1,3.4365025E0,4.482727E-1,0E0,1.6502054E1,8.826553E0,2.6006994E0,9.494647E-1,3.2987785E0,4.1959205E0,8.570312E0,4.81205E-1,8.362427E0,1.326926E1,6.968341E0,5.9248013E0,0E0,1.8053474E0,8.429626E0,1.7313395E1,1.2041962E1,1.1948815E1,0E0,1.1620207E1,7.66317E0,6.0338364E0,2.3013039E0,8.934399E0,6.3066483E0,2.4505615E-1,4.9133545E1,7.9404297E0,8.695175E0,8.44823E1,1.6826956E2,3.8611694E1,1.5925842E1,5.8070778E1,5.879428E1,1.739473E1,5.7948284E0,3.6536274E0,5.3885864E1,3.0980492E-1,0E0,0E0,0E0,0E0,0E0,0E0,0E0,0E0,0E0,0E0,0E0,0E0,0E0,0E0,0E0,0E0,0E0,0E0,0E0,0E0,0E0,0E0,0E0,0E0,0E0,0E0,0E0,0E0,0E0,0E0,0E0,0E0,0E0,0E0,0E0,0E0,0E0,0E0,0E0,0E0,0E0,0E0,0E0,0E0,0E0,0E0,0E0,0E0,0E0,0E0,0E0,0E0,0E0,0E0,0E0,0E0,0E0,0E0,0E0,0E0,0E0,0E0,0E0,0E0,0E0,0E0,0E0,0E0,0E0,0E0,0E0,0E0,0E0,0E0,0E0,0E0,0E0,0E0,0E0,0E0,0E0,0E0,0E0,0E0,0E0,0E0,0E0,0E0,0E0,0E0,0E0,0E0,0E0,0E0,0E0,0E0,0E0,0E0,0E0,0E0,0E0,0E0,0E0,0E0,0E0,0E0],"parents":[2147483647,0,0,1,1,2,2,3,3,4,4,5,5,6,6,7,7,8,8,9,9,10,10,11,11,12,12,13,13,14,14,15,15,16,16,17,17,18,18,19,19,20,20,21,21,22,22,23,23,24,24,25,25,26,26,27,27,28,28,29,29,30,30,31,31,33,33,34,34,35,35,36,36,37,37,38,38,40,40,41,41,42,42,43,43,44,44,46,46,47,47,48,48,49,49,50,50,51,51,52,52,53,53,54,54,55,55,56,56,57,57,58,58,59,59,60,60,61,61,62,62,63,63,65,65,66,66,67,67,68,68,69,69,71,71,72,72,73,73,74,74,75,75,76,76,77,77,78,78,79,79,81,81,82,82,83,83,84,84,85,85,86,86,87,87,88,88,89,89,90,90,91,91,92,92,94,94,95,95,96,96,97,97,98,98,100,100,101,101,102,102,103,103,104,104,105,105,106,106,107,107,108,108,109,109,110,110,111,111,112,112,113,113,114,114,115,115,116,116,117,117,118,118,119,119,120,120],"right_children":[2,4,6,8,10,12,14,16,18,20,22,24,26,28,30,32,34,36,38,40,42,44,46,48,50,52,54,56,58,60,62,64,-1,66,68,70,72,74,76,-1,78,80,82,84,86,-1,88,90,92,94,96,98,100,102,104,106,108,110,112,114,116,118,120,122,-1,124,126,128,130,132,-1,134,136,138,140,142,144,146,148,150,-1,152,154,156,158,160,162,164,166,168,170,172,174,-1,176,178,180,182,184,-1,186,188,190,192,194,196,198,200,202,204,206,208,210,212,214,216,218,220,222,224,226,-1,-1,-1,-1,-1,-1,-1,-1,-1,-1,-1,-1,-1,-1,-1,-1,-1,-1,-1,-1,-1,-1,-1,-1,-1,-1,-1,-1,-1,-1,-1,-1,-1,-1,-1,-1,-1,-1,-1,-1,-1,-1,-1,-1,-1,-1,-1,-1,-1,-1,-1,-1,-1,-1,-1,-1,-1,-1,-1,-1,-1,-1,-1,-1,-1,-1,-1,-1,-1,-1,-1,-1,-1,-1,-1,-1,-1,-1,-1,-1,-1,-1,-1,-1,-1,-1,-1,-1,-1,-1,-1,-1,-1,-1,-1,-1,-1,-1,-1,-1,-1,-1,-1,-1,-1,-1],"split_conditions":[3.9270833E0,2E0,2E0,2E0,3.7666667E0,1.4034722E1,2E0,4.445E3,3.865E3,3.1215277E0,2E0,3E0,2.7E2,1.2E2,1.4034722E1,2E0,1.1340277E0,8.784722E-1,4E0,1.9118055E0,2E0,3E0,1.755E3,1.7E1,1E0,1.7E1,3.1436136E-1,1E0,1.7E1,1.6E1,1E0,6.361083E-1,1.1307842E-2,4.489733E-1,6E0,4.8247138E-1,1.7E1,1E0,9.7152776E-1,-7.370084E-2,4.5347E-1,6.6908723E-1,1.5E2,1.0495E4,3.103716E-1,-6.789069E-2,1.7E1,3.5E1,5.20625E0,8E0,2E0,3.5E1,3E1,5E0,1.3E1,4E0,1.6E1,1E0,3E0,1.2E1,4E0,4.1E1,4E0,6.275522E-1,6.634625E-3,1.7E1,1E0,1.8E1,9E1,1.8E1,3.9776657E-2,2E0,1.42E3,3.8564822E-1,1.7E1,1.9E1,1.2E2,6.235234E-1,4.5502135E-1,5.452232E-1,-1.6389398E-2,2E0,3.0263394E-1,1.285516E-1,4E0,4.773504E-1,3.8340278E0,3E0,4.6108523E-1,3.9971706E-1,3.701686E-1,4.126389E0,2E0,-5.262203E-2,4.920833E0,6E1,3E0,6.052E3,2.8E1,-5.2818265E-2,4.305E3,3.789796E-1,1.428E3,3.112E3,7E0,2E0,3.3492893E-1,1.5079166E1,6.8565553E-1,3E0,3.02375E1,2E0,2E0,2E0,3.843E3,3.714E3,1E0,4E0,3.710791E-1,1.7E1,3.7203324E-1,-6.79033E-2,2.6002922E-3,-6.23263E-2,-1.877202E-2,-4.1280854E-2,6.943818E-2,-3.7222255E-2,2.7627064E-2,6.686684E-2,-2.6803745E-3,-6.2187668E-2,-2.0442463E-2,-1.8280521E-2,4.734681E-2,5.6462664E-2,-5.584474E-3,-6.51273E-2,1.7540691E-2,4.505349E-2,7.607823E-2,-7.019519E-2,-1.9213453E-2,-4.6095844E-2,3.1925265E-2,-6.963149E-2,-4.155522E-2,1.8763794E-2,-5.46478E-2,-7.0026346E-2,-1.6648633E-2,4.512937E-2,-5.0443906E-2,-5.8129586E-2,-1.50141185E-2,6.6757515E-2,-1.1044004E-2,1.3432902E-3,-5.081708E-2,-6.376449E-2,3.3502628E-3,3.9901007E-2,-4.182347E-2,5.7718637E-3,-6.517914E-2,7.829936E-2,1.9174183E-2,-5.58858E-2,-2.6267646E-3,-2.9779393E-2,5.8282536E-2,-1.3168228E-2,7.483031E-2,1.6552625E-2,-4.298308E-2,4.522715E-3,7.053547E-2,-7.518842E-2,-5.780224E-2,-6.1428946E-2,3.086125E-3,1.1127416E-2,-4.9609434E-2,4.661069E-2,-7.955822E-3,2.1613843E-4,6.270268E-2,-4.6821594E-2,1.13116605E-2,2.657636E-2,-7.092756E-2,-4.9627153E-3,-6.4117275E-2,4.4137735E-2,-1.870515E-2,-2.559792E-2,5.417774E-2,-6.5665625E-2,-1.7028032E-2,4.9788445E-2,8.0369316E-2,8.569454E-2,-2.503701E-2,-1.355614E-2,-5.9442718E-2,2.7654542E-2,5.622722E-2,7.308239E-2,-2.2225907E-2,4.1622728E-2,7.018788E-2,-1.6478477E-2,-4.777543E-2,-2.1472028E-2,9.739665E-3,7.2194426E-3,4.3272283E-2,4.8373006E-2,-7.201312E-2,-1.3400306E-3,-6.07825E-2,4.216961E-2,-4.2728662E-2,3.845486E-2,6.676357E-2,-6.740626E-2,-1.6920608E-2],"split_indices":[31,20,2,2,31,31,21,1,1,31,2,14,3,22,31,10,31,31,2,31,2,0,1,9,15,9,56,9,9,9,9,78,0,67,28,58,9,9,31,0,40,44,3,18,40,0,9,3,31,9,10,3,3,8,9,8,9,9,20,9,2,14,2,95,0,29,2,9,3,9,0,10,16,45,9,29,3,79,40,72,0,21,56,32,28,60,31,15,52,45,42,31,15,0,31,3,20,18,22,0,1,47,1,1,14,8,42,31,85,8,31,20,15,20,1,1,15,12,46,9,48,0,0,0,0,0,0,0,0,0,0,0,0,0,0,0,0,0,0,0,0,0,0,0,0,0,0,0,0,0,0,0,0,0,0,0,0,0,0,0,0,0,0,0,0,0,0,0,0,0,0,0,0,0,0,0,0,0,0,0,0,0,0,0,0,0,0,0,0,0,0,0,0,0,0,0,0,0,0,0,0,0,0,0,0,0,0,0,0,0,0,0,0,0,0,0,0,0,0,0,0,0,0,0,0,0,0],"split_type":[0,0,0,0,0,0,0,0,0,0,0,0,0,0,0,0,0,0,0,0,0,0,0,0,0,0,0,0,0,0,0,0,0,0,0,0,0,0,0,0,0,0,0,0,0,0,0,0,0,0,0,0,0,0,0,0,0,0,0,0,0,0,0,0,0,0,0,0,0,0,0,0,0,0,0,0,0,0,0,0,0,0,0,0,0,0,0,0,0,0,0,0,0,0,0,0,0,0,0,0,0,0,0,0,0,0,0,0,0,0,0,0,0,0,0,0,0,0,0,0,0,0,0,0,0,0,0,0,0,0,0,0,0,0,0,0,0,0,0,0,0,0,0,0,0,0,0,0,0,0,0,0,0,0,0,0,0,0,0,0,0,0,0,0,0,0,0,0,0,0,0,0,0,0,0,0,0,0,0,0,0,0,0,0,0,0,0,0,0,0,0,0,0,0,0,0,0,0,0,0,0,0,0,0,0,0,0,0,0,0,0,0,0,0,0,0,0,0,0,0,0,0,0,0,0,0,0],"sum_hessian":[1.2236181E4,4.49171E3,7.7444707E3,8.64715E2,3.626995E3,1.1057415E3,6.638729E3,2.0004597E2,6.64669E2,3.5042292E3,1.2276573E2,8.104677E2,2.952737E2,4.401891E3,2.2368376E3,1.157052E2,8.4340775E1,2.3972887E2,4.249402E2,3.3380596E3,1.6616977E2,5.11184E1,7.164733E1,1.6075412E2,6.497136E2,1.6213657E2,1.3313716E2,1.7742903E3,2.6276008E3,1.3213043E3,9.155334E2,1.1377107E2,1.9341303E0,5.2684338E1,3.1656435E1,6.1155346E1,1.7857352E2,4.0863217E2,1.630801E1,2.8511792E3,4.8688028E2,6.828278E1,9.7886986E1,5.863595E0,4.5254807E1,6.040387E0,6.560694E1,1.2829424E2,3.245989E1,7.5560994E0,6.4215753E2,1.2455113E2,3.7585426E1,9.851247E1,3.46247E1,2.084513E1,1.7534452E3,1.3410829E3,1.2865181E3,8.3782135E2,4.8348303E2,2.8914505E1,8.8661884E2,1.1213521E2,1.6358606E0,5.0077457E1,2.6068797E0,2.729498E1,4.3614573E0,5.9921963E1,1.2333815E0,1.3152412E2,4.704939E1,1.3310626E1,3.9532153E2,1.3490705E1,2.8173046E0,4.758609E2,1.1019385E1,6.7162575E1,1.1202028E0,1.691498E1,8.097201E1,2.8312826E0,3.0323126E0,3.981349E1,5.4413133E0,6.017467E1,5.432271E0,8.274179E1,4.5552444E1,1.0145303E1,2.2314587E1,2.0715199E0,5.4845796E0,6.0171594E2,4.0441593E1,4.6991592E1,7.755954E1,2.0762713E0,3.5509155E1,5.557427E1,4.2938194E1,1.3827994E1,2.0796705E1,9.082505E0,1.1762626E1,6.932397E2,1.0602056E3,5.179112E1,1.2892917E3,1.9207669E2,1.0944414E3,2.2436208E2,6.134593E2,4.5238586E2,3.1097178E1,2.563964E1,3.2748635E0,8.717841E2,1.483474E1,1.1097323E2,1.161982E0,4.3731792E1,6.3456645E0,1.1407049E0,1.4661748E0,2.4411163E1,2.8838155E0,2.4583056E0,1.9031518E0,5.0864693E1,9.057269E0,1.2138264E2,1.0141485E1,3.8673244E1,8.376144E0,1.1438173E1,1.8724535E0,2.2004605E2,1.7527548E2,1.2332088E1,1.1586164E0,1.3827401E0,1.4345645E0,4.6887967E2,6.9812245E0,1.3674471E0,9.6519375E0,6.6038475E1,1.1241044E0,1.0431559E1,6.4834213E0,6.5489815E1,1.548219E1,1.2027339E0,1.6285486E0,1.1853627E0,1.8469498E0,3.799438E1,1.819111E0,1.3666217E0,4.0746913E0,5.6578705E1,3.5959666E0,4.20863E0,1.2236406E0,7.446136E1,8.2804365E0,4.1728054E1,3.8243895E0,2.7028205E0,7.4424825E0,1.7947657E1,4.366929E0,1.4883103E0,3.9962692E0,9.670497E1,5.0501096E2,1.923983E1,2.1201763E1,9.980371E0,3.701122E1,1.077544E1,6.67841E1,1.04177685E1,2.5091387E1,4.9579544E1,5.994725E0,1.162727E0,4.177547E1,2.090511E0,1.1737483E1,1.0426723E1,1.0369982E1,3.097773E0,5.9847326E0,1.06333E1,1.1293256E0,1.8646434E2,5.0677533E2,1.0589857E3,1.2198219E0,1.5223282E1,3.6567837E1,9.2887085E2,3.604209E2,1.1608415E2,7.599254E1,1.4115181E2,9.5328955E2,5.5281906E1,1.6908017E2,3.6086792E2,2.5259135E2,2.3015182E2,2.2223404E2,2.648233E0,2.8448944E1,5.121645E0,2.0517996E1,2.1096692E0,1.1651943E0,6.400492E2,2.3173492E2,1.3708723E1,1.1260164E0],"tree_param":{"num_deleted":"0","num_feature":"98","num_nodes":"227","size_leaf_vector":"1"}},{"base_weights":[-3.0416212E-4,-1.0716484E0,6.108005E-1,1.7463529E-1,-1.3750701E0,-8.3788127E-1,8.4849423E-1,-1.0592785E0,5.361417E-1,-1.4080114E0,-4.442221E-1,-9.9022E-1,-3.7007543E-1,1.135825E0,2.8553018E-1,-1.094854E0,2.3873967E-1,-2.011156E-1,9.7465914E-1,-1.4267359E0,-1.0329114E0,-9.9678105E-1,-3.5759248E-2,-5.237874E-1,-1.107077E0,1.0500803E-1,-7.743036E-1,1.5072935E0,8.861686E-1,-9.017394E-2,7.4796385E-1,-1.2858382E0,-8.267247E-1,-3.0036622E-1,6.505584E-2,-1.0412276E0,8.369647E-2,1.0626965E0,-1.1377633E0,-7.231731E-2,-1.382431E0,-1.3543042E0,-7.993404E-1,-4.1364896E-1,-1.1901902E0,-6.5290205E-2,9.3996905E-2,-7.78948E-1,4.8978114E-1,-1.150407E0,-4.4225958E-1,-6.76743E-2,2.322198E-1,-9.592598E-1,-1.8659852E-1,-5.345242E-1,1.5323753E0,6.113683E-1,1.1762091E0,-8.8247466E-1,7.307507E-2,9.752046E-1,3.6787435E-1,-1.3095516E0,1.6053952E-2,-9.4213545E-1,2.6296047E-2,-5.274746E-2,2.6633397E-2,-1.2055032E0,-1.2772542E-1,-2.7757174E-1,6.5450734E-1,-5.31516E-1,1.1502864E0,-1.3072139E0,-3.184776E-1,-1.3871354E0,-9.361633E-1,-1.3668703E0,-1.548485E-2,1.3595769E-1,-9.482015E-1,6.232206E-1,-7.7268666E-1,-1.2997451E0,-9.8356605E-2,1.8511112E-1,-6.230531E-2,-8.5106444E-1,2.3535469E-1,6.702363E-1,-7.31969E-1,2.9004192E-1,-1.1681756E0,-1.1331601E0,1.561356E-1,-4.125287E-3,9.264785E-1,1.663359E-1,-1.0223566E0,-1.1321958E0,2.2264782E-1,2.4037816E-1,-1.1427194E0,1.4010404E0,1.6569955E0,-8.724646E-1,6.699433E-1,6.498237E-1,1.2662948E0,-1.1158894E0,-6.72804E-1,5.2801436E-1,-1.5331836E-1,4.118298E-1,1.3543552E0,-2.1169482E-2,8.956486E-1,-6.664554E-2,6.4222724E-3,-5.207743E-2,4.0632854E-3,-2.2977466E-2,6.6175275E-2,-6.182294E-2,5.908092E-3,-4.6427067E-2,2.6702214E-2,-2.069696E-2,4.556326E-2,-3.8978716E-3,4.538028E-2,5.2252542E-2,-4.294E-2,8.0354795E-2,4.737183E-2,-6.8248466E-2,-1.7199459E-2,-4.846105E-2,2.1779522E-2,-6.9402695E-2,-1.3754706E-2,-5.609671E-2,3.0148763E-2,-6.899301E-2,-1.55098885E-2,4.6072148E-2,-6.183953E-2,-5.4556638E-2,-1.7887129E-2,5.8345664E-2,-8.909514E-3,-5.3436007E-2,3.8811114E-2,-6.741662E-2,-1.67211E-2,2.4591938E-2,-4.3592073E-2,-4.6988454E-2,1.50811225E-2,-5.2610636E-2,-2.4177264E-2,7.211956E-2,-1.5037994E-2,4.9350232E-2,-1.7390704E-2,-5.9747618E-2,1.7333064E-2,-5.1392563E-2,4.4314686E-2,-6.2492825E-2,-4.3585084E-2,2.155523E-2,-7.099376E-2,6.771846E-2,-1.0984606E-2,-5.1025517E-2,7.4937204E-3,-1.1751972E-2,6.7040354E-2,-3.8199592E-2,6.956448E-2,-5.285698E-2,1.6697926E-2,-6.430531E-2,5.299035E-3,2.8188786E-2,-3.6151778E-2,-3.3251017E-2,4.240383E-2,4.2375266E-3,-6.373756E-2,5.4475445E-2,7.742987E-2,8.3024554E-2,-2.440458E-2,-4.8939414E-2,2.1315051E-2,2.8689811E-2,6.771708E-2,7.0531026E-2,-2.421092E-2,4.048478E-2,6.7201175E-2,-5.7440966E-2,2.5754167E-2,-5.4422524E-2,-1.8394647E-2,2.3899209E-3,4.314152E-2,-6.819367E-2,1.024356E-2,8.83561E-3,5.260579E-2,6.8978705E-2,-4.8821673E-2,-1.3917001E-2,2.3311814E-2,-4.9911365E-2,4.845859E-2],"categories":[],"categories_nodes":[],"categories_segments":[],"categories_sizes":[],"default_left":[0,0,0,0,0,0,0,0,0,0,0,0,0,0,0,0,0,0,0,0,0,0,0,0,0,0,0,0,0,0,0,0,0,0,0,0,0,0,0,0,0,0,0,0,0,0,0,0,0,0,0,0,0,0,0,0,0,0,0,0,0,0,0,0,0,0,0,0,0,0,0,0,0,0,0,0,0,0,0,0,0,0,0,0,0,0,0,0,0,0,0,0,0,0,0,0,0,0,0,0,0,0,0,0,0,0,0,0,0,0,0,0,0,0,0,0,0,0,0,0,0,0,0,0,0,0,0,0,0,0,0,0,0,0,0,0,0,0,0,0,0,0,0,0,0,0,0,0,0,0,0,0,0,0,0,0,0,0,0,0,0,0,0,0,0,0,0,0,0,0,0,0,0,0,0,0,0,0,0,0,0,0,0,0,0,0,0,0,0,0,0,0,0,0,0,0,0,0,0,0,0,0,0,0,0,0,0,0,0,0,0,0,0,0,0,0,0,0,0,0,0],"id":6,"left_children":[1,3,5,7,9,11,13,15,17,19,21,23,25,27,29,31,33,35,37,39,41,43,45,47,49,51,53,55,57,59,61,63,65,67,-1,69,71,73,75,-1,77,79,81,83,85,-1,87,89,91,93,95,-1,97,99,101,103,105,107,109,111,113,115,117,119,-1,121,123,-1,-1,125,127,129,131,133,135,137,139,141,143,145,-1,147,149,151,153,155,157,159,-1,161,163,165,167,169,171,173,175,177,179,181,183,185,187,189,191,193,195,197,199,201,203,205,207,209,211,213,215,217,219,-1,-1,-1,-1,-1,-1,-1,-1,-1,-1,-1,-1,-1,-1,-1,-1,-1,-1,-1,-1,-1,-1,-1,-1,-1,-1,-1,-1,-1,-1,-1,-1,-1,-1,-1,-1,-1,-1,-1,-1,-1,-1,-1,-1,-1,-1,-1,-1,-1,-1,-1,-1,-1,-1,-1,-1,-1,-1,-1,-1,-1,-1,-1,-1,-1,-1,-1,-1,-1,-1,-1,-1,-1,-1,-1,-1,-1,-1,-1,-1,-1,-1,-1,-1,-1,-1,-1,-1,-1,-1,-1,-1,-1,-1,-1,-1,-1,-1,-1,-1,-1,-1],"loss_changes":[7.918357E3,1.6614624E3,2.6526797E3,3.8463785E2,1.07708496E2,7.702954E1,1.0699419E3,9.286011E0,2.1570134E2,2.2489258E1,2.7548431E1,4.404138E1,5.1621696E1,4.0489404E2,3.8875116E2,8.687012E0,3.8469346E0,5.977088E1,7.897189E1,8.2177734E-1,1.1366501E1,5.3620377E0,1.1873965E1,4.3288967E1,1.8323425E1,2.3368803E1,1.5595825E1,9.091284E1,2.0827173E2,1.5983237E2,8.62677E1,4.5890045E0,8.097839E0,3.5889363E0,0E0,9.334366E0,3.8787155E1,5.673578E1,1.9732323E0,0E0,8.404541E-1,4.7396088E-1,1.3840271E1,5.865092E0,4.4710236E0,0E0,8.24432E0,9.92363E0,7.9823046E0,1.6031372E1,1.738628E1,0E0,1.8897003E1,7.9925385E0,1.4175841E1,1.0685305E1,2.6126709E1,1.177912E2,5.961841E1,9.580872E0,1.0566403E2,1.3338794E2,7.7401054E1,3.798996E0,0E0,7.436157E0,7.3804617E0,0E0,0E0,2.3370972E0,6.195933E0,1.907763E1,1.3577751E1,1.2051483E1,3.381131E1,3.059845E-1,2.518455E0,6.4575195E-1,4.5948925E0,4.9506378E-1,0E0,1.6662981E1,6.790306E0,2.0697947E0,5.959638E0,1.184063E0,2.5231936E0,8.451591E0,0E0,8.681671E0,6.6506314E0,1.0059608E1,2.8368056E0,7.4111295E0,1.3581848E1,9.3312E0,1.0738436E1,1.3754116E1,1.4390373E1,8.705749E0,5.279999E0,2.2387686E0,8.778344E0,6.363043E0,2.14192E0,3.751172E1,7.456543E0,7.5490227E0,8.46264E1,1.6315492E2,3.7500732E1,5.87545E0,1.4012978E1,5.476264E1,2.9741873E2,3.8005375E1,2.3353333E1,2.7446072E1,2.3238861E1,0E0,0E0,0E0,0E0,0E0,0E0,0E0,0E0,0E0,0E0,0E0,0E0,0E0,0E0,0E0,0E0,0E0,0E0,0E0,0E0,0E0,0E0,0E0,0E0,0E0,0E0,0E0,0E0,0E0,0E0,0E0,0E0,0E0,0E0,0E0,0E0,0E0,0E0,0E0,0E0,0E0,0E0,0E0,0E0,0E0,0E0,0E0,0E0,0E0,0E0,0E0,0E0,0E0,0E0,0E0,0E0,0E0,0E0,0E0,0E0,0E0,0E0,0E0,0E0,0E0,0E0,0E0,0E0,0E0,0E0,0E0,0E0,0E0,0E0,0E0,0E0,0E0,0E0,0E0,0E0,0E0,0E0,0E0,0E0,0E0,0E0,0E0,0E0,0E0,0E0,0E0,0E0,0E0,0E0,0E0,0E0,0E0,0E0,0E0,0E0,0E0,0E0],"parents":[2147483647,0,0,1,1,2,2,3,3,4,4,5,5,6,6,7,7,8,8,9,9,10,10,11,11,12,12,13,13,14,14,15,15,16,16,17,17,18,18,19,19,20,20,21,21,22,22,23,23,24,24,25,25,26,26,27,27,28,28,29,29,30,30,31,31,32,32,33,33,35,35,36,36,37,37,38,38,40,40,41,41,42,42,43,43,44,44,46,46,47,47,48,48,49,49,50,50,52,52,53,53,54,54,55,55,56,56,57,57,58,58,59,59,60,60,61,61,62,62,63,63,65,65,66,66,69,69,70,70,71,71,72,72,73,73,74,74,75,75,76,76,77,77,78,78,79,79,81,81,82,82,83,83,84,84,85,85,86,86,87,87,89,89,90,90,91,91,92,92,93,93,94,94,95,95,96,96,97,97,98,98,99,99,100,100,101,101,102,102,103,103,104,104,105,105,106,106,107,107,108,108,109,109,110,110,111,111,112,112,113,113,114,114,115,115,116,116,117,117,118,118],"right_children":[2,4,6,8,10,12,14,16,18,20,22,24,26,28,30,32,34,36,38,40,42,44,46,48,50,52,54,56,58,60,62,64,66,68,-1,70,72,74,76,-1,78,80,82,84,86,-1,88,90,92,94,96,-1,98,100,102,104,106,108,110,112,114,116,118,120,-1,122,124,-1,-1,126,128,130,132,134,136,138,140,142,144,146,-1,148,150,152,154,156,158,160,-1,162,164,166,168,170,172,174,176,178,180,182,184,186,188,190,192,194,196,198,200,202,204,206,208,210,212,214,216,218,220,-1,-1,-1,-1,-1,-1,-1,-1,-1,-1,-1,-1,-1,-1,-1,-1,-1,-1,-1,-1,-1,-1,-1,-1,-1,-1,-1,-1,-1,-1,-1,-1,-1,-1,-1,-1,-1,-1,-1,-1,-1,-1,-1,-1,-1,-1,-1,-1,-1,-1,-1,-1,-1,-1,-1,-1,-1,-1,-1,-1,-1,-1,-1,-1,-1,-1,-1,-1,-1,-1,-1,-1,-1,-1,-1,-1,-1,-1,-1,-1,-1,-1,-1,-1,-1,-1,-1,-1,-1,-1,-1,-1,-1,-1,-1,-1,-1,-1,-1,-1,-1,-1],"split_conditions":[3.9270833E0,2E0,2E0,2E0,3.7666667E0,1.5079166E1,2E0,2E0,3.905E3,3.1215277E0,2E0,3E0,6E1,1.2E2,1.2156944E1,4.445E3,3.3E1,8.784722E-1,4E0,9.465278E-1,2E0,9E1,1.602E3,1.7E1,2E0,3E1,1.7E1,1E0,1.7E1,1.2E1,4E0,4.58746E-1,1.8E1,2.0902777E0,6.505584E-2,1.8E1,1.6E1,1.1E1,9.7152776E-1,-7.231731E-2,6.246281E-1,5.651807E-1,1.2E2,7.708E3,3.103716E-1,-6.5290205E-2,3E0,4.2113978E-1,1.154E3,1E0,3E0,-6.76743E-2,1.7E1,1E0,1.9E1,4E0,1.7E1,1E0,3E0,3.467E3,2E0,2E0,3.6797916E1,6.361083E-1,1.6053952E-2,6E0,1.1979166E0,-5.274746E-2,2.6633397E-2,5.104016E-1,1.5208334E-1,2E0,2.17E3,9E1,9E1,4.8476723E-1,1.2E2,7.593087E-1,3.114363E-1,5.317922E-1,-1.548485E-2,3E0,3.0263394E-1,3E0,3.8454092E-1,1.9E1,1.4E3,2.83E3,-6.230531E-2,3.5E1,1.4677E-1,3.15359E-1,2.5865304E-1,8E0,1.7E1,2E0,2.4E2,3E0,1.2E1,1.1E1,4.015E3,4.7627833E-1,2.275E4,2E0,5.256E3,1.604861E1,6.8565553E-1,2E0,2E0,2E0,3.487E3,6.5230536E-1,1.1E1,2.1E1,3E0,1.7E1,4E0,1.6E1,1E0,-6.664554E-2,6.4222724E-3,-5.207743E-2,4.0632854E-3,-2.2977466E-2,6.6175275E-2,-6.182294E-2,5.908092E-3,-4.6427067E-2,2.6702214E-2,-2.069696E-2,4.556326E-2,-3.8978716E-3,4.538028E-2,5.2252542E-2,-4.294E-2,8.0354795E-2,4.737183E-2,-6.8248466E-2,-1.7199459E-2,-4.846105E-2,2.1779522E-2,-6.9402695E-2,-1.3754706E-2,-5.609671E-2,3.0148763E-2,-6.899301E-2,-1.55098885E-2,4.6072148E-2,-6.183953E-2,-5.4556638E-2,-1.7887129E-2,5.8345664E-2,-8.909514E-3,-5.3436007E-2,3.8811114E-2,-6.741662E-2,-1.67211E-2,2.4591938E-2,-4.3592073E-2,-4.6988454E-2,1.50811225E-2,-5.2610636E-2,-2.4177264E-2,7.211956E-2,-1.5037994E-2,4.9350232E-2,-1.7390704E-2,-5.9747618E-2,1.7333064E-2,-5.1392563E-2,4.4314686E-2,-6.2492825E-2,-4.3585084E-2,2.155523E-2,-7.099376E-2,6.771846E-2,-1.0984606E-2,-5.1025517E-2,7.4937204E-3,-1.1751972E-2,6.7040354E-2,-3.8199592E-2,6.956448E-2,-5.285698E-2,1.6697926E-2,-6.430531E-2,5.299035E-3,2.8188786E-2,-3.6151778E-2,-3.3251017E-2,4.240383E-2,4.2375266E-3,-6.373756E-2,5.4475445E-2,7.742987E-2,8.3024554E-2,-2.440458E-2,-4.8939414E-2,2.1315051E-2,2.8689811E-2,6.771708E-2,7.0531026E-2,-2.421092E-2,4.048478E-2,6.7201175E-2,-5.7440966E-2,2.5754167E-2,-5.4422524E-2,-1.8394647E-2,2.3899209E-3,4.314152E-2,-6.819367E-2,1.024356E-2,8.83561E-3,5.260579E-2,6.8978705E-2,-4.8821673E-2,-1.3917001E-2,2.3311814E-2,-4.9911365E-2,4.845859E-2],"split_indices":[31,20,2,2,31,31,21,10,1,31,2,14,22,22,31,1,13,31,2,31,2,3,1,9,10,3,9,9,9,9,8,48,9,31,0,9,9,9,31,0,79,70,3,18,40,0,15,37,16,15,20,0,9,15,13,8,9,9,20,1,20,8,31,78,0,28,31,0,0,51,31,10,1,22,22,69,3,47,48,60,0,21,56,28,47,29,16,18,0,3,32,42,54,9,9,20,3,20,13,9,3,53,18,8,18,31,85,10,10,20,1,71,9,13,20,9,2,9,9,0,0,0,0,0,0,0,0,0,0,0,0,0,0,0,0,0,0,0,0,0,0,0,0,0,0,0,0,0,0,0,0,0,0,0,0,0,0,0,0,0,0,0,0,0,0,0,0,0,0,0,0,0,0,0,0,0,0,0,0,0,0,0,0,0,0,0,0,0,0,0,0,0,0,0,0,0,0,0,0,0,0,0,0,0,0,0,0,0,0,0,0,0,0,0,0,0,0,0,0,0,0],"split_type":[0,0,0,0,0,0,0,0,0,0,0,0,0,0,0,0,0,0,0,0,0,0,0,0,0,0,0,0,0,0,0,0,0,0,0,0,0,0,0,0,0,0,0,0,0,0,0,0,0,0,0,0,0,0,0,0,0,0,0,0,0,0,0,0,0,0,0,0,0,0,0,0,0,0,0,0,0,0,0,0,0,0,0,0,0,0,0,0,0,0,0,0,0,0,0,0,0,0,0,0,0,0,0,0,0,0,0,0,0,0,0,0,0,0,0,0,0,0,0,0,0,0,0,0,0,0,0,0,0,0,0,0,0,0,0,0,0,0,0,0,0,0,0,0,0,0,0,0,0,0,0,0,0,0,0,0,0,0,0,0,0,0,0,0,0,0,0,0,0,0,0,0,0,0,0,0,0,0,0,0,0,0,0,0,0,0,0,0,0,0,0,0,0,0,0,0,0,0,0,0,0,0,0,0,0,0,0,0,0,0,0,0,0,0,0,0,0,0,0,0,0],"sum_hessian":[1.209257E4,4.39203E3,7.700541E3,8.600125E2,3.5320173E3,1.0850314E3,6.6155093E3,1.9443295E2,6.655796E2,3.4108015E3,1.2121577E2,8.1765063E2,2.6738068E2,4.379329E3,2.2361804E3,1.8939853E2,5.0344334E0,2.4843677E2,4.1714282E2,3.2459648E3,1.6483669E2,5.0908123E1,7.030765E1,1.649075E2,6.5274316E2,1.2325781E2,1.4412288E2,1.7582139E3,2.6211152E3,1.234233E3,1.0019473E3,1.0839494E2,8.100358E1,3.815512E0,1.2189215E0,6.2227646E1,1.8620912E2,4.0093057E2,1.6212255E1,2.2281096E3,1.0178552E3,6.735635E1,9.748032E1,1.3461172E1,3.7446953E1,5.677094E0,6.4630554E1,1.3192703E2,3.298047E1,6.121175E2,4.0625637E1,9.114913E0,1.141429E2,1.0914251E2,3.4980362E1,2.1089539E1,1.7371244E3,1.3475144E3,1.273601E3,2.1010742E2,1.0241256E3,6.260754E2,3.7587192E2,1.0700098E2,1.3939663E0,7.125813E1,9.745447E0,1.8622481E0,1.953264E0,5.247193E1,9.755712E0,1.14350204E2,7.1858925E1,2.0616892E1,3.8031366E2,1.2940294E1,3.2719607E0,1.00515106E3,1.2704166E1,6.625089E1,1.1054682E0,1.3396486E1,8.408384E1,3.2730582E0,1.0188114E1,3.3859097E1,3.5878546E0,6.132304E1,3.3075132E0,1.2331998E2,8.607052E0,2.9129404E1,3.851063E0,7.2720585E0,6.0484546E2,1.8440626E1,2.218501E1,8.589567E1,2.824723E1,5.7065277E0,1.0343598E2,1.0032622E1,2.4947739E1,9.539727E0,1.1549812E1,8.5173694E2,8.853874E2,5.0645947E1,1.2968684E3,1.8731305E2,1.086288E3,9.737883E1,1.1272859E2,3.3985403E2,6.8427155E2,2.5269118E2,3.7338425E2,2.1692648E2,1.5894543E2,1.05362526E2,1.6384504E0,6.493282E1,6.325304E0,7.559805E0,2.1856425E0,5.133723E1,1.134703E0,4.2317266E0,5.523985E0,1.0316797E2,1.1182236E1,1.863149E1,5.3227432E1,3.1671655E0,1.7449726E1,1.1482033E2,2.6549335E2,1.1814793E1,1.1255018E0,1.6031533E0,1.6688075E0,1.00407355E3,1.077557E0,1.1577811E1,1.1263548E0,6.51442E1,1.1066837E0,8.729968E0,4.6665187E0,6.701396E1,1.706988E1,1.6783557E0,1.5947025E0,8.813636E0,1.3744786E0,3.1858793E1,2.0003047E0,2.2415793E0,1.3462753E0,5.092326E0,5.6230713E1,7.849538E1,4.4824596E1,2.1272335E0,6.4798183E0,2.223991E1,6.8894954E0,2.6190422E0,1.232021E0,2.0397506E0,5.2323074E0,4.7167865E2,1.3316678E2,2.7784288E0,1.5662197E1,4.675295E0,1.7509716E1,1.0561822E1,7.533385E1,7.540661E0,2.070657E1,3.457179E0,2.2493486E0,1.01064735E2,2.371251E0,8.888977E0,1.1436456E0,1.863099E1,6.316748E0,3.7935143E0,5.7462125E0,1.1564695E0,1.0393343E1,2.764537E2,5.7528326E2,8.8417255E2,1.2149003E0,4.7041275E1,3.6046724E0,1.138733E3,1.5813539E2,1.1195903E2,7.535402E1,1.5968309E2,9.266048E2,9.57414E1,1.63743E0,4.6614822E1,6.611377E1,1.4008185E2,1.9977219E2,1.5559782E2,5.286737E2,1.8575616E2,6.6935005E1,3.6979123E2,3.5929885E0,1.4228264E2,7.4643845E1,5.469902E0,1.5347554E2],"tree_param":{"num_deleted":"0","num_feature":"98","num_nodes":"221","size_leaf_vector":"1"}},{"base_weights":[-4.343715E-3,-1.0441263E0,5.805775E-1,1.454931E-1,-1.3415595E0,-8.156836E-1,8.0675095E-1,-1.036828E0,4.9531063E-1,-1.3928891E0,-7.70704E-1,-9.759642E-1,-3.8527054E-1,1.0826696E0,2.6576138E-1,-1.241778E0,-7.7694964E-1,-3.292048E-1,8.656692E-1,-7.0278734E-2,-1.3143779E0,-1.198831E0,-4.7676584E-1,-5.262524E-1,-1.0902171E0,-2.2152873E-2,-8.2884413E-1,1.448253E0,8.3714557E-1,-8.065832E-2,7.3333144E-1,-1.2718786E0,2.1131214E-2,-9.7902656E-1,-2.704586E-1,-1.0272834E0,-7.513262E-2,3.1680146E-1,1.1903722E0,-1.3245602E0,-7.702755E-1,-7.625268E-1,-1.2658069E0,-7.751829E-1,-5.255485E-2,-6.7699385E-1,8.768093E-1,4.1815147E-1,-1.1094607E0,-3.5308486E-1,4.8432884E-1,-1.0368015E0,-2.9239514E-1,-6.287707E-1,1.4724083E0,5.7259554E-1,1.1180228E0,-3.315271E-1,3.497495E-1,7.7334833E-1,-1.2638458E0,-1.3036835E0,-3.091782E-1,-4.2536277E-2,4.700481E-2,-2.7612916E-1,-1.144126E0,-1.056982E0,1.7658763E-1,-1.0846733E0,4.152285E-2,-4.205333E-1,5.0415987E-1,4.4384584E-1,-1.2231861E0,1.2272824E0,-8.856141E-1,-1.3730099E0,-1.2152754E0,2.3532247E-2,-1.0700756E0,-8.8294375E-1,2.6055237E-2,-1.3110471E0,-7.81954E-1,1.2226371E-1,-9.080353E-1,-1.7278345E-1,1.1919314E0,-7.277925E-1,9.603183E-1,1.2490783E0,-4.5430356E-1,-4.8222434E-2,9.2800945E-1,-1.1475501E0,-5.05874E-1,-5.1186955E-1,4.712975E-1,-3.4900567E-1,8.207125E-1,-1.190913E0,-3.5078004E-1,-7.783672E-1,2.8528634E-1,6.0981452E-2,-1.109986E0,1.314585E0,1.5740222E0,-9.3498415E-1,6.289706E-1,9.0976113E-1,1.3195894E0,1.1534074E-1,-5.135449E-1,9.109418E-1,6.750913E-2,-7.6687557E-1,8.2355046E-1,1.75373E-2,-7.0538335E-2,-6.642237E-2,-1.3471658E-2,3.296698E-2,-4.971451E-2,-5.8096822E-2,6.699362E-3,-6.003762E-2,-1.5076341E-2,-6.0657736E-2,3.6296945E-3,-4.5889575E-2,4.6287995E-2,-5.9533507E-2,-2.0055864E-2,-2.740982E-2,3.3912387E-2,-5.517876E-2,2.865887E-2,-4.487986E-2,2.8786257E-2,-6.690623E-2,-1.2186569E-2,7.852648E-2,5.306822E-2,3.0272761E-3,-5.709202E-2,-6.880697E-2,-1.2440412E-2,-1.5156269E-2,-6.242127E-2,-6.258012E-2,-9.965412E-3,-5.1108897E-2,2.049753E-2,-6.747667E-2,-3.1158492E-2,3.331005E-2,-5.4522432E-2,4.2683244E-2,-5.9855413E-2,-5.2815586E-2,-1.6609445E-2,-6.1309226E-2,-3.864374E-3,-4.772526E-3,7.571255E-2,-4.593612E-2,-1.9186115E-2,-8.817549E-3,7.915901E-2,6.9497414E-2,5.45421E-3,-4.4287097E-2,1.6163647E-2,6.019946E-2,-8.02185E-3,-6.1130404E-2,-4.424535E-2,-5.3368326E-2,-1.1665813E-3,-1.2496433E-2,-4.470059E-2,4.1078053E-2,-5.6857318E-2,-3.7889753E-2,1.709791E-2,5.52436E-2,2.7106479E-3,-6.2366378E-2,1.320322E-2,-3.8779575E-2,4.3041546E-2,-5.5227675E-2,1.809125E-2,5.6914058E-2,-1.9178836E-2,-3.0905623E-2,3.4373906E-2,4.1212845E-3,-6.205852E-2,4.3370463E-2,7.39707E-2,7.8842424E-2,-2.3791805E-2,-5.072501E-2,8.560236E-3,2.3924964E-2,5.080474E-2,3.872027E-2,6.283288E-2,4.6356067E-2,7.052676E-2,1.4062213E-2,-5.1111765E-2,-1.5252757E-2,-4.0997814E-2,2.8331188E-2,6.00858E-2,-6.1369967E-2,1.9729136E-2,-6.95119E-3,-4.6426278E-2,5.059279E-2,2.4496878E-2],"categories":[],"categories_nodes":[],"categories_segments":[],"categories_sizes":[],"default_left":[0,0,0,0,0,0,0,0,0,0,0,0,0,0,0,0,0,0,0,0,0,0,0,0,0,0,0,0,0,0,0,0,0,0,0,0,0,0,0,0,0,0,0,0,0,0,0,0,0,0,0,0,0,0,0,0,0,0,0,0,0,0,0,0,0,0,0,0,0,0,0,0,0,0,0,0,0,0,0,0,0,0,0,0,0,0,0,0,0,0,0,0,0,0,0,0,0,0,0,0,0,0,0,0,0,0,0,0,0,0,0,0,0,0,0,0,0,0,0,0,0,0,0,0,0,0,0,0,0,0,0,0,0,0,0,0,0,0,0,0,0,0,0,0,0,0,0,0,0,0,0,0,0,0,0,0,0,0,0,0,0,0,0,0,0,0,0,0,0,0,0,0,0,0,0,0,0,0,0,0,0,0,0,0,0,0,0,0,0,0,0,0,0,0,0,0,0,0,0,0,0,0,0,0,0,0,0,0,0,0,0,0,0,0,0,0,0,0,0,0,0,0,0,0,0],"id":7,"left_children":[1,3,5,7,9,11,13,15,17,19,21,23,25,27,29,31,33,35,37,-1,39,41,43,45,47,49,51,53,55,57,59,61,63,65,67,69,71,73,75,77,79,81,83,85,87,89,91,93,95,97,99,101,103,105,107,109,111,113,115,117,119,121,123,-1,-1,125,127,129,131,133,-1,135,137,139,141,143,145,147,149,-1,151,153,-1,155,157,159,161,163,165,167,169,171,173,-1,175,177,179,181,183,185,187,189,191,193,195,197,199,201,203,205,207,209,211,213,215,217,219,221,223,-1,-1,-1,-1,-1,-1,-1,-1,-1,-1,-1,-1,-1,-1,-1,-1,-1,-1,-1,-1,-1,-1,-1,-1,-1,-1,-1,-1,-1,-1,-1,-1,-1,-1,-1,-1,-1,-1,-1,-1,-1,-1,-1,-1,-1,-1,-1,-1,-1,-1,-1,-1,-1,-1,-1,-1,-1,-1,-1,-1,-1,-1,-1,-1,-1,-1,-1,-1,-1,-1,-1,-1,-1,-1,-1,-1,-1,-1,-1,-1,-1,-1,-1,-1,-1,-1,-1,-1,-1,-1,-1,-1,-1,-1,-1,-1,-1,-1,-1,-1,-1,-1,-1,-1,-1,-1],"loss_changes":[7.2655015E3,1.5219551E3,2.415022E3,3.5667264E2,9.974463E1,7.318335E1,9.819053E2,9.524399E0,2.0341197E2,1.2949219E0,3.5430817E1,3.9313232E1,4.6849594E1,3.8989014E2,3.6025845E2,4.1488495E0,8.895901E0,3.6619907E1,8.147653E1,0E0,1.4969482E0,2.4187164E0,2.1643017E1,3.4264935E1,1.840503E1,2.7161064E1,1.4305649E1,8.868652E1,1.9322412E2,1.3813986E2,7.662271E1,2.8401947E0,3.6103113E0,7.064289E0,9.64756E0,6.778656E0,3.0780066E1,3.4209366E1,2.3170898E1,6.856079E-1,4.497824E0,3.230918E0,1.1391754E0,1.2091103E1,1.0950106E1,1.2702675E1,8.43685E0,6.895769E0,1.3457092E1,1.3065545E1,1.8242958E1,9.517807E0,1.0883196E1,6.9749117E0,2.5665283E1,1.1495035E2,5.1877197E1,6.578767E1,7.45714E1,7.242804E1,4.995287E0,2.2602844E0,3.7731764E0,0E0,0E0,5.0289927E0,2.079979E0,1.833518E0,1.5618027E1,3.4286652E0,0E0,1.3873579E1,7.0150824E0,2.8768621E1,1.18017E0,1.4483978E1,1.4305234E0,7.1429443E-1,4.0143127E0,0E0,1.1656666E0,3.436016E0,0E0,1.5136719E0,5.610422E0,1.4375307E1,7.132431E0,6.5803013E0,2.8221035E0,8.880531E0,3.6591835E0,1.8841457E0,1.6966689E0,0E0,2.2144117E0,1.0224731E1,1.027969E1,8.047464E0,1.0141672E1,5.66059E0,9.944948E0,6.593872E0,1.0270157E1,8.17012E0,1.0753293E1,4.4666634E0,2.027916E0,4.90907E1,6.816162E0,4.4754715E0,7.5105774E1,2.8377747E1,2.1546997E1,4.4582233E1,3.644394E1,1.5097488E1,1.337256E2,2.898138E0,5.602466E1,0E0,0E0,0E0,0E0,0E0,0E0,0E0,0E0,0E0,0E0,0E0,0E0,0E0,0E0,0E0,0E0,0E0,0E0,0E0,0E0,0E0,0E0,0E0,0E0,0E0,0E0,0E0,0E0,0E0,0E0,0E0,0E0,0E0,0E0,0E0,0E0,0E0,0E0,0E0,0E0,0E0,0E0,0E0,0E0,0E0,0E0,0E0,0E0,0E0,0E0,0E0,0E0,0E0,0E0,0E0,0E0,0E0,0E0,0E0,0E0,0E0,0E0,0E0,0E0,0E0,0E0,0E0,0E0,0E0,0E0,0E0,0E0,0E0,0E0,0E0,0E0,0E0,0E0,0E0,0E0,0E0,0E0,0E0,0E0,0E0,0E0,0E0,0E0,0E0,0E0,0E0,0E0,0E0,0E0,0E0,0E0,0E0,0E0,0E0,0E0,0E0,0E0,0E0,0E0,0E0,0E0],"parents":[2147483647,0,0,1,1,2,2,3,3,4,4,5,5,6,6,7,7,8,8,9,9,10,10,11,11,12,12,13,13,14,14,15,15,16,16,17,17,18,18,20,20,21,21,22,22,23,23,24,24,25,25,26,26,27,27,28,28,29,29,30,30,31,31,32,32,33,33,34,34,35,35,36,36,37,37,38,38,39,39,40,40,41,41,42,42,43,43,44,44,45,45,46,46,47,47,48,48,49,49,50,50,51,51,52,52,53,53,54,54,55,55,56,56,57,57,58,58,59,59,60,60,61,61,62,62,65,65,66,66,67,67,68,68,69,69,71,71,72,72,73,73,74,74,75,75,76,76,77,77,78,78,80,80,81,81,83,83,84,84,85,85,86,86,87,87,88,88,89,89,90,90,91,91,92,92,94,94,95,95,96,96,97,97,98,98,99,99,100,100,101,101,102,102,103,103,104,104,105,105,106,106,107,107,108,108,109,109,110,110,111,111,112,112,113,113,114,114,115,115,116,116,117,