{"learner":{"attributes":{"best_iteration":"94","best_score":"-0.870997"},"feature_names":[],"feature_types":[],"gradient_booster":{"model":{"gbtree_model_param":{"num_parallel_tree":"1","num_trees":"145"},"iteration_indptr":[0,1,2,3,4,5,6,7,8,9,10,11,12,13,14,15,16,17,18,19,20,21,22,23,24,25,26,27,28,29,30,31,32,33,34,35,36,37,38,39,40,41,42,43,44,45,46,47,48,49,50,51,52,53,54,55,56,57,58,59,60,61,62,63,64,65,66,67,68,69,70,71,72,73,74,75,76,77,78,79,80,81,82,83,84,85,86,87,88,89,90,91,92,93,94,95,96,97,98,99,100,101,102,103,104,105,106,107,108,109,110,111,112,113,114,115,116,117,118,119,120,121,122,123,124,125,126,127,128,129,130,131,132,133,134,135,136,137,138,139,140,141,142,143,144,145],"tree_info":[0,0,0,0,0,0,0,0,0,0,0,0,0,0,0,0,0,0,0,0,0,0,0,0,0,0,0,0,0,0,0,0,0,0,0,0,0,0,0,0,0,0,0,0,0,0,0,0,0,0,0,0,0,0,0,0,0,0,0,0,0,0,0,0,0,0,0,0,0,0,0,0,0,0,0,0,0,0,0,0,0,0,0,0,0,0,0,0,0,0,0,0,0,0,0,0,0,0,0,0,0,0,0,0,0,0,0,0,0,0,0,0,0,0,0,0,0,0,0,0,0,0,0,0,0,0,0,0,0,0,0,0,0,0,0,0,0,0,0,0,0,0,0,0,0],"trees":[{"base_weights":[-2.6029935E-3,-1.3134359E0,8.244949E-1,-1.6093546E0,-7.926514E-1,-1.0697889E0,1.1626291E0,-1.659025E0,-9.523313E-1,-6.935361E-2,-1.3540419E0,-1.2416934E0,-5.179811E-1,1.5678405E0,3.7576926E-1,-1.7133449E-1,-1.4883032E0,-1.4810768E0,-5.64877E-1,-1.4147387E0,3.5087487E-1,-1.5140836E0,-8.71882E-1,-6.8814915E-1,-1.3726337E0,9.018774E-2,-1.0068663E0,2.06626E0,1.2283114E0,-9.24921E-2,1.0727284E0,-1.2601546E0,-1.606382E-1,-5.453008E-2,-1.5546967E0,3.390872E-1,-8.307071E-1,-1.5705116E0,-1.1660678E0,-6.076097E-1,8.679985E-1,-1.5964082E0,-1.3019849E0,-1.5158442E0,-5.0123554E-1,-9.96914E-1,6.026897E-1,5.0949015E-2,-1.3918191E0,-1.5893279E-1,2.4972416E-1,-1.1954794E0,-3.383682E-1,-6.5959394E-1,2.1019094E0,8.472668E-1,1.6270398E0,-4.049881E-1,4.6195117E-1,-1.0559028E0,1.1494616E0,-1.6348273E0,-4.5911103E-1,-1.6053116E0,-9.956821E-2,8.513837E-1,-1.5028024E-1,-1.1707892E0,-2.9637444E-1,-1.6562301E-1,-1.061698E0,-3.3748353E-1,-1.3079442E0,-1.3934828E0,-2.8106645E-1,1.2177361E0,-1.6595209E-1,-1.6669651E0,-1.4957782E0,-1.5886393E0,-1.0434875E0,-1.589148E-1,-1.1230363E0,1.0600162E0,-7.946404E-1,-2.5301325E-1,-1.1258413E0,5.933409E-2,1.1860337E0,-1.4382466E0,-6.0959876E-1,-3.9694753E-2,1.1764321E0,2.2296794E-2,-1.282115E0,-7.489289E-1,9.3507215E-2,4.2138416E-1,-1.4236204E-1,1.9291245E0,2.265715E0,-1.1309401E0,9.3040884E-1,1.3940123E0,1.8573357E0,-9.770628E-1,-1.8607603E-1,5.782192E-1,-1.2449054E0,-1.1405351E0,-4.6837673E-2,1.2006558E0,-1.479427E-1,-1.6486977E0,-9.879235E-2,4.437034E-1,-1.3919122E0,-1.6346604E-1,-9.583197E-2,-1.9663794E-3,1.0979874E0,-1.2988136E0,-5.606652E-1,6.824743E-1,-6.1907965E-1,-6.229764E-1,-1.4585792E-1,4.0047888E-2,-1.2849484E-1,-1.4393878E0,-9.250591E-1,-1.6361648E-1,-1.1814368E0,-6.1927384E-1,6.3604295E-1,2.0840452E0,9.435921E-1,-1.6749538E-1,-9.583197E-2,-5.042169E-1,-1.6374781E0,-1.6867642E-1,-1.2243444E0,-1.5912072E-1,-5.1029575E-1,-3.0506242E-2,-1.3971715E-1,1.4039532E0,-3.5969626E-2,-9.6712226E-1,1.23196416E-1,2.6855823E-1,-1.1937541E-1,-1.2309681E0,-4.4935662E-1,3.9531198E-1,-7.950054E-2,1.7652336E-1,-1.9663794E-3,-1.5210823E0,-1.1331265E0,9.510526E-2,-8.49175E-1,-8.261469E-1,2.925993E-1,-1.7180756E-2,1.6474136E0,-1.3559095E0,-6.9340724E-1,3.4600794E-2,-1.0120555E0,8.9675836E-2,-1.4174811E-2,1.5136579E0,2.124548E0,2.2692783E-1,1.3280807E-1,-5.288329E-1,-1.3605784E0,7.45858E-1,1.406927E0,1.2536231E0,1.7526923E0,1.4537392E0,1.9483899E0,-1.0125962E0,6.7482345E-2,-5.7441634E-1,8.758976E-2,1.1741905E0,3.3032668E-1,-1.6053134E-1,-5.815263E-1,-1.2684183E-1,-6.160134E-2,9.750265E-1,1.6364648E0,-1.6732357E-1,-1.1451568E-1,1.1163991E-1,-7.0871964E-2,-8.310487E-2,-1.6693072E-1,1.5523428E-1,3.3861037E-2,-1.3748516E-1,-4.6837673E-2,-1.06452696E-1,2.810516E-4,1.8488053E-2,1.05381526E-1,-1.2321868E-1,-2.9218376E-2,-9.583197E-2,-2.026394E-2,-1.4945911E-1,-7.950054E-2,-1.4446466E-1,-4.4386785E-2,-1.2772849E-1,-6.496983E-2,-1.2333031E-1,-4.318625E-2,2.4896128E-2,1.1210539E-1,1.2651183E-1,2.1339576E-1,-4.2100172E-2,1.1283275E-1,-1.5165883E-1,-1.7204477E-2,-1.6535556E-1,-8.640814E-2,-1.583439E-1,-8.9213796E-2,5.9750255E-2,-7.718939E-2,1.8279867E-1,1.2621422E-2,-1.1191584E-1,-2.1782152E-3,1.0014521E-1,-1.5830953E-2,-6.496983E-2,1.0374117E-1,-1.3365099E-1,-6.287744E-2,2.3785972E-3,-1.22285284E-1,-2.8535718E-2,1.1333125E-1,-1.5415457E-1,-3.9034978E-2,-1.1734996E-1,-7.84729E-3,-2.8925521E-2,-1.09396376E-1,-1.0695624E-1,-2.2511423E-2,4.4151004E-2,-8.280947E-2,9.163809E-2,1.9041401E-1,-1.3943337E-1,-4.6837673E-2,-1.0123553E-1,-4.5582573E-3,-5.2568644E-2,-1.378998E-1,1.1568685E-1,1.8690701E-1,2.1619062E-1,1.6906199E-1,-1.0802045E-1,-4.5529075E-4,-1.4616221E-1,-6.781136E-2,9.72641E-2,3.3691864E-2,1.2209139E-1,1.7158817E-1,1.5764558E-1,1.02515094E-1,1.9430964E-1,1.4012556E-1,8.512392E-2,1.8904299E-1,1.8332535E-1,2.0694375E-1,-1.274984E-1,-8.333459E-2,-8.864554E-2,-3.7583034E-2,3.2695893E-2,-3.414328E-2,7.025484E-2,1.4122081E-1,6.013446E-2,-9.935289E-3,-9.9911205E-2,-1.9663794E-3,6.7280106E-2,1.4272478E-1,1.6810189E-1,7.207341E-2],"categories":[],"categories_nodes":[],"categories_segments":[],"categories_sizes":[],"default_left":[0,0,0,0,0,0,0,0,0,0,0,0,0,0,0,0,0,0,0,0,0,0,0,0,0,0,0,0,0,0,0,0,0,0,0,0,0,0,0,0,0,0,0,0,0,0,0,0,0,0,0,0,0,0,0,0,0,0,0,0,0,0,0,0,0,0,0,0,0,0,0,0,0,0,0,0,0,0,0,0,0,0,0,0,0,0,0,0,0,0,0,0,0,0,0,0,0,0,0,0,0,0,0,0,0,0,0,0,0,0,0,0,0,0,0,0,0,0,0,0,0,0,0,0,0,0,0,0,0,0,0,0,0,0,0,0,0,0,0,0,0,0,0,0,0,0,0,0,0,0,0,0,0,0,0,0,0,0,0,0,0,0,0,0,0,0,0,0,0,0,0,0,0,0,0,0,0,0,0,0,0,0,0,0,0,0,0,0,0,0,0,0,0,0,0,0,0,0,0,0,0,0,0,0,0,0,0,0,0,0,0,0,0,0,0,0,0,0,0,0,0,0,0,0,0,0,0,0,0,0,0,0,0,0,0,0,0,0,0,0,0,0,0,0,0,0,0,0,0,0,0,0,0,0,0,0,0,0,0,0,0,0,0,0,0,0,0,0,0,0,0,0,0,0,0,0,0,0,0,0,0,0,0,0,0,0,0,0,0,0,0,0,0,0,0,0,0,0,0,0,0,0,0,0,0],"id":0,"left_children":[1,3,5,7,9,11,13,15,17,19,21,23,25,27,29,-1,31,33,35,37,39,41,43,45,47,49,51,53,55,57,59,61,-1,-1,63,65,67,69,71,73,75,77,79,81,83,85,87,-1,89,-1,91,93,95,97,99,101,103,105,107,109,111,113,115,117,-1,119,-1,121,123,-1,125,127,129,131,133,135,-1,137,139,141,143,-1,145,147,149,151,153,155,157,159,161,163,165,-1,167,169,-1,171,-1,173,175,177,179,181,183,185,187,189,191,193,-1,195,-1,197,-1,199,201,-1,-1,-1,203,205,207,209,211,213,-1,-1,-1,215,217,-1,219,221,223,225,227,-1,-1,229,231,-1,233,-1,235,-1,-1,237,-1,239,241,243,-1,245,247,249,-1,-1,-1,251,253,-1,255,257,259,-1,261,263,265,-1,267,-1,-1,269,271,-1,-1,273,275,277,279,281,283,285,287,289,-1,291,293,295,297,-1,299,-1,-1,301,303,-1,-1,-1,-1,-1,-1,-1,-1,-1,-1,-1,-1,-1,-1,-1,-1,-1,-1,-1,-1,-1,-1,-1,-1,-1,-1,-1,-1,-1,-1,-1,-1,-1,-1,-1,-1,-1,-1,-1,-1,-1,-1,-1,-1,-1,-1,-1,-1,-1,-1,-1,-1,-1,-1,-1,-1,-1,-1,-1,-1,-1,-1,-1,-1,-1,-1,-1,-1,-1,-1,-1,-1,-1,-1,-1,-1,-1,-1,-1,-1,-1,-1,-1,-1,-1,-1,-1,-1,-1,-1,-1,-1,-1,-1,-1,-1,-1,-1,-1,-1,-1,-1,-1,-1,-1,-1,-1,-1],"loss_changes":[1.5174589E4,8.331865E2,5.497927E3,1.11069336E2,7.9735364E2,1.2270398E2,2.3213115E3,2.7198242E1,4.9347076E1,4.862907E2,8.399829E1,7.086597E1,9.243553E1,8.1086035E2,8.08395E2,0E0,1.904004E1,6.2463684E0,3.4641056E1,6.098236E0,3.2545154E2,1.2392456E1,6.556879E1,7.693924E1,2.9604248E1,3.772828E1,2.1315323E1,1.904961E2,4.3336816E2,2.5701678E2,1.6379602E2,8.067682E1,0E0,0E0,1.0874634E0,3.260935E1,1.9783981E1,3.6053162E0,9.283646E0,5.871405E1,3.7878824E2,1.7141113E0,1.5915222E1,1.1242371E0,8.232131E1,1.457518E1,1.1845549E1,0E0,2.7900757E1,0E0,3.440485E1,1.6747726E1,2.1248215E1,2.197732E1,5.000586E1,2.4204492E2,7.2390625E1,1.1860785E2,1.0684932E2,1.21381E0,1.3114185E2,2.633667E-2,7.4599976E1,5.5267334E-2,0E0,5.738764E0,0E0,4.5331116E0,1.4455424E1,0E0,2.6637306E0,9.913127E0,2.2057495E0,1.5331573E0,5.1251537E1,8.709137E1,0E0,3.1756592E-1,3.4860474E1,1.8861389E0,3.6456726E1,0E0,3.9008465E0,1.4454262E1,2.3913742E1,1.2182979E1,8.817398E0,6.2034025E0,1.2658741E1,1.7163696E1,1.8056366E1,2.600503E1,1.966259E1,0E0,4.5508423E0,9.072681E0,0E0,3.203046E0,0E0,7.324341E1,2.6220703E-1,7.514328E0,1.22658325E2,3.297461E1,2.2881348E1,1.6078506E1,7.308916E1,7.368181E1,7.2964554E0,1.2330551E0,0E0,9.117175E1,0E0,2.967224E-1,0E0,3.598723E1,5.372566E0,0E0,0E0,0E0,6.6373844E0,2.8236618E0,3.8193526E0,1.928309E0,6.441226E0,1.4254441E0,0E0,0E0,0E0,6.090317E-1,4.5493965E0,0E0,1.185646E0,1.3310627E1,8.106983E0,9.5098877E-1,7.2743195E1,0E0,0E0,1.0904547E1,1.3289185E0,0E0,1.8206558E0,0E0,1.9627678E1,0E0,0E0,1.2339336E1,0E0,1.8176971E1,6.256355E0,1.2230941E1,0E0,6.371109E0,7.0912886E0,8.056153E0,0E0,0E0,0E0,1.2929565E1,6.8687286E0,0E0,5.237526E0,4.081436E0,1.2054242E1,0E0,2.5176506E0,3.14151E0,3.285749E0,0E0,3.6768703E0,0E0,0E0,3.6479736E1,6.687256E0,0E0,0E0,5.220716E0,1.9377594E0,9.390759E1,2.0408997E1,3.5669495E1,1.0256958E1,3.3315063E1,4.121826E0,1.103244E1,0E0,1.7280083E1,4.160259E1,1.5497391E1,4.1454998E1,0E0,3.1914244E0,0E0,0E0,8.433374E1,1.1858459E1,0E0,0E0,0E0,0E0,0E0,0E0,0E0,0E0,0E0,0E0,0E0,0E0,0E0,0E0,0E0,0E0,0E0,0E0,0E0,0E0,0E0,0E0,0E0,0E0,0E0,0E0,0E0,0E0,0E0,0E0,0E0,0E0,0E0,0E0,0E0,0E0,0E0,0E0,0E0,0E0,0E0,0E0,0E0,0E0,0E0,0E0,0E0,0E0,0E0,0E0,0E0,0E0,0E0,0E0,0E0,0E0,0E0,0E0,0E0,0E0,0E0,0E0,0E0,0E0,0E0,0E0,0E0,0E0,0E0,0E0,0E0,0E0,0E0,0E0,0E0,0E0,0E0,0E0,0E0,0E0,0E0,0E0,0E0,0E0,0E0,0E0,0E0,0E0,0E0,0E0,0E0,0E0,0E0,0E0,0E0,0E0,0E0,0E0,0E0,0E0,0E0,0E0,0E0,0E0,0E0,0E0,0E0,0E0],"parents":[2147483647,0,0,1,1,2,2,3,3,4,4,5,5,6,6,7,7,8,8,9,9,10,10,11,11,12,12,13,13,14,14,16,16,17,17,18,18,19,19,20,20,21,21,22,22,23,23,24,24,25,25,26,26,27,27,28,28,29,29,30,30,31,31,34,34,35,35,36,36,37,37,38,38,39,39,40,40,41,41,42,42,43,43,44,44,45,45,46,46,48,48,50,50,51,51,52,52,53,53,54,54,55,55,56,56,57,57,58,58,59,59,60,60,61,61,62,62,63,63,65,65,67,67,68,68,70,70,71,71,72,72,73,73,74,74,75,75,77,77,78,78,79,79,80,80,82,82,83,83,84,84,85,85,86,86,87,87,88,88,89,89,90,90,91,91,92,92,94,94,95,95,97,97,99,99,100,100,101,101,102,102,103,103,104,104,105,105,106,106,107,107,108,108,109,109,111,111,113,113,115,115,116,116,120,120,121,121,122,122,123,123,124,124,125,125,129,129,130,130,132,132,133,133,134,134,135,135,136,136,139,139,140,140,142,142,144,144,147,147,149,149,150,150,151,151,153,153,154,154,155,155,159,159,160,160,162,162,163,163,164,164,166,166,167,167,168,168,170,170,173,173,174,174,177,177,178,178,179,179,180,180,181,181,182,182,183,183,184,184,185,185,187,187,188,188,189,189,190,190,192,192,195,195,196,196],"right_children":[2,4,6,8,10,12,14,16,18,20,22,24,26,28,30,-1,32,34,36,38,40,42,44,46,48,50,52,54,56,58,60,62,-1,-1,64,66,68,70,72,74,76,78,80,82,84,86,88,-1,90,-1,92,94,96,98,100,102,104,106,108,110,112,114,116,118,-1,120,-1,122,124,-1,126,128,130,132,134,136,-1,138,140,142,144,-1,146,148,150,152,154,156,158,160,162,164,166,-1,168,170,-1,172,-1,174,176,178,180,182,184,186,188,190,192,194,-1,196,-1,198,-1,200,202,-1,-1,-1,204,206,208,210,212,214,-1,-1,-1,216,218,-1,220,222,224,226,228,-1,-1,230,232,-1,234,-1,236,-1,-1,238,-1,240,242,244,-1,246,248,250,-1,-1,-1,252,254,-1,256,258,260,-1,262,264,266,-1,268,-1,-1,270,272,-1,-1,274,276,278,280,282,284,286,288,290,-1,292,294,296,298,-1,300,-1,-1,302,304,-1,-1,-1,-1,-1,-1,-1,-1,-1,-1,-1,-1,-1,-1,-1,-1,-1,-1,-1,-1,-1,-1,-1,-1,-1,-1,-1,-1,-1,-1,-1,-1,-1,-1,-1,-1,-1,-1,-1,-1,-1,-1,-1,-1,-1,-1,-1,-1,-1,-1,-1,-1,-1,-1,-1,-1,-1,-1,-1,-1,-1,-1,-1,-1,-1,-1,-1,-1,-1,-1,-1,-1,-1,-1,-1,-1,-1,-1,-1,-1,-1,-1,-1,-1,-1,-1,-1,-1,-1,-1,-1,-1,-1,-1,-1,-1,-1,-1,-1,-1,-1,-1,-1,-1,-1,-1,-1,-1],"split_conditions":[3.9270833E0,2.0286E4,2E0,3.1215277E0,2.0404E4,1.5079166E1,2E0,1.0826389E0,2E0,2E0,2.0270834E0,3E0,6E1,1.2E2,1.4034722E1,-1.7133449E-1,3E2,3E0,2.4E2,1.0152777E0,3.74E3,9.9375E-1,2E0,1.7E1,1E0,3E1,1.7E1,1E0,1.7E1,1.6E1,1E0,2E0,-1.606382E-1,-5.453008E-2,3.8042882E-1,4E0,3.7666667E0,3.007452E-1,3E0,8.784722E-1,4E0,2.5394E4,3.916E3,3.7666667E0,1.8E2,4.2069445E0,4E0,5.0949015E-2,2E0,-1.5893279E-1,1.7E1,1E0,3.0794132E-1,4E0,1.7E1,1E0,4.215E3,1.2E1,4E0,2.555E3,4E0,4.485032E-1,2E0,4.8116472E-1,-9.956821E-2,1.1E1,-1.5028024E-1,2.9629007E-1,6.76E2,-1.6562301E-1,7E0,8.61E2,1.6E1,2.035E3,1.7E1,9E1,-1.6595209E-1,4.8506504E-1,2.5519E4,3.1E1,2E0,-1.589148E-1,3.8340278E0,1.122E3,4.591E3,2E0,3.566516E-1,2.8829232E-1,3.049822E-1,1.7E1,2.4E2,2E0,1.2E1,2.2296794E-2,5.2058334E1,2E0,9.3507215E-2,4.878E3,-1.4236204E-1,1.604861E1,6.6829497E-1,3E0,3.02375E1,1.2984028E1,2E0,1.3734028E1,3.333E3,7.3E2,1.79E2,1.6E1,-4.6837673E-2,5.0143055E1,-1.479427E-1,4.682286E-1,-9.879235E-2,2.7E1,4E0,-1.6346604E-1,-9.583197E-2,-1.9663794E-3,2.7E1,3.748308E-1,4.197E3,2.39E2,8.61E2,1.4E1,-1.4585792E-1,4.0047888E-2,-1.2849484E-1,3.568754E-1,3.969E3,-1.6361648E-1,2.017E3,1.2E1,3.49E2,1.2E1,1.2E1,-1.6749538E-1,-9.583197E-2,3E1,1.772E3,-1.6867642E-1,2.5342E4,-1.5912072E-1,9E1,-3.0506242E-2,-1.3971715E-1,2E0,-3.5969626E-2,3.7666667E0,1E0,4.577E3,-1.1937541E-1,3.189878E-1,4.21844E-1,7E0,-7.950054E-2,1.7652336E-1,-1.9663794E-3,3.9104542E-1,4.5398724E-1,9.510526E-2,1E0,2.15E2,3.541833E-1,-1.7180756E-2,2.2061806E1,4.5057154E-1,4.424E3,3.4600794E-2,2.5065971E1,8.9675836E-2,-1.4174811E-2,4.652E3,6E1,2.2692783E-1,1.3280807E-1,5E0,3.9664307E-1,4E0,7.7395836E1,7.3E2,1.267E3,6.36875E0,3E0,3.25E3,6.7482345E-2,1.4E1,4E0,1.8694E4,4E0,-1.6053134E-1,1.1234E4,-1.2684183E-1,-6.160134E-2,1.6E1,5E1,-1.6732357E-1,-1.1451568E-1,1.1163991E-1,-7.0871964E-2,-8.310487E-2,-1.6693072E-1,1.5523428E-1,3.3861037E-2,-1.3748516E-1,-4.6837673E-2,-1.06452696E-1,2.810516E-4,1.8488053E-2,1.05381526E-1,-1.2321868E-1,-2.9218376E-2,-9.583197E-2,-2.026394E-2,-1.4945911E-1,-7.950054E-2,-1.4446466E-1,-4.4386785E-2,-1.2772849E-1,-6.496983E-2,-1.2333031E-1,-4.318625E-2,2.4896128E-2,1.1210539E-1,1.2651183E-1,2.1339576E-1,-4.2100172E-2,1.1283275E-1,-1.5165883E-1,-1.7204477E-2,-1.6535556E-1,-8.640814E-2,-1.583439E-1,-8.9213796E-2,5.9750255E-2,-7.718939E-2,1.8279867E-1,1.2621422E-2,-1.1191584E-1,-2.1782152E-3,1.0014521E-1,-1.5830953E-2,-6.496983E-2,1.0374117E-1,-1.3365099E-1,-6.287744E-2,2.3785972E-3,-1.22285284E-1,-2.8535718E-2,1.1333125E-1,-1.5415457E-1,-3.9034978E-2,-1.1734996E-1,-7.84729E-3,-2.8925521E-2,-1.09396376E-1,-1.0695624E-1,-2.2511423E-2,4.4151004E-2,-8.280947E-2,9.163809E-2,1.9041401E-1,-1.3943337E-1,-4.6837673E-2,-1.0123553E-1,-4.5582573E-3,-5.2568644E-2,-1.378998E-1,1.1568685E-1,1.8690701E-1,2.1619062E-1,1.6906199E-1,-1.0802045E-1,-4.5529075E-4,-1.4616221E-1,-6.781136E-2,9.72641E-2,3.3691864E-2,1.2209139E-1,1.7158817E-1,1.5764558E-1,1.02515094E-1,1.9430964E-1,1.4012556E-1,8.512392E-2,1.8904299E-1,1.8332535E-1,2.0694375E-1,-1.274984E-1,-8.333459E-2,-8.864554E-2,-3.7583034E-2,3.2695893E-2,-3.414328E-2,7.025484E-2,1.4122081E-1,6.013446E-2,-9.935289E-3,-9.9911205E-2,-1.9663794E-3,6.7280106E-2,1.4272478E-1,1.6810189E-1,7.207341E-2],"split_indices":[31,18,2,31,18,31,21,31,2,2,31,14,22,22,31,0,3,0,22,31,1,31,2,9,15,3,9,9,9,9,9,2,0,0,47,2,31,57,14,31,2,18,1,31,3,31,0,0,10,0,9,15,56,8,9,9,1,9,2,22,2,36,21,60,0,13,0,56,16,0,6,16,9,1,9,22,0,34,18,27,2,0,31,16,1,15,45,42,43,9,3,8,13,0,31,15,0,1,0,31,85,8,31,31,15,31,1,3,17,29,0,31,0,65,0,14,2,0,0,0,0,41,1,17,16,9,0,0,0,40,1,0,7,9,17,9,9,0,0,3,16,0,18,0,3,0,0,21,0,31,21,1,0,43,45,6,0,0,0,56,40,0,2,17,42,0,31,53,1,0,31,0,0,1,22,0,0,6,36,8,31,3,16,31,2,1,0,13,8,18,8,0,18,0,0,9,27,0,0,0,0,0,0,0,0,0,0,0,0,0,0,0,0,0,0,0,0,0,0,0,0,0,0,0,0,0,0,0,0,0,0,0,0,0,0,0,0,0,0,0,0,0,0,0,0,0,0,0,0,0,0,0,0,0,0,0,0,0,0,0,0,0,0,0,0,0,0,0,0,0,0,0,0,0,0,0,0,0,0,0,0,0,0,0,0,0,0,0,0,0,0,0,0,0,0,0,0,0,0,0,0,0,0,0,0],"split_type":[0,0,0,0,0,0,0,0,0,0,0,0,0,0,0,0,0,0,0,0,0,0,0,0,0,0,0,0,0,0,0,0,0,0,0,0,0,0,0,0,0,0,0,0,0,0,0,0,0,0,0,0,0,0,0,0,0,0,0,0,0,0,0,0,0,0,0,0,0,0,0,0,0,0,0,0,0,0,0,0,0,0,0,0,0,0,0,0,0,0,0,0,0,0,0,0,0,0,0,0,0,0,0,0,0,0,0,0,0,0,0,0,0,0,0,0,0,0,0,0,0,0,0,0,0,0,0,0,0,0,0,0,0,0,0,0,0,0,0,0,0,0,0,0,0,0,0,0,0,0,0,0,0,0,0,0,0,0,0,0,0,0,0,0,0,0,0,0,0,0,0,0,0,0,0,0,0,0,0,0,0,0,0,0,0,0,0,0,0,0,0,0,0,0,0,0,0,0,0,0,0,0,0,0,0,0,0,0,0,0,0,0,0,0,0,0,0,0,0,0,0,0,0,0,0,0,0,0,0,0,0,0,0,0,0,0,0,0,0,0,0,0,0,0,0,0,0,0,0,0,0,0,0,0,0,0,0,0,0,0,0,0,0,0,0,0,0,0,0,0,0,0,0,0,0,0,0,0,0,0,0,0,0,0,0,0,0,0,0,0,0,0,0,0,0,0,0,0,0,0,0,0,0,0,0],"sum_hessian":[1.3994283E4,5.4137188E3,8.580564E3,3.4508157E3,1.962903E3,1.2993314E3,7.281233E3,3.2068555E3,2.439601E2,8.5825165E2,1.1046514E3,9.897461E2,3.0958536E2,4.805526E3,2.475707E3,2.4259392E3,7.8091626E2,1.0197532E2,1.4198477E2,2.0370668E2,6.545449E2,8.277566E2,2.768947E2,1.9053284E2,7.9921326E2,1.3832538E2,1.7126E2,1.9450939E3,2.8604321E3,1.4813257E3,9.9438135E2,2.703078E2,5.106085E2,8.050683E0,9.392464E1,3.2202732E1,1.0978204E2,1.2198005E2,8.172663E1,2.293225E2,4.2522244E2,5.916032E2,2.3615338E2,1.0002364E2,1.7687106E2,1.5393883E2,3.6594013E1,7.806723E0,7.9140656E2,1.1222164E1,1.2710321E2,1.3295825E2,3.8301735E1,2.488393E1,1.92021E3,1.4642485E3,1.3961836E3,9.47541E2,5.3378467E2,3.4154415E1,9.602269E2,1.83458E2,8.684979E1,8.4410194E1,9.514443E0,2.561581E1,6.5869226E0,6.635715E1,4.3424896E1,1.0246324E2,1.9516808E1,1.2441965E1,6.928467E1,6.635715E1,1.6296535E2,3.739908E2,5.123162E1,3.386166E2,2.5298662E2,1.09538086E2,1.2661529E2,8.172663E1,1.8297007E1,2.7567492E1,1.4930357E2,2.3176208E1,1.3076262E2,1.9516808E1,1.7077208E1,7.462739E2,4.5132618E1,9.758404E1,2.9519173E1,7.562763E0,1.2539549E2,2.9275211E1,9.026524E0,1.0490284E1,1.4393645E1,9.4071014E2,9.794998E2,5.8550423E1,1.4056981E3,6.9748193E2,6.987017E2,2.6128125E2,6.8625977E2,5.0036215E2,3.3422535E1,2.9031252E1,5.1231623E0,9.4241785E2,1.7809088E1,1.7809087E2,5.367122E0,4.4400738E1,4.244906E1,7.928703E1,5.1231623E0,5.8550425E0,1.9760767E1,5.391518E1,1.2441965E1,1.0490284E1,3.2934612E1,1.0490284E1,9.026524E0,7.318803E0,5.1231623E0,4.95239E1,1.9760767E1,2.7811451E1,3.8545696E1,1.19296486E2,4.3668858E1,8.831355E1,2.8567728E2,3.3349344E2,5.1231623E0,3.2202732E1,2.2078389E2,8.343436E1,2.6103731E1,6.1477943E1,6.5137344E1,5.1231623E0,1.3173845E1,2.2200369E1,5.367122E0,1.2563945E2,2.366413E1,1.5369486E1,7.806723E0,1.1246561E2,1.8297007E1,1.4393645E1,5.1231623E0,1.1222164E1,5.8550425E0,5.837965E2,1.6247743E2,5.611082E0,3.9521534E1,2.8543331E1,6.904071E1,7.806723E0,2.1712448E1,1.10269966E2,1.5125526E1,5.611082E0,2.366413E1,5.367122E0,5.1231623E0,3.0373032E2,6.369798E2,9.7437665E2,5.1231623E0,1.7077208E1,4.1473217E1,1.015118E3,3.905801E2,5.045095E2,1.9297244E2,1.3173845E2,5.6696326E2,2.561581E2,5.1231623E0,2.8323767E2,4.030221E2,1.4588814E2,3.5447403E2,2.0736609E1,1.26859255E1,2.2200369E1,6.8308825E0,6.230741E2,3.1934378E2,1.6760059E2,1.0490284E1,2.805541E1,1.6345327E1,1.5369486E1,2.707957E1,1.1710085E1,8.050683E0,4.879202E1,5.1231623E0,6.0990024E0,6.3429627E0,5.1231623E0,5.367122E0,1.0490284E1,2.2444328E1,5.1231623E0,5.367122E0,4.4400738E1,5.1231623E0,8.538604E0,1.1222164E1,3.1470852E1,7.074843E0,2.659165E1,9.2704834E1,2.512789E1,1.8540968E1,6.5869226E0,8.172663E1,3.3910454E1,2.5176682E2,7.074843E0,2.512789E1,2.151728E2,5.611082E0,1.0734244E1,1.5369486E1,1.2198005E1,5.2939342E1,1.6345327E1,5.8550425E0,1.08074326E2,1.7565126E1,5.1231623E0,1.8540968E1,7.074843E0,8.294643E0,9.465652E1,1.7809088E1,1.1954044E1,6.3429627E0,7.806723E0,6.5869226E0,5.7306226E2,1.0734244E1,1.5637842E2,6.0990024E0,1.26859255E1,2.6835611E1,1.9760767E1,8.782563E0,6.1477943E1,7.562763E0,6.8308825E0,1.4881566E1,1.05146805E2,5.1231623E0,9.758404E0,5.367122E0,1.1222164E1,1.2441965E1,1.5369485E2,1.5003546E2,5.828207E2,5.415914E1,7.806723E0,9.270484E0,3.5130253E1,6.3429627E0,6.5210535E2,3.6301263E2,2.4688762E2,1.436925E2,2.066342E2,2.9787527E2,1.2222401E2,7.074843E1,5.6598743E1,7.513971E1,2.988511E2,2.6811215E2,1.01487404E2,1.546707E2,1.08806206E2,1.7443147E2,2.5884167E2,1.4418042E2,5.025578E1,9.5632355E1,2.1712448E2,1.3734953E2,6.8308825E0,5.8550425E0,3.7496667E2,2.4810742E2,3.0373032E2,1.5613446E1],"tree_param":{"num_deleted":"0","num_feature":"98","num_nodes":"305","size_leaf_vector":"1"}},{"base_weights":[-4.313769E-3,-1.2164774E0,7.3515016E-1,2.3637988E-1,-1.5431759E0,-9.851451E-1,1.0322139E0,-1.2018379E0,6.9227344E-1,-1.5945501E0,-9.211651E-1,-1.1567382E0,-4.9925575E-1,1.3858092E0,3.3622137E-1,-1.4148389E0,-9.181953E-1,-2.7743572E-1,1.2190192E0,-1.6058876E-1,-1.5248318E0,-1.3734732E0,-5.8776855E-1,-6.433578E-1,-1.279606E0,3.3336725E-2,-9.141635E-1,1.7620918E0,1.0426728E0,-6.5435365E-2,9.828689E-1,-1.4723526E-1,-8.624804E-1,-1.135423E0,-3.7357166E-1,-1.1228029E0,2.4996456E-2,1.3254389E0,-1.2919922E0,-1.5328516E-1,-1.0641537E0,-7.473021E-1,-1.4240704E0,-9.3017054E-1,-8.6042225E-2,-9.178409E-1,4.8546383E-1,4.6116795E-2,-1.2984713E0,-1.5234064E-1,2.2020596E-1,-1.1152265E0,-2.7549687E-1,-6.734696E-1,1.7934409E0,7.3286724E-1,1.3774128E0,5.1420516E-1,-3.5089505E-1,-9.4579995E-1,1.0511454E0,-9.992688E-3,-1.3373908E-1,-4.2636722E-1,-1.2974713E0,-1.24533944E-1,1.2179454E-1,-1.2529062E0,-3.4865317E-1,-3.2305825E-1,1.0168397E0,2.9686112E-2,1.4855196E0,-1.4941756E-1,-7.9345E-2,-1.313767E-1,-5.492891E-2,-1.2395986E-1,-2.202065E-2,-1.4842261E0,-1.0896361E0,2.3123759E-1,-1.1067648E0,-1.4622691E-1,5.2760925E-2,-2.3311149E-1,-1.0421549E0,-4.4840425E-3,1.0166855E0,-1.3422006E0,-5.814873E-1,-4.422038E-2,1.0313678E0,-1.2779377E0,-7.1802443E-1,-1.1321425E0,1.7558065E-1,-9.321297E-1,4.6266653E-3,1.6088828E0,1.9624826E0,-1.0461221E0,8.068026E-1,6.0814154E-1,1.5159897E0,2.2698253E-1,1.3595073E0,-1.5565287E0,9.576027E-2,-7.590771E-1,-1.2960123E-1,1.0963702E0,-1.3637589E-1,-8.69041E-2,2.9519869E-2,-1.353432E-1,-7.0273705E-2,-1.1313988E-1,1.0589653E0,-1.5579621E-1,-9.8830223E-1,-7.246057E-2,9.635353E-3,-4.394394E-1,1.0322967E0,9.483394E-3,1.3080276E0,-1.0474775E0,5.127756E-1,1.15753E0,1.8208957E0,-1.513101E0,-9.19142E-2,-1.4853635E-1,-6.3893425E-1,1.15421034E-1,-1.0331225E-1,-1.2484229E0,-5.132897E-1,-7.7191204E-2,1.3591258E-1,-9.788745E-2,3.36239E-1,-1.2401251E0,-6.593776E-1,2.5337756E-1,-6.324782E-2,1.5358566E-1,-1.7989402E-3,-1.4184623E0,-1.0621297E0,-1.3319563E0,1.5868899E-1,-9.946451E-1,1.00264065E-1,-5.016351E-3,1.4461952E0,-1.3343639E0,-4.3511834E-2,-1.1913886E0,-2.9098767E-1,-1.429364E-1,-4.711981E-2,-5.8461934E-1,7.6740885E-1,-2.5894491E-2,-1.1509966E-1,1.2536501E0,1.868105E0,2.0098186E-1,1.8117076E0,-1.1537066E0,-4.1569375E-2,6.9870985E-1,1.5660496E0,1.6989471E0,-7.9694265E-1,8.278234E-1,1.602096E0,9.1061026E-2,1.2029413E0,9.951168E-1,1.6849172E0,-1.5722818E0,-5.9183236E-2,-5.764838E-1,3.8630694E-1,-9.6695876E-1,-8.510135E-3,8.3552915E-1,1.3615154E0,4.3228786E-2,1.4336342E-1,-1.1770338E-1,-2.7587617E-2,4.074603E-2,-6.001957E-2,4.7879666E-2,1.421734E-1,5.6995638E-2,-6.451902E-2,1.5223949E-1,2.8993555E-3,-1.4395192E-1,-3.3222366E-2,1.517614E-1,1.8987412E-2,5.5223912E-2,1.3902675E-1,1.6220279E-1,2.0326416E-1,-1.5638031E-1,-1.12444915E-1,-1.1068139E-1,-6.123884E-3,-8.656681E-2,-1.3718373E-1,3.258833E-2,-8.97799E-2,-1.09319426E-1,2.3486612E-3,-4.1027788E-2,7.8519076E-2,-1.3175412E-1,-4.1807313E-2,-8.302238E-2,3.6912877E-2,6.611996E-2,-3.2194342E-2,-1.4363122E-1,-6.026296E-2,-5.9395995E-2,-1.1603736E-1,-6.9026046E-2,-1.5133062E-1,-5.9137978E-2,6.39318E-2,-1.2605828E-1,-5.002284E-2,2.75547E-2,-9.202658E-2,1.6830668E-1,7.377493E-2,-1.3829868E-1,-4.7198977E-2,-5.3707995E-2,-1.4121225E-1,-5.4888573E-2,4.251666E-2,-1.22193195E-1,1.9585151E-2,1.5101634E-1,3.310884E-2,9.770947E-2,1.5632105E-1,1.275781E-1,1.8938896E-1,1.6990755E-1,1.9700037E-1,-1.2390069E-1,-3.9438777E-2,5.408237E-2,1.2393117E-1,1.7027178E-1,1.14591375E-1,1.0108483E-1,1.78275E-1,-1.4541857E-1,1.0039138E-1,3.1886786E-2,1.8251717E-1,1.2910993E-1,1.7587216E-1,-1.4145021E-1,1.7996717E-2,1.3893816E-1,3.378431E-2,5.393358E-2,1.3505524E-1,1.8138956E-1,8.8117525E-2,-1.6078684E-1,-1.1895653E-1,-4.1131735E-2,-1.2012123E-1,-4.9302123E-2,5.4500163E-2,-1.3029802E-1,-4.691163E-2,4.772426E-2,1.13681905E-1,1.2887616E-1,1.8035078E-1],"categories":[],"categories_nodes":[],"categories_segments":[],"categories_sizes":[],"default_left":[0,0,0,0,0,0,0,0,0,0,0,0,0,0,0,0,0,0,0,0,0,0,0,0,0,0,0,0,0,0,0,0,0,0,0,0,0,0,0,0,0,0,0,0,0,0,0,0,0,0,0,0,0,0,0,0,0,0,0,0,0,0,0,0,0,0,0,0,0,0,0,0,0,0,0,0,0,0,0,0,0,0,0,0,0,0,0,0,0,0,0,0,0,0,0,0,0,0,0,0,0,0,0,0,0,0,0,0,0,0,0,0,0,0,0,0,0,0,0,0,0,0,0,0,0,0,0,0,0,0,0,0,0,0,0,0,0,0,0,0,0,0,0,0,0,0,0,0,0,0,0,0,0,0,0,0,0,0,0,0,0,0,0,0,0,0,0,0,0,0,0,0,0,0,0,0,0,0,0,0,0,0,0,0,0,0,0,0,0,0,0,0,0,0,0,0,0,0,0,0,0,0,0,0,0,0,0,0,0,0,0,0,0,0,0,0,0,0,0,0,0,0,0,0,0,0,0,0,0,0,0,0,0,0,0,0,0,0,0,0,0,0,0,0,0,0,0,0,0,0,0,0,0,0,0,0,0,0,0,0,0,0,0,0,0,0,0,0,0,0,0,0,0,0,0,0,0,0,0,0,0,0,0,0,0,0,0,0,0,0,0,0,0],"id":1,"left_children":[1,3,5,7,9,11,13,15,17,19,21,23,25,27,29,31,33,35,37,-1,39,41,43,45,47,49,51,53,55,57,59,-1,61,63,65,67,69,71,73,-1,75,77,79,81,83,85,87,-1,89,-1,91,93,95,97,99,101,103,105,107,109,111,-1,-1,113,115,-1,117,119,121,123,125,127,129,-1,-1,-1,-1,-1,-1,131,133,135,137,-1,139,141,143,145,147,149,151,153,155,157,159,161,163,165,-1,167,169,171,173,175,177,179,181,183,185,187,-1,189,-1,-1,-1,-1,-1,-1,191,-1,193,-1,-1,195,197,199,201,203,205,207,209,211,-1,-1,213,-1,-1,215,217,219,-1,-1,221,223,225,227,-1,-1,-1,229,231,233,235,237,239,-1,241,243,-1,245,247,-1,-1,249,251,-1,-1,253,255,-1,257,259,-1,261,263,265,267,269,271,273,275,277,279,281,-1,283,285,287,-1,289,291,-1,-1,-1,-1,-1,-1,-1,-1,-1,-1,-1,-1,-1,-1,-1,-1,-1,-1,-1,-1,-1,-1,-1,-1,-1,-1,-1,-1,-1,-1,-1,-1,-1,-1,-1,-1,-1,-1,-1,-1,-1,-1,-1,-1,-1,-1,-1,-1,-1,-1,-1,-1,-1,-1,-1,-1,-1,-1,-1,-1,-1,-1,-1,-1,-1,-1,-1,-1,-1,-1,-1,-1,-1,-1,-1,-1,-1,-1,-1,-1,-1,-1,-1,-1,-1,-1,-1,-1,-1,-1,-1,-1,-1,-1,-1,-1,-1,-1,-1,-1,-1,-1],"loss_changes":[1.2478659E4,2.5040498E3,4.4198423E3,6.3634143E2,1.3615039E2,1.0562439E2,1.814272E3,1.2817322E1,3.765824E2,6.9433594E-1,4.909613E1,5.8506836E1,7.388033E1,6.294697E2,6.456352E2,2.9106445E0,1.1768379E1,6.6524826E1,1.2931073E2,0E0,4.9694824E-1,3.3609924E0,3.2947792E1,5.7348267E1,2.5489624E1,4.318873E1,2.3819946E1,1.7915918E2,2.6445386E2,2.540265E2,1.26408325E2,0E0,5.2348537E0,7.8555984E0,1.3485073E1,6.4677887E0,6.679596E1,9.507684E1,8.223839E-1,0E0,9.653921E-1,2.982736E0,9.604492E-1,2.3671738E1,1.5184477E1,1.2361397E1,9.524131E0,0E0,2.273645E1,0E0,2.8443361E1,8.296783E0,1.8095793E1,5.6922655E0,6.863867E1,1.7598389E2,1.3012085E2,1.2269672E2,5.540068E2,1.1800213E0,1.02005005E2,0E0,0E0,5.0808334E0,1.015152E0,0E0,2.539073E1,3.1665192E0,1.951783E0,2.305485E1,1.4729023E1,2.7307367E1,4.278705E1,0E0,0E0,0E0,0E0,0E0,0E0,3.3610535E-1,3.205677E0,1.974211E1,7.7051544E0,0E0,1.2464697E1,1.0536799E1,8.657166E0,3.4026246E0,9.456654E0,1.357666E1,2.514236E1,1.3942494E1,1.4693821E1,4.168396E0,8.489866E0,2.4912624E0,1.4488282E1,2.9978333E0,0E0,9.947632E1,4.898926E0,3.1535645E0,1.0387128E2,2.9150027E2,6.0355713E1,5.021196E1,1.3535202E1,3.2955933E0,1.4698936E2,3.2797165E0,0E0,6.137976E1,0E0,0E0,0E0,0E0,0E0,0E0,2.268732E0,0E0,4.2410583E0,0E0,0E0,1.8304726E1,1.8259678E0,4.8723702E0,1.0643173E1,4.0804195E0,1.1453482E1,2.8686798E1,5.127014E0,1.9519043E-1,0E0,0E0,3.350257E0,0E0,0E0,2.5652542E0,7.013112E0,6.8958554E0,0E0,0E0,5.140624E0,4.621582E0,8.171186E0,3.7107668E0,0E0,0E0,0E0,7.17395E0,6.445389E0,1.5612717E0,8.846145E0,1.1305037E0,1.6068773E1,0E0,2.7167168E0,3.2513885E0,0E0,2.1892586E0,4.722345E0,0E0,0E0,7.3160496E0,5.326377E0,0E0,0E0,3.866742E1,7.3154297E0,0E0,1.9312134E0,2.4386368E0,0E0,9.504523E1,7.1548767E0,4.3618164E0,1.0019073E2,5.923033E1,4.274292E1,4.496892E1,6.996834E0,9.47147E0,5.277359E0,1.8057861E0,0E0,2.294548E1,7.356604E1,2.4405174E0,0E0,4.89256E1,1.2039551E1,0E0,0E0,0E0,0E0,0E0,0E0,0E0,0E0,0E0,0E0,0E0,0E0,0E0,0E0,0E0,0E0,0E0,0E0,0E0,0E0,0E0,0E0,0E0,0E0,0E0,0E0,0E0,0E0,0E0,0E0,0E0,0E0,0E0,0E0,0E0,0E0,0E0,0E0,0E0,0E0,0E0,0E0,0E0,0E0,0E0,0E0,0E0,0E0,0E0,0E0,0E0,0E0,0E0,0E0,0E0,0E0,0E0,0E0,0E0,0E0,0E0,0E0,0E0,0E0,0E0,0E0,0E0,0E0,0E0,0E0,0E0,0E0,0E0,0E0,0E0,0E0,0E0,0E0,0E0,0E0,0E0,0E0,0E0,0E0,0E0,0E0,0E0,0E0,0E0,0E0,0E0,0E0,0E0,0E0,0E0,0E0,0E0,0E0,0E0,0E0,0E0,0E0],"parents":[2147483647,0,0,1,1,2,2,3,3,4,4,5,5,6,6,7,7,8,8,9,9,10,10,11,11,12,12,13,13,14,14,15,15,16,16,17,17,18,18,20,20,21,21,22,22,23,23,24,24,25,25,26,26,27,27,28,28,29,29,30,30,32,32,33,33,34,34,35,35,36,36,37,37,38,38,40,40,41,41,42,42,43,43,44,44,45,45,46,46,48,48,50,50,51,51,52,52,53,53,54,54,55,55,56,56,57,57,58,58,59,59,60,60,63,63,64,64,66,66,67,67,68,68,69,69,70,70,71,71,72,72,79,79,80,80,81,81,82,82,84,84,85,85,86,86,87,87,88,88,89,89,90,90,91,91,92,92,93,93,94,94,95,95,96,96,97,97,99,99,100,100,101,101,102,102,103,103,104,104,105,105,106,106,107,107,108,108,109,109,111,111,118,118,120,120,123,123,124,124,125,125,126,126,127,127,128,128,129,129,130,130,131,131,134,134,137,137,138,138,139,139,142,142,143,143,144,144,145,145,149,149,150,150,151,151,152,152,153,153,154,154,156,156,157,157,159,159,160,160,163,163,164,164,167,167,168,168,170,170,171,171,173,173,174,174,175,175,176,176,177,177,178,178,179,179,180,180,181,181,182,182,183,183,185,185,186,186,187,187,189,189,190,190],"right_children":[2,4,6,8,10,12,14,16,18,20,22,24,26,28,30,32,34,36,38,-1,40,42,44,46,48,50,52,54,56,58,60,-1,62,64,66,68,70,72,74,-1,76,78,80,82,84,86,88,-1,90,-1,92,94,96,98,100,102,104,106,108,110,112,-1,-1,114,116,-1,118,120,122,124,126,128,130,-1,-1,-1,-1,-1,-1,132,134,136,138,-1,140,142,144,146,148,150,152,154,156,158,160,162,164,166,-1,168,170,172,174,176,178,180,182,184,186,188,-1,190,-1,-1,-1,-1,-1,-1,192,-1,194,-1,-1,196,198,200,202,204,206,208,210,212,-1,-1,214,-1,-1,216,218,220,-1,-1,222,224,226,228,-1,-1,-1,230,232,234,236,238,240,-1,242,244,-1,246,248,-1,-1,250,252,-1,-1,254,256,-1,258,260,-1,262,264,266,268,270,272,274,276,278,280,282,-1,284,286,288,-1,290,292,-1,-1,-1,-1,-1,-1,-1,-1,-1,-1,-1,-1,-1,-1,-1,-1,-1,-1,-1,-1,-1,-1,-1,-1,-1,-1,-1,-1,-1,-1,-1,-1,-1,-1,-1,-1,-1,-1,-1,-1,-1,-1,-1,-1,-1,-1,-1,-1,-1,-1,-1,-1,-1,-1,-1,-1,-1,-1,-1,-1,-1,-1,-1,-1,-1,-1,-1,-1,-1,-1,-1,-1,-1,-1,-1,-1,-1,-1,-1,-1,-1,-1,-1,-1,-1,-1,-1,-1,-1,-1,-1,-1,-1,-1,-1,-1,-1,-1,-1,-1,-1,-1],"split_conditions":[3.9270833E0,2E0,2E0,2E0,3.1215277E0,1.4034722E1,2E0,1.0152777E0,3.832E3,1.9118055E0,2E0,3E0,3.5E1,1.8E2,1.5079166E1,3.2684138E-1,1.6E1,8.784722E-1,4E0,-1.6058876E-1,4.5347E-1,3E0,3.7666667E0,1.7E1,1E0,3E1,3.0737713E-1,1E0,1.7E1,2E0,1E0,-1.4723526E-1,7E0,3E0,6E1,1.8E1,1.7E1,1.2E1,8.048611E-1,-1.5328516E-1,4.275E3,3.7666667E0,6E0,1.2E2,1.602E3,4.2069445E0,4E0,4.6116795E-2,2E0,-1.5234064E-1,1.7E1,1.6E1,1.2E1,3.08E2,1.7E1,1E0,3E0,1.7E1,3E0,9E0,4E0,-9.992688E-3,-1.3373908E-1,3.2E1,4.2E1,-1.24533944E-1,3.925E3,2.035E3,2.44E3,2E0,2.008E3,1E0,1.7E1,-1.4941756E-1,-7.9345E-2,-1.313767E-1,-5.492891E-2,-1.2395986E-1,-2.202065E-2,4.773504E-1,1.5E1,2E0,3.0263394E-1,-1.4622691E-1,1.7E1,1.25E2,3.5E1,8.197917E0,3.049822E-1,1.7E1,3E0,3E0,1.2E1,7.399167E1,2.1E1,3.4E1,4.388E3,6.868E3,4.6266653E-3,2.1179167E1,9E1,3.3E1,2E0,2E0,2E0,2E0,2.5E1,5.9560925E-1,2E0,7E0,-1.2960123E-1,3.6797916E1,-1.3637589E-1,-8.69041E-2,2.9519869E-2,-1.353432E-1,-7.0273705E-2,-1.1313988E-1,5E0,-1.5579621E-1,1.6E1,-7.246057E-2,9.635353E-3,1.229194E-1,2.015E3,2.1715279E0,1.42E3,4.74E3,9E1,4.197E3,4.63E3,3.2008767E-1,-9.19142E-2,-1.4853635E-1,8.61E2,1.15421034E-1,-1.0331225E-1,7.98E2,1.2E1,2.577E3,1.3591258E-1,-9.788745E-2,4.577E3,3.9971706E-1,3.566516E-1,1E0,-6.324782E-2,1.5358566E-1,-1.7989402E-3,3.8718528E-1,6.03E2,6E0,5.036111E0,1.3176925E-1,3.8188836E-1,-5.016351E-3,5E0,3.9092505E-1,-4.3511834E-2,7E0,1.4315887E-1,-1.429364E-1,-4.711981E-2,1.7E2,7.957E3,-2.5894491E-2,-1.1509966E-1,4.652E3,4.017E3,2.0098186E-1,4.853E3,3.5776895E-1,-4.1569375E-2,4.1377083E1,2.9469362E-1,8E0,1.2984028E1,1.4913889E1,3.843E3,1E0,3.0353478E-1,1.8E1,3.4129688E-1,1.1395139E1,-5.9183236E-2,4E0,1.2E1,3E0,-8.510135E-3,1.5E1,1.8E1,4.3228786E-2,1.4336342E-1,-1.1770338E-1,-2.7587617E-2,4.074603E-2,-6.001957E-2,4.7879666E-2,1.421734E-1,5.6995638E-2,-6.451902E-2,1.5223949E-1,2.8993555E-3,-1.4395192E-1,-3.3222366E-2,1.517614E-1,1.8987412E-2,5.5223912E-2,1.3902675E-1,1.6220279E-1,2.0326416E-1,-1.5638031E-1,-1.12444915E-1,-1.1068139E-1,-6.123884E-3,-8.656681E-2,-1.3718373E-1,3.258833E-2,-8.97799E-2,-1.09319426E-1,2.3486612E-3,-4.1027788E-2,7.8519076E-2,-1.3175412E-1,-4.1807313E-2,-8.302238E-2,3.6912877E-2,6.611996E-2,-3.2194342E-2,-1.4363122E-1,-6.026296E-2,-5.9395995E-2,-1.1603736E-1,-6.9026046E-2,-1.5133062E-1,-5.9137978E-2,6.39318E-2,-1.2605828E-1,-5.002284E-2,2.75547E-2,-9.202658E-2,1.6830668E-1,7.377493E-2,-1.3829868E-1,-4.7198977E-2,-5.3707995E-2,-1.4121225E-1,-5.4888573E-2,4.251666E-2,-1.22193195E-1,1.9585151E-2,1.5101634E-1,3.310884E-2,9.770947E-2,1.5632105E-1,1.275781E-1,1.8938896E-1,1.6990755E-1,1.9700037E-1,-1.2390069E-1,-3.9438777E-2,5.408237E-2,1.2393117E-1,1.7027178E-1,1.14591375E-1,1.0108483E-1,1.78275E-1,-1.4541857E-1,1.0039138E-1,3.1886786E-2,1.8251717E-1,1.2910993E-1,1.7587216E-1,-1.4145021E-1,1.7996717E-2,1.3893816E-1,3.378431E-2,5.393358E-2,1.3505524E-1,1.8138956E-1,8.8117525E-2,-1.6078684E-1,-1.1895653E-1,-4.1131735E-2,-1.2012123E-1,-4.9302123E-2,5.4500163E-2,-1.3029802E-1,-4.691163E-2,4.772426E-2,1.13681905E-1,1.2887616E-1,1.8035078E-1],"split_indices":[31,20,2,2,31,31,21,31,1,31,2,14,22,22,31,57,9,31,2,0,40,0,31,9,15,3,56,9,9,20,9,0,6,14,3,9,9,9,31,0,1,31,28,3,1,31,0,0,10,0,9,9,9,17,9,9,20,9,20,6,2,0,0,13,0,0,1,1,1,10,11,9,9,0,0,0,0,0,0,60,29,21,56,0,9,17,3,31,43,9,20,20,13,31,13,13,1,18,0,31,22,0,10,20,15,10,13,44,15,6,0,31,0,0,0,0,0,0,6,0,9,0,0,32,7,31,16,1,22,1,1,40,0,0,16,0,0,16,9,18,0,0,1,45,45,2,0,0,0,56,16,0,31,32,48,0,28,47,0,13,32,0,0,17,18,0,0,1,1,0,1,40,0,31,55,13,31,31,1,9,55,9,33,31,0,2,9,2,0,9,9,0,0,0,0,0,0,0,0,0,0,0,0,0,0,0,0,0,0,0,0,0,0,0,0,0,0,0,0,0,0,0,0,0,0,0,0,0,0,0,0,0,0,0,0,0,0,0,0,0,0,0,0,0,0,0,0,0,0,0,0,0,0,0,0,0,0,0,0,0,0,0,0,0,0,0,0,0,0,0,0,0,0,0,0,0,0,0,0,0,0,0,0,0,0,0,0,0,0,0,0,0,0],"split_type":[0,0,0,0,0,0,0,0,0,0,0,0,0,0,0,0,0,0,0,0,0,0,0,0,0,0,0,0,0,0,0,0,0,0,0,0,0,0,0,0,0,0,0,0,0,0,0,0,0,0,0,0,0,0,0,0,0,0,0,0,0,0,0,0,0,0,0,0,0,0,0,0,0,0,0,0,0,0,0,0,0,0,0,0,0,0,0,0,0,0,0,0,0,0,0,0,0,0,0,0,0,0,0,0,0,0,0,0,0,0,0,0,0,0,0,0,0,0,0,0,0,0,0,0,0,0,0,0,0,0,0,0,0,0,0,0,0,0,0,0,0,0,0,0,0,0,0,0,0,0,0,0,0,0,0,0,0,0,0,0,0,0,0,0,0,0,0,0,0,0,0,0,0,0,0,0,0,0,0,0,0,0,0,0,0,0,0,0,0,0,0,0,0,0,0,0,0,0,0,0,0,0,0,0,0,0,0,0,0,0,0,0,0,0,0,0,0,0,0,0,0,0,0,0,0,0,0,0,0,0,0,0,0,0,0,0,0,0,0,0,0,0,0,0,0,0,0,0,0,0,0,0,0,0,0,0,0,0,0,0,0,0,0,0,0,0,0,0,0,0,0,0,0,0,0,0,0,0,0,0,0,0,0,0,0,0,0,0,0,0,0,0,0],"sum_hessian":[1.3919619E4,5.2738438E3,8.645775E3,9.682457E2,4.305598E3,1.2727821E3,7.372993E3,2.326532E2,7.355925E2,3.9756692E3,3.2992902E2,9.3958466E2,3.3319748E2,4.8884507E3,2.4845427E3,1.3059497E2,1.02058235E2,2.5909204E2,4.7650052E2,3.4006357E3,5.750334E2,1.3867441E2,1.9125462E2,1.8265034E2,7.569343E2,1.4630898E2,1.8688852E2,2.3296394E3,2.5588113E3,1.533147E3,9.5139557E2,1.167708E2,1.3824173E1,7.2182755E1,2.987548E1,6.755309E1,1.9153893E2,4.5757986E2,1.8920645E1,5.629065E2,1.2126898E1,1.1546679E1,1.2712772E2,1.1316886E2,7.808576E1,1.470747E2,3.557563E1,7.8637977E0,7.490705E2,1.491393E1,1.3139505E2,1.4157283E2,4.531569E1,2.9344458E1,2.300295E3,1.3305566E3,1.2282548E3,5.0563266E2,1.0275144E3,3.208925E1,9.1930634E2,5.769931E0,8.054242E0,1.4103372E1,5.807938E1,1.02764845E1,1.9598997E1,5.730415E1,1.0248948E1,1.4228351E2,4.925542E1,5.044499E1,4.071349E2,1.204053E1,6.8801155E0,7.1222577E0,5.00464E0,5.271476E0,6.275203E0,1.0483304E2,2.2294685E1,1.4895588E1,9.827327E1,6.280459E0,7.18053E1,2.3040628E1,1.2403408E2,1.9022585E1,1.6553047E1,7.051886E2,4.3881947E1,9.980547E1,3.1589573E1,9.885867E1,4.271415E1,1.5110096E1,3.0205591E1,2.1369535E1,7.9749207E0,1.1047047E3,1.1955902E3,5.2567142E1,1.2779895E3,1.8830731E2,1.0399474E3,3.7834464E2,1.2728803E2,2.7709128E2,7.504231E2,2.2995956E1,9.09329E0,9.029426E2,1.6363716E1,8.614237E0,5.489135E0,5.191849E1,6.1608906E0,8.296967E0,1.130203E1,2.4347073E1,3.2957073E1,5.214938E0,5.03401E0,1.3165443E2,1.0629081E1,1.127667E1,3.7978752E1,1.5257176E1,3.5187813E1,2.0808456E2,1.9905032E2,9.8140564E1,6.692474E0,1.0648961E1,1.1645724E1,8.660564E0,6.235024E0,7.8445366E1,1.9827904E1,6.616443E1,5.6408706E0,9.663552E0,1.3377075E1,8.027601E1,4.3758076E1,1.3908233E1,5.1143513E0,1.06998005E1,5.8532476E0,5.510706E2,1.5411797E2,2.1392479E1,2.248947E1,1.2393885E1,8.741159E1,9.001107E0,2.2588465E1,9.2108826E1,6.749851E0,1.940931E1,2.330484E1,9.621001E0,5.4890947E0,1.3227335E1,1.6978256E1,5.7786956E0,1.5590841E1,4.685079E2,6.361968E2,9.005355E2,2.9505472E2,4.4195084E1,8.372059E0,1.1204003E3,1.5758923E2,1.0589161E2,8.241571E1,1.16832184E2,9.2311523E2,3.3305365E2,4.5290985E1,6.196185E1,6.532618E1,2.720195E2,5.071793E0,2.2616232E2,5.2426074E2,1.724285E1,5.7531075E0,4.5725836E2,4.4568427E2,5.034697E0,6.267332E0,2.553923E1,7.417844E0,2.075865E1,1.1089578E2,5.3106327E0,5.318448E0,6.1451473E0,5.1315227E0,3.2364212E1,5.6145406E0,9.201238E0,6.0559387E0,7.657739E0,2.7530073E1,5.8726013E1,1.4935855E2,1.0711254E2,9.193778E1,8.414027E1,1.40002985E1,5.9283767E0,5.717347E0,2.108064E1,5.7364727E1,6.278295E0,1.3549608E1,5.0764494E0,6.108798E1,5.0560384E0,8.321036E0,7.281588E1,7.460123E0,3.7690117E1,6.067957E0,8.051544E0,5.856689E0,5.385274E2,1.2543186E1,2.795366E1,1.26164314E2,5.772625E0,1.5619855E1,8.692906E0,1.3796563E1,7.051419E0,5.342466E0,7.522174E1,1.218985E1,1.5897396E1,6.691069E0,8.6621216E1,5.4876056E0,5.7621284E0,1.3647181E1,1.7306185E1,5.9986553E0,6.9700975E0,6.2572374E0,5.3721085E0,1.1606149E1,2.4964035E2,2.1886755E2,2.8644768E1,6.07552E2,1.7924821E2,1.1580651E2,3.9163773E1,5.031312E0,8.686933E2,2.5170692E2,1.166053E2,4.098393E1,1.2914438E1,9.2977165E1,6.0520554E1,2.1895157E1,7.82303E1,3.8601887E1,3.122845E2,6.1083075E2,1.7739395E1,3.1531424E2,3.6762203E1,8.528781E0,2.8251667E1,3.3710182E1,5.5209732E1,1.011645E1,2.4594896E2,2.6070538E1,1.8018358E2,4.5978745E1,7.982778E1,4.4443298E2,9.328962E0,7.913887E0,2.1005273E2,2.4720563E2,3.86054E2,5.96303E1],"tree_param":{"num_deleted":"0","num_feature":"98","num_nodes":"293","size_leaf_vector":"1"}},{"base_weights":[-5.5146194E-3,-1.2401932E0,3.605423E-1,-8.229344E-1,-1.3124176E0,1.1405576E0,-4.4261762E-1,-1.1427673E0,-1.6169132E-1,-3.8603777E-3,-1.3239342E0,1.5526087E0,7.7567345E-1,6.091126E-1,-8.8390267E-1,-1.2416749E0,-7.357549E-1,-3.571883E-1,1.344029E0,-9.1114275E-2,5.769766E-1,-1.5275529E-1,-1.2692971E0,-3.2795358E-1,1.5798223E0,-9.458303E-1,8.121274E-1,3.235747E-1,1.080393E0,-6.2729263E-1,-1.4923358E0,-1.2704839E0,-3.6402997E-2,-4.3055737E-1,-1.2479943E-1,-9.5498584E-2,-8.8734853E-1,1.7116961E-1,6.957015E-2,-8.122048E-3,1.459385E-1,-5.5013746E-1,-1.3128438E0,4.8619387E-1,-1.072445E0,1.6742923E0,1.2645055E0,-4.0283838E-1,-1.1619154E0,6.805513E-1,1.180166E0,-1.0739598E0,4.212237E-1,-1.22228555E-1,1.1293892E0,-1.2719898E0,-5.0109476E-1,-5.405504E-1,-1.520381E0,-1.298039E0,-6.1734885E-1,-6.272192E-1,7.313209E-2,-3.189918E-1,6.0046995E-1,-1.0260005E0,-1.0212437E-3,-9.299682E-1,5.418729E-1,-1.3645388E0,-1.13828E0,9.277156E-1,-3.999286E-2,-1.4591864E-2,-1.404128E-1,1.5266563E0,1.7674031E0,8.87782E-1,1.5259861E0,-8.406118E-2,-1.1178039E-3,-1.3172344E0,-7.483549E-1,8.275001E-1,4.4142097E-1,1.5690958E-1,1.292719E0,-1.2065877E0,3.1201914E-2,8.290072E-3,7.902025E-1,1.1619858E0,-1.1753644E-1,-1.0583339E0,-1.454628E0,-4.4336575E-1,-1.2056167E0,-2.30228E-2,-1.3423042E-1,-1.5230887E-1,-9.09715E-2,-1.1852243E0,-1.4528693E0,-2.855258E-2,-8.562053E-2,-8.419621E-1,2.0569863E-2,7.161302E-2,-4.9723473E-1,1.4507404E-1,-5.1418573E-2,-1.1310284E0,-3.732952E-2,-1.0458931E0,2.146982E-2,8.8660705E-1,-7.294835E-2,-1.4169108E0,-1.2389815E0,-3.7794182E-1,-1.2141697E0,1.5355386E-1,3.740412E-3,1.6336343E0,1.0837237E0,1.800787E0,1.6071609E0,6.085788E-1,1.192603E0,1.3884686E0,1.7387488E0,-1.4217122E-1,-8.0353886E-2,-4.765236E-3,-1.2560691E-1,4.9414626E-1,1.0810868E0,-1.4994909E-1,5.506055E-1,-5.108455E-1,5.740383E-1,1.0444586E0,1.4816531E0,-1.2640694E0,-5.1599097E-2,-1.2359969E-1,9.6762335E-1,6.8852174E-1,1.5127016E0,9.530443E-1,1.4839163E0,-1.1006563E0,-2.110414E-2,-1.4714193E0,-7.6195024E-2,-2.9451463E-1,-6.6714674E-1,-8.904737E-1,-1.284617E0,-1.1554722E-1,4.3487424E-1,-1.2133129E-1,-4.0594656E-2,-1.501992E-1,-8.87862E-2,-1.0743757E-1,-1.1845107E-2,-7.4530594E-2,3.312318E-2,-5.4612696E-2,-1.24830104E-1,-1.1458325E-1,1.0313729E-2,1.3667421E-1,4.4028517E-3,-1.4331327E-1,-1.13937914E-1,-8.9151636E-2,-1.2855026E-1,-1.0636689E-1,1.6801137E-2,-7.258015E-2,-1.2669149E-1,1.7758635E-1,1.507752E-1,1.3467655E-1,4.7911756E-2,1.8067567E-1,1.0897654E-1,6.558236E-2,1.6389924E-1,5.123939E-2,1.5092376E-1,3.8061615E-2,1.296826E-1,1.4835778E-1,1.1139061E-1,1.7730182E-1,1.2082664E-1,1.6551688E-2,8.1172876E-2,7.764344E-2,1.1874931E-1,-6.455799E-2,5.016429E-2,3.8056318E-2,8.827994E-2,-1.0378633E-1,7.79578E-2,1.22560814E-1,2.6711196E-2,1.09825686E-1,-7.08082E-2,1.0742892E-1,1.558204E-1,-6.045242E-2,-1.3300064E-1,1.3192697E-2,-4.9120076E-2,1.1934935E-1,4.5999985E-2,4.923604E-2,1.0730008E-1,1.6185974E-1,6.7581624E-2,1.1579325E-1,5.1368374E-2,1.2794752E-1,1.6419885E-1,-1.15133636E-1,-5.54322E-2,-1.4819181E-1,-8.691066E-2,-6.471009E-2,3.70118E-3,-4.398611E-2,-1.02087416E-1,-1.4508881E-2,-1.0486207E-1,-1.339203E-1,-8.709787E-2,-2.5313387E-2,9.1830276E-2],"categories":[],"categories_nodes":[],"categories_segments":[],"categories_sizes":[],"default_left":[0,0,0,0,0,0,0,0,0,0,0,0,0,0,0,0,0,0,0,0,0,0,0,0,0,0,0,0,0,0,0,0,0,0,0,0,0,0,0,0,0,0,0,0,0,0,0,0,0,0,0,0,0,0,0,0,0,0,0,0,0,0,0,0,0,0,0,0,0,0,0,0,0,0,0,0,0,0,0,0,0,0,0,0,0,0,0,0,0,0,0,0,0,0,0,0,0,0,0,0,0,0,0,0,0,0,0,0,0,0,0,0,0,0,0,0,0,0,0,0,0,0,0,0,0,0,0,0,0,0,0,0,0,0,0,0,0,0,0,0,0,0,0,0,0,0,0,0,0,0,0,0,0,0,0,0,0,0,0,0,0,0,0,0,0,0,0,0,0,0,0,0,0,0,0,0,0,0,0,0,0,0,0,0,0,0,0,0,0,0,0,0,0,0,0,0,0,0,0,0,0,0,0,0,0,0,0,0,0,0,0,0,0,0,0,0,0,0,0,0,0,0,0,0,0,0,0,0,0,0,0,0,0,0,0,0,0,0,0,0,0,0,0],"id":2,"left_children":[1,3,5,7,9,11,13,15,17,19,21,23,25,27,29,31,33,35,37,-1,39,-1,41,43,45,47,49,51,53,55,57,59,-1,61,-1,63,65,-1,-1,-1,-1,67,69,71,73,75,77,79,81,83,85,87,89,-1,91,93,95,97,99,101,103,105,-1,107,109,111,-1,113,115,117,119,121,-1,-1,-1,123,125,127,129,-1,-1,131,133,135,137,139,141,143,-1,145,147,149,-1,151,153,155,157,159,-1,-1,-1,161,163,-1,-1,165,-1,-1,167,-1,-1,169,-1,171,-1,173,-1,175,177,179,181,-1,-1,183,185,187,189,191,193,195,197,-1,-1,-1,-1,199,201,203,205,207,209,211,213,215,-1,217,219,221,223,225,227,229,-1,231,-1,233,235,237,239,-1,241,-1,-1,-1,-1,-1,-1,-1,-1,-1,-1,-1,-1,-1,-1,-1,-1,-1,-1,-1,-1,-1,-1,-1,-1,-1,-1,-1,-1,-1,-1,-1,-1,-1,-1,-1,-1,-1,-1,-1,-1,-1,-1,-1,-1,-1,-1,-1,-1,-1,-1,-1,-1,-1,-1,-1,-1,-1,-1,-1,-1,-1,-1,-1,-1,-1,-1,-1,-1,-1,-1,-1,-1,-1,-1,-1,-1,-1,-1,-1,-1,-1,-1],"loss_changes":[6.2012876E3,9.347803E1,6.6305938E3,9.829471E1,4.027832E1,8.060596E2,2.420853E3,1.1714294E1,4.5508434E1,1.3343454E1,2.7539062E1,1.295166E2,1.7959521E2,2.0714807E2,5.726824E2,5.8813477E0,9.433605E0,1.8808521E1,3.049385E0,0E0,9.086959E0,0E0,6.488818E1,2.2817015E1,7.190088E1,6.5193596E0,1.3435242E2,1.3168243E2,6.696771E1,2.0974487E2,2.8250732E1,3.5634766E0,0E0,9.939869E0,0E0,1.4547648E1,5.448166E0,0E0,0E0,0E0,0E0,5.0832287E1,1.6266602E1,7.514329E0,5.7956333E0,2.3542969E1,5.547589E1,3.1597335E0,1.7164993E0,7.196515E1,8.429413E1,1.1972565E1,1.3704991E2,0E0,4.4168518E1,1.495343E1,8.7485596E1,1.3547909E1,3.630371E-1,2.3269653E0,6.84813E-1,6.6168003E0,0E0,1.3366266E1,2.2337097E1,2.2340088E0,0E0,1.2219276E1,1.4647561E1,8.22998E0,2.592273E1,6.700121E0,0E0,0E0,0E0,3.3560547E1,3.3347168E0,1.9594818E1,7.5092163E0,0E0,0E0,4.2837906E-1,4.8500943E0,1.07142334E2,5.0806976E1,2.0860916E1,2.9448608E1,1.6414413E0,0E0,5.3955807E1,3.3856934E1,3.6408447E1,0E0,6.8843536E0,1.498169E0,6.6485504E1,2.922226E0,1.1342898E1,0E0,0E0,0E0,2.5614777E0,1.2553711E0,0E0,0E0,4.721861E0,0E0,0E0,1.2731364E1,0E0,0E0,1.573883E0,0E0,9.563278E0,0E0,1.0289051E1,0E0,3.159912E0,6.2074585E0,1.6256035E1,9.777222E0,0E0,0E0,8.039917E0,2.289589E1,2.0854492E0,5.2856445E0,1.0199326E1,9.0781555E0,3.856659E0,2.0626831E-1,0E0,0E0,0E0,0E0,5.7493927E1,2.250232E1,4.0118885E1,3.7135727E1,2.0477158E1,8.856017E0,2.802246E1,9.953308E0,1.4856644E0,0E0,3.5284946E1,5.3604507E0,3.1017517E1,4.0259705E0,3.0352295E1,4.993042E0,4.5888214E0,0E0,9.561157E-2,0E0,1.4076013E2,6.377771E1,4.0909367E0,1.7310638E0,0E0,5.425325E0,0E0,0E0,0E0,0E0,0E0,0E0,0E0,0E0,0E0,0E0,0E0,0E0,0E0,0E0,0E0,0E0,0E0,0E0,0E0,0E0,0E0,0E0,0E0,0E0,0E0,0E0,0E0,0E0,0E0,0E0,0E0,0E0,0E0,0E0,0E0,0E0,0E0,0E0,0E0,0E0,0E0,0E0,0E0,0E0,0E0,0E0,0E0,0E0,0E0,0E0,0E0,0E0,0E0,0E0,0E0,0E0,0E0,0E0,0E0,0E0,0E0,0E0,0E0,0E0,0E0,0E0,0E0,0E0,0E0,0E0,0E0,0E0,0E0,0E0,0E0,0E0,0E0,0E0,0E0,0E0,0E0,0E0],"parents":[2147483647,0,0,1,1,2,2,3,3,4,4,5,5,6,6,7,7,8,8,9,9,10,10,11,11,12,12,13,13,14,14,15,15,16,16,17,17,18,18,20,20,22,22,23,23,24,24,25,25,26,26,27,27,28,28,29,29,30,30,31,31,33,33,35,35,36,36,41,41,42,42,43,43,44,44,45,45,46,46,47,47,48,48,49,49,50,50,51,51,52,52,54,54,55,55,56,56,57,57,58,58,59,59,60,60,61,61,63,63,64,64,65,65,67,67,68,68,69,69,70,70,71,71,75,75,76,76,77,77,78,78,81,81,82,82,83,83,84,84,85,85,86,86,87,87,89,89,90,90,91,91,93,93,94,94,95,95,96,96,97,97,101,101,102,102,105,105,108,108,111,111,113,113,115,115,117,117,118,118,119,119,120,120,123,123,124,124,125,125,126,126,127,127,128,128,129,129,130,130,135,135,136,136,137,137,138,138,139,139,140,140,141,141,142,142,143,143,145,145,146,146,147,147,148,148,149,149,150,150,151,151,153,153,155,155,156,156,157,157,158,158,160,160],"right_children":[2,4,6,8,10,12,14,16,18,20,22,24,26,28,30,32,34,36,38,-1,40,-1,42,44,46,48,50,52,54,56,58,60,-1,62,-1,64,66,-1,-1,-1,-1,68,70,72,74,76,78,80,82,84,86,88,90,-1,92,94,96,98,100,102,104,106,-1,108,110,112,-1,114,116,118,120,122,-1,-1,-1,124,126,128,130,-1,-1,132,134,136,138,140,142,144,-1,146,148,150,-1,152,154,156,158,160,-1,-1,-1,162,164,-1,-1,166,-1,-1,168,-1,-1,170,-1,172,-1,174,-1,176,178,180,182,-1,-1,184,186,188,190,192,194,196,198,-1,-1,-1,-1,200,202,204,206,208,210,212,214,216,-1,218,220,222,224,226,228,230,-1,232,-1,234,236,238,240,-1,242,-1,-1,-1,-1,-1,-1,-1,-1,-1,-1,-1,-1,-1,-1,-1,-1,-1,-1,-1,-1,-1,-1,-1,-1,-1,-1,-1,-1,-1,-1,-1,-1,-1,-1,-1,-1,-1,-1,-1,-1,-1,-1,-1,-1,-1,-1,-1,-1,-1,-1,-1,-1,-1,-1,-1,-1,-1,-1,-1,-1,-1,-1,-1,-1,-1,-1,-1,-1,-1,-1,-1,-1,-1,-1,-1,-1,-1,-1,-1,-1,-1,-1],"split_conditions":[2E0,3E0,2E0,3.5E1,1E0,1.8E2,2E0,1.7E1,1.8E1,1.1E1,3E1,1E0,1E0,1.6E1,4E0,4.6559823E-1,2E0,2E0,1.8443E4,-9.1114275E-2,1.6E1,-1.5275529E-1,3E1,4E0,9E1,3E0,4.577E3,1E0,1E0,3E0,1E0,1.669E3,-3.6402997E-2,3.6540094E-1,-1.2479943E-1,1.6E1,2.4048E4,1.7116961E-1,6.957015E-2,-8.122048E-3,1.459385E-1,6E1,1.7E1,2E1,7E0,1.6E1,1.7E1,5E0,3.2269993E-1,4E0,1.2E1,2E0,2.016E3,-1.22228555E-1,4E0,1.9889E4,4.015E3,4E0,6.6908723E-1,2E0,3E0,2.9963258E-1,7.313209E-2,6E0,9E0,3.2020462E-1,-1.0212437E-3,3.251947E-1,3.5436866E-1,4.54E3,2E0,4.87E3,-3.999286E-2,-1.4591864E-2,-1.404128E-1,6E1,3.1075162E-1,2.5E1,4.862E3,-8.406118E-2,-1.1178039E-3,1.42E3,6E0,2E0,2E0,2E0,1.7E1,3.5564613E-1,3.1201914E-2,2E0,2E0,1.8E1,-1.1753644E-1,1.8841E4,4.9535125E-1,4E0,1E1,1.1E1,-1.3423042E-1,-1.5230887E-1,-9.09715E-2,4.869589E-1,6E0,-2.855258E-2,-8.562053E-2,5.051E3,2.0569863E-2,7.161302E-2,3.1791532E-1,1.4507404E-1,-5.1418573E-2,4.263E3,-3.732952E-2,3.9173305E-1,2.146982E-2,4E0,-7.294835E-2,2E0,2E0,3.853E3,1.2E2,1.5355386E-1,3.740412E-3,3E1,4E0,5.768684E-1,2E0,3.9373273E-1,1.1E1,2.4E1,4.45E2,-1.4217122E-1,-8.0353886E-2,-4.765236E-3,-1.2560691E-1,1.7E1,3.467E3,1.6E1,4.028E3,1E1,1E1,4E0,3E0,3.14E2,-5.1599097E-2,4E0,4E0,4.583E3,3.4434775E-1,4E0,3.67E3,3.519996E-1,-2.110414E-2,5.921795E-1,-7.6195024E-2,2E0,5E0,2E0,3.4865445E-1,-1.1554722E-1,4.489E3,-1.2133129E-1,-4.0594656E-2,-1.501992E-1,-8.87862E-2,-1.0743757E-1,-1.1845107E-2,-7.4530594E-2,3.312318E-2,-5.4612696E-2,-1.24830104E-1,-1.1458325E-1,1.0313729E-2,1.3667421E-1,4.4028517E-3,-1.4331327E-1,-1.13937914E-1,-8.9151636E-2,-1.2855026E-1,-1.0636689E-1,1.6801137E-2,-7.258015E-2,-1.2669149E-1,1.7758635E-1,1.507752E-1,1.3467655E-1,4.7911756E-2,1.8067567E-1,1.0897654E-1,6.558236E-2,1.6389924E-1,5.123939E-2,1.5092376E-1,3.8061615E-2,1.296826E-1,1.4835778E-1,1.1139061E-1,1.7730182E-1,1.2082664E-1,1.6551688E-2,8.1172876E-2,7.764344E-2,1.1874931E-1,-6.455799E-2,5.016429E-2,3.8056318E-2,8.827994E-2,-1.0378633E-1,7.79578E-2,1.22560814E-1,2.6711196E-2,1.09825686E-1,-7.08082E-2,1.0742892E-1,1.558204E-1,-6.045242E-2,-1.3300064E-1,1.3192697E-2,-4.9120076E-2,1.1934935E-1,4.5999985E-2,4.923604E-2,1.0730008E-1,1.6185974E-1,6.7581624E-2,1.1579325E-1,5.1368374E-2,1.2794752E-1,1.6419885E-1,-1.15133636E-1,-5.54322E-2,-1.4819181E-1,-8.691066E-2,-6.471009E-2,3.70118E-3,-4.398611E-2,-1.02087416E-1,-1.4508881E-2,-1.0486207E-1,-1.339203E-1,-8.709787E-2,-2.5313387E-2,9.1830276E-2],"split_indices":[2,14,21,3,15,22,20,9,9,9,3,9,9,9,2,49,15,15,18,0,29,0,22,8,22,8,1,9,20,20,15,16,0,40,0,9,18,0,0,0,0,3,9,0,6,9,9,6,56,8,9,10,7,0,2,18,22,20,44,15,8,43,0,6,6,39,0,33,46,1,20,1,0,0,0,22,54,27,1,0,0,16,25,8,15,15,9,42,0,10,10,9,0,18,62,8,14,9,0,0,0,66,8,0,0,1,0,0,43,0,0,18,0,50,0,28,0,10,20,1,22,0,0,22,8,64,12,48,9,27,17,0,0,0,0,9,1,9,1,9,9,19,20,16,0,8,8,1,44,8,1,44,0,80,0,8,28,15,42,0,1,0,0,0,0,0,0,0,0,0,0,0,0,0,0,0,0,0,0,0,0,0,0,0,0,0,0,0,0,0,0,0,0,0,0,0,0,0,0,0,0,0,0,0,0,0,0,0,0,0,0,0,0,0,0,0,0,0,0,0,0,0,0,0,0,0,0,0,0,0,0,0,0,0,0,0,0,0,0,0,0,0,0],"split_type":[0,0,0,0,0,0,0,0,0,0,0,0,0,0,0,0,0,0,0,0,0,0,0,0,0,0,0,0,0,0,0,0,0,0,0,0,0,0,0,0,0,0,0,0,0,0,0,0,0,0,0,0,0,0,0,0,0,0,0,0,0,0,0,0,0,0,0,0,0,0,0,0,0,0,0,0,0,0,0,0,0,0,0,0,0,0,0,0,0,0,0,0,0,0,0,0,0,0,0,0,0,0,0,0,0,0,0,0,0,0,0,0,0,0,0,0,0,0,0,0,0,0,0,0,0,0,0,0,0,0,0,0,0,0,0,0,0,0,0,0,0,0,0,0,0,0,0,0,0,0,0,0,0,0,0,0,0,0,0,0,0,0,0,0,0,0,0,0,0,0,0,0,0,0,0,0,0,0,0,0,0,0,0,0,0,0,0,0,0,0,0,0,0,0,0,0,0,0,0,0,0,0,0,0,0,0,0,0,0,0,0,0,0,0,0,0,0,0,0,0,0,0,0,0,0,0,0,0,0,0,0,0,0,0,0,0,0,0,0,0,0,0,0],"sum_hessian":[1.3718807E4,3.1366768E3,1.058213E4,4.6465207E2,2.6720247E3,5.368202E3,5.2139277E3,3.1268365E2,1.5196841E2,2.3322878E1,2.6487017E3,2.5196243E3,2.8485781E3,1.5409491E3,3.6729788E3,2.4990405E2,6.2779602E1,1.3517995E2,1.6788471E1,8.881333E0,1.4441544E1,5.5466077E2,2.094041E3,3.5783783E1,2.4838403E3,5.855236E1,2.7900256E3,9.606187E2,5.803303E2,2.5848394E3,1.0881393E3,2.4152821E2,8.375843E0,4.049362E1,2.2285978E1,9.1295944E1,4.3884E1,9.666449E0,7.122022E0,8.791691E0,5.649853E0,1.2033775E2,1.9737031E3,1.7258017E1,1.8525766E1,1.9079133E3,5.7592706E2,1.7483362E1,4.1069E1,2.057357E3,7.326687E2,6.208412E1,8.985346E2,1.1592047E1,5.687383E2,4.2165973E2,2.1631797E3,3.1725569E1,1.0564137E3,2.3080345E2,1.0724758E1,3.5025333E1,5.468289E0,6.951467E1,2.1781273E1,3.7747417E1,6.1365833E0,8.939288E1,3.0944868E1,1.5174977E3,4.5620554E2,1.1487358E1,5.77066E0,5.263259E0,1.32625065E1,7.446292E2,1.163284E3,2.377656E2,3.381615E2,7.7144046E0,9.768957E0,2.8267572E1,1.2801426E1,1.2727653E3,7.8459174E2,7.284104E1,6.598277E2,5.678012E1,5.3040004E0,4.2449445E2,4.7404016E2,5.612956E2,7.4426894E0,1.9745969E2,2.2420004E2,2.0008573E3,1.6232233E2,1.9905437E1,1.1820131E1,1.0502627E3,6.1510825E0,1.3852466E2,9.22788E1,5.407693E0,5.3170652E0,2.7837427E1,7.1879063E0,9.768381E0,5.974629E1,1.2184955E1,9.596317E0,3.188407E1,5.863348E0,8.1250595E1,8.142285E0,2.458198E1,6.362889E0,1.0635779E3,4.539197E2,4.1944466E1,4.1426108E2,6.396021E0,5.0913367E0,5.976059E2,1.4702332E2,9.5424457E2,2.0903946E2,1.2566147E2,1.12104126E2,2.0997307E2,1.2818842E2,2.2021187E1,6.2463856E0,5.8380785E0,6.963348E0,5.5117004E2,7.215952E2,1.2222387E2,6.623679E2,2.7920385E1,4.4920654E1,2.8796643E2,3.7186124E2,5.1650578E1,5.129542E0,3.7395413E2,5.05403E1,4.172689E2,5.6771282E1,3.4278156E2,2.1851402E2,1.8778098E2,9.678714E0,2.1779613E2,6.403908E0,1.2029884E3,7.9786884E2,3.499483E1,1.27327484E2,5.292599E0,1.4612838E1,1.3316776E2,5.3569036E0,8.337193E1,8.906867E0,2.0702282E1,7.1351457E0,4.6055946E1,1.3690345E1,6.269852E0,2.5614218E1,7.475169E1,6.498902E0,1.5262629E1,9.31935E0,1.00091034E3,6.266758E1,5.5978756E1,3.9794095E2,1.8171925E1,2.3772543E1,4.181897E1,3.724421E2,2.744309E2,3.2317502E2,1.0159541E2,4.5427895E1,9.4477136E2,9.473205E0,7.467368E0,2.0157208E2,1.14953995E2,1.07074795E1,1.3281543E1,9.8822586E1,1.5268066E2,5.72924E1,1.1820974E2,9.978679E0,2.7162152E2,2.7954852E2,1.8893922E2,5.32656E2,6.942513E1,5.279873E1,4.3952893E2,2.2283897E2,1.9963057E1,7.9573293E0,1.3425878E1,3.1494776E1,2.7975214E2,8.214292E0,6.120323E1,3.1065802E2,5.618521E0,4.603206E1,2.2098457E2,1.5296957E2,3.404198E1,1.6498318E1,2.7781046E2,1.3945842E2,4.9565422E1,7.2058578E0,2.3265256E2,1.1012901E2,9.924751E1,1.1926651E2,1.7082703E2,1.6953947E1,2.126295E2,5.1666365E0,5.825165E2,6.20472E2,4.8711755E2,3.107513E2,6.460828E0,2.8534006E1,1.1050679E2,1.6820696E1,6.227018E0,8.38582E0],"tree_param":{"num_deleted":"0","num_feature":"98","num_nodes":"243","size_leaf_vector":"1"}},{"base_weights":[-6.036037E-3,-1.0926858E0,6.2258345E-1,1.8106784E-1,-1.3974802E0,-8.338433E-1,8.6074054E-1,-1.0485374E0,5.4553485E-1,-1.4297876E0,-4.5764968E-1,-9.959605E-1,-3.8767126E-1,1.1357018E0,3.1685087E-1,-1.2605163E0,-7.721521E-1,-3.30161E-1,9.7168523E-1,-1.4477335E-1,-1.0640085E0,-9.987728E-1,-6.05131E-2,-5.3539115E-1,-1.1101202E0,-1.1278571E-2,-8.4450614E-1,1.4994644E0,8.905134E-1,-3.3792663E-2,8.721262E-1,-1.3890895E-1,-1.0251315E0,-2.8826526E-1,-9.8254895E-1,-1.0729251E0,-6.4724125E-2,1.0606915E0,-1.2165995E0,-1.1925662E0,-5.6748384E-1,-4.2872286E-1,-1.1890908E0,-1.3202538E-1,6.0676865E-2,-7.8038603E-1,4.308085E-1,4.3249723E-2,-1.1282039E0,-2.3518556E-1,7.353407E-1,-1.0337859E0,-2.5988016E-1,-5.133826E-1,1.5244147E0,6.0829693E-1,1.1856049E0,-7.8644097E-1,1.182344E-1,-8.144593E-1,9.290848E-1,-1.1266537E0,-1.8137177E-2,-6.6521436E-1,9.6791334E-2,-1.1644984E0,-5.55837E-1,-1.4105432E-1,-7.8638583E-1,-3.702831E-1,7.915966E-1,-5.3779733E-1,1.150486E0,-1.4030184E-1,-7.443929E-2,-6.054084E-1,-1.2343528E0,-1.1770686E-1,-2.0509212E-1,2.700502E-2,-8.086E-2,-1.2782954E-1,-8.225303E-2,-4.9460027E-2,1.1435359E-1,-1.4367212E-1,-8.997428E-1,7.659232E-1,-1.3823023E-1,-1.1721754E0,-4.346904E-1,-7.591317E-1,-1.3563237E-3,1.3325252E-2,9.996575E-1,-8.051257E-1,-1.2939852E0,-1.0561093E0,3.054481E-1,3.8795787E-1,-1.204479E-1,1.3932616E0,1.6499522E0,-9.107415E-1,6.6669893E-1,5.689994E-1,1.2950583E0,-3.5987392E-1,-9.324828E-1,5.1083153E-1,-9.605279E-2,-2.4400558E-2,-9.441894E-1,9.657946E-1,-1.20087266E-1,-1.2533854E0,-4.022861E-2,-1.1501473E-1,-1.3944943E-1,-9.019401E-1,-1.3583635E-1,-1.3172019E-1,-1.22286215E-1,-1.0790493E0,-2.5096503E-1,-9.8915887E-1,-1.4062594E-1,-7.870425E-2,1.0680091E0,3.1635143E-2,-1.0013964E0,8.7728864E-1,1.4754986E0,-1.4035257E-2,-1.0090562E-1,-1.2573673E0,-5.9029836E-2,9.407516E-2,-6.377218E-1,4.6077713E-2,-9.220272E-2,3.1952238E-1,-1.02024786E-1,-9.6573097E-1,1.4949517E-2,2.2067153E-1,1.2177047E0,-7.1786754E-2,3.0807117E-2,-1.2488486E0,-8.9749753E-1,-1.1720843E0,2.6050037E-1,-1.0342821E0,-1.1723349E-1,3.3320773E-1,-5.961956E-1,8.465412E-2,-7.137931E-2,4.2132345E-1,1.352593E0,-9.2426324E-1,2.5440896E-2,-1.3676656E0,-7.4828975E-2,-5.5900484E-2,-1.2964034E-1,9.227999E-1,-3.40032E-1,-1.5265162E-2,8.445863E-2,1.0752567E0,1.5446717E0,1.6531107E0,8.851489E-2,-3.720436E-1,-1.12681E0,5.744307E-1,1.3307368E0,1.4731675E0,-7.5367206E-1,8.2136333E-1,1.3656881E0,-1.0229952E0,-7.222095E-2,-1.4338826E-1,-5.899641E-1,2.7011913E-1,1.0926566E0,-1.3368707E0,2.6721135E-1,-1.1514693E0,-3.1067649E-2,7.8227E-1,1.2887732E0,-7.220285E-2,-1.3352023E-1,5.4133274E-2,-8.626356E-2,-4.0634386E-2,-1.1309145E-1,-1.04430094E-1,7.225271E-2,-1.2772183E-1,-5.6052953E-2,2.7816981E-2,-6.502255E-2,-6.780749E-2,-1.3268967E-1,3.9564032E-2,-5.643129E-2,4.435196E-2,-6.774763E-2,1.2592229E-1,-6.269832E-3,-3.695714E-2,-1.435332E-1,4.3326903E-2,1.0769623E-1,1.6421445E-1,1.2419426E-1,-7.624337E-2,-1.2863754E-1,-1.1359165E-1,2.6126718E-2,8.3803035E-2,-1.003572E-2,-4.975702E-2,9.658299E-2,-1.0159744E-1,-3.8736549E-3,-9.606215E-3,5.266347E-2,1.4761749E-1,8.013678E-2,-1.267231E-1,-4.5105502E-2,-9.384858E-2,1.8553628E-2,-5.595863E-2,-1.3536824E-1,-6.754208E-2,6.379461E-2,-5.7715137E-2,-1.24760926E-1,-7.7962354E-2,7.139884E-2,1.4758356E-1,1.6403724E-2,-1.0658665E-1,-9.691244E-3,1.1363579E-1,-4.3895487E-2,1.5160163E-1,7.721173E-2,-6.789594E-2,-1.2608652E-1,-1.4293712E-1,-7.6773934E-2,1.2924755E-1,4.2840585E-2,-8.633019E-2,2.6593624E-2,7.9724334E-2,1.3550046E-1,1.5535775E-1,4.5895964E-2,1.6979048E-1,1.5709743E-1,-8.837405E-2,8.621482E-3,-1.2845425E-1,-6.780095E-2,4.652165E-2,1.1648872E-1,6.789964E-2,1.4070915E-1,1.1936249E-1,1.6963477E-1,-1.3337389E-1,8.643289E-2,1.17978476E-1,-1.730183E-2,9.404068E-2,1.4457485E-1,-1.1751311E-1,-4.9495053E-2,-6.370931E-2,3.3863068E-2,-1.0341016E-1,-2.6424712E-2,9.095429E-3,1.1155863E-1,7.972538E-2,1.3808954E-1,-1.3672458E-1,-5.0830115E-2,-3.702615E-2,5.3345095E-2,-7.877935E-2,-1.325069E-1,1.0130787E-1,3.664949E-2,3.4529146E-2,1.3112481E-1],"categories":[],"categories_nodes":[],"categories_segments":[],"categories_sizes":[],"default_left":[0,0,0,0,0,0,0,0,0,0,0,0,0,0,0,0,0,0,0,0,0,0,0,0,0,0,0,0,0,0,0,0,0,0,0,0,0,0,0,0,0,0,0,0,0,0,0,0,0,0,0,0,0,0,0,0,0,0,0,0,0,0,0,0,0,0,0,0,0,0,0,0,0,0,0,0,0,0,0,0,0,0,0,0,0,0,0,0,0,0,0,0,0,0,0,0,0,0,0,0,0,0,0,0,0,0,0,0,0,0,0,0,0,0,0,0,0,0,0,0,0,0,0,0,0,0,0,0,0,0,0,0,0,0,0,0,0,0,0,0,0,0,0,0,0,0,0,0,0,0,0,0,0,0,0,0,0,0,0,0,0,0,0,0,0,0,0,0,0,0,0,0,0,0,0,0,0,0,0,0,0,0,0,0,0,0,0,0,0,0,0,0,0,0,0,0,0,0,0,0,0,0,0,0,0,0,0,0,0,0,0,0,0,0,0,0,0,0,0,0,0,0,0,0,0,0,0,0,0,0,0,0,0,0,0,0,0,0,0,0,0,0,0,0,0,0,0,0,0,0,0,0,0,0,0,0,0,0,0,0,0,0,0,0,0,0,0,0,0,0,0,0,0,0,0,0,0,0,0,0,0,0,0,0,0,0,0,0,0,0,0,0,0,0,0,0,0,0,0,0,0,0,0,0,0],"id":3,"left_children":[1,3,5,7,9,11,13,15,17,19,21,23,25,27,29,31,33,35,37,-1,39,41,43,45,47,49,51,53,55,57,59,-1,61,63,65,67,69,71,73,75,77,79,81,-1,83,85,87,-1,89,91,93,95,97,99,101,103,105,107,109,111,113,115,-1,117,-1,119,121,-1,123,125,127,129,131,-1,-1,133,135,-1,137,-1,-1,-1,-1,139,-1,141,143,145,147,149,151,153,155,157,159,161,163,165,167,169,-1,171,173,175,177,179,181,183,185,187,189,-1,191,193,-1,195,-1,-1,197,199,-1,-1,201,203,205,207,209,211,213,-1,215,217,219,-1,-1,221,-1,-1,223,225,-1,227,-1,229,-1,231,233,-1,-1,235,237,239,241,243,245,247,249,-1,-1,251,253,255,-1,257,-1,-1,-1,259,261,-1,-1,263,265,267,-1,269,271,273,275,277,279,281,283,285,287,-1,289,291,293,295,297,299,-1,301,303,-1,-1,-1,-1,-1,-1,-1,-1,-1,-1,-1,-1,-1,-1,-1,-1,-1,-1,-1,-1,-1,-1,-1,-1,-1,-1,-1,-1,-1,-1,-1,-1,-1,-1,-1,-1,-1,-1,-1,-1,-1,-1,-1,-1,-1,-1,-1,-1,-1,-1,-1,-1,-1,-1,-1,-1,-1,-1,-1,-1,-1,-1,-1,-1,-1,-1,-1,-1,-1,-1,-1,-1,-1,-1,-1,-1,-1,-1,-1,-1,-1,-1,-1,-1,-1,-1,-1,-1,-1,-1,-1,-1,-1,-1,-1,-1,-1,-1,-1,-1,-1,-1,-1,-1,-1,-1,-1,-1,-1,-1],"loss_changes":[9.205864E3,1.917751E3,2.9621167E3,4.2835022E2,1.20359375E2,8.644202E1,1.0970825E3,1.1833252E1,2.7533585E2,2.3748535E1,2.8719376E1,4.5666626E1,5.5282864E1,4.3336426E2,4.8007745E2,2.2720795E0,9.639103E0,4.763922E1,9.789105E1,0E0,1.1065094E1,5.6330223E0,1.2034225E1,4.216293E1,2.0131104E1,2.9815586E1,1.5803871E1,9.9262695E1,2.4194702E2,1.7312206E2,9.2436035E1,0E0,3.818222E0,1.5299141E1,4.5942917E0,5.047798E0,4.721821E1,6.910254E1,7.029991E-1,2.8154755E0,8.537446E0,4.3954005E0,3.1814957E-1,0E0,8.689486E0,1.0609856E1,7.0444074E0,0E0,2.0723022E1,1.6803757E1,7.83988E0,5.466339E0,1.6914186E1,1.5888918E1,2.9596191E1,1.3292487E2,9.532788E1,1.550322E1,1.0596192E2,2.1162796E0,7.337897E1,3.3260803E0,0E0,6.06038E0,0E0,1.1374702E0,7.132121E0,0E0,5.477888E0,1.8743647E1,1.1506514E1,1.0635312E1,3.8845337E1,0E0,0E0,2.0378294E0,1.2528839E0,0E0,1.3555339E1,0E0,0E0,0E0,0E0,5.599611E0,0E0,9.866812E0,8.370689E0,5.4099665E0,3.9290352E0,1.2656067E1,2.2401419E1,7.353964E0,1.9272402E1,7.8992586E0,5.5759163E0,7.9185753E0,9.675293E-1,1.1302242E0,9.21236E0,2.9679642E0,0E0,4.4265137E1,9.147949E-1,6.0573273E0,8.7270874E1,2.5986057E2,3.9295654E1,1.2605861E1,3.157396E1,6.198381E1,3.6783047E2,0E0,2.9889374E0,5.284497E1,0E0,5.5921555E-1,0E0,0E0,6.7907734E0,2.1154575E0,0E0,0E0,1.257896E1,1.69034E0,3.1953506E0,2.860752E0,2.2504314E1,4.170637E0,7.8852005E0,0E0,4.166252E0,2.1527527E1,5.938843E0,0E0,0E0,8.722992E-1,0E0,0E0,9.060414E0,7.1623673E0,0E0,9.001714E0,0E0,5.173233E0,0E0,1.1812353E0,1.498642E-1,0E0,0E0,6.890991E0,6.6689987E0,1.5892677E0,8.55754E0,2.1564808E0,8.169534E0,1.17390995E1,8.071224E0,0E0,0E0,8.41147E0,5.6033707E-1,3.6796303E0,0E0,4.7290802E-1,0E0,0E0,0E0,1.5816135E0,3.9228168E0,0E0,0E0,2.3103363E1,5.5128174E0,9.350586E-1,0E0,4.1614275E0,1.9055214E0,8.092465E1,7.7299805E0,6.013977E0,8.422484E1,5.6965706E1,3.4383423E1,1.0278969E0,1.1225127E1,0E0,1.6197544E1,4.7746864E1,9.95163E0,3.955841E0,1.07370316E2,1.4514732E-1,0E0,5.5469055E1,6.494934E0,0E0,0E0,0E0,0E0,0E0,0E0,0E0,0E0,0E0,0E0,0E0,0E0,0E0,0E0,0E0,0E0,0E0,0E0,0E0,0E0,0E0,0E0,0E0,0E0,0E0,0E0,0E0,0E0,0E0,0E0,0E0,0E0,0E0,0E0,0E0,0E0,0E0,0E0,0E0,0E0,0E0,0E0,0E0,0E0,0E0,0E0,0E0,0E0,0E0,0E0,0E0,0E0,0E0,0E0,0E0,0E0,0E0,0E0,0E0,0E0,0E0,0E0,0E0,0E0,0E0,0E0,0E0,0E0,0E0,0E0,0E0,0E0,0E0,0E0,0E0,0E0,0E0,0E0,0E0,0E0,0E0,0E0,0E0,0E0,0E0,0E0,0E0,0E0,0E0,0E0,0E0,0E0,0E0,0E0,0E0,0E0,0E0,0E0,0E0,0E0,0E0,0E0,0E0,0E0,0E0,0E0,0E0,0E0,0E0,0E0],"parents":[2147483647,0,0,1,1,2,2,3,3,4,4,5,5,6,6,7,7,8,8,9,9,10,10,11,11,12,12,13,13,14,14,15,15,16,16,17,17,18,18,20,20,21,21,22,22,23,23,24,24,25,25,26,26,27,27,28,28,29,29,30,30,32,32,33,33,34,34,35,35,36,36,37,37,38,38,39,39,40,40,41,41,42,42,44,44,45,45,46,46,48,48,49,49,50,50,51,51,52,52,53,53,54,54,55,55,56,56,57,57,58,58,59,59,60,60,61,61,63,63,65,65,66,66,68,68,69,69,70,70,71,71,72,72,75,75,76,76,78,78,83,83,85,85,86,86,87,87,88,88,89,89,90,90,91,91,92,92,93,93,94,94,95,95,96,96,97,97,98,98,99,99,101,101,102,102,103,103,104,104,105,105,106,106,107,107,108,108,109,109,110,110,112,112,113,113,115,115,118,118,119,119,122,122,123,123,124,124,125,125,126,126,127,127,128,128,130,130,131,131,132,132,135,135,138,138,139,139,141,141,143,143,145,145,146,146,149,149,150,150,151,151,152,152,153,153,154,154,155,155,156,156,159,159,160,160,161,161,163,163,167,167,168,168,171,171,172,172,173,173,175,175,176,176,177,177,178,178,179,179,180,180,181,181,182,182,183,183,184,184,186,186,187,187,188,188,189,189,190,190,191,191,193,193,194,194],"right_children":[2,4,6,8,10,12,14,16,18,20,22,24,26,28,30,32,34,36,38,-1,40,42,44,46,48,50,52,54,56,58,60,-1,62,64,66,68,70,72,74,76,78,80,82,-1,84,86,88,-1,90,92,94,96,98,100,102,104,106,108,110,112,114,116,-1,118,-1,120,122,-1,124,126,128,130,132,-1,-1,134,136,-1,138,-1,-1,-1,-1,140,-1,142,144,146,148,150,152,154,156,158,160,162,164,166,168,170,-1,172,174,176,178,180,182,184,186,188,190,-1,192,194,-1,196,-1,-1,198,200,-1,-1,202,204,206,208,210,212,214,-1,216,218,220,-1,-1,222,-1,-1,224,226,-1,228,-1,230,-1,232,234,-1,-1,236,238,240,242,244,246,248,250,-1,-1,252,254,256,-1,258,-1,-1,-1,260,262,-1,-1,264,266,268,-1,270,272,274,276,278,280,282,284,286,288,-1,290,292,294,296,298,300,-1,302,304,-1,-1,-1,-1,-1,-1,-1,-1,-1,-1,-1,-1,-1,-1,-1,-1,-1,-1,-1,-1,-1,-1,-1,-1,-1,-1,-1,-1,-1,-1,-1,-1,-1,-1,-1,-1,-1,-1,-1,-1,-1,-1,-1,-1,-1,-1,-1,-1,-1,-1,-1,-1,-1,-1,-1,-1,-1,-1,-1,-1,-1,-1,-1,-1,-1,-1,-1,-1,-1,-1,-1,-1,-1,-1,-1,-1,-1,-1,-1,-1,-1,-1,-1,-1,-1,-1,-1,-1,-1,-1,-1,-1,-1,-1,-1,-1,-1,-1,-1,-1,-1,-1,-1,-1,-1,-1,-1,-1,-1,-1],"split_conditions":[3.9270833E0,2E0,2E0,2E0,3.7666667E0,1.4034722E1,2E0,1.0152777E0,3.764E3,3.1215277E0,2E0,3E0,2.7E2,3.2876712E-1,1.5079166E1,4.535E3,2E0,8.784722E-1,4E0,-1.4477335E-1,3.0366084E-1,9E1,1.602E3,1.7E1,1E0,1.7E1,3.1436136E-1,1E0,1.7E1,1.2E1,1E0,-1.3890895E-1,1.8E1,4.87E3,1.6E1,2.035E3,1.7E1,1.1E1,8.048611E-1,3.14E2,2E0,1.0495E4,5E0,-1.3202538E-1,1.7E1,4.2069445E0,1.5E1,4.3249723E-2,2E0,2E0,4.305E3,5E0,1.3E1,4E0,1.7E1,1E0,3E0,2E0,2E0,4E0,4E0,1.6E1,-1.8137177E-2,1.4E1,9.6791334E-2,4E0,6E1,-1.4105432E-1,1.6E1,2E0,2.008E3,1.8E2,1.7E1,-1.4030184E-1,-7.443929E-2,1.6553E4,4.68E2,-1.1770686E-1,1E0,2.700502E-2,-8.086E-2,-1.2782954E-1,-8.225303E-2,4E0,1.1435359E-1,2E0,3.9779064E-1,4E0,7E0,1.7E1,3E0,8E0,2E1,3E0,2.2061806E1,3.789796E-1,1.8E1,4.203E3,7E0,1.48E2,-1.204479E-1,1.604861E1,6.6829497E-1,3E0,2E0,2E0,2E0,1E0,3E0,1.7E1,3E0,-2.4400558E-2,3.5E1,5.0143055E1,-1.20087266E-1,3E0,-4.022861E-2,-1.1501473E-1,2.28E2,8.13E2,-1.3583635E-1,-1.3172019E-1,3.905E3,2.016E3,7E0,2.2180555E0,4E0,2.1715279E0,1.42E3,3.1635143E-2,4E0,4.197E3,1.8E2,-1.4035257E-2,-1.0090562E-1,3E0,-5.9029836E-2,9.407516E-2,7E0,6.5753424E-1,-9.220272E-2,4.577E3,-1.02024786E-1,4.2113978E-1,1.4949517E-2,1.4432E4,1.3469046E-1,-7.1786754E-2,3.0807117E-2,3.8718528E-1,1.669E3,6E0,3.622E3,4.591E3,2.8670834E1,4E0,9E0,8.465412E-2,-7.137931E-2,1.8910418E1,2E1,1.235E3,2.5440896E-2,1.825E3,-7.4828975E-2,-5.5900484E-2,-1.2964034E-1,1.2935E4,1.66E2,-1.5265162E-2,8.445863E-2,4.652E3,5.0955033E-1,1.6438356E-1,8.851489E-2,5E0,1.267E3,5.600347E1,1E0,4.139E3,1.2984028E1,1.9E1,3.487E3,9.84E2,3.392E3,-1.4338826E-1,1.1E1,4.565E3,2.016E3,5.050497E-1,2E0,4E0,-3.1067649E-2,4E0,2.003E3,-7.220285E-2,-1.3352023E-1,5.4133274E-2,-8.626356E-2,-4.0634386E-2,-1.1309145E-1,-1.04430094E-1,7.225271E-2,-1.2772183E-1,-5.6052953E-2,2.7816981E-2,-6.502255E-2,-6.780749E-2,-1.3268967E-1,3.9564032E-2,-5.643129E-2,4.435196E-2,-6.774763E-2,1.2592229E-1,-6.269832E-3,-3.695714E-2,-1.435332E-1,4.3326903E-2,1.0769623E-1,1.6421445E-1,1.2419426E-1,-7.624337E-2,-1.2863754E-1,-1.1359165E-1,2.6126718E-2,8.3803035E-2,-1.003572E-2,-4.975702E-2,9.658299E-2,-1.0159744E-1,-3.8736549E-3,-9.606215E-3,5.266347E-2,1.4761749E-1,8.013678E-2,-1.267231E-1,-4.5105502E-2,-9.384858E-2,1.8553628E-2,-5.595863E-2,-1.3536824E-1,-6.754208E-2,6.379461E-2,-5.7715137E-2,-1.24760926E-1,-7.7962354E-2,7.139884E-2,1.4758356E-1,1.6403724E-2,-1.0658665E-1,-9.691244E-3,1.1363579E-1,-4.3895487E-2,1.5160163E-1,7.721173E-2,-6.789594E-2,-1.2608652E-1,-1.4293712E-1,-7.6773934E-2,1.2924755E-1,4.2840585E-2,-8.633019E-2,2.6593624E-2,7.9724334E-2,1.3550046E-1,1.5535775E-1,4.5895964E-2,1.6979048E-1,1.5709743E-1,-8.837405E-2,8.621482E-3,-1.2845425E-1,-6.780095E-2,4.652165E-2,1.1648872E-1,6.789964E-2,1.4070915E-1,1.1936249E-1,1.6963477E-1,-1.3337389E-1,8.643289E-2,1.17978476E-1,-1.730183E-2,9.404068E-2,1.4457485E-1,-1.1751311E-1,-4.9495053E-2,-6.370931E-2,3.3863068E-2,-1.0341016E-1,-2.6424712E-2,9.095429E-3,1.1155863E-1,7.972538E-2,1.3808954E-1,-1.3672458E-1,-5.0830115E-2,-3.702615E-2,5.3345095E-2,-7.877935E-2,-1.325069E-1,1.0130787E-1,3.664949E-2,3.4529146E-2,1.3112481E-1],"split_indices":[31,20,2,2,31,31,21,31,1,31,2,14,3,23,31,1,15,31,2,0,56,3,1,9,15,9,56,9,9,9,9,0,9,1,9,1,9,9,31,16,2,18,28,0,9,31,29,0,10,8,1,8,9,8,9,9,20,20,20,12,2,29,0,9,0,8,3,0,9,8,11,3,9,0,0,18,17,0,9,0,0,0,0,2,0,15,42,0,6,9,20,12,0,28,31,47,9,1,14,17,0,31,85,8,10,20,15,9,20,9,20,0,14,31,0,6,0,0,17,16,0,0,1,7,12,31,8,31,16,0,8,1,3,0,0,14,0,0,25,23,0,1,0,37,0,18,32,0,0,56,16,0,1,1,31,12,6,0,0,31,0,16,0,3,0,0,0,18,17,0,0,1,50,23,0,6,16,31,8,1,31,9,1,16,1,0,9,1,7,51,15,8,0,8,11,0,0,0,0,0,0,0,0,0,0,0,0,0,0,0,0,0,0,0,0,0,0,0,0,0,0,0,0,0,0,0,0,0,0,0,0,0,0,0,0,0,0,0,0,0,0,0,0,0,0,0,0,0,0,0,0,0,0,0,0,0,0,0,0,0,0,0,0,0,0,0,0,0,0,0,0,0,0,0,0,0,0,0,0,0,0,0,0,0,0,0,0,0,0,0,0,0,0,0,0,0,0,0,0,0,0,0,0,0,0],"split_type":[0,0,0,0,0,0,0,0,0,0,0,0,0,0,0,0,0,0,0,0,0,0,0,0,0,0,0,0,0,0,0,0,0,0,0,0,0,0,0,0,0,0,0,0,0,0,0,0,0,0,0,0,0,0,0,0,0,0,0,0,0,0,0,0,0,0,0,0,0,0,0,0,0,0,0,0,0,0,0,0,0,0,0,0,0,0,0,0,0,0,0,0,0,0,0,0,0,0,0,0,0,0,0,0,0,0,0,0,0,0,0,0,0,0,0,0,0,0,0,0,0,0,0,0,0,0,0,0,0,0,0,0,0,0,0,0,0,0,0,0,0,0,0,0,0,0,0,0,0,0,0,0,0,0,0,0,0,0,0,0,0,0,0,0,0,0,0,0,0,0,0,0,0,0,0,0,0,0,0,0,0,0,0,0,0,0,0,0,0,0,0,0,0,0,0,0,0,0,0,0,0,0,0,0,0,0,0,0,0,0,0,0,0,0,0,0,0,0,0,0,0,0,0,0,0,0,0,0,0,0,0,0,0,0,0,0,0,0,0,0,0,0,0,0,0,0,0,0,0,0,0,0,0,0,0,0,0,0,0,0,0,0,0,0,0,0,0,0,0,0,0,0,0,0,0,0,0,0,0,0,0,0,0,0,0,0,0,0,0,0,0,0,0,0,0,0,0,0,0,0,0,0,0,0,0],"sum_hessian":[1.3474815E4,4.9380396E3,8.536775E3,9.5354126E2,3.9844983E3,1.1994084E3,7.337367E3,2.1758754E2,7.3595374E2,3.8515762E3,1.3292201E2,8.788463E2,3.2056213E2,4.8728364E3,2.4645308E3,1.2112654E2,9.6461006E1,2.4098311E2,4.949706E2,3.6686272E3,1.8294911E2,5.5620586E1,7.730142E1,1.7569736E2,7.03149E2,1.7631688E2,1.4424527E2,1.9599415E3,2.912895E3,1.5111891E3,9.533418E2,7.516703E1,4.5959507E1,2.9949934E1,6.651107E1,6.2644566E1,1.7833855E2,4.761202E2,1.8850407E1,1.4420934E2,3.873977E1,1.4735814E1,4.0884773E1,5.9156437E0,7.138578E1,1.4031151E2,3.538584E1,7.8818164E0,6.9526715E2,1.3616634E2,4.015053E1,1.08385765E2,3.585951E1,2.3757277E1,1.9361843E3,1.4904938E3,1.4224012E3,2.53248E2,1.257941E3,3.0709557E1,9.226322E2,4.072424E1,5.2352676E0,2.3398924E1,6.5510106E0,4.541652E1,2.1094553E1,2.695815E1,3.5686413E1,1.3185619E2,4.6482357E1,2.5058012E1,4.510622E2,1.2101679E1,6.748728E0,1.0610203E1,1.3359914E2,1.3605572E1,2.5134197E1,5.2914515E0,9.444363E0,3.088217E1,1.0002603E1,6.56617E1,5.724085E0,2.2498108E1,1.1781341E2,2.2052708E1,1.3333136E1,6.5316376E2,4.210343E1,4.1324078E1,9.484226E1,1.1041007E1,2.9109526E1,5.986836E1,4.8517403E1,1.4528666E1,2.1330841E1,1.0500703E1,1.3256575E1,9.5283044E2,9.833538E2,5.464259E1,1.4358511E3,2.1536136E2,1.2070399E3,6.547351E1,1.8777449E2,4.4368277E2,8.142583E2,6.2236376E0,2.4485918E1,9.0753735E2,1.509485E1,3.4038685E1,6.685556E0,1.1554344E1,1.1844579E1,2.1691433E1,2.3725086E1,6.914219E0,1.4180335E1,2.2417547E1,1.3268867E1,3.479207E1,9.7064125E1,1.1376876E1,3.510548E1,8.927443E0,1.613057E1,2.4707573E2,2.0398647E2,5.5563083E0,5.053894E0,1.2807043E2,5.528708E0,6.566901E0,1.8567297E1,6.0035572E1,5.6261263E0,1.5135691E1,7.3624167E0,1.10917244E2,6.896164E0,1.0667104E1,1.1385603E1,5.5354486E0,7.797687E0,5.0785532E2,1.4530843E2,2.0098652E1,2.2004778E1,2.8497366E1,1.2826713E1,6.098271E1,3.3859554E1,5.0685906E0,5.9724164E0,1.1863422E1,1.7246103E1,5.3931767E1,5.9365945E0,4.1418724E1,7.0986786E0,5.818362E0,8.710303E0,1.0683381E1,1.064746E1,5.1130185E0,5.387684E0,3.099492E2,6.428813E2,9.781525E2,5.2012486E0,1.6421839E1,3.8220753E1,1.2623169E3,1.7353423E2,1.2785017E2,8.7511185E1,1.5826022E2,1.0487797E3,1.9035337E1,4.6438175E1,7.491826E1,1.1285623E2,3.148765E2,1.2880627E2,1.8379187E2,6.3046643E2,1.7833393E1,6.6525254E0,5.808855E2,3.2665186E2,5.8527937E0,2.818589E1,6.230688E0,5.61389E0,7.731612E0,1.3959821E1,6.667456E0,7.512879E0,1.5160339E1,7.257208E0,5.836764E0,7.432103E0,1.9676292E1,1.5115775E1,4.286964E1,5.4194485E1,6.215373E0,5.1615033E0,2.9930313E1,5.175167E0,7.321658E0,8.808911E0,7.762619E1,1.6944954E2,1.155259E2,8.846056E1,8.601181E0,1.1946925E2,1.1777169E1,6.790128E0,8.631517E0,5.1404053E1,6.786283E0,8.349407E0,1.0512352E2,5.7937217E0,5.578384E0,5.0887203E0,5.4540153E0,5.9315877E0,4.958419E2,1.20134E1,1.4013824E2,5.17018E0,5.5296345E0,1.4569017E1,6.0970283E0,1.590775E1,1.0246343E1,1.8251022E1,7.172842E0,5.65387E0,6.868289E0,5.411442E1,1.6862432E1,1.6997122E1,6.3033614E0,5.5600615E0,1.2199781E1,5.0463223E0,3.2941925E1,2.098984E1,3.6302265E1,5.1164603E0,5.1890707E0,5.4943104E0,5.4857244E0,5.1617355E0,1.5738742E2,1.5256178E2,6.372233E2,5.657911E0,6.2023157E2,3.57921E2,7.3198876E0,9.101951E0,2.6903313E1,1.1317441E1,1.066786E3,1.9553094E2,1.9235806E1,1.5429842E2,5.9576405E1,6.8273766E1,6.454644E1,2.2964748E1,1.1619255E2,4.206766E1,1.6817563E2,8.8060406E2,1.382636E1,5.2089767E0,1.9322023E1,2.711615E1,4.682808E1,6.602815E1,2.607318E2,5.4144684E1,6.547246E1,6.3333817E1,1.7666525E2,7.1266174E0,1.8562444E2,4.4484198E2,7.551553E0,1.028184E1,3.726051E2,2.0828041E2,7.9809437E0,3.1867093E2],"tree_param":{"num_deleted":"0","num_feature":"98","num_nodes":"305","size_leaf_vector":"1"}},{"base_weights":[-6.7950627E-3,-1.0337151E0,5.684828E-1,1.6366902E-1,-1.3309742E0,-7.775109E-1,7.840253E-1,-9.8758024E-1,4.954458E-1,-1.3689551E0,-5.487851E-1,-9.3321264E-1,-3.573846E-1,1.0377551E0,2.8622907E-1,-1.1951225E0,-7.218964E-1,-3.0395573E-1,8.8270074E-1,-1.3817867E0,-1.0229285E0,-1.05677E0,-1.7669319E-1,-4.9269563E-1,-1.0446657E0,-9.804663E-3,-7.8868484E-1,1.3856217E0,8.074745E-1,-5.440058E-2,7.5639945E-1,-1.2854036E0,-8.121445E-1,-2.6581207E-1,-9.244677E-1,-1.0051565E0,-5.9670784E-2,9.629632E-1,-1.1493381E0,-1.3919708E-1,-1.3204484E0,-1.1219035E0,-5.287314E-1,-1.1490786E0,-5.578145E-1,-4.0696743E-1,2.9447934E-1,-7.480082E-1,-8.1522904E-2,3.924552E-2,-1.0622979E0,-1.3384956E-1,1.0708044E-1,-9.7001445E-1,-2.4009246E-1,1.4613842E0,1.2195647E0,3.4302312E-1,9.098645E-1,3.3513448E-1,-2.4674533E-1,7.9245967E-1,-1.2065055E0,-1.3289817E-1,-8.417559E-2,-3.6980104E-1,-1.17625654E-1,-6.19642E-1,8.676078E-2,-1.0209329E0,-1.3868533E-2,-1.3369003E-1,-7.303602E-1,-1.696226E-1,1.0405396E0,1.436743E0,7.820522E-1,-1.3353746E-1,-6.923305E-2,-1.3288852E0,-8.578517E-1,-6.87625E-1,-1.2273227E0,-8.200158E-1,1.8716725E-2,-1.2416831E0,-7.487628E-1,7.425991E-3,-9.403329E-2,5.8551203E-2,-5.3244156E-1,7.3127085E-1,-2.8775164E-1,-8.670851E-1,2.915888E-1,-2.1604241E-1,1.033072E-1,-1.1052667E0,-4.033068E-1,-3.9742202E-1,3.186825E-1,-1.3608426E-3,-1.0220428E0,2.3433784E-1,-7.7559775E-1,1.4666928E0,4.9738206E-2,1.3657229E0,1.0778826E0,7.435257E-1,-6.027921E-1,4.9883366E-1,9.7773033E-1,5.9462255E-1,-1.1883068E-1,-1.304562E0,1.1015193E-1,5.455751E-1,1.0033256E0,-7.321282E-2,-1.3300991E-1,-7.631398E-2,1.7349597E-2,-1.1218058E-1,-2.4796733E-1,-7.515689E-1,-1.2254392E0,-9.0984464E-1,-5.1764473E-3,-5.965614E-1,7.497427E-2,2.2199804E-2,1.398682E-1,1.484551E0,4.3775827E-2,8.258234E-1,-1.0155254E-1,-1.3351713E-1,-7.979541E-2,-1.1129475E-1,-4.1902702E-2,-1.195781E-1,-7.430609E-3,-1.263972E0,-6.389225E-2,-1.1360901E-1,-2.9194867E-2,-9.14453E-1,-1.3520297E-1,-9.719006E-2,-3.181096E-2,-1.0461006E0,-3.439484E-1,2.999602E-1,1.548848E-1,5.490901E-2,-8.030101E-2,-9.472208E-1,1.5527706E-2,1.05874754E-1,-4.432858E-2,-3.7258115E-1,7.225451E-2,-1.414262E-1,-1.0431448E0,-1.1062404E0,2.328446E-1,-5.434547E-1,3.393245E-2,8.217305E-1,-5.1472403E-2,-7.8150225E-1,-1.2853968E-1,9.11999E-2,-2.970448E-1,-1.0520087E0,-2.3788393E-2,1.3861871E0,1.5320126E0,1.387877E0,5.04432E-2,1.2620637E0,7.020009E-1,9.824088E-1,3.0704254E-1,-1.2926862E0,3.9949033E-1,1.1202867E0,2.531754E-1,7.2803336E-1,1.1008722E0,-2.8924837E-3,1.0458485E0,-2.5911328E-1,8.2042724E-1,-1.3242668E0,-5.9309393E-2,-4.642821E-1,3.488133E-1,7.947933E-1,1.0263944E-1,6.781489E-1,1.1099787E0,8.4666215E-2,-9.912988E-2,-9.94728E-2,-2.7914083E-2,-1.3447472E-1,-8.384474E-2,-4.2950373E-2,-1.0274293E-1,-7.958295E-2,-1.777788E-2,5.7692926E-2,-3.356661E-3,1.5068117E-1,8.3615385E-2,6.1553206E-2,1.1234232E-1,-3.6649056E-2,3.5361957E-2,-1.3050206E-1,-7.7895194E-2,-1.1080273E-1,-5.058377E-2,-6.1711825E-2,-1.330005E-1,-2.0066222E-2,-1.16069295E-1,-1.9296672E-3,7.436286E-2,-1.0175238E-1,-2.4075208E-2,-5.091695E-2,7.0106946E-2,-8.084849E-2,-1.15592204E-1,-5.1969167E-2,-1.2855877E-1,-4.7446776E-2,6.69621E-2,8.374255E-3,-6.35445E-2,9.739926E-2,-6.051123E-3,1.0946695E-1,-2.5389701E-2,-9.7302556E-2,-1.8800436E-2,-6.57142E-2,5.6709745E-3,-1.3163453E-1,-6.2118966E-2,1.399471E-1,5.656118E-2,1.5384537E-1,9.72059E-2,8.936944E-2,1.435681E-1,1.3079165E-1,5.7656895E-2,8.965408E-2,-8.0026295E-3,5.8688175E-2,1.235316E-1,4.264649E-3,6.524326E-2,-8.656161E-2,-1.5681301E-1,1.2823206E-1,1.0210197E-2,1.2451972E-1,4.525746E-2,-1.6609013E-2,1.0383304E-1,5.5340953E-2,9.641661E-2,1.1963623E-1,9.3782604E-2,-1.6229725E-2,7.9896085E-2,7.57657E-2,1.3807835E-1,-1.1949905E-1,-1.4980403E-2,3.8400553E-2,1.1620392E-1,-1.0944809E-1,-1.3783865E-1,8.068116E-2,-5.2116495E-2,-1.1187425E-2,6.4374305E-2,1.2303736E-2,1.2225137E-1,2.957337E-2,-1.0345658E-2,3.5595335E-2,1.07456446E-1,1.3855796E-1,8.297095E-2],"categories":[],"categories_nodes":[],"categories_segments":[],"categories_sizes":[],"default_left":[0,0,0,0,0,0,0,0,0,0,0,0,0,0,0,0,0,0,0,0,0,0,0,0,0,0,0,0,0,0,0,0,0,0,0,0,0,0,0,0,0,0,0,0,0,0,0,0,0,0,0,0,0,0,0,0,0,0,0,0,0,0,0,0,0,0,0,0,0,0,0,0,0,0,0,0,0,0,0,0,0,0,0,0,0,0,0,0,0,0,0,0,0,0,0,0,0,0,0,0,0,0,0,0,0,0,0,0,0,0,0,0,0,0,0,0,0,0,0,0,0,0,0,0,0,0,0,0,0,0,0,0,0,0,0,0,0,0,0,0,0,0,0,0,0,0,0,0,0,0,0,0,0,0,0,0,0,0,0,0,0,0,0,0,0,0,0,0,0,0,0,0,0,0,0,0,0,0,0,0,0,0,0,0,0,0,0,0,0,0,0,0,0,0,0,0,0,0,0,0,0,0,0,0,0,0,0,0,0,0,0,0,0,0,0,0,0,0,0,0,0,0,0,0,0,0,0,0,0,0,0,0,0,0,0,0,0,0,0,0,0,0,0,0,0,0,0,0,0,0,0,0,0,0,0,0,0,0,0,0,0,0,0,0,0,0,0,0,0,0,0,0,0,0,0,0,0,0,0,0,0,0,0,0,0,0,0,0,0,0,0,0,0,0,0,0,0,0,0,0,0],"id":4,"left_children":[1,3,5,7,9,11,13,15,17,19,21,23,25,27,29,31,33,35,37,39,41,43,45,47,49,51,53,55,57,59,61,63,65,67,69,71,73,75,77,-1,79,81,83,85,87,89,91,93,95,-1,97,-1,99,101,103,105,107,109,111,113,115,117,119,-1,-1,121,-1,123,-1,125,-1,-1,127,129,131,133,135,-1,-1,137,139,141,143,145,-1,147,149,-1,-1,-1,151,153,155,157,159,161,-1,163,165,167,169,-1,171,173,175,177,-1,179,181,183,185,187,189,191,193,195,197,199,201,-1,-1,-1,-1,-1,203,205,207,209,-1,211,213,-1,-1,215,-1,217,-1,-1,-1,-1,-1,-1,219,221,-1,-1,-1,223,-1,-1,-1,225,227,229,-1,-1,-1,231,-1,-1,-1,233,-1,-1,235,237,239,241,-1,243,245,247,-1,-1,249,251,-1,253,255,257,-1,259,261,263,265,267,269,271,273,275,277,279,281,283,285,287,-1,289,291,293,295,297,299,-1,-1,-1,-1,-1,-1,-1,-1,-1,-1,-1,-1,-1,-1,-1,-1,-1,-1,-1,-1,-1,-1,-1,-1,-1,-1,-1,-1,-1,-1,-1,-1,-1,-1,-1,-1,-1,-1,-1,-1,-1,-1,-1,-1,-1,-1,-1,-1,-1,-1,-1,-1,-1,-1,-1,-1,-1,-1,-1,-1,-1,-1,-1,-1,-1,-1,-1,-1,-1,-1,-1,-1,-1,-1,-1,-1,-1,-1,-1,-1,-1,-1,-1,-1,-1,-1,-1,-1,-1,-1,-1,-1,-1,-1,-1,-1,-1,-1],"loss_changes":[7.75883E3,1.6786821E3,2.442796E3,3.590547E2,1.1148291E2,7.570703E1,9.162324E2,1.0736008E1,2.2607262E2,1.4581543E1,3.319716E1,4.109503E1,4.7355354E1,3.8388672E2,3.926258E2,2.9865875E0,8.510769E0,4.084125E1,8.128949E1,3.3007812E-1,5.8954926E0,2.7890701E0,1.131105E1,1.8102123E1,1.7533447E1,2.747109E1,1.3791016E1,2.2283936E1,1.3732275E2,1.0665614E2,7.385492E1,6.7193604E-1,3.5841255E0,1.2790434E1,4.8025284E0,4.641922E0,2.1727245E1,3.9460266E1,7.024746E-1,0E0,8.6468506E-1,4.17511E0,5.1636524E0,1.3650665E0,3.3508196E0,8.992077E0,8.969334E0,1.3451252E1,1.0328971E1,0E0,1.8457153E1,0E0,1.7491316E1,5.242096E0,9.4171095E0,5.967041E0,1.1063904E1,1.990896E2,6.564612E1,5.550778E1,3.5985297E2,5.213257E1,1.387062E-1,0E0,0E0,2.8517458E0,0E0,4.1764727E0,0E0,2.2705116E0,0E0,0E0,4.326954E0,1.704799E1,4.4756203E0,5.541931E0,2.7971863E1,0E0,0E0,6.1206055E-1,8.7933254E-1,8.178846E0,1.067276E0,2.5497322E0,0E0,5.2407074E-1,1.0504365E0,0E0,0E0,0E0,5.68231E0,6.5742073E0,7.1159554E0,8.004967E0,7.068454E0,9.227198E0,0E0,1.0543457E1,1.923465E1,5.403531E0,2.1484095E1,0E0,5.3405533E0,7.488216E0,2.3222961E0,4.717041E0,0E0,4.9141846E0,2.0723206E1,3.815732E1,1.0876524E2,5.131984E1,6.1734375E1,8.0782684E1,2.287524E1,2.5854187E0,9.7958565E1,5.161731E1,1.8133911E1,0E0,0E0,0E0,0E0,0E0,1.3043974E1,2.8916626E0,3.1983185E-1,1.1593952E0,0E0,4.81691E0,5.707653E0,0E0,0E0,5.198364E-1,0E0,2.0411362E1,0E0,0E0,0E0,0E0,0E0,0E0,1.573216E0,5.925751E-1,0E0,0E0,0E0,6.563816E-1,0E0,0E0,0E0,1.1598701E0,5.2840466E0,2.0409174E0,0E0,0E0,0E0,4.1794357E0,0E0,0E0,0E0,8.11676E0,0E0,0E0,1.2962585E1,1.4710102E0,7.4551883E0,2.4112206E0,0E0,6.6240196E0,1.5887171E1,6.057495E0,0E0,0E0,1.5643828E0,4.50902E-1,0E0,5.6749268E0,1.0605469E0,5.4801025E0,0E0,5.791107E0,1.6031025E1,2.307521E1,1.2018951E1,9.577927E0,1.6826342E1,7.3991013E0,8.034528E1,2.7286469E1,2.0053955E1,1.6734253E1,1.5431244E1,1.5207627E1,2.9217196E0,1.3908691E0,0E0,1.5590641E1,6.8623535E1,8.592027E1,6.7871304E0,1.7124592E1,3.0404663E1,0E0,0E0,0E0,0E0,0E0,0E0,0E0,0E0,0E0,0E0,0E0,0E0,0E0,0E0,0E0,0E0,0E0,0E0,0E0,0E0,0E0,0E0,0E0,0E0,0E0,0E0,0E0,0E0,0E0,0E0,0E0,0E0,0E0,0E0,0E0,0E0,0E0,0E0,0E0,0E0,0E0,0E0,0E0,0E0,0E0,0E0,0E0,0E0,0E0,0E0,0E0,0E0,0E0,0E0,0E0,0E0,0E0,0E0,0E0,0E0,0E0,0E0,0E0,0E0,0E0,0E0,0E0,0E0,0E0,0E0,0E0,0E0,0E0,0E0,0E0,0E0,0E0,0E0,0E0,0E0,0E0,0E0,0E0,0E0,0E0,0E0,0E0,0E0,0E0,0E0,0E0,0E0,0E0,0E0,0E0,0E0,0E0,0E0],"parents":[2147483647,0,0,1,1,2,2,3,3,4,4,5,5,6,6,7,7,8,8,9,9,10,10,11,11,12,12,13,13,14,14,15,15,16,16,17,17,18,18,19,19,20,20,21,21,22,22,23,23,24,24,25,25,26,26,27,27,28,28,29,29,30,30,31,31,32,32,33,33,34,34,35,35,36,36,37,37,38,38,40,40,41,41,42,42,43,43,44,44,45,45,46,46,47,47,48,48,50,50,52,52,53,53,54,54,55,55,56,56,57,57,58,58,59,59,60,60,61,61,62,62,65,65,67,67,69,69,72,72,73,73,74,74,75,75,76,76,79,79,80,80,81,81,82,82,83,83,85,85,86,86,90,90,91,91,92,92,93,93,94,94,95,95,97,97,98,98,99,99,100,100,102,102,103,103,104,104,105,105,107,107,108,108,109,109,110,110,111,111,112,112,113,113,114,114,115,115,116,116,117,117,118,118,124,124,125,125,126,126,127,127,129,129,130,130,133,133,135,135,142,142,143,143,147,147,151,151,152,152,153,153,157,157,161,161,164,164,165,165,166,166,167,167,169,169,170,170,171,171,174,174,175,175,177,177,178,178,179,179,181,181,182,182,183,183,184,184,185,185,186,186,187,187,188,188,189,189,190,190,191,191,192,192,193,193,194,194,195,195,197,197,198,198,199,199,200,200,201,201,202,202],"right_children":[2,4,6,8,10,12,14,16,18,20,22,24,26,28,30,32,34,36,38,40,42,44,46,48,50,52,54,56,58,60,62,64,66,68,70,72,74,76,78,-1,80,82,84,86,88,90,92,94,96,-1,98,-1,100,102,104,106,108,110,112,114,116,118,120,-1,-1,122,-1,124,-1,126,-1,-1,128,130,132,134,136,-1,-1,138,140,142,144,146,-1,148,150,-1,-1,-1,152,154,156,158,160,162,-1,164,166,168,170,-1,172,174,176,178,-1,180,182,184,186,188,190,192,194,196,198,200,202,-1,-1,-1,-1,-1,204,206,208,210,-1,212,214,-1,-1,216,-1,218,-1,-1,-1,-1,-1,-1,220,222,-1,-1,-1,224,-1,-1,-1,226,228,230,-1,-1,-1,232,-1,-1,-1,234,-1,-1,236,238,240,242,-1,244,246,248,-1,-1,250,252,-1,254,256,258,-1,260,262,264,266,268,270,272,274,276,278,280,282,284,286,288,-1,290,292,294,296,298,300,-1,-1,-1,-1,-1,-1,-1,-1,-1,-1,-1,-1,-1,-1,-1,-1,-1,-1,-1,-1,-1,-1,-1,-1,-1,-1,-1,-1,-1,-1,-1,-1,-1,-1,-1,-1,-1,-1,-1,-1,-1,-1,-1,-1,-1,-1,-1,-1,-1,-1,-1,-1,-1,-1,-1,-1,-1,-1,-1,-1,-1,-1,-1,-1,-1,-1,-1,-1,-1,-1,-1,-1,-1,-1,-1,-1,-1,-1,-1,-1,-1,-1,-1,-1,-1,-1,-1,-1,-1,-1,-1,-1,-1,-1,-1,-1,-1,-1],"split_conditions":[3.9270833E0,2E0,2E0,2E0,3.4381945E0,1.4034722E1,2E0,1.0152777E0,3.764E3,3.1215277E0,2E0,3E0,2.7E2,1.2E2,1.3734028E1,3.018841E-1,2E0,8.784722E-1,4E0,1.9118055E0,1.5E1,3.5690114E-1,5E0,3.5E1,1E0,3E1,3.1436136E-1,6E1,3E0,2E0,4E0,3E0,7E0,4.87E3,3.4069034E-1,2.035E3,2E0,9E1,8.048611E-1,-1.3919708E-1,4.5347E-1,1.5E2,3.0300343E-1,6E0,2.015E3,1.5E2,3E0,3.9971706E-1,3.922098E-1,3.924552E-2,2E0,-1.3384956E-1,2E0,1.602E3,2.3351389E1,6.731244E-1,5.3069444E0,2E0,2E0,4E0,3E0,3.02375E1,2E0,-1.3289817E-1,-8.417559E-2,2.1597221E-1,-1.17625654E-1,3.5E1,8.676078E-2,4E0,-1.3868533E-2,-1.3369003E-1,2.017E3,2.385E3,9E0,4.126445E-1,4E0,-1.3353746E-1,-6.923305E-2,6.235234E-1,4.221E3,2E0,3.5585013E-1,2E0,1.8716725E-2,6E0,2.11E2,7.425991E-3,-9.403329E-2,5.8551203E-2,3.7666667E0,2.6520297E-1,5E0,4.2541423E-1,4.21844E-1,2.0726E4,1.033072E-1,6E1,3E0,4.5275696E1,4E0,-1.3608426E-3,5E0,7.957E3,1.7101E4,4.652E3,4.9738206E-2,5.3478354E-1,4E0,4E0,1.3127084E1,2.1E2,3.843E3,2E0,2E0,1.2041667E1,2E0,4E0,2E0,-7.321282E-2,-1.3300991E-1,-7.631398E-2,1.7349597E-2,-1.1218058E-1,1.5E2,3.4E1,9E0,8E0,-5.1764473E-3,3.49E2,2E0,2.2199804E-2,1.398682E-1,4.0322256E-1,4.3775827E-2,4.63E3,-1.0155254E-1,-1.3351713E-1,-7.979541E-2,-1.1129475E-1,-4.1902702E-2,-1.195781E-1,4.862E3,3.8396567E-1,-6.389225E-2,-1.1360901E-1,-2.9194867E-2,4.621E3,-1.3520297E-1,-9.719006E-2,-3.181096E-2,6E0,2.92E3,3.3E1,1.548848E-1,5.490901E-2,-8.030101E-2,3.6765727E-1,1.5527706E-2,1.05874754E-1,-4.432858E-2,3.7635595E-1,7.225451E-2,-1.414262E-1,3.65E2,6E0,5.036111E0,3.675E3,3.393245E-2,3.5393158E-1,4E0,4.524E3,-1.2853968E-1,9.11999E-2,1.3452378E-1,2E0,-2.3788393E-2,4.374856E-1,6.254477E-1,4.073E3,5.04432E-2,3.8719139E-1,3.149275E-1,2E0,2.9E1,1.9475E4,3E0,1.2E1,2.5065971E1,1.2684722E1,4E0,4.504E3,3.1E1,1.9475E4,3.821E3,2E1,-5.9309393E-2,1E0,3.293E3,2E0,2E0,7.08243E1,4E0,8.4666215E-2,-9.912988E-2,-9.94728E-2,-2.7914083E-2,-1.3447472E-1,-8.384474E-2,-4.2950373E-2,-1.0274293E-1,-7.958295E-2,-1.777788E-2,5.7692926E-2,-3.356661E-3,1.5068117E-1,8.3615385E-2,6.1553206E-2,1.1234232E-1,-3.6649056E-2,3.5361957E-2,-1.3050206E-1,-7.7895194E-2,-1.1080273E-1,-5.058377E-2,-6.1711825E-2,-1.330005E-1,-2.0066222E-2,-1.16069295E-1,-1.9296672E-3,7.436286E-2,-1.0175238E-1,-2.4075208E-2,-5.091695E-2,7.0106946E-2,-8.084849E-2,-1.15592204E-1,-5.1969167E-2,-1.2855877E-1,-4.7446776E-2,6.69621E-2,8.374255E-3,-6.35445E-2,9.739926E-2,-6.051123E-3,1.0946695E-1,-2.5389701E-2,-9.7302556E-2,-1.8800436E-2,-6.57142E-2,5.6709745E-3,-1.3163453E-1,-6.2118966E-2,1.399471E-1,5.656118E-2,1.5384537E-1,9.72059E-2,8.936944E-2,1.435681E-1,1.3079165E-1,5.7656895E-2,8.965408E-2,-8.0026295E-3,5.8688175E-2,1.235316E-1,4.264649E-3,6.524326E-2,-8.656161E-2,-1.5681301E-1,1.2823206E-1,1.0210197E-2,1.2451972E-1,4.525746E-2,-1.6609013E-2,1.0383304E-1,5.5340953E-2,9.641661E-2,1.1963623E-1,9.3782604E-2,-1.6229725E-2,7.9896085E-2,7.57657E-2,1.3807835E-1,-1.1949905E-1,-1.4980403E-2,3.8400553E-2,1.1620392E-1,-1.0944809E-1,-1.3783865E-1,8.068116E-2,-5.2116495E-2,-1.1187425E-2,6.4374305E-2,1.2303736E-2,1.2225137E-1,2.957337E-2,-1.0345658E-2,3.5595335E-2,1.07456446E-1,1.3855796E-1,8.297095E-2],"split_indices":[31,20,2,2,31,31,21,31,1,31,2,14,3,22,31,57,15,31,2,31,29,47,28,3,15,3,56,22,20,20,2,15,6,1,57,1,30,22,31,0,40,3,56,28,7,3,8,45,42,0,30,0,8,1,31,81,31,20,15,8,20,31,15,0,0,31,0,3,0,8,0,0,7,1,13,37,19,0,0,79,1,2,56,15,0,14,17,0,0,0,31,56,12,49,45,18,0,3,20,31,8,0,8,18,18,1,0,66,8,8,31,22,1,8,30,31,15,8,8,0,0,0,0,0,3,27,12,13,0,17,21,0,0,36,0,1,0,0,0,0,0,0,1,41,0,0,0,1,0,0,0,6,3,14,0,0,0,40,0,0,0,46,0,0,22,0,31,18,0,48,12,1,0,0,32,15,0,42,86,1,0,36,55,8,27,18,25,6,31,31,8,1,13,18,1,0,0,15,1,8,20,31,8,0,0,0,0,0,0,0,0,0,0,0,0,0,0,0,0,0,0,0,0,0,0,0,0,0,0,0,0,0,0,0,0,0,0,0,0,0,0,0,0,0,0,0,0,0,0,0,0,0,0,0,0,0,0,0,0,0,0,0,0,0,0,0,0,0,0,0,0,0,0,0,0,0,0,0,0,0,0,0,0,0,0,0,0,0,0,0,0,0,0,0,0,0,0,0,0,0,0],"split_type":[0,0,0,0,0,0,0,0,0,0,0,0,0,0,0,0,0,0,0,0,0,0,0,0,0,0,0,0,0,0,0,0,0,0,0,0,0,0,0,0,0,0,0,0,0,0,0,0,0,0,0,0,0,0,0,0,0,0,0,0,0,0,0,0,0,0,0,0,0,0,0,0,0,0,0,0,0,0,0,0,0,0,0,0,0,0,0,0,0,0,0,0,0,0,0,0,0,0,0,0,0,0,0,0,0,0,0,0,0,0,0,0,0,0,0,0,0,0,0,0,0,0,0,0,0,0,0,0,0,0,0,0,0,0,0,0,0,0,0,0,0,0,0,0,0,0,0,0,0,0,0,0,0,0,0,0,0,0,0,0,0,0,0,0,0,0,0,0,0,0,0,0,0,0,0,0,0,0,0,0,0,0,0,0,0,0,0,0,0,0,0,0,0,0,0,0,0,0,0,0,0,0,0,0,0,0,0,0,0,0,0,0,0,0,0,0,0,0,0,0,0,0,0,0,0,0,0,0,0,0,0,0,0,0,0,0,0,0,0,0,0,0,0,0,0,0,0,0,0,0,0,0,0,0,0,0,0,0,0,0,0,0,0,0,0,0,0,0,0,0,0,0,0,0,0,0,0,0,0,0,0,0,0,0,0,0,0,0,0,0,0,0,0,0,0,0,0,0,0,0,0],"sum_hessian":[1.3131549E4,4.714668E3,8.416881E3,9.377566E2,3.7769111E3,1.1614421E3,7.255439E3,2.0934901E2,7.2840753E2,3.601293E3,1.7561836E2,8.465014E2,3.1494067E2,4.8051436E3,2.4502957E3,1.15571E2,9.377802E1,2.3777963E2,4.9062793E2,3.469636E3,1.316569E2,7.347256E1,1.02145805E2,1.7201892E2,6.744825E2,1.7496284E2,1.3997781E2,1.9119286E3,2.8932148E3,1.4214014E3,1.0288944E3,9.1617294E1,2.3953707E1,2.9552794E1,6.422523E1,6.063033E1,1.771493E2,4.7249133E2,1.8136578E1,2.9569895E3,5.126464E2,1.08630775E2,2.302613E1,6.090242E1,1.2570141E1,6.870443E1,3.3441376E1,1.0561772E2,6.64012E1,7.9174004E0,6.665651E2,1.3301921E1,1.6166092E2,1.04626724E2,3.5351097E1,1.3075608E3,6.043678E2,5.2339453E2,2.3698203E3,4.696095E2,9.517918E2,1.0109192E3,1.7975143E1,8.1605835E1,1.0011458E1,1.1725068E1,1.2228639E1,2.2867376E1,6.685417E0,5.6936283E1,7.288944E0,2.5717817E1,3.491251E1,1.6182301E2,1.5326292E1,1.2864552E2,3.4384583E2,1.1523606E1,6.612971E0,5.0162515E2,1.1021265E1,2.2688274E1,8.59425E1,1.6263437E1,6.7626925E0,4.775383E1,1.3148591E1,5.042978E0,7.527163E0,7.299578E0,6.1404854E1,1.896088E1,1.4480494E1,9.491228E1,1.0705445E1,5.996968E1,6.43152E0,6.2512714E2,4.143794E1,4.7509777E1,1.14151146E2,5.463113E0,9.916361E1,1.9042667E1,1.630843E1,1.2998811E3,7.679675E0,2.932322E2,3.111356E2,3.6784543E2,1.5554913E2,3.370175E2,2.0328029E3,2.98612E2,1.7099751E2,2.3944362E2,7.123482E2,4.6733948E2,5.435798E2,5.1462913E0,1.2828852E1,6.5664287E0,5.1586394E0,8.867879E0,1.3999498E1,2.6589352E1,3.0346931E1,2.7340374E1,7.572138E0,5.8417507E1,1.034055E2,5.1578283E0,1.0168464E1,1.223063E2,6.339216E0,3.3619992E2,7.6459136E0,4.9425854E2,7.3666105E0,5.99821E0,5.0230546E0,1.25525675E1,1.0135706E1,7.9822495E1,6.120007E0,9.453588E0,6.80985E0,1.4384381E1,3.3369446E1,7.8331385E0,5.3154526E0,1.5262768E1,4.6142086E1,1.3307457E1,5.6534243E0,5.4932065E0,8.9872875E0,8.808167E1,6.8305984E0,5.0220504E0,5.6833954E0,5.191438E1,8.055302E0,1.0099768E2,5.2412946E2,1.9334631E1,2.210331E1,3.9869484E1,7.6402903E0,4.787207E1,6.6279076E1,5.390015E1,4.5263462E1,8.054569E0,1.0988098E1,1.013969E1,6.1687393E0,5.9221045E2,7.076707E2,2.852828E2,7.9494114E0,2.0723389E2,1.0390172E2,2.3692685E2,1.3091856E2,9.196072E1,6.3588425E1,9.4470566E1,2.4254692E2,6.7368066E2,1.3591222E3,1.2890677E2,1.6970523E2,1.4940701E2,2.159051E1,2.3215262E2,7.291005E0,2.0881236E2,5.0353583E2,2.9856003E2,1.6877945E2,1.3607042E2,4.0750934E2,5.6056337E0,8.393865E0,1.6824306E1,9.765045E0,2.1304096E1,9.042835E0,6.29158E0,2.1048794E1,3.897283E1,1.9444677E1,1.7617374E1,8.578813E1,1.1696672E2,5.33958E0,1.9879486E2,1.3740506E2,5.0743046E0,5.0614014E0,7.20353E1,7.78719E0,8.599064E0,5.785318E0,7.3422427E0,7.9205256E0,4.0315067E1,5.8270187E0,8.295006E0,5.0124507E0,7.970925E1,8.37242E0,4.652171E1,5.392669E0,1.7278275E2,3.5134674E2,5.440231E0,1.3894401E1,8.40539E0,1.3697919E1,5.1111155E0,3.475837E1,4.0737392E1,7.134678E0,9.2871E0,5.6991978E1,4.0266556E1,1.36335945E1,5.0202327E0,5.9678655E0,5.0101666E0,5.1295238E0,5.820818E2,1.0128604E1,6.9789526E2,9.775461E0,2.6899458E1,2.5838336E2,1.9339003E2,1.3843852E1,8.308641E1,2.0815306E1,9.370311E1,1.4322375E2,7.479017E1,5.6128387E1,3.768051E1,5.428021E1,1.5188307E1,4.8400116E1,7.8854256E1,1.5616309E1,1.5862897E2,8.3917946E1,3.892027E2,2.8447794E2,8.531353E2,5.059869E2,1.0819558E2,2.0711187E1,9.2971176E1,7.6734055E1,1.4586761E1,1.3482025E2,1.04123955E1,1.1178115E1,4.829988E1,1.8385274E2,8.379603E0,2.0043275E2,1.967805E2,3.067553E2,1.16647316E2,1.819127E2,8.691378E1,8.186567E1,7.610904E1,5.9961388E1,2.0347739E2,2.0403194E2],"tree_param":{"num_deleted":"0","num_feature":"98","num_nodes":"301","size_leaf_vector":"1"}},{"base_weights":[-7.3871897E-3,-9.8224825E-1,5.20569E-1,1.4859274E-1,-1.2746722E0,-7.2555137E-1,7.164138E-1,-9.3210465E-1,4.5104837E-1,-1.3266369E0,-7.042187E-1,-8.620749E-1,-2.6775652E-1,1.1336215E0,4.4944757E-1,-1.1376346E0,-6.7459637E-1,-2.4211647E-1,8.224845E-1,-1.3379852E-1,-1.2590894E0,-1.0954815E0,-4.4301322E-1,-9.356992E-1,-6.536073E-2,6.0441965E-1,-4.9868745E-1,1.1679485E0,-1.1654553E0,2.2232762E-1,8.545417E-1,-1.1981481E0,-6.054339E-1,-8.755419E-1,-2.00499E-1,-5.580947E-1,2.7671197E-1,3.3544946E-1,1.1134073E0,-1.2675207E0,-8.0826765E-1,-5.0626504E-1,-1.1481127E0,-7.312203E-1,-4.6873715E-2,-7.4610096E-1,-1.1353165E0,1.5103844E-1,-9.5858735E-1,2.1351402E-1,9.362106E-1,-7.1686286E-1,6.0153186E-2,-5.8650553E-1,1.1962306E0,-6.680532E-2,-1.2383988E0,-1.07893236E-1,5.891615E-1,6.9651765E-1,1.1624887E0,-1.2809192E-1,-1.0001855E0,9.298998E-3,-1.09593265E-1,-2.3632912E-1,-1.03445E0,-9.88513E-2,2.070884E-1,-1.1407927E0,-3.642626E-1,-6.9707745E-1,5.512024E-1,-9.777889E-1,4.7688758E-1,-6.445371E-2,1.1461864E0,-1.2738042E0,-7.4963145E-2,-1.0558132E-1,-4.081231E-2,-3.3345611E-3,-9.114101E-2,-1.323367E-1,-1.0057436E0,1.1150113E-1,-9.0919656E-1,-1.21631764E-1,5.920509E-2,-9.0972525E-1,-3.2817373E-1,-1.1528223E0,-6.691505E-3,-9.062064E-1,4.435945E-1,-4.627899E-2,-1.2935334E-1,-3.9800745E-2,5.6715786E-1,1.1431406E0,-1.7612834E-3,-1.8820234E-1,-8.387478E-1,-5.970505E-1,6.60409E-1,9.9994E-2,-1.1342676E0,1.0018717E0,1.392845E0,-7.961665E-2,-1.376218E-1,-6.8592244E-1,4.454246E-2,-8.983922E-1,6.4734113E-1,1.2168656E-1,8.5853404E-1,1.26379E0,9.3179774E-1,-4.3054435E-2,-1.125066E0,3.8074546E-2,-7.252936E-2,-7.586385E-1,-1.1948234E-1,-8.899147E-2,9.181775E-1,-5.723242E-2,-1.2788232E-1,-9.1964805E-1,-1.5803204E-1,-1.2268744E-1,-7.2398796E-3,2.6451704E-1,9.842858E-1,-1.3002603E-1,-3.041704E-2,5.939408E-1,-1.1662769E-1,9.728196E-1,1.4240649E0,-1.2850784E-1,-1.0185575E0,-1.1141058E0,-4.9081713E-1,6.1822057E-1,-7.773688E-2,-1.0426998E0,-3.835097E-1,-4.090591E-2,1.040917E-1,-9.465829E-1,-8.767042E-3,-1.935357E-1,-9.638163E-1,-1.1854404E0,-5.250406E-1,-5.1249392E-2,-1.17776625E-1,-6.590938E-2,6.803117E-1,1.0812508E-1,-1.3231406E-2,1.296959E0,5.367886E-2,-1.10060506E-1,7.802404E-2,-6.123758E-1,-1.0787808E0,-9.3770675E-2,-9.803214E-1,-4.2874343E-3,9.5446825E-1,-7.8607164E-2,9.386928E-2,-1.3320416E-1,-3.6158808E-2,1.2971807E0,7.1357507E-1,1.4653438E0,1.2712231E0,-1.0119817E0,-5.2387637E-1,-2.9731774E-1,3.280526E-1,-1.0121157E0,4.298832E-3,4.6948144E-1,9.8699E-1,9.909116E-1,-1.2057315E0,8.9220333E-1,-1.1818843E-1,1.3595738E0,1.0766051E0,1.0711336E0,3.7419406E-1,-1.2637557E-1,-7.126162E-2,-1.0406847E-1,-1.6819445E-2,3.9155576E-2,1.2250675E-1,-1.0420089E-1,-2.3788333E-2,3.750783E-2,-5.853811E-2,5.7480868E-2,-2.0247143E-2,1.3625047E-2,1.3570568E-1,-4.7761694E-2,6.682683E-2,1.343211E-1,8.092674E-2,1.5232311E-1,1.2002386E-1,-2.1913623E-2,-1.2189128E-1,-1.18202485E-1,-5.0851315E-2,-9.523763E-2,1.0716101E-2,1.3094702E-1,-1.1661313E-2,-6.996064E-2,-1.1552199E-1,4.568411E-2,-7.822557E-2,-7.7625684E-2,6.9940323E-3,-1.0174864E-1,-4.2888798E-2,-6.88641E-2,5.9738256E-2,-3.6999658E-2,3.6211453E-2,-1.2219342E-1,-5.3108823E-2,-1.2190235E-1,-1.0131901E-1,-9.365691E-2,2.6369205E-2,9.149542E-2,-7.570254E-2,9.8451786E-2,1.6146751E-1,-6.753314E-2,3.648485E-2,-6.867754E-2,1.3037371E-2,-3.9641425E-2,-1.1400242E-1,2.7980993E-2,-4.7782417E-2,-5.6579936E-2,-1.2998778E-1,2.4276616E-2,1.1543298E-1,9.587773E-2,1.3642184E-1,4.7603298E-2,1.0119057E-1,1.4776243E-1,1.1332734E-1,1.15489446E-1,1.4359498E-1,-1.19568504E-1,-7.694575E-2,-8.8327415E-2,-2.489767E-2,-1.140248E-2,-5.774909E-2,1.726324E-2,6.717701E-2,-1.11535095E-1,-1.9513298E-2,7.054741E-2,6.546958E-3,8.234369E-2,1.1619075E-1,7.5611144E-2,1.1899956E-1,-1.2844439E-1,-5.6819476E-2,1.3223305E-2,9.5058106E-2,1.1670154E-1,1.473231E-1,8.378435E-2,1.2349903E-1,1.2171239E-1,2.0578695E-2,6.565835E-2,-8.020868E-2],"categories":[],"categories_nodes":[],"categories_segments":[],"categories_sizes":[],"default_left":[0,0,0,0,0,0,0,0,0,0,0,0,0,0,0,0,0,0,0,0,0,0,0,0,0,0,0,0,0,0,0,0,0,0,0,0,0,0,0,0,0,0,0,0,0,0,0,0,0,0,0,0,0,0,0,0,0,0,0,0,0,0,0,0,0,0,0,0,0,0,0,0,0,0,0,0,0,0,0,0,0,0,0,0,0,0,0,0,0,0,0,0,0,0,0,0,0,0,0,0,0,0,0,0,0,0,0,0,0,0,0,0,0,0,0,0,0,0,0,0,0,0,0,0,0,0,0,0,0,0,0,0,0,0,0,0,0,0,0,0,0,0,0,0,0,0,0,0,0,0,0,0,0,0,0,0,0,0,0,0,0,0,0,0,0,0,0,0,0,0,0,0,0,0,0,0,0,0,0,0,0,0,0,0,0,0,0,0,0,0,0,0,0,0,0,0,0,0,0,0,0,0,0,0,0,0,0,0,0,0,0,0,0,0,0,0,0,0,0,0,0,0,0,0,0,0,0,0,0,0,0,0,0,0,0,0,0,0,0,0,0,0,0,0,0,0,0,0,0,0,0,0,0,0,0,0,0,0,0,0,0,0,0,0,0,0,0,0,0,0,0,0,0,0,0,0,0,0,0,0,0,0,0,0,0,0,0,0,0,0,0,0,0,0,0],"id":5,"left_children":[1,3,5,7,9,11,13,15,17,19,21,23,25,27,29,31,33,35,37,-1,39,41,43,45,47,49,51,53,55,57,59,61,63,65,67,69,71,73,75,77,79,81,83,85,87,89,91,93,95,97,99,101,103,105,107,-1,109,111,113,115,117,-1,119,-1,-1,121,123,-1,125,127,129,131,133,135,137,-1,139,141,-1,-1,-1,-1,-1,-1,143,145,147,-1,149,151,153,155,-1,157,159,-1,-1,-1,161,163,-1,165,167,169,171,173,175,177,179,-1,-1,181,183,185,187,189,191,193,195,-1,197,-1,-1,199,-1,-1,201,-1,-1,203,205,-1,-1,207,209,-1,-1,211,-1,213,215,-1,217,219,221,223,-1,225,227,229,-1,231,233,235,237,239,241,-1,-1,-1,243,-1,-1,245,-1,-1,247,249,251,253,255,-1,257,-1,-1,-1,-1,259,261,263,265,267,269,271,273,275,-1,277,279,281,283,285,-1,287,289,291,293,-1,-1,-1,-1,-1,-1,-1,-1,-1,-1,-1,-1,-1,-1,-1,-1,-1,-1,-1,-1,-1,-1,-1,-1,-1,-1,-1,-1,-1,-1,-1,-1,-1,-1,-1,-1,-1,-1,-1,-1,-1,-1,-1,-1,-1,-1,-1,-1,-1,-1,-1,-1,-1,-1,-1,-1,-1,-1,-1,-1,-1,-1,-1,-1,-1,-1,-1,-1,-1,-1,-1,-1,-1,-1,-1,-1,-1,-1,-1,-1,-1,-1,-1,-1,-1,-1,-1,-1,-1,-1,-1,-1,-1,-1,-1,-1,-1,-1],"loss_changes":[6.569647E3,1.4830737E3,2.0212598E3,3.0186517E2,1.0468652E2,7.0087036E1,7.965349E2,9.923126E0,1.8589516E2,8.178711E-1,3.0134293E1,5.0747437E1,5.2648525E1,2.2168042E2,4.0144928E2,2.8454285E0,8.600121E0,4.1534515E1,6.6196625E1,0E0,8.2470703E-1,3.117218E0,2.0669525E1,2.9159668E1,1.451586E1,6.915533E0,2.516449E1,1.3720972E2,6.809006E-1,3.3906406E2,7.548901E1,3.3338928E-1,4.67238E0,6.296818E0,9.428449E0,1.7339996E1,2.6100166E1,3.3366364E1,1.7663086E1,5.9350586E-1,7.2720814E-1,2.186096E0,1.3810577E0,1.5835121E1,9.678572E0,2.77072E1,7.110504E0,1.91807E1,1.8318243E0,5.9528027E0,5.8187733E0,9.395615E0,2.3580666E1,1.6777742E1,1.0207837E2,0E0,1.0424385E0,1.2987238E2,1.1533301E2,9.662955E1,1.1213318E1,0E0,1.9068642E0,0E0,0E0,4.5359144E0,1.3618164E0,0E0,1.6226992E1,2.310318E0,1.3534251E1,7.05882E0,9.12735E0,3.4167461E0,3.1577877E1,0E0,1.2522125E1,3.9855957E-2,0E0,0E0,0E0,0E0,0E0,0E0,3.0321503E0,9.120448E0,5.6862183E0,0E0,7.114072E0,9.746323E0,9.808751E0,7.118805E0,0E0,8.3844566E-1,1.30364275E1,0E0,0E0,0E0,6.324954E0,1.5568485E0,0E0,7.146572E0,5.87043E0,5.4213343E0,6.49195E0,1.6036263E1,3.2973938E0,1.1530798E2,9.983643E0,0E0,0E0,1.57211E1,1.13206055E2,5.4311104E0,7.665509E1,2.6605157E2,5.67099E1,5.091736E0,1.2464951E1,0E0,6.410713E-1,0E0,0E0,3.4209843E0,0E0,0E0,1.5368929E0,0E0,0E0,2.4326744E0,2.0336582E1,0E0,0E0,6.906843E0,9.21924E0,0E0,0E0,1.2310867E1,0E0,9.873444E0,5.857239E-1,0E0,3.6806755E0,1.5460587E0,3.6731653E0,6.641553E0,0E0,1.8391418E0,6.772564E0,5.4548907E0,0E0,9.921982E0,5.585034E0,9.706594E0,1.6031494E0,8.3914185E-1,6.890329E0,0E0,0E0,0E0,1.4248627E1,0E0,0E0,2.5296974E-1,0E0,0E0,5.310401E0,3.6356468E0,1.9311676E0,2.065198E0,1.3998051E0,0E0,2.8546772E0,0E0,0E0,0E0,0E0,1.3963989E1,4.8632294E1,1.7313232E0,8.101318E0,3.5814972E0,2.0284367E1,2.71306E1,3.398934E1,3.5727577E0,0E0,8.0018906E1,1.156897E1,5.6100616E0,3.8510132E0,3.525769E1,0E0,3.4908752E0,3.8272858E0,1.641925E1,1.2034155E1,0E0,0E0,0E0,0E0,0E0,0E0,0E0,0E0,0E0,0E0,0E0,0E0,0E0,0E0,0E0,0E0,0E0,0E0,0E0,0E0,0E0,0E0,0E0,0E0,0E0,0E0,0E0,0E0,0E0,0E0,0E0,0E0,0E0,0E0,0E0,0E0,0E0,0E0,0E0,0E0,0E0,0E0,0E0,0E0,0E0,0E0,0E0,0E0,0E0,0E0,0E0,0E0,0E0,0E0,0E0,0E0,0E0,0E0,0E0,0E0,0E0,0E0,0E0,0E0,0E0,0E0,0E0,0E0,0E0,0E0,0E0,0E0,0E0,0E0,0E0,0E0,0E0,0E0,0E0,0E0,0E0,0E0,0E0,0E0,0E0,0E0,0E0,0E0,0E0,0E0,0E0,0E0,0E0,0E0,0E0,0E0,0E0,0E0],"parents":[2147483647,0,0,1,1,2,2,3,3,4,4,5,5,6,6,7,7,8,8,9,9,10,10,11,11,12,12,13,13,14,14,15,15,16,16,17,17,18,18,20,20,21,21,22,22,23,23,24,24,25,25,26,26,27,27,28,28,29,29,30,30,31,31,32,32,33,33,34,34,35,35,36,36,37,37,38,38,39,39,40,40,41,41,42,42,43,43,44,44,45,45,46,46,47,47,48,48,49,49,50,50,51,51,52,52,53,53,54,54,56,56,57,57,58,58,59,59,60,60,62,62,65,65,66,66,68,68,69,69,70,70,71,71,72,72,73,73,74,74,76,76,77,77,84,84,85,85,86,86,88,88,89,89,90,90,91,91,93,93,94,94,98,98,99,99,101,101,102,102,103,103,104,104,105,105,106,106,107,107,108,108,111,111,112,112,113,113,114,114,115,115,116,116,117,117,118,118,120,120,123,123,126,126,129,129,130,130,133,133,134,134,137,137,139,139,140,140,142,142,143,143,144,144,145,145,147,147,148,148,149,149,151,151,152,152,153,153,154,154,155,155,156,156,160,160,163,163,166,166,167,167,168,168,169,169,170,170,172,172,177,177,178,178,179,179,180,180,181,181,182,182,183,183,184,184,185,185,187,187,188,188,189,189,190,190,191,191,193,193,194,194,195,195,196,196],"right_children":[2,4,6,8,10,12,14,16,18,20,22,24,26,28,30,32,34,36,38,-1,40,42,44,46,48,50,52,54,56,58,60,62,64,66,68,70,72,74,76,78,80,82,84,86,88,90,92,94,96,98,100,102,104,106,108,-1,110,112,114,116,118,-1,120,-1,-1,122,124,-1,126,128,130,132,134,136,138,-1,140,142,-1,-1,-1,-1,-1,-1,144,146,148,-1,150,152,154,156,-1,158,160,-1,-1,-1,162,164,-1,166,168,170,172,174,176,178,180,-1,-1,182,184,186,188,190,192,194,196,-1,198,-1,-1,200,-1,-1,202,-1,-1,204,206,-1,-1,208,210,-1,-1,212,-1,214,216,-1,218,220,222,224,-1,226,228,230,-1,232,234,236,238,240,242,-1,-1,-1,244,-1,-1,246,-1,-1,248,250,252,254,256,-1,258,-1,-1,-1,-1,260,262,264,266,268,270,272,274,276,-1,278,280,282,284,286,-1,288,290,292,294,-1,-1,-1,-1,-1,-1,-1,-1,-1,-1,-1,-1,-1,-1,-1,-1,-1,-1,-1,-1,-1,-1,-1,-1,-1,-1,-1,-1,-1,-1,-1,-1,-1,-1,-1,-1,-1,-1,-1,-1,-1,-1,-1,-1,-1,-1,-1,-1,-1,-1,-1,-1,-1,-1,-1,-1,-1,-1,-1,-1,-1,-1,-1,-1,-1,-1,-1,-1,-1,-1,-1,-1,-1,-1,-1,-1,-1,-1,-1,-1,-1,-1,-1,-1,-1,-1,-1,-1,-1,-1,-1,-1,-1,-1,-1,-1,-1,-1],"split_conditions":[3.9270833E0,2E0,2E0,2E0,3.1215277E0,1.7E1,3E2,1.0152777E0,3.832E3,1.9118055E0,2E0,3.31125E1,4E0,4E0,1.7E1,3.2684138E-1,1.6E1,1.6E1,1.5E1,-1.3379852E-1,4.5347E-1,3E0,3.7666667E0,2E1,3.5436866E-1,1.8E1,1.3127084E1,1E0,4.233333E0,1.2984028E1,1.2984028E1,4.535E3,7E0,3E0,6E1,8.784722E-1,2.5138888E-1,1E0,6.0416665E-2,6.235234E-1,1.4013E4,1.1677E4,1.4E1,1.5E2,1.602E3,1E1,3.9461493E-1,3E0,7E0,2E0,1.7E1,6.03E2,4.305E3,4E0,1.7E1,-6.680532E-2,1.2E1,1.2E1,1E0,3E0,4E0,-1.2809192E-1,4.676E3,9.298998E-3,-1.09593265E-1,1E0,3E0,-9.88513E-2,3.925E3,3E0,2E0,2.228E3,1.8E1,4.74E3,4E0,-6.445371E-2,1.8E1,4.3659756E-1,-7.4963145E-2,-1.0558132E-1,-4.081231E-2,-3.3345611E-3,-9.114101E-2,-1.323367E-1,6E0,2E0,3.0263394E-1,-1.21631764E-1,1.7E1,2E0,3.7200323E-1,2E0,-6.691505E-3,3.4E1,3.999E3,-4.627899E-2,-1.2935334E-1,-3.9800745E-2,4E0,5E0,-1.7612834E-3,1.03E2,4E0,1E0,3E0,2E0,3.3426452E-1,6E1,9E1,-7.961665E-2,-1.376218E-1,3.25E3,3.653E3,2E0,5.2058334E1,2E0,4E0,1.154E3,3.019735E-1,-4.3054435E-2,1.5E1,3.8074546E-2,-7.252936E-2,2E0,-1.1948234E-1,-8.899147E-2,5E0,-5.723242E-2,-1.2788232E-1,3.230803E-1,4E0,-1.2268744E-1,-7.2398796E-3,4E0,2.035E3,-1.3002603E-1,-3.041704E-2,1.1388889E-1,-1.1662769E-1,9E1,3E2,-1.2850784E-1,4.4658968E-1,3.103716E-1,9.56E2,3E0,-7.773688E-2,7.98E2,1.2E1,3.565E3,1.040917E-1,2.001875E1,3E0,1.3734028E1,1.433404E-1,2.9948032E-1,4.052E3,-5.1249392E-2,-1.17776625E-1,-6.590938E-2,3.5944644E-1,1.0812508E-1,-1.3231406E-2,3.3E1,5.367886E-2,-1.10060506E-1,1.6E1,2E0,1.1880338E-1,2.5996529E1,9.34E2,-4.2874343E-3,2E0,-7.8607164E-2,9.386928E-2,-1.3320416E-1,-3.6158808E-2,1.604861E1,4.652E3,4.2888203E-1,3.2E1,3E0,1.1E1,4E0,4.565E3,3.587046E-1,4.298832E-3,4E0,1.0064445E2,2.3E1,4.0423122E-1,2.44E3,-1.1818843E-1,2E0,1.8E1,6E0,1.2E1,-1.2637557E-1,-7.126162E-2,-1.0406847E-1,-1.6819445E-2,3.9155576E-2,1.2250675E-1,-1.0420089E-1,-2.3788333E-2,3.750783E-2,-5.853811E-2,5.7480868E-2,-2.0247143E-2,