{"learner":{"attributes":{"best_iteration":"242","best_score":"-0.871841"},"feature_names":[],"feature_types":[],"gradient_booster":{"model":{"gbtree_model_param":{"num_parallel_tree":"1","num_trees":"293"},"iteration_indptr":[0,1,2,3,4,5,6,7,8,9,10,11,12,13,14,15,16,17,18,19,20,21,22,23,24,25,26,27,28,29,30,31,32,33,34,35,36,37,38,39,40,41,42,43,44,45,46,47,48,49,50,51,52,53,54,55,56,57,58,59,60,61,62,63,64,65,66,67,68,69,70,71,72,73,74,75,76,77,78,79,80,81,82,83,84,85,86,87,88,89,90,91,92,93,94,95,96,97,98,99,100,101,102,103,104,105,106,107,108,109,110,111,112,113,114,115,116,117,118,119,120,121,122,123,124,125,126,127,128,129,130,131,132,133,134,135,136,137,138,139,140,141,142,143,144,145,146,147,148,149,150,151,152,153,154,155,156,157,158,159,160,161,162,163,164,165,166,167,168,169,170,171,172,173,174,175,176,177,178,179,180,181,182,183,184,185,186,187,188,189,190,191,192,193,194,195,196,197,198,199,200,201,202,203,204,205,206,207,208,209,210,211,212,213,214,215,216,217,218,219,220,221,222,223,224,225,226,227,228,229,230,231,232,233,234,235,236,237,238,239,240,241,242,243,244,245,246,247,248,249,250,251,252,253,254,255,256,257,258,259,260,261,262,263,264,265,266,267,268,269,270,271,272,273,274,275,276,277,278,279,280,281,282,283,284,285,286,287,288,289,290,291,292,293],"tree_info":[0,0,0,0,0,0,0,0,0,0,0,0,0,0,0,0,0,0,0,0,0,0,0,0,0,0,0,0,0,0,0,0,0,0,0,0,0,0,0,0,0,0,0,0,0,0,0,0,0,0,0,0,0,0,0,0,0,0,0,0,0,0,0,0,0,0,0,0,0,0,0,0,0,0,0,0,0,0,0,0,0,0,0,0,0,0,0,0,0,0,0,0,0,0,0,0,0,0,0,0,0,0,0,0,0,0,0,0,0,0,0,0,0,0,0,0,0,0,0,0,0,0,0,0,0,0,0,0,0,0,0,0,0,0,0,0,0,0,0,0,0,0,0,0,0,0,0,0,0,0,0,0,0,0,0,0,0,0,0,0,0,0,0,0,0,0,0,0,0,0,0,0,0,0,0,0,0,0,0,0,0,0,0,0,0,0,0,0,0,0,0,0,0,0,0,0,0,0,0,0,0,0,0,0,0,0,0,0,0,0,0,0,0,0,0,0,0,0,0,0,0,0,0,0,0,0,0,0,0,0,0,0,0,0,0,0,0,0,0,0,0,0,0,0,0,0,0,0,0,0,0,0,0,0,0,0,0,0,0,0,0,0,0,0,0,0,0,0,0,0,0,0,0,0,0,0,0,0,0,0,0,0,0,0,0,0,0,0,0,0,0,0,0],"trees":[{"base_weights":[-2.6029935E-3,-1.3134359E0,8.244949E-1,2.2035074E-1,-1.6501583E0,-1.0697889E0,1.1626291E0,-1.3118068E0,7.201434E-1,-1.7037296E0,-9.921962E-1,-1.2416934E0,-5.179811E-1,1.5678405E0,3.7576926E-1,-1.5265458E0,-1.0236667E0,-3.8743165E-1,1.2763467E0,-1.2878118E-1,-1.6215852E0,-1.4749383E0,-6.304734E-1,-6.8814915E-1,-1.3726337E0,9.018774E-2,-1.0068663E0,2.06626E0,1.2283114E0,-9.24921E-2,1.0727284E0,-1.5850376E0,-9.566155E-1,-1.2422736E0,-4.69452E-1,-1.2432541E0,-6.7603946E-2,1.3952355E0,-1.4141816E0,-1.6295918E0,-1.1558163E0,-8.079877E-1,-1.5280797E0,-9.912874E-1,-9.523118E-2,-9.96914E-1,6.026897E-1,5.0949013E-1,-1.3918191E0,-1.1919959E-1,2.4972416E-1,-1.1954794E0,-3.383682E-1,-6.5959394E-1,2.1019094E0,8.472668E-1,1.6270398E0,5.138759E-1,-3.8217896E-1,-1.0559028E0,1.1494616E0,-1.6142049E0,-5.6217164E-1,4.1207064E-2,-1.2209542E0,-5.141542E-1,-1.4062706E0,-1.3192168E0,1.7747426E-2,-1.29493E0,6.380925E-2,-4.4575095E-1,1.030298E0,-3.3504855E-2,1.5747325E0,-1.5778136E0,-4.3301773E-1,-1.6311074E0,-3.755121E-2,1.4194794E-2,-1.3359884E0,-1.0755833E0,2.2594722E-1,-1.5477959E0,-1.8788453E-2,1.2556002E-1,-1.2086E0,-2.2849879E-1,1.404836E0,-2.5301325E-1,-1.1258413E0,5.933409E-2,1.1860337E0,-8.919686E-2,1.253575E0,-1.4382466E0,-6.0959876E-1,-3.9694753E-2,1.1764321E0,2.2296794E-1,-1.282115E0,-7.489289E-1,9.350721E-1,4.2138416E-1,-1.4236203E0,1.9291245E0,2.265715E0,-1.1309401E0,9.3040884E-1,9.139905E-1,1.7536436E0,8.199966E-2,1.2242099E0,-1.5862015E0,7.093376E-2,-1.120043E0,3.0022433E-2,1.2006558E0,-1.479427E0,-1.6299528E0,-1.6246477E-2,6.380925E-2,-9.4577946E-2,2.8917804E-2,-1.493277E0,-7.452329E-1,7.507733E-2,-1.4488417E0,1.4194794E-2,-1.09878674E-1,-3.764388E-3,-1.2349724E0,9.7485715E-1,-1.415089E0,-5.476023E-1,-5.6446713E-1,9.126633E-1,4.7043554E-2,1.3406851E0,-1.1122864E0,4.7167698E-1,1.2243093E0,1.9444902E0,-1.22007154E-1,-3.755121E-2,-8.187649E-2,2.8917804E-2,-1.6326295E0,-3.755121E-2,-3.764388E-3,-1.1078312E-1,-4.2329082E-1,-1.086197E-1,6.380925E-2,-3.755121E-2,-1.5606669E0,-3.5020694E-2,8.166587E-1,-1.0943206E-1,-1.3630373E0,-5.461156E-1,-1.1214169E-1,-8.7014124E-2,-3.764388E-3,1.3075142E-1,2.6855823E-1,-1.1937541E0,-1.1710052E0,3.575035E-1,-3.4328774E-1,1.2039628E-1,1.7652335E0,-1.9663794E-2,1.5578675E0,-3.764388E-3,-1.5210823E0,-1.1331265E0,-1.3905679E0,1.4171955E-1,-8.261469E-1,2.925993E-1,-1.7180756E-1,1.6474136E0,-8.9142233E-1,1.3238508E-1,-1.3127953E0,9.6342936E-2,3.4600794E-1,-1.0120555E0,1.396924E0,-3.5551557E-1,-6.6794825E-1,1.1893109E0,-3.764388E-3,-1.5382764E0,1.5136579E0,2.124548E0,2.2696722E0,-3.755121E-2,-1.2304212E0,1.5953657E-1,7.45858E-1,1.406927E0,1.9458483E0,-5.8936745E-1,1.2066443E0,1.8348507E0,4.380006E-1,-4.6252218E-1,7.7739495E-1,1.587151E0,-1.6032832E0,2.2594722E-1,-6.1478484E-1,3.6792505E-1,-1.2364137E0,-2.2901501E-1,9.750265E-1,1.6364648E0,-8.534329E-1,-1.2081715E-1,-1.2281864E-1,-3.755121E-2,-1.17181145E-1,-3.755121E-2,-9.061757E-2,7.0715793E-3,-1.1266287E-1,-3.757319E-2,-1.0519989E-1,-3.764388E-3,8.845629E-2,-3.755121E-2,-1.08336955E-1,-3.764388E-3,-9.870022E-2,-3.9704405E-3,-8.8423505E-2,-2.4874387E-2,9.045027E-2,-4.668775E-2,-2.9551389E-2,1.1743482E-1,1.1723953E-1,1.6174655E-3,-9.702725E-2,1.5797812E-2,1.2182886E-1,9.121016E-3,4.6271935E-2,1.12417705E-1,1.6235653E-1,1.2249996E-1,-1.2256186E-1,-3.755121E-2,-7.0273384E-2,2.8917804E-2,-1.2147512E-1,-9.189865E-2,-1.7176127E-2,9.459077E-2,-1.0471691E-1,3.0022433E-2,3.134777E-2,-7.303924E-2,-1.3728497E-2,1.1328906E-1,-4.8727375E-2,7.780588E-2,-3.764388E-3,-1.02824755E-1,-9.030115E-2,7.507733E-2,-4.668775E-2,7.508944E-2,-4.3433703E-2,8.431496E-2,1.4644824E-1,2.8917804E-2,-8.919686E-2,5.9005745E-2,3.0022433E-2,1.3502972E-1,-1.1561593E-1,-2.9276235E-2,-8.7583154E-2,1.1965243E-2,1.780898E-2,-1.2325976E-1,9.6369416E-2,-1.5711306E-2,1.1965243E-2,-7.450477E-2,1.20193124E-1,8.564421E-3,-9.207824E-2,3.1919096E-2,1.3701479E-1,-2.6479345E-2,3.0022433E-2,-1.0041971E-1,-6.517589E-2,-1.06384136E-1,-3.755121E-2,4.4636063E-2,-4.4762537E-2,1.0416547E-1,-8.5433245E-2,4.4636063E-2,-3.764388E-3,1.2615319E-1,3.0022433E-2,-7.1338035E-2,6.380925E-2,-9.870022E-2,1.0912625E-1,-3.764388E-3,-3.755121E-2,-1.19799696E-1,8.676514E-2,1.4018026E-1,1.6214298E-1,1.267965E-1,1.7036416E-1,6.661632E-2,-5.2005544E-2,-1.0611536E-1,-6.042995E-2,7.508944E-2,7.294808E-2,2.52689E-2,9.1568545E-2,1.2869114E-1,1.2149729E-1,1.6508402E-1,-9.316225E-2,9.325267E-2,1.1863402E-1,1.1782372E-2,1.0842369E-1,1.4993238E-1,-1.3916266E-2,7.233935E-2,-4.612219E-2,5.838186E-2,2.9081544E-2,1.0657039E-1,1.2335589E-1,-8.804089E-3,-1.2101806E-1,1.2192301E-3,-3.755121E-2,6.380925E-2,-3.3048335E-2,-9.36321E-2,-4.3720175E-2,4.0915098E-2,-9.848824E-2,1.2192301E-3,6.380925E-2,-5.857508E-2,5.0460078E-2,1.0704359E-1,1.2607643E-1,5.4055057E-2,1.2192301E-3,-9.4577946E-2],"categories":[],"categories_nodes":[],"categories_segments":[],"categories_sizes":[],"default_left":[0,0,0,0,0,0,0,0,0,0,0,0,0,0,0,0,0,0,0,0,0,0,0,0,0,0,0,0,0,0,0,0,0,0,0,0,0,0,0,0,0,0,0,0,0,0,0,0,0,0,0,0,0,0,0,0,0,0,0,0,0,0,0,0,0,0,0,0,0,0,0,0,0,0,0,0,0,0,0,0,0,0,0,0,0,0,0,0,0,0,0,0,0,0,0,0,0,0,0,0,0,0,0,0,0,0,0,0,0,0,0,0,0,0,0,0,0,0,0,0,0,0,0,0,0,0,0,0,0,0,0,0,0,0,0,0,0,0,0,0,0,0,0,0,0,0,0,0,0,0,0,0,0,0,0,0,0,0,0,0,0,0,0,0,0,0,0,0,0,0,0,0,0,0,0,0,0,0,0,0,0,0,0,0,0,0,0,0,0,0,0,0,0,0,0,0,0,0,0,0,0,0,0,0,0,0,0,0,0,0,0,0,0,0,0,0,0,0,0,0,0,0,0,0,0,0,0,0,0,0,0,0,0,0,0,0,0,0,0,0,0,0,0,0,0,0,0,0,0,0,0,0,0,0,0,0,0,0,0,0,0,0,0,0,0,0,0,0,0,0,0,0,0,0,0,0,0,0,0,0,0,0,0,0,0,0,0,0,0,0,0,0,0,0,0,0,0,0,0,0,0,0,0,0,0,0,0,0,0,0,0,0,0,0,0,0,0,0,0,0,0,0,0,0,0,0,0,0,0,0,0,0,0,0,0,0,0,0,0,0,0,0,0,0,0,0,0,0,0,0,0,0,0,0,0,0,0,0,0,0,0,0,0,0,0,0,0],"id":0,"left_children":[1,3,5,7,9,11,13,15,17,19,21,23,25,27,29,31,33,35,37,-1,39,41,43,45,47,49,51,53,55,57,59,61,63,65,67,69,71,73,75,77,79,81,83,85,87,89,91,93,95,-1,97,99,101,103,105,107,109,111,113,115,117,119,121,-1,123,125,127,129,131,133,-1,135,137,139,141,143,145,147,-1,-1,149,151,153,155,-1,157,159,161,163,165,167,169,171,-1,173,175,177,179,181,183,185,187,189,191,193,195,197,199,201,203,205,207,209,211,213,215,-1,217,219,221,-1,-1,-1,-1,223,225,-1,227,-1,-1,-1,229,231,233,235,237,239,241,243,245,247,249,251,-1,-1,-1,-1,253,-1,-1,-1,255,-1,-1,-1,257,-1,259,-1,261,263,-1,265,-1,-1,267,269,271,273,275,-1,277,279,281,-1,283,285,287,289,291,293,295,297,299,-1,301,303,305,307,309,311,313,315,-1,317,319,321,323,-1,325,327,329,331,333,335,337,339,341,343,345,347,349,351,353,355,357,359,361,363,365,-1,-1,-1,-1,-1,-1,-1,-1,-1,-1,-1,-1,-1,-1,-1,-1,-1,-1,-1,-1,-1,-1,-1,-1,-1,-1,-1,-1,-1,-1,-1,-1,-1,-1,-1,-1,-1,-1,-1,-1,-1,-1,-1,-1,-1,-1,-1,-1,-1,-1,-1,-1,-1,-1,-1,-1,-1,-1,-1,-1,-1,-1,-1,-1,-1,-1,-1,-1,-1,-1,-1,-1,-1,-1,-1,-1,-1,-1,-1,-1,-1,-1,-1,-1,-1,-1,-1,-1,-1,-1,-1,-1,-1,-1,-1,-1,-1,-1,-1,-1,-1,-1,-1,-1,-1,-1,-1,-1,-1,-1,-1,-1,-1,-1,-1,-1,-1,-1,-1,-1,-1,-1,-1,-1,-1,-1,-1,-1,-1,-1,-1,-1,-1,-1,-1,-1,-1,-1,-1,-1,-1,-1,-1,-1,-1,-1,-1],"loss_changes":[1.5174589E4,2.7968516E3,5.497927E3,7.48037E2,1.5481445E2,1.2270398E2,2.3213115E3,1.3307434E1,4.5407983E2,1.7167969E0,5.7862305E1,7.086597E1,9.243553E1,8.1086035E2,8.08395E2,3.0063171E0,1.2217918E1,6.749959E1,1.5883417E2,0E0,3.236084E-1,3.8504028E0,3.741323E1,7.693924E1,2.9604248E1,3.772828E1,2.1315323E1,1.904961E2,4.3336816E2,2.6057703E2,1.6379602E2,2.7178955E0,6.701997E0,8.252235E0,1.3062504E1,8.364151E0,7.552111E1,1.20621155E2,2.7282486E0,1.7480469E-1,3.51046E0,3.7596064E0,2.9312134E0,2.828254E1,1.6176134E1,1.457518E1,1.1845549E1,1.2622896E1,2.7900757E1,0E0,3.440485E1,1.6747726E1,2.1248215E1,2.197732E1,5.000586E1,2.4204492E2,1.2452734E2,1.4704483E2,5.476759E2,3.7318115E0,1.3114185E2,2.2354736E0,5.9148173E0,0E0,6.349804E0,6.1357327E0,4.4019623E0,2.0529099E0,2.6388384E1,5.1421967E0,0E0,2.2314749E1,1.4165028E1,2.9654642E1,5.1739258E1,1.2574768E-1,2.801634E0,1.7749023E-1,0E0,0E0,2.0993233E0,1.8836765E0,1.9876565E0,1.0737915E0,0E0,2.2859089E1,9.192215E0,1.3078575E1,3.3437939E0,1.2182979E1,9.245911E0,1.3321412E1,1.2658741E1,0E0,2.700985E0,1.7163696E1,2.7265682E1,2.600503E1,1.966259E1,1.628923E1,5.471939E0,9.072681E0,6.4730406E0,1.0406336E1,2.346859E0,7.324341E1,1.1870605E1,7.841263E0,1.22658325E2,3.31187E2,5.0442627E1,5.8234226E1,2.8164917E1,8.858582E0,1.4893254E2,3.235508E0,0E0,9.117175E1,1.7316437E-1,1.807251E-1,0E0,0E0,0E0,0E0,6.2618256E-3,5.528456E0,0E0,2.245369E0,0E0,0E0,0E0,1.8247194E0,4.353243E0,2.1803741E0,4.0195947E0,1.7482204E1,5.815255E0,8.804151E0,1.0356251E1,4.43524E0,1.4775535E1,3.529013E1,1.0276794E1,0E0,0E0,0E0,0E0,1.8017578E-1,0E0,0E0,0E0,2.4999943E0,0E0,0E0,0E0,5.4037476E-1,0E0,6.9910374E0,0E0,5.128952E0,8.666534E0,0E0,1.0610109E1,0E0,0E0,1.2230941E1,1.7162027E0,1.0390137E1,3.5624866E0,6.5693974E0,0E0,2.4073105E0,7.401315E0,7.9286957E-1,0E0,1.2929565E1,7.5083466E0,9.741402E0,1.0073822E1,5.0288677E0,1.618613E1,6.077702E0,8.79842E0,3.793449E0,0E0,4.5681915E0,1.3949414E0,7.329316E0,5.714405E0,3.2147875E0,1.929287E0,6.425878E0,2.4110365E0,0E0,6.871796E-2,3.6479736E1,6.687256E0,4.8486328E-1,0E0,4.5067215E0,4.9885035E0,9.390759E1,2.0408997E1,6.9489746E0,1.0606444E2,6.1235718E1,6.297046E1,5.977805E1,2.2958328E1,2.0315155E1,9.919144E0,4.5603027E0,1.9876565E0,2.38414E1,8.647225E1,2.8856506E0,3.7324638E0,8.433374E1,1.1858459E1,1.9316602E0,0E0,0E0,0E0,0E0,0E0,0E0,0E0,0E0,0E0,0E0,0E0,0E0,0E0,0E0,0E0,0E0,0E0,0E0,0E0,0E0,0E0,0E0,0E0,0E0,0E0,0E0,0E0,0E0,0E0,0E0,0E0,0E0,0E0,0E0,0E0,0E0,0E0,0E0,0E0,0E0,0E0,0E0,0E0,0E0,0E0,0E0,0E0,0E0,0E0,0E0,0E0,0E0,0E0,0E0,0E0,0E0,0E0,0E0,0E0,0E0,0E0,0E0,0E0,0E0,0E0,0E0,0E0,0E0,0E0,0E0,0E0,0E0,0E0,0E0,0E0,0E0,0E0,0E0,0E0,0E0,0E0,0E0,0E0,0E0,0E0,0E0,0E0,0E0,0E0,0E0,0E0,0E0,0E0,0E0,0E0,0E0,0E0,0E0,0E0,0E0,0E0,0E0,0E0,0E0,0E0,0E0,0E0,0E0,0E0,0E0,0E0,0E0,0E0,0E0,0E0,0E0,0E0,0E0,0E0,0E0,0E0,0E0,0E0,0E0,0E0,0E0,0E0,0E0,0E0,0E0,0E0,0E0,0E0,0E0,0E0,0E0,0E0,0E0,0E0,0E0,0E0,0E0,0E0,0E0,0E0,0E0,0E0],"parents":[2147483647,0,0,1,1,2,2,3,3,4,4,5,5,6,6,7,7,8,8,9,9,10,10,11,11,12,12,13,13,14,14,15,15,16,16,17,17,18,18,20,20,21,21,22,22,23,23,24,24,25,25,26,26,27,27,28,28,29,29,30,30,31,31,32,32,33,33,34,34,35,35,36,36,37,37,38,38,39,39,40,40,41,41,42,42,43,43,44,44,45,45,46,46,47,47,48,48,50,50,51,51,52,52,53,53,54,54,55,55,56,56,57,57,58,58,59,59,60,60,61,61,62,62,64,64,65,65,66,66,67,67,68,68,69,69,71,71,72,72,73,73,74,74,75,75,76,76,77,77,80,80,81,81,82,82,83,83,85,85,86,86,87,87,88,88,89,89,90,90,91,91,92,92,94,94,95,95,96,96,97,97,98,98,99,99,100,100,101,101,102,102,103,103,104,104,105,105,106,106,107,107,108,108,109,109,110,110,111,111,112,112,113,113,114,114,115,115,117,117,118,118,119,119,124,124,125,125,127,127,131,131,132,132,133,133,134,134,135,135,136,136,137,137,138,138,139,139,140,140,141,141,142,142,147,147,151,151,155,155,157,157,159,159,160,160,162,162,165,165,166,166,167,167,168,168,169,169,171,171,172,172,173,173,175,175,176,176,177,177,178,178,179,179,180,180,181,181,182,182,183,183,185,185,186,186,187,187,188,188,189,189,190,190,191,191,192,192,194,194,195,195,196,196,197,197,199,199,200,200,201,201,202,202,203,203,204,204,205,205,206,206,207,207,208,208,209,209,210,210,211,211,212,212,213,213,214,214,215,215,216,216,217,217,218,218,219,219],"right_children":[2,4,6,8,10,12,14,16,18,20,22,24,26,28,30,32,34,36,38,-1,40,42,44,46,48,50,52,54,56,58,60,62,64,66,68,70,72,74,76,78,80,82,84,86,88,90,92,94,96,-1,98,100,102,104,106,108,110,112,114,116,118,120,122,-1,124,126,128,130,132,134,-1,136,138,140,142,144,146,148,-1,-1,150,152,154,156,-1,158,160,162,164,166,168,170,172,-1,174,176,178,180,182,184,186,188,190,192,194,196,198,200,202,204,206,208,210,212,214,216,-1,218,220,222,-1,-1,-1,-1,224,226,-1,228,-1,-1,-1,230,232,234,236,238,240,242,244,246,248,250,252,-1,-1,-1,-1,254,-1,-1,-1,256,-1,-1,-1,258,-1,260,-1,262,264,-1,266,-1,-1,268,270,272,274,276,-1,278,280,282,-1,284,286,288,290,292,294,296,298,300,-1,302,304,306,308,310,312,314,316,-1,318,320,322,324,-1,326,328,330,332,334,336,338,340,342,344,346,348,350,352,354,356,358,360,362,364,366,-1,-1,-1,-1,-1,-1,-1,-1,-1,-1,-1,-1,-1,-1,-1,-1,-1,-1,-1,-1,-1,-1,-1,-1,-1,-1,-1,-1,-1,-1,-1,-1,-1,-1,-1,-1,-1,-1,-1,-1,-1,-1,-1,-1,-1,-1,-1,-1,-1,-1,-1,-1,-1,-1,-1,-1,-1,-1,-1,-1,-1,-1,-1,-1,-1,-1,-1,-1,-1,-1,-1,-1,-1,-1,-1,-1,-1,-1,-1,-1,-1,-1,-1,-1,-1,-1,-1,-1,-1,-1,-1,-1,-1,-1,-1,-1,-1,-1,-1,-1,-1,-1,-1,-1,-1,-1,-1,-1,-1,-1,-1,-1,-1,-1,-1,-1,-1,-1,-1,-1,-1,-1,-1,-1,-1,-1,-1,-1,-1,-1,-1,-1,-1,-1,-1,-1,-1,-1,-1,-1,-1,-1,-1,-1,-1,-1,-1],"split_conditions":[3.9270833E0,2E0,2E0,2E0,3.1215277E0,1.5079166E1,2E0,1.0152777E0,3.764E3,1.9118055E0,2E0,3E0,6E1,1.2E2,1.4034722E1,3.2684138E-1,1.6E1,8.784722E-1,4E0,-1.2878118E-1,4.5347E-1,3E0,3.7666667E0,1.7E1,1E0,3E1,1.7E1,1E0,1.7E1,2E0,1E0,1.9E1,1.3110948E-1,3E0,6E1,4.8247138E-1,1.7E1,1.2E1,9.7152776E-1,6.8420804E-1,4.5502135E-1,3.1893563E-1,5.4587835E-1,1.5E2,1.7E1,4.2069445E0,4E0,8E0,2E0,-1.1919959E-1,1.7E1,1E0,3.0794132E-1,4E0,1.7E1,1E0,3E0,1.6E1,3E0,5.536361E-1,4E0,5.553474E-1,6E0,4.1207064E-2,3E0,4.3948606E-1,2E0,3.015903E-1,3.925E3,1.8E1,6.380925E-2,2E0,2.008E3,1E0,1.7E1,1.553E3,1.2E2,6.668015E-1,-3.755121E-2,1.4194794E-2,3E0,1.0495E4,1E0,5.730897E-1,-1.8788453E-2,3E0,3.0263394E-1,1.602E3,1.1715803E-1,2E0,4.2116302E-1,3.6540094E-1,3.049822E-1,-8.919686E-2,3.1239903E-1,1.7E1,3E0,2E0,1.2E1,1.2E1,4.015E3,2E0,2.3351389E1,2E0,5.256E3,1.604861E1,6.8565553E-1,2E0,3.02375E1,2E0,2E0,4E0,2.3E1,6E0,2E0,4.1E1,3.0022433E-2,5.0143055E1,2E0,4.7740555E-1,-1.6246477E-2,6.380925E-2,-9.4577946E-2,2.8917804E-2,1.61E3,3.2E1,7.507733E-2,3.8670194E-1,1.4194794E-2,-1.09878674E-1,-3.764388E-3,3.584175E-1,2.018E3,4.6042025E-1,1E0,2E0,3.6687016E-1,1.9E1,1.42E3,1.669E3,9E1,4.197E3,1.8E2,-1.22007154E-1,-3.755121E-2,-8.187649E-2,2.8917804E-2,6.633976E-1,-3.755121E-2,-3.764388E-3,-1.1078312E-1,1.3E1,-1.086197E-1,6.380925E-2,-3.755121E-2,6E0,-3.5020694E-2,4.4E3,-1.0943206E-1,5.3E1,1.2E1,-1.1214169E-1,5.135825E-1,-3.764388E-3,1.3075142E-1,4.577E3,2E0,5.7385397E-1,6.7930555E0,3.6081862E-1,1.2039628E-1,2E0,3.175912E-1,1.3E1,-3.764388E-3,3.9104542E-1,4.6449226E-1,2E0,2.4E2,3.796E3,4E0,1.8910418E1,4.9E1,1E1,1.3238508E-1,2.7E2,4E0,2.2061806E1,4.9E1,3E0,1.095E3,1E0,9E0,-3.764388E-3,8.17E2,4.652E3,6E1,7.7582604E-1,-3.755121E-2,3E0,1.4013E4,4E0,7.7395836E1,4.139E3,1.2984028E1,1.9E1,3.843E3,2E0,2E0,1.8E1,4.4E1,6.479708E-1,3.8995048E-1,4E0,1.2E1,1.8E1,7.64E2,1.6E1,5E1,1.3E1,-1.2081715E-1,-1.2281864E-1,-3.755121E-2,-1.17181145E-1,-3.755121E-2,-9.061757E-2,7.0715793E-3,-1.1266287E-1,-3.757319E-2,-1.0519989E-1,-3.764388E-3,8.845629E-2,-3.755121E-2,-1.08336955E-1,-3.764388E-3,-9.870022E-2,-3.9704405E-3,-8.8423505E-2,-2.4874387E-2,9.045027E-2,-4.668775E-2,-2.9551389E-2,1.1743482E-1,1.1723953E-1,1.6174655E-3,-9.702725E-2,1.5797812E-2,1.2182886E-1,9.121016E-3,4.6271935E-2,1.12417705E-1,1.6235653E-1,1.2249996E-1,-1.2256186E-1,-3.755121E-2,-7.0273384E-2,2.8917804E-2,-1.2147512E-1,-9.189865E-2,-1.7176127E-2,9.459077E-2,-1.0471691E-1,3.0022433E-2,3.134777E-2,-7.303924E-2,-1.3728497E-2,1.1328906E-1,-4.8727375E-2,7.780588E-2,-3.764388E-3,-1.02824755E-1,-9.030115E-2,7.507733E-2,-4.668775E-2,7.508944E-2,-4.3433703E-2,8.431496E-2,1.4644824E-1,2.8917804E-2,-8.919686E-2,5.9005745E-2,3.0022433E-2,1.3502972E-1,-1.1561593E-1,-2.9276235E-2,-8.7583154E-2,1.1965243E-2,1.780898E-2,-1.2325976E-1,9.6369416E-2,-1.5711306E-2,1.1965243E-2,-7.450477E-2,1.20193124E-1,8.564421E-3,-9.207824E-2,3.1919096E-2,1.3701479E-1,-2.6479345E-2,3.0022433E-2,-1.0041971E-1,-6.517589E-2,-1.06384136E-1,-3.755121E-2,4.4636063E-2,-4.4762537E-2,1.0416547E-1,-8.5433245E-2,4.4636063E-2,-3.764388E-3,1.2615319E-1,3.0022433E-2,-7.1338035E-2,6.380925E-2,-9.870022E-2,1.0912625E-1,-3.764388E-3,-3.755121E-2,-1.19799696E-1,8.676514E-2,1.4018026E-1,1.6214298E-1,1.267965E-1,1.7036416E-1,6.661632E-2,-5.2005544E-2,-1.0611536E-1,-6.042995E-2,7.508944E-2,7.294808E-2,2.52689E-2,9.1568545E-2,1.2869114E-1,1.2149729E-1,1.6508402E-1,-9.316225E-2,9.325267E-2,1.1863402E-1,1.1782372E-2,1.0842369E-1,1.4993238E-1,-1.3916266E-2,7.233935E-2,-4.612219E-2,5.838186E-2,2.9081544E-2,1.0657039E-1,1.2335589E-1,-8.804089E-3,-1.2101806E-1,1.2192301E-3,-3.755121E-2,6.380925E-2,-3.3048335E-2,-9.36321E-2,-4.3720175E-2,4.0915098E-2,-9.848824E-2,1.2192301E-3,6.380925E-2,-5.857508E-2,5.0460078E-2,1.0704359E-1,1.2607643E-1,5.4055057E-2,1.2192301E-3,-9.4577946E-2],"split_indices":[31,20,2,2,31,31,21,31,1,31,2,14,22,22,31,57,9,31,2,0,40,0,31,9,15,3,9,9,9,20,9,9,32,14,3,58,9,9,31,74,40,47,97,22,9,31,0,9,10,0,9,15,56,8,9,9,20,9,20,67,2,52,0,0,6,62,10,45,1,9,0,10,11,9,9,16,3,79,0,0,14,18,8,69,0,21,56,1,32,15,48,40,43,0,57,9,20,8,13,9,3,15,31,8,18,31,85,10,31,20,15,8,27,19,15,14,0,31,15,47,0,0,0,0,16,13,0,49,0,0,0,40,7,35,20,8,47,9,16,16,22,1,3,0,0,0,0,94,0,0,0,9,0,0,0,28,0,1,0,13,9,0,51,0,0,1,6,60,31,41,0,15,43,13,0,56,40,20,3,18,12,31,13,9,0,22,8,31,13,19,22,8,12,0,16,1,22,37,0,8,18,8,31,1,31,9,1,8,10,9,14,86,38,2,9,29,16,9,27,9,0,0,0,0,0,0,0,0,0,0,0,0,0,0,0,0,0,0,0,0,0,0,0,0,0,0,0,0,0,0,0,0,0,0,0,0,0,0,0,0,0,0,0,0,0,0,0,0,0,0,0,0,0,0,0,0,0,0,0,0,0,0,0,0,0,0,0,0,0,0,0,0,0,0,0,0,0,0,0,0,0,0,0,0,0,0,0,0,0,0,0,0,0,0,0,0,0,0,0,0,0,0,0,0,0,0,0,0,0,0,0,0,0,0,0,0,0,0,0,0,0,0,0,0,0,0,0,0,0,0,0,0,0,0,0,0,0,0,0,0,0,0,0,0,0,0,0],"split_type":[0,0,0,0,0,0,0,0,0,0,0,0,0,0,0,0,0,0,0,0,0,0,0,0,0,0,0,0,0,0,0,0,0,0,0,0,0,0,0,0,0,0,0,0,0,0,0,0,0,0,0,0,0,0,0,0,0,0,0,0,0,0,0,0,0,0,0,0,0,0,0,0,0,0,0,0,0,0,0,0,0,0,0,0,0,0,0,0,0,0,0,0,0,0,0,0,0,0,0,0,0,0,0,0,0,0,0,0,0,0,0,0,0,0,0,0,0,0,0,0,0,0,0,0,0,0,0,0,0,0,0,0,0,0,0,0,0,0,0,0,0,0,0,0,0,0,0,0,0,0,0,0,0,0,0,0,0,0,0,0,0,0,0,0,0,0,0,0,0,0,0,0,0,0,0,0,0,0,0,0,0,0,0,0,0,0,0,0,0,0,0,0,0,0,0,0,0,0,0,0,0,0,0,0,0,0,0,0,0,0,0,0,0,0,0,0,0,0,0,0,0,0,0,0,0,0,0,0,0,0,0,0,0,0,0,0,0,0,0,0,0,0,0,0,0,0,0,0,0,0,0,0,0,0,0,0,0,0,0,0,0,0,0,0,0,0,0,0,0,0,0,0,0,0,0,0,0,0,0,0,0,0,0,0,0,0,0,0,0,0,0,0,0,0,0,0,0,0,0,0,0,0,0,0,0,0,0,0,0,0,0,0,0,0,0,0,0,0,0,0,0,0,0,0,0,0,0,0,0,0,0,0,0,0,0,0,0,0,0,0,0,0,0,0,0,0,0,0,0,0,0,0,0,0,0,0,0,0,0,0,0,0,0,0,0,0,0],"sum_hessian":[1.3994283E4,5.4137188E3,8.580564E3,9.746206E2,4.439098E3,1.2993314E3,7.281233E3,2.3932486E2,7.352957E2,4.1034087E3,3.356891E2,9.897461E2,3.0958536E2,4.805526E3,2.475707E3,1.3466597E2,1.0465888E2,2.4591177E2,4.8938394E2,3.5125376E3,5.9087134E2,1.424727E2,1.932164E2,1.9053284E2,7.9921326E2,1.3832538E2,1.7126E2,1.9450939E3,2.8604321E3,1.4813257E3,9.9438135E2,1.2051629E2,1.4149686E1,7.416387E1,3.0495012E1,6.611319E1,1.797986E2,4.6913525E2,2.0248688E1,5.784294E2,1.2441965E1,1.1710085E1,1.3076262E2,1.14905205E2,7.831119E1,1.5393883E2,3.6594013E1,7.806723E0,7.9140656E2,1.1222164E1,1.2710321E2,1.3295825E2,3.8301735E1,2.488393E1,1.92021E3,1.4642485E3,1.3961836E3,4.7864972E2,1.002676E3,3.4154415E1,9.602269E2,1.1661293E2,3.9033616E0,1.9516808E0,1.2198005E1,1.4393645E1,5.9770226E1,1.0490284E1,2.0004728E1,6.489339E1,1.2198005E0,1.3417805E2,4.5620537E1,5.245142E1,4.1668384E2,1.6833246E1,3.4154413E0,5.772096E2,1.2198005E0,1.4637606E0,1.0978205E1,9.270484E0,2.439601E0,1.2856697E2,2.1956408E0,1.8784927E1,9.612028E1,7.270011E1,5.611082E0,2.3176208E1,1.3076262E2,1.9516808E1,1.7077208E1,2.1956408E0,5.611082E0,7.462739E2,4.5132618E1,9.758404E1,2.9519173E1,7.562763E0,1.2539549E2,2.9275211E1,9.026524E0,1.0490284E1,1.4393645E1,9.4071014E2,9.794998E2,5.8550423E1,1.4056981E3,2.1175737E2,1.1844263E3,2.983632E2,1.8028651E2,2.7347928E2,7.291967E2,3.2934612E1,1.2198005E0,9.4241785E2,1.7809088E1,1.1514916E2,1.4637606E0,1.2198005E0,2.683561E0,1.7077206E0,1.0490284E1,1.2929885E1,1.4637606E0,5.8306465E1,1.4637606E0,9.270484E0,1.2198005E0,8.538604E0,1.1466125E1,5.5134983E1,9.758404E0,1.2393173E2,1.0246325E1,1.1222164E1,3.4398373E1,1.6345327E1,3.6106094E1,2.1614865E2,2.005352E2,1.5613446E1,1.2198005E0,1.7077206E0,1.7077206E0,5.759898E2,1.2198005E0,1.2198005E0,9.758404E0,4.1473217E0,5.1231623E0,1.2198005E0,1.2198005E0,1.2661529E2,1.9516808E0,1.3417806E1,5.367122E0,7.709139E1,1.9028887E1,6.3429627E0,6.635715E1,1.2198005E0,4.3912816E0,1.5369486E1,7.806723E0,1.2710321E2,3.6594014E0,1.6101366E1,3.4154413E0,1.1222164E1,5.8550425E0,4.3912816E0,1.2198005E0,5.837965E2,1.6247743E2,2.1712448E1,2.342017E1,2.8543331E1,6.904071E1,7.806723E0,2.1712448E1,4.635242E0,2.9275212E0,1.2271193E2,2.683561E0,5.611082E0,2.366413E1,6.5869226E0,2.439601E0,4.3912816E0,6.0990024E0,1.2198005E0,1.3173845E1,3.0373032E2,6.369798E2,9.7827997E2,1.2198005E0,5.4403103E1,4.1473217E0,1.015118E3,3.905801E2,1.2539549E2,8.636188E1,1.5515862E2,1.0292677E3,1.8053047E2,1.17832726E2,8.2214554E1,9.807196E1,2.7103967E2,2.439601E0,2.20052E2,5.091447E2,2.878729E1,4.1473217E0,6.230741E2,3.1934378E2,4.3912816E0,1.3417806E1,1.1392937E2,1.2198005E0,9.270484E0,1.2198005E0,8.050683E0,4.879202E0,5.464706E1,3.6594014E0,7.318803E0,1.2198005E0,1.0246325E1,1.2198005E0,5.391518E1,1.2198005E0,3.1714814E0,6.5869226E0,3.2934612E1,9.0997116E1,8.782563E0,1.4637606E0,9.270484E0,1.9516808E0,2.9275211E1,5.1231623E0,1.4393645E1,1.9516808E0,7.562763E0,2.8543331E1,6.830883E1,1.4783981E2,1.1392937E2,8.6605835E1,5.7477E2,1.2198005E0,2.439601E0,1.7077206E0,1.04414925E2,2.2200369E1,4.1473217E0,9.270484E0,7.587159E1,1.2198005E0,5.8550425E0,1.3173845E1,6.3429626E1,2.9275212E0,7.074843E0,8.294643E0,1.2198005E0,6.5869226E0,1.2563945E2,1.4637606E0,1.4637606E0,2.1956408E0,1.4393645E1,1.7077206E0,9.514443E0,1.7077206E0,2.1956408E0,3.6594014E0,1.2198005E0,3.1714814E0,5.7306226E2,1.0734244E1,1.5833011E2,4.1473217E0,2.9275212E0,1.8784927E1,4.879202E0,1.8540968E1,4.1473217E0,2.439601E1,7.318803E0,6.1721905E1,2.439601E0,5.367122E0,2.0004728E1,1.7077206E0,1.2198005E0,3.4154413E0,2.5371851E1,9.734008E1,1.2198005E0,1.4637606E0,3.1714814E0,2.439601E0,2.2200369E1,1.4637606E0,1.2198005E0,5.367122E0,1.2198005E0,1.2198005E0,1.2198005E0,3.1714814E0,4.879202E0,1.2198005E0,1.2198005E0,1.1954044E1,1.5369485E2,1.5003546E2,5.828207E2,5.415914E1,9.763283E2,1.9516808E0,1.5125526E1,3.9277576E1,1.9516808E0,2.1956408E0,6.5210535E2,3.6301263E2,2.4688762E2,1.436925E2,5.8306465E1,6.708903E1,6.3917545E1,2.2444328E1,1.1392937E2,4.1229256E1,3.0836557E2,7.209021E2,8.2946434E1,9.758404E1,1.0539076E2,1.2441965E1,5.2207462E1,3.0007092E1,9.4900475E1,3.1714814E0,2.6933194E2,1.7077206E0,1.2198005E0,1.2198005E0,1.7394354E2,4.610846E1,7.977495E1,4.2936978E2,2.707957E1,1.7077206E0,1.2198005E0,2.9275212E0,3.7496667E2,2.4810742E2,3.0373032E2,1.5613446E1,1.7077206E0,2.683561E0],"tree_param":{"num_deleted":"0","num_feature":"98","num_nodes":"367","size_leaf_vector":"1"}},{"base_weights":[-3.4437492E-3,-1.2395868E0,7.570394E-1,2.0263205E-1,-1.5635575E0,-1.005225E0,1.0638068E0,-1.2388748E0,6.6194755E-1,-1.6154804E0,-9.3235016E-1,-1.1792219E0,-5.108476E-1,1.429213E0,3.461808E-1,-1.4451686E0,-9.6395046E-1,-3.1206644E-1,1.1924907E0,-1.2213356E-1,-1.5358382E0,-1.3955154E0,-5.89088E-1,-6.552079E-1,-1.3041587E0,3.3725824E-2,-9.333155E-1,1.8761526E0,1.1227852E0,-6.6664E-2,1.0126158E0,-1.5306679E0,-1.0638402E0,-1.1712475E0,-4.4334242E-1,-1.1546038E0,-9.595557E-3,1.3004365E0,-1.3318943E0,-1.5434834E0,-1.0930301E0,-7.648063E-1,-1.4462328E0,-9.3150026E-1,-8.700961E-2,-9.3549126E-1,5.0516295E-1,4.7759333E-1,-1.3232512E0,-1.1609397E-1,2.2515815E-1,-1.13595E0,-2.8735822E-1,-6.203729E-1,1.9079075E0,7.768427E-1,1.4825759E0,-9.252803E-1,1.1318844E-1,-9.639074E-1,1.0830729E0,-1.547126E0,-1.5547372E-2,3.380102E-2,-1.1497087E0,-4.7991154E-1,-1.3288051E0,-1.2510756E0,1.3060005E-2,-1.2021621E0,6.086753E-2,-3.5443074E-1,9.75037E-1,5.2227546E-3,1.460587E0,-1.4932008E0,-4.1437244E-1,-1.5449082E0,-3.613062E-2,-1.3253978E0,-3.861766E-2,-1.0222958E0,2.1627499E-1,-1.4652001E0,-1.7858548E-2,2.6100057E-1,-1.1123232E0,8.696794E-1,-2.7500352E-1,-2.3859039E-1,-1.0615777E0,5.216221E-3,1.0475643E0,-8.555638E-2,1.173147E0,-1.3674546E0,-5.9464777E-1,-4.441694E-2,1.0538538E0,-1.182026E0,1.5851538E-1,-1.132831E0,1.5741846E-1,3.944944E-1,-1.351961E0,1.7533132E0,2.0541563E0,-1.0649259E0,8.5239756E-1,8.4010893E-1,1.5955795E0,-4.387245E-1,-1.0870117E0,6.239256E-1,-1.5931864E-1,-1.027426E0,2.8712014E-2,1.1299415E0,-1.3916821E0,-1.5714462E0,-6.8026525E-1,-1.2416879E0,3.132027E-2,-7.7101517E-1,6.496975E-1,-1.3699731E0,1.3544227E-2,-1.3916881E0,-3.6104654E-3,-1.1715384E0,8.9712435E-1,-1.319827E0,-4.877221E-1,-4.6318167E-1,9.013613E-1,5.056477E-2,1.2373257E0,-1.0110203E0,4.540442E-1,1.1480287E0,1.7792645E0,-1.1585521E-1,-3.3615217E-2,-8.05864E-2,2.9851599E-2,-1.546339E0,-3.613062E-2,-1.1059322E-1,-3.1310763E-2,-7.0138834E-2,6.567656E-2,-4.0151417E-1,-1.0356131E-1,6.086753E-2,-3.613062E-2,-1.4774712E0,-3.341539E-2,1.1484497E0,-1.03525095E-1,-1.2525635E0,-5.24353E-1,1.5401161E0,-2.3493795E-1,-1.0681712E-1,-1.3389084E-1,2.494163E-1,-1.132662E0,-1.0942509E0,7.694457E-2,-3.973325E-1,1.1203068E-1,1.3986237E0,-5.255666E-1,1.455188E0,-3.6104654E-3,-1.4444519E0,-1.0839312E0,-1.3161379E0,1.0923521E-1,-7.47726E-1,2.4261287E-1,-5.9180338E-2,1.482746E0,-1.3405873E0,-7.847893E-1,7.9546624E-1,-5.601815E-2,-1.3554376E0,6.625832E-2,-5.908321E-1,7.3993415E-1,-6.3010657E-1,1.1037722E0,-3.6104654E-3,-1.4628074E0,1.3801868E0,1.928086E0,2.057718E0,-3.613062E-2,-1.1601562E0,1.5005237E-1,7.4807256E-1,1.6039548E0,1.7702318E0,-5.507278E-1,1.4289143E0,1.8381833E0,-1.2149172E0,-8.035831E-2,-1.5916516E0,-7.275012E-1,3.3256716E-1,1.3303063E0,-1.4474169E0,2.315249E-1,-1.1406511E0,-2.1179414E-1,9.2483103E-1,1.4903456E0,-7.257997E-1,-1.1452521E-1,-1.18529685E-1,-4.1832488E-2,2.8622018E-2,-8.813334E-2,-1.00396104E-1,1.49913E-2,-9.170533E-2,6.0639955E-4,1.0272831E-1,-3.414446E-2,-1.06578484E-1,-3.5538767E-2,-1.10157356E-1,-3.3429433E-2,-1.0065916E-1,-2.9863967E-4,8.149044E-2,-3.613062E-2,-1.01106234E-1,6.660881E-4,-8.221818E-2,1.4894879E-2,2.8608188E-2,-4.6740986E-2,8.765046E-2,-4.4821866E-2,-2.7675344E-2,1.1047001E-1,1.07793175E-1,2.4803553E-3,-9.011104E-2,2.8127111E-2,1.1216497E-1,9.373904E-3,4.317723E-2,1.025041E-1,1.352867E-1,-3.2502948E-4,-1.16083205E-1,-3.613062E-2,-6.89296E-2,3.0315071E-2,-1.1507738E-1,-8.669878E-2,-4.7648612E-2,1.304963E-1,-9.634739E-2,3.4656662E-2,1.8202262E-2,-6.5875486E-2,1.2651986E-1,2.825779E-2,4.8773862E-2,-8.862278E-2,3.812378E-2,-2.4186043E-2,-4.5864362E-2,7.188491E-2,-9.829798E-2,-1.1894316E-3,-9.685867E-2,-5.3152367E-2,-4.796233E-2,7.972814E-2,1.2043238E-1,-1.9658536E-2,-7.995513E-2,2.7228823E-2,2.5989028E-2,1.2731822E-1,-1.0968674E-1,-4.616045E-2,-8.3900206E-2,1.1225009E-2,1.6778335E-2,-1.1708695E-1,-4.756394E-2,4.419032E-2,-6.5772235E-2,7.760471E-2,3.1169927E-2,-6.101023E-2,4.82241E-2,-8.252359E-2,1.23000816E-1,-2.5297726E-2,-1.0369757E-1,-3.796885E-3,1.0738192E-2,-7.558473E-2,-2.4065222E-3,8.8573195E-2,-7.1320147E-3,-1.1517612E-1,-9.1579154E-2,1.3601518E-2,-4.5714825E-2,7.404873E-2,6.086753E-2,-9.4378814E-2,1.0274364E-1,-7.313481E-3,-1.1422153E-1,-3.3680245E-2,7.933701E-2,1.2747236E-1,1.470973E-1,1.15576014E-1,1.5444647E-1,6.2909484E-2,-4.8760623E-2,-1.0028711E-1,-5.7839252E-2,7.069672E-2,4.5144737E-2,9.7015694E-2,6.726748E-2,1.2643133E-1,1.1078924E-1,1.4992657E-1,-8.775847E-2,8.549486E-2,5.8490198E-2,1.14091374E-1,2.8816175E-2,1.3858522E-1,-1.09727986E-1,3.7807256E-2,-5.0442513E-2,2.6616983E-2,-1.2024121E-1,-3.3017267E-2,-8.703783E-2,-3.0510824E-2,1.0278799E-2,9.470943E-2,6.993568E-2,1.2280263E-1,-1.10240676E-1,1.6220625E-2,-3.3061367E-2,3.8755655E-2,-9.125313E-2,1.1614118E-3,6.086753E-2,-5.5727065E-2,8.829214E-2,3.532059E-2,-1.2712094E-2,1.132546E-1,1.413887E-2,-8.813334E-2],"categories":[],"categories_nodes":[],"categories_segments":[],"categories_sizes":[],"default_left":[0,0,0,0,0,0,0,0,0,0,0,0,0,0,0,0,0,0,0,0,0,0,0,0,0,0,0,0,0,0,0,0,0,0,0,0,0,0,0,0,0,0,0,0,0,0,0,0,0,0,0,0,0,0,0,0,0,0,0,0,0,0,0,0,0,0,0,0,0,0,0,0,0,0,0,0,0,0,0,0,0,0,0,0,0,0,0,0,0,0,0,0,0,0,0,0,0,0,0,0,0,0,0,0,0,0,0,0,0,0,0,0,0,0,0,0,0,0,0,0,0,0,0,0,0,0,0,0,0,0,0,0,0,0,0,0,0,0,0,0,0,0,0,0,0,0,0,0,0,0,0,0,0,0,0,0,0,0,0,0,0,0,0,0,0,0,0,0,0,0,0,0,0,0,0,0,0,0,0,0,0,0,0,0,0,0,0,0,0,0,0,0,0,0,0,0,0,0,0,0,0,0,0,0,0,0,0,0,0,0,0,0,0,0,0,0,0,0,0,0,0,0,0,0,0,0,0,0,0,0,0,0,0,0,0,0,0,0,0,0,0,0,0,0,0,0,0,0,0,0,0,0,0,0,0,0,0,0,0,0,0,0,0,0,0,0,0,0,0,0,0,0,0,0,0,0,0,0,0,0,0,0,0,0,0,0,0,0,0,0,0,0,0,0,0,0,0,0,0,0,0,0,0,0,0,0,0,0,0,0,0,0,0,0,0,0,0,0,0,0,0,0,0,0,0,0,0,0,0,0,0,0,0,0,0,0,0,0,0,0,0,0,0,0,0,0,0,0,0,0,0,0,0,0,0,0,0,0,0,0,0,0,0,0,0,0,0,0,0,0,0,0,0],"id":1,"left_children":[1,3,5,7,9,11,13,15,17,19,21,23,25,27,29,31,33,35,37,-1,39,41,43,45,47,49,51,53,55,57,59,61,63,65,67,69,71,73,75,77,79,81,83,85,87,89,91,93,95,-1,97,99,101,103,105,107,109,111,113,115,117,119,-1,-1,121,123,125,127,129,131,-1,133,135,137,139,141,143,145,-1,147,149,151,153,155,-1,157,159,161,163,165,167,169,171,-1,173,175,177,179,181,183,185,187,189,191,193,195,197,199,201,203,205,207,209,211,213,215,-1,217,219,221,223,225,-1,227,229,231,-1,233,-1,235,237,239,241,243,245,247,249,251,253,255,257,-1,-1,-1,-1,259,-1,-1,-1,-1,-1,261,-1,-1,-1,263,-1,265,-1,267,269,271,273,-1,275,277,279,281,-1,283,-1,285,287,289,-1,291,293,295,297,299,301,303,305,307,309,311,-1,313,-1,315,317,319,321,-1,323,325,327,329,-1,331,333,335,337,339,341,343,345,347,349,351,353,355,357,359,361,363,365,367,369,371,-1,-1,-1,-1,-1,-1,-1,-1,-1,-1,-1,-1,-1,-1,-1,-1,-1,-1,-1,-1,-1,-1,-1,-1,-1,-1,-1,-1,-1,-1,-1,-1,-1,-1,-1,-1,-1,-1,-1,-1,-1,-1,-1,-1,-1,-1,-1,-1,-1,-1,-1,-1,-1,-1,-1,-1,-1,-1,-1,-1,-1,-1,-1,-1,-1,-1,-1,-1,-1,-1,-1,-1,-1,-1,-1,-1,-1,-1,-1,-1,-1,-1,-1,-1,-1,-1,-1,-1,-1,-1,-1,-1,-1,-1,-1,-1,-1,-1,-1,-1,-1,-1,-1,-1,-1,-1,-1,-1,-1,-1,-1,-1,-1,-1,-1,-1,-1,-1,-1,-1,-1,-1,-1,-1,-1,-1,-1,-1,-1,-1,-1,-1,-1,-1,-1,-1,-1,-1,-1,-1,-1,-1,-1,-1,-1,-1,-1,-1,-1,-1,-1,-1,-1],"loss_changes":[1.3114602E4,2.4830283E3,4.670341E3,6.467419E2,1.4070312E2,1.0959839E2,1.9286973E3,1.1996368E1,3.8301694E2,1.6367188E0,5.1987732E1,6.1133545E1,7.716597E1,6.654785E2,6.833676E2,2.7037048E0,1.0727058E1,6.673273E1,1.3241388E2,0E0,2.7209473E-1,3.3932495E0,3.3014236E1,6.0411385E1,2.6606201E1,4.4988476E1,2.4391205E1,1.5824512E2,3.5909448E2,2.3706291E2,1.3334845E2,1.9936066E0,4.1094074E0,7.41436E0,1.155011E1,7.4441986E0,6.612211E1,9.54953E1,2.3650093E0,1.1291504E-1,3.1950493E0,3.4018865E0,2.6086426E0,2.4947472E1,1.4475834E1,1.2820908E1,9.893526E0,1.1277535E1,2.3525635E1,0E0,2.962209E1,8.740738E0,1.7638609E1,1.9568638E1,4.0634277E1,2.0652997E2,1.0158325E2,2.0444183E1,1.7680167E2,3.2359047E0,1.0802905E2,1.1403809E0,0E0,0E0,4.326439E0,5.5273695E0,3.9531784E0,1.8453827E0,2.3023024E1,5.068138E0,0E0,2.0112074E1,1.218615E1,2.402545E1,3.877002E1,2.1033478E-1,2.786429E0,1.14990234E-1,0E0,8.5079193E-1,3.6245418E0,1.704217E0,1.8216207E0,9.292908E-1,0E0,2.4695696E1,7.5462494E0,1.0167439E1,1.0661301E1,1.079132E1,9.696411E0,1.2577995E1,1.0401783E1,0E0,2.3670712E0,1.3971558E1,2.2994167E1,2.0540794E1,1.5619526E1,7.677597E0,3.9453087E0,8.436201E0,1.4081289E1,9.062907E0,2.1153812E0,5.981006E1,1.0019531E1,6.9627914E0,1.101355E2,2.780307E2,4.607544E1,1.8818115E1,3.4919876E1,9.05099E1,4.1752786E2,2.7140503E0,0E0,6.524939E1,4.6924973E-1,3.6346436E-2,2.8778474E0,3.7889442E0,0E0,4.4481506E0,3.547128E0,1.9889755E0,0E0,8.078003E-2,0E0,1.8667965E0,3.8091946E0,2.1802216E0,4.892827E0,1.826588E1,5.4397297E0,7.8284135E0,9.41581E0,4.7109127E0,1.2332199E1,2.5457336E1,8.814941E0,0E0,0E0,0E0,0E0,1.1730957E-1,0E0,0E0,0E0,0E0,0E0,2.5086992E0,0E0,0E0,0E0,5.114441E-1,0E0,1.2546746E1,0E0,4.970726E0,5.8822465E0,7.9431725E-1,5.6867256E0,0E0,7.5158854E0,1.0597823E1,1.7054901E0,8.531647E0,0E0,6.526761E0,0E0,5.4377174E0,2.269982E0,8.761921E-1,0E0,7.4243164E0,6.8528595E0,8.7614975E0,8.829814E0,7.697344E0,1.356069E1,8.026505E0,7.28656E0,5.2261505E0,8.825859E0,1.2806442E0,0E0,3.2430763E0,0E0,7.160293E0,6.625804E0,5.86402E0,2.4250622E0,0E0,1.6391563E-1,3.0031738E1,5.331787E0,1.8066406E-1,0E0,4.0527725E0,4.4872627E0,9.876898E1,8.447693E0,5.667511E0,9.200783E1,4.1857666E1,6.1018066E0,9.868929E0,1.2506502E1,3.8464355E-1,1.5909264E1,5.6973164E1,1.4197067E1,7.5309143E0,1.22310265E2,2.4699974E0,3.3915284E0,6.555246E1,1.090033E1,2.2192442E0,0E0,0E0,0E0,0E0,0E0,0E0,0E0,0E0,0E0,0E0,0E0,0E0,0E0,0E0,0E0,0E0,0E0,0E0,0E0,0E0,0E0,0E0,0E0,0E0,0E0,0E0,0E0,0E0,0E0,0E0,0E0,0E0,0E0,0E0,0E0,0E0,0E0,0E0,0E0,0E0,0E0,0E0,0E0,0E0,0E0,0E0,0E0,0E0,0E0,0E0,0E0,0E0,0E0,0E0,0E0,0E0,0E0,0E0,0E0,0E0,0E0,0E0,0E0,0E0,0E0,0E0,0E0,0E0,0E0,0E0,0E0,0E0,0E0,0E0,0E0,0E0,0E0,0E0,0E0,0E0,0E0,0E0,0E0,0E0,0E0,0E0,0E0,0E0,0E0,0E0,0E0,0E0,0E0,0E0,0E0,0E0,0E0,0E0,0E0,0E0,0E0,0E0,0E0,0E0,0E0,0E0,0E0,0E0,0E0,0E0,0E0,0E0,0E0,0E0,0E0,0E0,0E0,0E0,0E0,0E0,0E0,0E0,0E0,0E0,0E0,0E0,0E0,0E0,0E0,0E0,0E0,0E0,0E0,0E0,0E0,0E0,0E0,0E0,0E0,0E0,0E0,0E0,0E0,0E0,0E0,0E0,0E0,0E0,0E0,0E0,0E0,0E0,0E0],"parents":[2147483647,0,0,1,1,2,2,3,3,4,4,5,5,6,6,7,7,8,8,9,9,10,10,11,11,12,12,13,13,14,14,15,15,16,16,17,17,18,18,20,20,21,21,22,22,23,23,24,24,25,25,26,26,27,27,28,28,29,29,30,30,31,31,32,32,33,33,34,34,35,35,36,36,37,37,38,38,39,39,40,40,41,41,42,42,43,43,44,44,45,45,46,46,47,47,48,48,50,50,51,51,52,52,53,53,54,54,55,55,56,56,57,57,58,58,59,59,60,60,61,61,64,64,65,65,66,66,67,67,68,68,69,69,71,71,72,72,73,73,74,74,75,75,76,76,77,77,79,79,80,80,81,81,82,82,83,83,85,85,86,86,87,87,88,88,89,89,90,90,91,91,92,92,94,94,95,95,96,96,97,97,98,98,99,99,100,100,101,101,102,102,103,103,104,104,105,105,106,106,107,107,108,108,109,109,110,110,111,111,112,112,113,113,114,114,115,115,117,117,118,118,119,119,120,120,121,121,123,123,124,124,125,125,127,127,129,129,130,130,131,131,132,132,133,133,134,134,135,135,136,136,137,137,138,138,139,139,140,140,145,145,151,151,155,155,157,157,159,159,160,160,161,161,162,162,164,164,165,165,166,166,167,167,169,169,171,171,172,172,173,173,175,175,176,176,177,177,178,178,179,179,180,180,181,181,182,182,183,183,184,184,185,185,187,187,189,189,190,190,191,191,192,192,194,194,195,195,196,196,197,197,199,199,200,200,201,201,202,202,203,203,204,204,205,205,206,206,207,207,208,208,209,209,210,210,211,211,212,212,213,213,214,214,215,215,216,216,217,217,218,218,219,219],"right_children":[2,4,6,8,10,12,14,16,18,20,22,24,26,28,30,32,34,36,38,-1,40,42,44,46,48,50,52,54,56,58,60,62,64,66,68,70,72,74,76,78,80,82,84,86,88,90,92,94,96,-1,98,100,102,104,106,108,110,112,114,116,118,120,-1,-1,122,124,126,128,130,132,-1,134,136,138,140,142,144,146,-1,148,150,152,154,156,-1,158,160,162,164,166,168,170,172,-1,174,176,178,180,182,184,186,188,190,192,194,196,198,200,202,204,206,208,210,212,214,216,-1,218,220,222,224,226,-1,228,230,232,-1,234,-1,236,238,240,242,244,246,248,250,252,254,256,258,-1,-1,-1,-1,260,-1,-1,-1,-1,-1,262,-1,-1,-1,264,-1,266,-1,268,270,272,274,-1,276,278,280,282,-1,284,-1,286,288,290,-1,292,294,296,298,300,302,304,306,308,310,312,-1,314,-1,316,318,320,322,-1,324,326,328,330,-1,332,334,336,338,340,342,344,346,348,350,352,354,356,358,360,362,364,366,368,370,372,-1,-1,-1,-1,-1,-1,-1,-1,-1,-1,-1,-1,-1,-1,-1,-1,-1,-1,-1,-1,-1,-1,-1,-1,-1,-1,-1,-1,-1,-1,-1,-1,-1,-1,-1,-1,-1,-1,-1,-1,-1,-1,-1,-1,-1,-1,-1,-1,-1,-1,-1,-1,-1,-1,-1,-1,-1,-1,-1,-1,-1,-1,-1,-1,-1,-1,-1,-1,-1,-1,-1,-1,-1,-1,-1,-1,-1,-1,-1,-1,-1,-1,-1,-1,-1,-1,-1,-1,-1,-1,-1,-1,-1,-1,-1,-1,-1,-1,-1,-1,-1,-1,-1,-1,-1,-1,-1,-1,-1,-1,-1,-1,-1,-1,-1,-1,-1,-1,-1,-1,-1,-1,-1,-1,-1,-1,-1,-1,-1,-1,-1,-1,-1,-1,-1,-1,-1,-1,-1,-1,-1,-1,-1,-1,-1,-1,-1,-1,-1,-1,-1,-1,-1],"split_conditions":[3.9270833E0,2E0,2E0,2E0,3.1215277E0,1.4034722E1,2E0,1.0152777E0,3.832E3,1.9118055E0,2E0,3E0,3.5E1,1.2E2,1.5079166E1,3.018841E-1,1.6E1,8.784722E-1,4E0,-1.2213356E-1,4.5347E-1,3E0,3.7666667E0,1.7E1,1E0,3E1,3.0737713E-1,1E0,1.7E1,1.2E1,1E0,5.553474E-1,1.225107E-1,3E0,6E1,4.8247138E-1,1.7E1,1.2E1,9.7152776E-1,6.8420804E-1,2.7610353E-1,3.1893563E-1,5.4587835E-1,1.2E2,2.4E2,4.2069445E0,4E0,8E0,2E0,-1.1609397E-1,1.7E1,2E0,1.2E1,4E0,1.7E1,1E0,3E0,2E0,2E0,5.536361E-1,4E0,1.9E1,-1.5547372E-2,3.380102E-2,5.300562E-1,6E0,2E0,3.015903E-1,3.925E3,1.8E1,6.086753E-2,2E0,2.008E3,1E0,1.7E1,1.9E1,1.1E1,6.668015E-1,-3.613062E-2,3.97E2,9.623E3,1.0495E4,1E0,5.730897E-1,-1.7858548E-2,3E0,3.0263394E-1,2E0,1.602E3,2E0,5.322872E-1,3.6540094E-1,1.122E3,-8.555638E-2,3.1239903E-1,1.7E1,3E0,2E0,1.2E1,1.6E1,2.6943056E1,3E0,4.388E3,2E0,5.256E3,1.604861E1,6.8565553E-1,2E0,2E0,2E0,3.2E1,1E0,3E0,1.7E1,3E0,4.1E1,2.8712014E-2,5.0143055E1,2E0,4.8041043E-1,1E1,5.0992066E-1,3.132027E-2,2.6520297E-1,7E0,3.8670194E-1,1.3544227E-2,5E0,-3.6104654E-3,3.1367302E-1,2.018E3,5.2270865E-1,1.5208334E-1,1.229194E-1,3.6687016E-1,1.9E1,1.42E3,1.669E3,9E1,4.197E3,5E0,-1.1585521E-1,-3.3615217E-2,-8.05864E-2,2.9851599E-2,6.633976E-1,-3.613062E-2,-1.1059322E-1,-3.1310763E-2,-7.0138834E-2,6.567656E-2,6E0,-1.0356131E-1,6.086753E-2,-3.613062E-2,6E0,-3.341539E-2,4.4E3,-1.03525095E-1,5.186646E-1,1.2E1,3.2153323E-1,7E0,-1.0681712E-1,3E0,4.577E3,6E0,3.5E1,7.694457E-2,3.6081862E-1,1.1203068E-1,6E0,2.5865304E-1,1.3E1,-3.6104654E-3,3.8718528E-1,4.6449226E-1,2E0,5.036111E0,2E0,3.8188836E-1,2.1E1,4.9E1,9.40125E1,3.3E2,7E0,-5.601815E-2,3.112E3,6.625832E-2,1.7E2,3E0,1E0,2.6143122E-1,-3.6104654E-3,1.4904992E-1,4.652E3,6E1,7.7582604E-1,-3.613062E-2,3E0,1.4013E4,4.1377083E1,1E0,4.139E3,1.2984028E1,2E0,2.44E3,2E0,3.392E3,5.0534046E-1,1.1E1,4.565E3,2.3E1,6E0,2E0,1.8E1,7.64E2,4E0,3.66E2,1.3E1,-1.1452521E-1,-1.18529685E-1,-4.1832488E-2,2.8622018E-2,-8.813334E-2,-1.00396104E-1,1.49913E-2,-9.170533E-2,6.0639955E-4,1.0272831E-1,-3.414446E-2,-1.06578484E-1,-3.5538767E-2,-1.10157356E-1,-3.3429433E-2,-1.0065916E-1,-2.9863967E-4,8.149044E-2,-3.613062E-2,-1.01106234E-1,6.660881E-4,-8.221818E-2,1.4894879E-2,2.8608188E-2,-4.6740986E-2,8.765046E-2,-4.4821866E-2,-2.7675344E-2,1.1047001E-1,1.07793175E-1,2.4803553E-3,-9.011104E-2,2.8127111E-2,1.1216497E-1,9.373904E-3,4.317723E-2,1.025041E-1,1.352867E-1,-3.2502948E-4,-1.16083205E-1,-3.613062E-2,-6.89296E-2,3.0315071E-2,-1.1507738E-1,-8.669878E-2,-4.7648612E-2,1.304963E-1,-9.634739E-2,3.4656662E-2,1.8202262E-2,-6.5875486E-2,1.2651986E-1,2.825779E-2,4.8773862E-2,-8.862278E-2,3.812378E-2,-2.4186043E-2,-4.5864362E-2,7.188491E-2,-9.829798E-2,-1.1894316E-3,-9.685867E-2,-5.3152367E-2,-4.796233E-2,7.972814E-2,1.2043238E-1,-1.9658536E-2,-7.995513E-2,2.7228823E-2,2.5989028E-2,1.2731822E-1,-1.0968674E-1,-4.616045E-2,-8.3900206E-2,1.1225009E-2,1.6778335E-2,-1.1708695E-1,-4.756394E-2,4.419032E-2,-6.5772235E-2,7.760471E-2,3.1169927E-2,-6.101023E-2,4.82241E-2,-8.252359E-2,1.23000816E-1,-2.5297726E-2,-1.0369757E-1,-3.796885E-3,1.0738192E-2,-7.558473E-2,-2.4065222E-3,8.8573195E-2,-7.1320147E-3,-1.1517612E-1,-9.1579154E-2,1.3601518E-2,-4.5714825E-2,7.404873E-2,6.086753E-2,-9.4378814E-2,1.0274364E-1,-7.313481E-3,-1.1422153E-1,-3.3680245E-2,7.933701E-2,1.2747236E-1,1.470973E-1,1.15576014E-1,1.5444647E-1,6.2909484E-2,-4.8760623E-2,-1.0028711E-1,-5.7839252E-2,7.069672E-2,4.5144737E-2,9.7015694E-2,6.726748E-2,1.2643133E-1,1.1078924E-1,1.4992657E-1,-8.775847E-2,8.549486E-2,5.8490198E-2,1.14091374E-1,2.8816175E-2,1.3858522E-1,-1.09727986E-1,3.7807256E-2,-5.0442513E-2,2.6616983E-2,-1.2024121E-1,-3.3017267E-2,-8.703783E-2,-3.0510824E-2,1.0278799E-2,9.470943E-2,6.993568E-2,1.2280263E-1,-1.10240676E-1,1.6220625E-2,-3.3061367E-2,3.8755655E-2,-9.125313E-2,1.1614118E-3,6.086753E-2,-5.5727065E-2,8.829214E-2,3.532059E-2,-1.2712094E-2,1.132546E-1,1.413887E-2,-8.813334E-2],"split_indices":[31,20,2,2,31,31,21,31,1,31,2,14,22,22,31,57,9,31,2,0,40,0,31,9,15,3,56,9,9,9,9,52,32,14,3,58,9,9,31,74,57,47,97,3,22,31,0,9,10,0,9,10,9,8,9,9,20,20,20,67,2,9,0,0,66,28,10,45,1,9,0,10,11,9,9,29,12,79,0,17,18,18,8,69,0,21,56,21,1,15,51,40,16,0,57,9,20,8,13,9,31,15,1,8,18,31,85,10,10,20,13,9,20,9,20,14,0,31,15,49,0,63,0,56,12,49,0,28,0,57,7,51,31,32,47,9,16,16,22,1,19,0,0,0,0,94,0,0,0,0,0,28,0,0,0,28,0,1,0,87,9,37,12,0,25,1,28,3,0,41,0,8,54,29,0,56,40,20,31,15,48,14,13,31,3,6,0,1,0,17,19,8,44,0,32,1,22,37,0,8,18,31,8,1,31,15,1,10,1,50,9,1,27,19,15,29,16,8,1,9,0,0,0,0,0,0,0,0,0,0,0,0,0,0,0,0,0,0,0,0,0,0,0,0,0,0,0,0,0,0,0,0,0,0,0,0,0,0,0,0,0,0,0,0,0,0,0,0,0,0,0,0,0,0,0,0,0,0,0,0,0,0,0,0,0,0,0,0,0,0,0,0,0,0,0,0,0,0,0,0,0,0,0,0,0,0,0,0,0,0,0,0,0,0,0,0,0,0,0,0,0,0,0,0,0,0,0,0,0,0,0,0,0,0,0,0,0,0,0,0,0,0,0,0,0,0,0,0,0,0,0,0,0,0,0,0,0,0,0,0,0,0,0,0,0,0,0,0,0,0,0,0,0],"split_type":[0,0,0,0,0,0,0,0,0,0,0,0,0,0,0,0,0,0,0,0,0,0,0,0,0,0,0,0,0,0,0,0,0,0,0,0,0,0,0,0,0,0,0,0,0,0,0,0,0,0,0,0,0,0,0,0,0,0,0,0,0,0,0,0,0,0,0,0,0,0,0,0,0,0,0,0,0,0,0,0,0,0,0,0,0,0,0,0,0,0,0,0,0,0,0,0,0,0,0,0,0,0,0,0,0,0,0,0,0,0,0,0,0,0,0,0,0,0,0,0,0,0,0,0,0,0,0,0,0,0,0,0,0,0,0,0,0,0,0,0,0,0,0,0,0,0,0,0,0,0,0,0,0,0,0,0,0,0,0,0,0,0,0,0,0,0,0,0,0,0,0,0,0,0,0,0,0,0,0,0,0,0,0,0,0,0,0,0,0,0,0,0,0,0,0,0,0,0,0,0,0,0,0,0,0,0,0,0,0,0,0,0,0,0,0,0,0,0,0,0,0,0,0,0,0,0,0,0,0,0,0,0,0,0,0,0,0,0,0,0,0,0,0,0,0,0,0,0,0,0,0,0,0,0,0,0,0,0,0,0,0,0,0,0,0,0,0,0,0,0,0,0,0,0,0,0,0,0,0,0,0,0,0,0,0,0,0,0,0,0,0,0,0,0,0,0,0,0,0,0,0,0,0,0,0,0,0,0,0,0,0,0,0,0,0,0,0,0,0,0,0,0,0,0,0,0,0,0,0,0,0,0,0,0,0,0,0,0,0,0,0,0,0,0,0,0,0,0,0,0,0,0,0,0,0,0,0,0,0,0,0,0,0,0,0,0,0,0,0,0,0,0,0],"sum_hessian":[1.3948726E4,5.3126074E3,8.636118E3,9.745559E2,4.338052E3,1.2801063E3,7.3560117E3,2.3508195E2,7.3947394E2,4.0068875E3,3.3116418E2,9.458335E2,3.3427286E2,4.873496E3,2.4825156E3,1.3187267E2,1.032093E2,2.609016E2,4.7857236E2,3.4291257E3,5.777618E2,1.3965779E2,1.915064E2,1.8329515E2,7.625383E2,1.4643457E2,1.8783827E2,1.9801827E3,2.8933135E3,1.5334625E3,9.4905316E2,1.0525822E2,2.6614447E1,7.2922905E1,3.0286392E1,6.8176796E1,1.927248E2,4.594122E2,1.9160173E1,5.655125E2,1.2249314E1,1.1591288E1,1.280665E2,1.1334857E2,7.815782E1,1.4779065E2,3.5504505E1,7.8298345E0,7.547085E2,1.5044928E1,1.3138965E2,1.4240712E2,4.543116E1,2.4637978E1,1.9555447E3,1.4766543E3,1.4166592E3,2.648626E2,1.2685999E3,3.2229942E1,9.1682324E2,1.0379824E2,1.4599749E0,1.2000421E0,2.5414404E1,1.4285686E1,5.863722E1,1.0305943E1,1.998045E1,6.694607E1,1.2307317E0,1.4321017E2,4.9514618E1,5.066805E1,4.0874414E2,1.5761728E1,3.3984456E0,5.643002E2,1.2122853E0,9.826733E0,2.4225821E0,9.14827E0,2.443017E0,1.2587745E2,2.18905E0,1.486601E1,9.848256E1,1.2240516E1,6.5917305E1,2.3085499E1,1.24705154E2,1.9000666E1,1.650384E1,2.161232E0,5.6686025E0,7.107136E2,4.399486E1,9.9853615E1,3.1536028E1,1.3759628E2,4.810831E0,1.5127824E1,3.0303337E1,1.0513836E1,1.4124143E1,9.5696313E2,9.985816E2,5.7673637E1,1.4189807E3,2.131661E2,1.203493E3,6.7002815E1,1.978598E2,4.409238E2,8.276761E2,3.1004704E1,1.2252362E0,9.0031586E2,1.6507364E1,1.00174995E2,3.623251E0,2.4201855E1,1.2125491E0,1.1610956E1,2.6747289E0,5.7170296E1,1.4669216E0,9.08686E0,1.2190827E0,8.399885E0,1.15805645E1,5.6751938E1,1.019413E1,1.3237752E2,1.0832664E1,1.1206956E1,3.8307663E1,1.5138382E1,3.5529667E1,2.0867679E2,2.0006735E2,1.4565209E1,1.1965189E0,1.6969599E0,1.7014858E0,5.630879E2,1.2122853E0,7.903932E0,1.9228E0,1.2116263E0,1.2109559E0,4.1252675E0,5.0230026E0,1.2307317E0,1.2122853E0,1.2393694E2,1.9405062E0,9.843857E0,5.0221534E0,7.860395E1,1.987861E1,7.3719373E0,4.868578E0,6.214384E0,5.970292E1,1.5400534E1,7.684964E0,1.2325185E2,1.4533037E0,1.5533061E1,3.4676044E0,1.3583483E1,2.9203568E0,4.44952E0,1.2190827E0,5.557045E2,1.5500911E2,2.1296162E1,2.26987E1,2.8475372E1,7.137824E1,9.01163E0,2.2524399E1,9.6644745E1,4.0951538E1,2.895405E0,1.9154263E0,1.3918865E1,1.2089587E0,1.3258415E1,1.7044922E1,4.346556E0,6.1672797E0,1.2190827E0,1.290506E1,3.0809695E2,6.4886615E2,9.973693E2,1.2122853E0,5.3523567E1,4.150071E0,1.2477708E3,1.7120993E2,1.2757647E2,8.558963E1,7.1748285E2,4.860102E2,2.0408806E1,4.659401E1,8.088932E1,1.1697049E2,3.1320712E2,1.2771667E2,1.9204672E2,6.356294E2,2.6875404E1,4.1293006E0,5.760467E2,3.2426917E2,3.8628244E0,1.264454E1,9.874415E1,1.4308437E0,1.224464E0,2.3987868E0,2.2744038E1,1.4578176E0,6.9891977E0,4.6217585E0,1.4743838E0,1.200345E0,5.3533455E1,3.6368418E0,7.8912206E0,1.1956395E0,7.1986284E0,1.2012569E0,1.03682785E1,1.2122853E0,5.5555912E1,1.1960233E0,5.0867405E0,5.1073895E0,2.0866009E1,1.1151151E2,9.380258E0,1.4524062E0,9.226036E0,1.9809196E0,3.2687744E1,5.6199183E0,1.3426567E1,1.711815E0,7.679322E0,2.7850344E1,5.8696587E1,1.4998021E2,1.9733888E2,2.728469E0,5.618756E2,1.2122853E0,2.4261587E0,1.6991088E0,1.0209625E2,2.1840694E1,2.4329216E0,7.410935E0,7.740703E1,1.1969196E0,6.376291E0,1.350232E1,6.1462107E0,1.2257267E0,2.677718E0,2.19086E0,1.3167623E1,4.6535297E1,7.017406E0,8.383128E0,6.4788995E0,1.2060643E0,7.998993E1,4.326192E1,1.3805823E1,1.7272379E0,1.2106551E1,1.4769309E0,1.6916916E0,1.228665E0,1.23416E0,3.21536E0,5.431224E2,1.2582114E1,1.5085422E2,4.1548967E0,2.9354088E0,1.8360754E1,8.779257E0,1.3919443E1,2.7023998E1,1.451374E0,6.1853172E1,9.52507E0,5.610307E0,3.4013228E0,2.0823982E1,1.7004158E0,9.352443E1,3.1203127E0,8.003941E0,3.2947598E1,1.2115029E0,1.6839021E0,1.9326327E0,1.1986233E1,6.9801955E0,6.27822E0,2.413795E0,1.4631126E1,1.2307317E0,3.1158247E0,4.9338236E0,1.2334559E0,1.170809E1,1.1969693E0,1.5549463E2,1.5260233E2,5.9384656E2,5.501961E1,9.953995E2,1.9698535E0,1.4993883E1,3.8529686E1,1.9317187E0,2.2183526E0,9.857668E2,2.6200394E2,1.8993465E1,1.5221646E2,5.9203217E1,6.837325E1,6.286609E1,2.2723545E1,9.0508896E1,6.2697394E2,3.46349E0,4.825467E2,1.796469E1,2.4441168E0,1.9507128E1,2.7086882E1,7.969649E1,1.19283E0,4.8655704E1,6.831478E1,2.59758E2,5.344911E1,5.7393803E1,7.032286E1,1.8960371E2,2.443017E0,1.8916492E2,4.4646445E2,2.516736E1,1.7080437E0,1.2307317E0,2.898569E0,3.6916763E2,2.0687907E2,3.7172918E0,3.2055185E2,1.4640374E0,2.3987868E0],"tree_param":{"num_deleted":"0","num_feature":"98","num_nodes":"373","size_leaf_vector":"1"}},{"base_weights":[-4.1450127E-3,-1.1766198E0,6.995318E-1,1.873583E-1,-1.4903882E0,-9.482403E-1,9.801998E-1,-1.1752651E0,6.119365E-1,-1.5413293E0,-8.7920976E-1,-1.1151438E0,-4.7902158E-1,1.3145684E0,3.1979725E-1,-1.3748101E0,-9.114908E-1,-3.3914834E-1,1.0757897E0,-1.1656151E-1,-1.4627686E0,-1.3265535E0,-5.520608E-1,-6.141028E-1,-1.2358459E0,3.042524E-2,-8.793538E-1,1.673967E0,9.869375E-1,-8.136561E-2,9.038837E-1,-1.430687E0,-8.4165174E-1,-4.2985523E-1,-1.1177574E0,-1.1099787E0,-5.984155E-2,1.1741214E0,-1.2805982E0,-1.534436E0,-1.4031887E0,-7.2555393E-1,-1.3754692E0,-8.781078E-1,-8.0650434E-2,-8.8057655E-1,4.7218788E-1,4.490678E-1,-1.2542992E0,-1.1088305E-1,2.0841245E-1,-1.0726844E0,-2.7048442E-1,-6.5130866E-1,1.7035182E0,6.9325066E-1,1.3046447E0,-3.6699462E-1,4.1949302E-1,-9.375545E-1,9.6718365E-1,-1.4580176E0,-5.005691E-1,4.2854093E-2,-1.1010784E0,-7.882124E-1,8.0156577E-1,-1.1852827E0,5.7815933E-1,-1.1589638E0,5.8126394E-2,-3.9046508E-1,8.7654686E-1,-2.919442E-2,1.3214188E0,-1.4385754E0,-4.1626823E-1,-1.5418434E0,-5.3963983E-1,-6.3353974E-1,-1.443046E0,-9.73987E-1,2.0710789E-1,-1.3939202E0,-1.6975632E-2,1.12604216E-1,-1.0764892E0,-2.0240219E-1,1.2636256E0,-2.255023E-1,-1.0003985E0,1.1805929E-2,9.667335E-1,-8.225313E-2,1.102153E0,-1.2970113E0,-5.5917627E-1,-4.152316E-2,9.723742E-1,-1.204578E0,-6.090251E-1,-5.941279E-1,8.09267E-1,1.3882649E-1,-1.2720191E0,1.5273438E0,1.865072E0,-1.0062522E0,7.627487E-1,6.5822357E-1,1.4187979E0,-8.738756E-1,-1.7699432E-1,1.0401483E0,9.299115E-2,-9.974601E-1,2.7465837E-2,1.0096473E0,-1.3447822E0,-1.4728191E0,-1.4879144E-2,5.952417E-2,-8.746699E-2,2.8021524E-2,-1.3629287E0,-9.438343E-1,9.523167E-2,1.1199929E-1,-3.9986676E-1,-1.2420549E0,2.7748259E-2,-3.158224E-2,9.758259E-2,-1.4777815E0,-8.714455E-1,-4.949514E-1,7.7331775E-1,5.3555377E-2,1.1301066E0,-9.944666E-1,4.0641257E-1,1.7873422E0,1.1282107E0,-1.115497E-1,-3.2373212E-2,3.1021241E-2,-7.8585766E-2,-1.1622299E-1,-6.4316547E-1,6.8786286E-4,-6.3453145E-2,3.7982354E-1,-1.0661131E-1,-1.448485E0,-6.3043594E-1,-3.8084856E-1,-9.9125296E-2,5.8126394E-2,-3.4775708E-2,-1.4057761E0,-3.189304E-2,7.147602E-1,-9.987593E-2,-1.2195674E0,-4.775499E-1,-1.0218056E-1,-7.7511474E-2,1.18714914E-1,-6.454444E-3,-9.63551E-1,3.354427E-1,-1.1139972E0,-2.8559723E-1,-3.6829346E-1,1.0485486E-1,1.4852724E0,-5.894531E-2,1.3658267E0,-3.4628266E-3,-1.3723989E0,-1.0216678E0,-1.2517074E0,1.0067872E-1,-6.9968903E-1,2.233699E-1,-5.854596E-2,1.366748E0,-1.2455016E0,-9.178236E-3,-9.96771E-1,8.766598E-2,-7.944111E-1,5.177807E-1,1.1634971E0,-3.252086E-1,-6.7447203E-1,7.741396E-1,-6.97946E-4,-1.367817E0,1.1901535E0,1.7737113E0,1.8678008E0,-3.4775708E-2,-4.4187504E-1,-1.2159635E0,6.188525E-1,1.2495788E0,1.5864319E0,-5.912209E-1,7.903165E-1,1.4971678E0,-3.9782757E-1,-1.0272741E0,-5.536745E-1,8.732018E-2,6.616528E-1,1.3452199E0,-1.3421212E0,4.6322814E-1,-1.1050001E0,-1.960245E-1,7.605752E-1,1.2925339E0,-1.3854203E0,-3.0742243E-2,-1.11064926E-1,-2.8755043E-2,-1.0771575E-1,-3.0070258E-2,-8.0645904E-2,5.195985E-2,2.8138934E-2,-7.103477E-2,-9.6022464E-2,3.5008438E-2,-1.1309411E-1,-3.144854E-2,-8.572991E-2,-2.4759585E-2,-8.127458E-2,-2.0625055E-2,-2.008757E-2,8.4782764E-2,-2.5921151E-2,1.0439959E-1,9.853156E-2,1.3595135E-3,-1.0334534E-1,-1.8551454E-2,1.0848331E-1,8.959158E-3,1.3623536E-1,-2.6223436E-2,-3.326478E-2,8.964383E-2,-7.3299E-2,4.309627E-3,9.798869E-2,-4.6724163E-2,-1.0885045E-1,-2.8721245E-2,-7.312898E-2,6.010651E-3,-6.5889016E-2,2.8792942E-2,-1.0961624E-1,-8.202418E-2,7.9806164E-2,-1.958803E-2,-9.394861E-2,3.3111557E-2,4.63786E-2,-5.9205417E-2,-1.2409956E-2,1.02026954E-1,-9.508658E-2,3.0058814E-2,5.5652227E-2,-5.8812138E-2,-8.5964866E-2,7.069161E-2,1.0822317E-1,-3.9009545E-2,-4.499982E-2,7.556456E-2,1.2520598E-1,2.0325664E-2,-5.681735E-2,8.256966E-2,2.4873951E-2,1.1919269E-1,-1.0425065E-1,-4.3316502E-2,-4.1214637E-2,-8.408104E-2,1.5810331E-2,-1.118422E-1,-6.0919788E-2,3.6023706E-2,-6.18324E-2,7.359252E-2,1.00509845E-1,5.6394907E-3,4.4885524E-2,-7.869663E-2,1.1336415E-1,-2.4172634E-2,-9.745968E-2,-3.2996077E-2,-4.39547E-2,6.602304E-2,-8.889716E-2,3.5932977E-2,7.045292E-2,-4.8340816E-2,1.2690947E-2,-8.0241635E-2,-3.6063183E-3,1.0269241E-1,1.2830664E-1,3.507219E-2,2.7978538E-2,-6.655686E-2,5.3646173E-2,-9.703354E-2,8.463347E-2,-4.206735E-2,-3.4628266E-3,-1.10675E-1,6.896629E-2,1.11577936E-1,-2.3734294E-2,1.334326E-1,1.434482E-1,1.2939034E-1,-7.9805896E-2,1.0823678E-1,-9.6131794E-2,3.2924533E-2,-2.744501E-4,5.7421595E-2,7.841237E-2,1.1233957E-1,1.9343281E-2,1.2214916E-1,-9.043796E-2,7.518828E-2,2.005006E-2,1.3657978E-1,8.923014E-2,1.2393727E-1,-6.677991E-2,8.078839E-3,-1.1377955E-1,-5.1140565E-2,-9.394873E-3,-5.6750353E-2,2.3690462E-2,-2.4310468E-2,2.3847697E-2,9.184026E-2,1.0473497E-1,-1.27795935E-2,-1.0422594E-1,4.2406537E-2,4.90033E-2,-9.2537865E-2,-8.82164E-2,1.1063442E-3,5.8126394E-2,-5.3067654E-2,7.705334E-2,2.0537147E-2,7.255235E-2,1.0457507E-1,-1.0740912E-1,-3.0742243E-2],"categories":[],"categories_nodes":[],"categories_segments":[],"categories_sizes":[],"default_left":[0,0,0,0,0,0,0,0,0,0,0,0,0,0,0,0,0,0,0,0,0,0,0,0,0,0,0,0,0,0,0,0,0,0,0,0,0,0,0,0,0,0,0,0,0,0,0,0,0,0,0,0,0,0,0,0,0,0,0,0,0,0,0,0,0,0,0,0,0,0,0,0,0,0,0,0,0,0,0,0,0,0,0,0,0,0,0,0,0,0,0,0,0,0,0,0,0,0,0,0,0,0,0,0,0,0,0,0,0,0,0,0,0,0,0,0,0,0,0,0,0,0,0,0,0,0,0,0,0,0,0,0,0,0,0,0,0,0,0,0,0,0,0,0,0,0,0,0,0,0,0,0,0,0,0,0,0,0,0,0,0,0,0,0,0,0,0,0,0,0,0,0,0,0,0,0,0,0,0,0,0,0,0,0,0,0,0,0,0,0,0,0,0,0,0,0,0,0,0,0,0,0,0,0,0,0,0,0,0,0,0,0,0,0,0,0,0,0,0,0,0,0,0,0,0,0,0,0,0,0,0,0,0,0,0,0,0,0,0,0,0,0,0,0,0,0,0,0,0,0,0,0,0,0,0,0,0,0,0,0,0,0,0,0,0,0,0,0,0,0,0,0,0,0,0,0,0,0,0,0,0,0,0,0,0,0,0,0,0,0,0,0,0,0,0,0,0,0,0,0,0,0,0,0,0,0,0,0,0,0,0,0,0,0,0,0,0,0,0,0,0,0,0,0,0,0,0,0,0,0,0,0,0,0,0,0,0,0,0,0,0,0,0,0,0,0,0,0,0,0,0,0,0,0,0,0,0,0,0,0,0,0,0,0,0,0,0,0,0,0,0,0,0,0,0,0,0],"id":2,"left_children":[1,3,5,7,9,11,13,15,17,19,21,23,25,27,29,31,33,35,37,-1,39,41,43,45,47,49,51,53,55,57,59,61,63,65,67,69,71,73,75,77,79,81,83,85,87,89,91,93,95,-1,97,99,101,103,105,107,109,111,113,115,117,119,121,-1,123,125,127,129,131,133,-1,135,137,139,141,143,145,147,149,151,153,155,157,159,-1,161,163,165,167,169,171,173,175,-1,177,179,181,183,185,187,189,191,193,195,197,199,201,203,205,207,209,211,213,215,217,219,-1,221,223,225,-1,-1,-1,-1,227,229,-1,-1,231,233,-1,-1,-1,235,237,239,241,243,245,247,249,251,253,-1,-1,-1,-1,-1,255,-1,-1,257,-1,259,261,263,-1,-1,-1,265,-1,267,-1,269,271,-1,273,-1,-1,275,277,279,281,283,-1,285,287,289,-1,291,293,295,297,299,301,303,305,307,309,311,313,315,317,319,321,323,325,-1,327,329,331,333,-1,335,337,339,341,343,345,347,349,351,353,355,357,359,361,363,365,367,369,371,373,375,-1,-1,-1,-1,-1,-1,-1,-1,-1,-1,-1,-1,-1,-1,-1,-1,-1,-1,-1,-1,-1,-1,-1,-1,-1,-1,-1,-1,-1,-1,-1,-1,-1,-1,-1,-1,-1,-1,-1,-1,-1,-1,-1,-1,-1,-1,-1,-1,-1,-1,-1,-1,-1,-1,-1,-1,-1,-1,-1,-1,-1,-1,-1,-1,-1,-1,-1,-1,-1,-1,-1,-1,-1,-1,-1,-1,-1,-1,-1,-1,-1,-1,-1,-1,-1,-1,-1,-1,-1,-1,-1,-1,-1,-1,-1,-1,-1,-1,-1,-1,-1,-1,-1,-1,-1,-1,-1,-1,-1,-1,-1,-1,-1,-1,-1,-1,-1,-1,-1,-1,-1,-1,-1,-1,-1,-1,-1,-1,-1,-1,-1,-1,-1,-1,-1,-1,-1,-1,-1,-1,-1,-1,-1,-1,-1,-1,-1,-1,-1,-1,-1,-1,-1],"loss_changes":[1.1407584E4,2.2196953E3,3.997088E3,5.62331E2,1.2991211E2,9.799292E1,1.6300273E3,1.0903259E1,3.271711E2,1.6455078E0,4.7080017E1,5.5318115E1,6.7706604E1,5.755E2,5.8191394E2,2.6544037E0,9.696182E0,5.2381897E1,1.1693445E2,0E0,2.5061035E-1,3.0380402E0,2.9196346E1,5.309887E1,2.3765747E1,3.978377E1,2.1587753E1,1.6162646E2,2.3856787E2,2.1088333E2,1.1876947E2,2.2139893E0,6.023488E0,1.4903315E1,8.827072E0,6.8757324E0,5.602921E1,8.4892944E1,2.1913567E0,9.723511E-1,8.874329E0,3.086279E0,2.3526E0,2.2224197E1,1.3177983E1,1.1273331E1,8.299374E0,1.011353E1,2.1198853E1,0E0,2.5312883E1,7.8724823E0,1.6600805E1,1.4908697E1,6.2811035E1,1.5854242E2,8.995459E1,9.0239006E1,1.08404045E2,3.0294704E0,9.737634E1,1.7955322E0,5.08537E0,0E0,5.442053E0,9.382726E0,7.0679026E0,6.525612E0,3.0001278E0,4.532692E0,0E0,1.663168E1,9.7985115E0,2.2769299E1,3.6381714E1,1.8615341E-1,2.825888E0,7.0251465E-1,5.707962E-1,1.4508156E1,4.2419434E-1,1.5601406E0,1.6710498E0,8.2232666E-1,0E0,1.805648E1,7.455246E0,1.0507687E1,3.0209522E0,1.02360935E1,9.71447E0,1.1009145E1,9.440592E0,0E0,2.0916119E0,1.3022827E1,2.0463203E1,1.7710794E1,1.3361933E1,5.29834E0,9.053041E0,8.443477E0,4.8235645E0,7.8164363E0,2.0341396E0,9.002222E1,8.485352E0,5.724987E0,8.916742E1,2.1749695E2,5.033545E1,1.826004E1,6.814343E1,2.0410522E1,1.876245E2,2.6173134E0,0E0,6.6726135E1,1.1857605E-1,4.01062E-1,0E0,0E0,0E0,0E0,2.0408821E-1,5.979353E0,0E0,0E0,1.896594E0,4.944412E0,0E0,0E0,0E0,2.8241348E-1,4.8900223E0,1.5658371E1,4.541124E0,6.987074E0,7.3417015E0,4.4807777E0,1.0977117E1,8.311676E0,3.2586823E1,0E0,0E0,0E0,0E0,0E0,9.447211E-1,0E0,0E0,8.658507E0,0E0,3.5601807E-1,1.0044049E0,2.2792923E0,0E0,0E0,0E0,5.2059937E-1,0E0,5.2318397E0,0E0,4.6777115E0,7.2310266E0,0E0,8.723501E0,0E0,0E0,4.9076014E0,7.1123857E0,8.117584E0,8.164412E0,5.839601E0,0E0,2.167818E0,6.398431E0,7.393446E-1,0E0,6.7925415E0,6.5785522E0,7.9471207E0,8.609597E0,6.9185114E0,1.19050045E1,7.1361365E0,6.275257E0,3.9898376E0,2.876419E0,6.5230217E0,8.579218E0,8.398815E0,3.0099201E0,2.4932632E0,1.671111E0,6.714137E0,4.6021886E0,0E0,2.1727276E0,3.6577698E1,7.7593994E0,4.3583984E0,0E0,2.0190195E1,4.7009315E0,9.072522E1,1.3226105E1,5.6050415E0,7.9885994E1,6.316964E1,4.23916E1,1.6016663E1,3.1567291E1,2.4443626E1,3.7980312E1,1.5918098E1,8.096191E0,7.3568573E0,9.132787E1,2.312107E0,3.084595E0,6.639905E1,1.3498047E1,1.8270493E-1,0E0,0E0,0E0,0E0,0E0,0E0,0E0,0E0,0E0,0E0,0E0,0E0,0E0,0E0,0E0,0E0,0E0,0E0,0E0,0E0,0E0,0E0,0E0,0E0,0E0,0E0,0E0,0E0,0E0,0E0,0E0,0E0,0E0,0E0,0E0,0E0,0E0,0E0,0E0,0E0,0E0,0E0,0E0,0E0,0E0,0E0,0E0,0E0,0E0,0E0,0E0,0E0,0E0,0E0,0E0,0E0,0E0,0E0,0E0,0E0,0E0,0E0,0E0,0E0,0E0,0E0,0E0,0E0,0E0,0E0,0E0,0E0,0E0,0E0,0E0,0E0,0E0,0E0,0E0,0E0,0E0,0E0,0E0,0E0,0E0,0E0,0E0,0E0,0E0,0E0,0E0,0E0,0E0,0E0,0E0,0E0,0E0,0E0,0E0,0E0,0E0,0E0,0E0,0E0,0E0,0E0,0E0,0E0,0E0,0E0,0E0,0E0,0E0,0E0,0E0,0E0,0E0,0E0,0E0,0E0,0E0,0E0,0E0,0E0,0E0,0E0,0E0,0E0,0E0,0E0,0E0,0E0,0E0,0E0,0E0,0E0,0E0,0E0,0E0,0E0,0E0,0E0,0E0,0E0,0E0,0E0,0E0,0E0,0E0,0E0,0E0,0E0,0E0],"parents":[2147483647,0,0,1,1,2,2,3,3,4,4,5,5,6,6,7,7,8,8,9,9,10,10,11,11,12,12,13,13,14,14,15,15,16,16,17,17,18,18,20,20,21,21,22,22,23,23,24,24,25,25,26,26,27,27,28,28,29,29,30,30,31,31,32,32,33,33,34,34,35,35,36,36,37,37,38,38,39,39,40,40,41,41,42,42,43,43,44,44,45,45,46,46,47,47,48,48,50,50,51,51,52,52,53,53,54,54,55,55,56,56,57,57,58,58,59,59,60,60,61,61,62,62,64,64,65,65,66,66,67,67,68,68,69,69,71,71,72,72,73,73,74,74,75,75,76,76,77,77,78,78,79,79,80,80,81,81,82,82,83,83,85,85,86,86,87,87,88,88,89,89,90,90,91,91,92,92,94,94,95,95,96,96,97,97,98,98,99,99,100,100,101,101,102,102,103,103,104,104,105,105,106,106,107,107,108,108,109,109,110,110,111,111,112,112,113,113,114,114,115,115,117,117,118,118,119,119,124,124,125,125,128,128,129,129,133,133,134,134,135,135,136,136,137,137,138,138,139,139,140,140,141,141,142,142,148,148,151,151,153,153,154,154,155,155,159,159,161,161,163,163,164,164,166,166,169,169,170,170,171,171,172,172,173,173,175,175,176,176,177,177,179,179,180,180,181,181,182,182,183,183,184,184,185,185,186,186,187,187,188,188,189,189,190,190,191,191,192,192,193,193,194,194,195,195,196,196,198,198,199,199,200,200,201,201,203,203,204,204,205,205,206,206,207,207,208,208,209,209,210,210,211,211,212,212,213,213,214,214,215,215,216,216,217,217,218,218,219,219,220,220,221,221,222,222,223,223],"right_children":[2,4,6,8,10,12,14,16,18,20,22,24,26,28,30,32,34,36,38,-1,40,42,44,46,48,50,52,54,56,58,60,62,64,66,68,70,72,74,76,78,80,82,84,86,88,90,92,94,96,-1,98,100,102,104,106,108,110,112,114,116,118,120,122,-1,124,126,128,130,132,134,-1,136,138,140,142,144,146,148,150,152,154,156,158,160,-1,162,164,166,168,170,172,174,176,-1,178,180,182,184,186,188,190,192,194,196,198,200,202,204,206,208,210,212,214,216,218,220,-1,222,224,226,-1,-1,-1,-1,228,230,-1,-1,232,234,-1,-1,-1,236,238,240,242,244,246,248,250,252,254,-1,-1,-1,-1,-1,256,-1,-1,258,-1,260,262,264,-1,-1,-1,266,-1,268,-1,270,272,-1,274,-1,-1,276,278,280,282,284,-1,286,288,290,-1,292,294,296,298,300,302,304,306,308,310,312,314,316,318,320,322,324,326,-1,328,330,332,334,-1,336,338,340,342,344,346,348,350,352,354,356,358,360,362,364,366,368,370,372,374,376,-1,-1,-1,-1,-1,-1,-1,-1,-1,-1,-1,-1,-1,-1,-1,-1,-1,-1,-1,-1,-1,-1,-1,-1,-1,-1,-1,-1,-1,-1,-1,-1,-1,-1,-1,-1,-1,-1,-1,-1,-1,-1,-1,-1,-1,-1,-1,-1,-1,-1,-1,-1,-1,-1,-1,-1,-1,-1,-1,-1,-1,-1,-1,-1,-1,-1,-1,-1,-1,-1,-1,-1,-1,-1,-1,-1,-1,-1,-1,-1,-1,-1,-1,-1,-1,-1,-1,-1,-1,-1,-1,-1,-1,-1,-1,-1,-1,-1,-1,-1,-1,-1,-1,-1,-1,-1,-1,-1,-1,-1,-1,-1,-1,-1,-1,-1,-1,-1,-1,-1,-1,-1,-1,-1,-1,-1,-1,-1,-1,-1,-1,-1,-1,-1,-1,-1,-1,-1,-1,-1,-1,-1,-1,-1,-1,-1,-1,-1,-1,-1,-1,-1,-1],"split_conditions":[3.9270833E0,2E0,2E0,2E0,3.1215277E0,1.4034722E1,2E0,1.0152777E0,3.764E3,1.9118055E0,2E0,3E0,3.5E1,1.8E2,1.4034722E1,3.2684138E-1,2E0,8.784722E-1,4E0,-1.1656151E-1,2E0,3E0,3.7666667E0,1.7E1,1E0,3E1,3.0737713E-1,1E0,1.7E1,1.6E1,1E0,1.9E1,1.3110948E-1,4.87E3,4.2672497E-1,4.8247138E-1,1.7E1,1.2E1,1.1E1,4.671114E-1,9E1,3.1893563E-1,5.4587835E-1,1.5E2,1.7E1,4.2069445E0,4E0,8E0,2E0,-1.1088305E-1,1.7E1,1.7E1,1.7E1,4E0,1.7E1,1E0,3E0,1.2E1,2E0,5.536361E-1,4E0,5.553474E-1,6E0,4.2854093E-2,3E0,1.8E1,5.263E3,2E0,9E0,2.035E3,5.8126394E-2,2E0,2.008E3,1E0,9E1,1.8E1,1.360912E-1,3.8354886E-1,6E0,2E0,5.7602507E-1,1.0495E4,1E0,5.730897E-1,-1.6975632E-2,3E0,3.0263394E-1,1.602E3,4.6985644E-1,1.25E2,3.566516E-1,3.6540094E-1,3.049822E-1,-8.225313E-2,3.1239903E-1,1.7E1,3E0,2E0,1.2E1,2E0,4.519E3,4.7E3,2.3351389E1,2E0,8.16E2,2.1179167E1,6.8565553E-1,3E0,4.1377083E1,2E0,2E0,2E0,3.333E3,2.3E1,3E0,4.1E1,2.7465837E-2,3.6797916E1,4.070661E-1,5.568091E-1,-1.4879144E-2,5.952417E-2,-8.746699E-2,2.8021524E-2,3.9316276E-1,3.8237312E-1,9.523167E-2,1.1199929E-1,1.48E2,5.9613425E-1,2.7748259E-2,-3.158224E-2,9.758259E-2,3.9964995E-1,1.6E1,2E0,6E0,1.9E1,1.42E3,4.74E3,9E1,5.844158E-1,1.1388889E-1,-1.115497E-1,-3.2373212E-2,3.1021241E-2,-7.8585766E-2,-1.1622299E-1,4.266E3,6.8786286E-4,-6.3453145E-2,7E0,-1.0661131E-1,5.271E3,2E0,1.3E1,-9.9125296E-2,5.8126394E-2,-3.4775708E-2,6E0,-3.189304E-2,2.7E1,-9.987593E-2,5.186646E-1,1E0,-1.0218056E-1,5.135825E-1,1.18714914E-1,-6.454444E-3,9E0,2E0,6.7315966E-1,8.22E2,3.6081862E-1,1.0485486E-1,3.9711463E-1,8.121528E0,1.3E1,-3.4628266E-3,3.8718528E-1,6.03E2,2E0,3.622E3,2E0,4E0,2.1E1,4.9E1,7.399167E1,1.6968E4,2.555E3,4E0,1E0,3.292331E-1,1E0,1.095E3,1E0,2.7E1,-6.97946E-4,5.256E3,2.5E1,3.874E3,9E1,-3.4775708E-2,2E0,2.7654E4,2E0,3.2E1,3E0,1.2984028E1,1.4913889E1,3.843E3,1.1E1,3E0,2E0,4E0,1.8E1,4.4E1,4E0,4E0,1.8E1,7.64E2,4E0,2E0,3.3826727E-1,-3.0742243E-2,-1.11064926E-1,-2.8755043E-2,-1.0771575E-1,-3.0070258E-2,-8.0645904E-2,5.195985E-2,2.8138934E-2,-7.103477E-2,-9.6022464E-2,3.5008438E-2,-1.1309411E-1,-3.144854E-2,-8.572991E-2,-2.4759585E-2,-8.127458E-2,-2.0625055E-2,-2.008757E-2,8.4782764E-2,-2.5921151E-2,1.0439959E-1,9.853156E-2,1.3595135E-3,-1.0334534E-1,-1.8551454E-2,1.0848331E-1,8.959158E-3,1.3623536E-1,-2.6223436E-2,-3.326478E-2,8.964383E-2,-7.3299E-2,4.309627E-3,9.798869E-2,-4.6724163E-2,-1.0885045E-1,-2.8721245E-2,-7.312898E-2,6.010651E-3,-6.5889016E-2,2.8792942E-2,-1.0961624E-1,-8.202418E-2,7.9806164E-2,-1.958803E-2,-9.394861E-2,3.3111557E-2,4.63786E-2,-5.9205417E-2,-1.2409956E-2,1.02026954E-1,-9.508658E-2,3.0058814E-2,5.5652227E-2,-5.8812138E-2,-8.5964866E-2,7.069161E-2,1.0822317E-1,-3.9009545E-2,-4.499982E-2,7.556456E-2,1.2520598E-1,2.0325664E-2,-5.681735E-2,8.256966E-2,2.4873951E-2,1.1919269E-1,-1.0425065E-1,-4.3316502E-2,-4.1214637E-2,-8.408104E-2,1.5810331E-2,-1.118422E-1,-6.0919788E-2,3.6023706E-2,-6.18324E-2,7.359252E-2,1.00509845E-1,5.6394907E-3,4.4885524E-2,-7.869663E-2,1.1336415E-1,-2.4172634E-2,-9.745968E-2,-3.2996077E-2,-4.39547E-2,6.602304E-2,-8.889716E-2,3.5932977E-2,7.045292E-2,-4.8340816E-2,1.2690947E-2,-8.0241635E-2,-3.6063183E-3,1.0269241E-1,1.2830664E-1,3.507219E-2,2.7978538E-2,-6.655686E-2,5.3646173E-2,-9.703354E-2,8.463347E-2,-4.206735E-2,-3.4628266E-3,-1.10675E-1,6.896629E-2,1.11577936E-1,-2.3734294E-2,1.334326E-1,1.434482E-1,1.2939034E-1,-7.9805896E-2,1.0823678E-1,-9.6131794E-2,3.2924533E-2,-2.744501E-4,5.7421595E-2,7.841237E-2,1.1233957E-1,1.9343281E-2,1.2214916E-1,-9.043796E-2,7.518828E-2,2.005006E-2,1.3657978E-1,8.923014E-2,1.2393727E-1,-6.677991E-2,8.078839E-3,-1.1377955E-1,-5.1140565E-2,-9.394873E-3,-5.6750353E-2,2.3690462E-2,-2.4310468E-2,2.3847697E-2,9.184026E-2,1.0473497E-1,-1.27795935E-2,-1.0422594E-1,4.2406537E-2,4.90033E-2,-9.2537865E-2,-8.82164E-2,1.1063442E-3,5.8126394E-2,-5.3067654E-2,7.705334E-2,2.0537147E-2,7.255235E-2,1.0457507E-1,-1.0740912E-1,-3.0742243E-2],"split_indices":[31,20,2,2,31,31,21,31,1,31,2,14,22,22,31,57,15,31,2,0,2,0,31,9,15,3,56,9,9,9,9,9,32,1,48,58,9,9,12,35,3,47,97,22,9,31,0,9,10,0,9,9,9,8,9,9,20,9,20,67,2,52,0,0,6,9,1,10,12,1,0,10,11,9,22,29,32,55,0,21,64,18,8,69,0,21,56,1,52,17,45,40,43,0,57,9,20,8,13,10,1,1,31,8,16,31,85,8,31,20,15,20,1,27,20,14,0,31,33,75,0,0,0,0,45,36,0,0,17,83,0,0,0,47,9,8,13,9,16,1,3,64,31,0,0,0,0,0,1,0,0,25,0,1,8,9,0,0,0,28,0,0,0,87,9,0,51,0,0,12,15,43,16,41,0,38,31,29,0,56,16,20,1,15,12,14,13,31,18,3,8,15,36,2,22,8,0,0,18,27,1,22,0,8,18,15,13,19,31,31,1,9,20,20,8,9,14,19,2,29,16,8,8,36,0,0,0,0,0,0,0,0,0,0,0,0,0,0,0,0,0,0,0,0,0,0,0,0,0,0,0,0,0,0,0,0,0,0,0,0,0,0,0,0,0,0,0,0,0,0,0,0,0,0,0,0,0,0,0,0,0,0,0,0,0,0,0,0,0,0,0,0,0,0,0,0,0,0,0,0,0,0,0,0,0,0,0,0,0,0,0,0,0,0,0,0,0,0,0,0,0,0,0,0,0,0,0,0,0,0,0,0,0,0,0,0,0,0,0,0,0,0,0,0,0,0,0,0,0,0,0,0,0,0,0,0,0,0,0,0,0,0,0,0,0,0,0,0,0,0,0,0,0,0,0,0,0],"split_type":[0,0,0,0,0,0,0,0,0,0,0,0,0,0,0,0,0,0,0,0,0,0,0,0,0,0,0,0,0,0,0,0,0,0,0,0,0,0,0,0,0,0,0,0,0,0,0,0,0,0,0,0,0,0,0,0,0,0,0,0,0,0,0,0,0,0,0,0,0,0,0,0,0,0,0,0,0,0,0,0,0,0,0,0,0,0,0,0,0,0,0,0,0,0,0,0,0,0,0,0,0,0,0,0,0,0,0,0,0,0,0,0,0,0,0,0,0,0,0,0,0,0,0,0,0,0,0,0,0,0,0,0,0,0,0,0,0,0,0,0,0,0,0,0,0,0,0,0,0,0,0,0,0,0,0,0,0,0,0,0,0,0,0,0,0,0,0,0,0,0,0,0,0,0,0,0,0,0,0,0,0,0,0,0,0,0,0,0,0,0,0,0,0,0,0,0,0,0,0,0,0,0,0,0,0,0,0,0,0,0,0,0,0,0,0,0,0,0,0,0,0,0,0,0,0,0,0,0,0,0,0,0,0,0,0,0,0,0,0,0,0,0,0,0,0,0,0,0,0,0,0,0,0,0,0,0,0,0,0,0,0,0,0,0,0,0,0,0,0,0,0,0,0,0,0,0,0,0,0,0,0,0,0,0,0,0,0,0,0,0,0,0,0,0,0,0,0,0,0,0,0,0,0,0,0,0,0,0,0,0,0,0,0,0,0,0,0,0,0,0,0,0,0,0,0,0,0,0,0,0,0,0,0,0,0,0,0,0,0,0,0,0,0,0,0,0,0,0,0,0,0,0,0,0,0,0,0,0,0,0,0,0,0,0,0,0,0,0,0,0,0,0,0,0,0,0,0],"sum_hessian":[1.3824651E4,5.1848765E3,8.639774E3,9.697394E2,4.215137E3,1.2570992E3,7.382676E3,2.2995699E2,7.3978235E2,3.889434E3,3.257029E2,9.262507E2,3.3084863E2,4.900508E3,2.4821677E3,1.2851982E2,1.0143716E2,2.4260785E2,4.971745E2,3.3274778E3,5.619565E2,1.3628787E2,1.8941502E2,1.8099963E2,7.4525104E2,1.4599069E2,1.8485794E2,2.334996E3,2.5655117E3,1.4720165E3,1.01015125E3,1.148045E2,1.3715326E1,3.134054E1,7.009662E1,6.373582E1,1.7887204E2,4.777402E2,1.9434301E1,2.4386372E2,3.1809274E2,1.1449326E1,1.2483855E2,1.1146113E2,7.7953896E1,1.4549756E2,3.550207E1,7.820787E0,7.3743024E2,1.4633179E1,1.3135751E2,1.3972891E2,4.512903E1,2.9038237E1,2.3059578E3,1.3348059E3,1.2307058E3,9.3759393E2,5.344226E2,3.311125E1,9.7704E2,1.1097601E2,3.8284833E0,1.9409413E0,1.17743845E1,2.455475E1,6.7857885E0,6.7702065E1,2.394553E0,6.2496887E1,1.2389348E0,1.3262671E2,4.6245327E1,5.2189613E1,4.255506E2,1.5869402E1,3.5648994E0,2.4151544E2,2.3482816E0,1.6493675E1,3.015991E2,9.00607E0,2.4432554E0,1.2265609E2,2.182456E0,1.8667665E1,9.2793465E1,7.225881E1,5.6950827E0,2.2943874E1,1.2255368E2,1.8916353E1,1.658572E1,2.1211052E0,5.6996818E0,6.9392584E2,4.35044E1,9.968913E1,3.1668375E1,1.0753986E2,3.2189045E1,3.5067646E1,1.0061382E1,1.3117112E1,1.5921124E1,1.1080664E3,1.1978915E3,5.1910458E1,1.2828955E3,1.8572992E2,1.044976E3,2.5464775E2,6.8294617E2,1.834715E2,3.509511E2,3.1881304E1,1.2299489E0,9.5997156E2,1.7068401E1,1.0951983E2,1.4561862E0,1.235003E0,2.5934803E0,1.7110701E0,1.0063314E1,2.3331795E1,1.222956E0,4.1521316E0,2.6336572E0,6.551204E1,2.190031E0,1.1804498E0,1.2141032E0,2.7672342E1,3.4824547E1,1.22227615E2,1.039909E1,1.1177423E1,3.5067905E1,1.582956E1,3.6360054E1,1.22321045E2,3.0322955E2,1.4681464E1,1.1879376E0,1.6896564E0,1.8752431E0,2.3872008E2,2.7953665E0,1.1888832E0,1.1593984E0,7.4413824E0,9.052293E0,2.9881653E2,2.7825563E0,4.1025777E0,4.903493E0,1.2389348E0,1.2043205E0,1.2072726E2,1.9288334E0,1.3531269E1,5.136396E0,7.406432E1,1.8729141E1,6.0603642E0,6.619845E1,4.465981E0,1.2291015E0,9.597926E0,1.3345948E1,1.0526597E2,1.7287716E1,1.5422085E1,3.494268E0,1.0718714E1,5.867006E0,4.4812946E0,1.218387E0,5.416426E2,1.5228326E2,2.0788988E1,2.271541E1,2.8137058E1,7.155208E1,8.998147E0,2.2670229E1,1.0393966E2,3.6002035E0,2.0402975E1,1.178607E1,2.9957142E1,5.110506E0,7.6478324E0,2.41355E0,5.725699E0,7.391413E0,1.2000748E0,1.4721049E1,4.7026724E2,6.3779913E2,1.1966871E3,1.2043205E0,1.4905007E1,3.7005447E1,9.91964E2,2.909315E2,1.0640917E2,7.932075E1,1.1708736E2,9.2788855E2,6.2934364E1,1.9171338E2,2.8116177E2,4.017844E2,8.329638E1,1.0017512E2,7.143392E1,2.7951718E2,2.7775494E1,4.10581E0,5.124581E2,4.4751346E2,1.5895531E1,1.1728706E0,1.0836015E2,1.1596744E0,8.892928E0,1.170386E0,2.191473E1,1.417065E0,1.2201183E0,1.4135389E0,6.4323235E1,1.1888036E0,2.649332E1,1.1790218E0,2.2448702E1,1.2375844E1,3.2177097E1,9.005052E1,2.7197857E0,7.679304E0,9.181073E0,1.996349E0,2.99415E1,5.1264052E0,9.902536E0,5.9270234E0,6.988975E0,2.9371078E1,1.2082409E2,1.4969583E0,1.2174974E1,2.9105457E2,1.6252867E0,1.1700798E0,3.7100751E0,3.7313075E0,2.9765714E2,1.1593984E0,1.6231579E0,1.1593984E0,2.3951492E0,1.7074283E0,9.930033E1,2.142693E1,9.89807E0,3.6331983E0,7.285918E1,1.2051508E0,3.9311788E0,1.4797961E1,6.321642E1,2.9820273E0,7.9055862E0,1.6923403E0,1.00379E1,3.3080473E0,1.0407899E2,1.1869779E0,1.4497675E0,1.5837949E1,1.3681808E1,1.7402756E0,8.981807E0,1.7369077E0,3.8780322E0,1.9889734E0,1.2374716E0,3.243823E0,5.2917004E2,1.2472532E1,2.7622726E1,1.2466054E2,2.9424417E0,1.7846546E1,6.3369327E0,1.6378477E1,2.6667568E1,1.4694899E0,7.4394126E0,6.411266E1,5.648337E0,3.3498101E0,2.09773E1,1.692928E0,9.6839645E1,7.1000175E0,2.3907688E0,1.2094349E0,1.8266546E1,2.1364298E0,5.317653E0,6.4684167E0,6.7458415E0,2.32113E1,3.636954E0,1.4735521E0,3.4646478E0,4.1831846E0,1.2266088E0,1.1869413E0,1.7172186E0,4.0084805E0,5.9635005E0,1.4279126E0,1.218387E0,1.3502663E1,2.4842886E2,2.2183836E2,1.4919945E0,6.363071E2,9.00954E2,2.9573315E2,1.1533567E1,3.37144E0,3.580741E1,1.1980385E0,1.894399E2,8.025241E2,1.625396E2,1.2839188E2,3.4967122E0,1.0291246E2,5.7420177E1,2.1900568E1,7.851144E1,3.8575912E1,3.1435864E2,6.135299E2,3.1490635E1,3.1443727E1,7.788219E1,1.138312E2,9.0913246E1,1.9024854E2,2.584539E2,1.4333049E2,5.269001E1,3.060637E1,9.6974785E1,3.2003286E0,6.996117E1,1.4727576E0,2.5190704E2,2.7610136E1,2.6067144E1,1.7083502E0,1.2389348E0,2.8668754E0,3.3029904E2,1.8215907E2,1.092026E2,3.3831085E2,1.472266E1,1.1728706E0],"tree_param":{"num_deleted":"0","num_feature":"98","num_nodes":"377","size_leaf_vector":"1"}},{"base_weights":[-4.65057E-3,-1.1219907E0,6.496533E-1,1.7408513E-1,-1.4277029E0,-8.966525E-1,9.079347E-1,-1.116323E0,5.6753176E-1,-1.4782215E0,-8.3100533E-1,-1.057661E0,-4.490909E-1,1.2174755E0,2.9605472E-1,-1.31363E0,-8.5843927E-1,-3.173671E-1,9.951171E-1,-1.1183065E-1,-1.399752E0,-1.2658921E0,-5.1779854E-1,-5.754434E-1,-1.1751695E0,2.8414112E-2,-8.292452E-1,1.5535308E0,9.123264E-1,-8.338399E-2,8.25155E-1,-1.3976697E0,-9.4621193E-1,-1.0577252E0,-3.671791E-1,-1.0536268E0,-5.5038173E-2,1.0854245E0,-1.225098E0,-1.407334E0,-9.715628E-1,-8.25262E-1,-1.3328172E0,2.0170689E-1,-7.117576E-1,-8.2958347E-1,4.4669145E-1,4.2364576E-1,-1.1930557E0,-1.0638972E-1,1.9439061E-1,-1.0157121E0,-2.4942778E-1,-6.1758834E-1,1.5807351E0,6.3952494E-1,1.2086082E0,-3.577282E-1,3.8925818E-1,-8.621934E-1,8.8109535E-1,-1.4135066E0,-1.4240288E-2,-1.0782653E0,1.2781039E-1,-4.123713E-1,-1.208734E0,-1.1459773E0,6.039454E-2,-1.1015326E0,5.5565406E-2,-3.6419815E-1,8.1417996E-1,-2.7486619E-2,1.2208318E0,-1.3775365E0,-3.585574E-1,-1.4812411E0,-1.3464447E0,1.7871626E-2,-1.1470829E0,-9.3329006E-1,3.7449144E-2,-1.3466568E0,-1.5718997E-3,5.9319544E-1,-1.03634015E-1,-1.0634174E0,-2.4679874E-1,-1.0317721E0,-4.5620045E-1,6.059539E-1,-7.187521E-1,-7.9237185E-2,1.0396141E0,-1.2345463E0,-5.273813E-1,-3.7485376E-2,9.0196174E-1,-1.0595479E0,1.6627327E-1,-1.0439862E0,1.5840703E-1,1.2859891E-1,-1.2151788E0,1.4142356E0,1.7340605E0,-9.515802E-1,7.030504E-1,6.137797E-1,1.3128618E0,-8.5844636E-1,-1.7279959E-1,9.5529544E-1,9.0721935E-2,-9.3484163E-1,1.5915763E-2,9.213652E-1,-1.303585E0,-1.4364251E0,-6.194127E-1,-1.2125411E0,2.3412539E-2,-6.271116E-2,6.4522885E-2,-6.250704E-1,6.828828E-2,-1.2641011E0,-8.866161E-2,-1.280744E0,-2.9767256E-3,-1.070442E0,8.7191445E-1,-1.4139355E0,-8.233248E-1,-4.6248317E-1,7.185524E-1,5.6104694E-2,1.0463008E0,-9.4409317E-1,3.785725E-1,9.3547165E-1,1.522309E0,-1.0714438E-1,-2.761488E-2,-7.471275E-2,2.9858558E-2,-1.11389585E-1,-4.1931503E-2,-6.267929E-1,-1.383734E0,-1.2903024E0,3.4395882E-3,-1.1083277E0,1.0876278E-1,-1.3790479E0,-8.658358E-1,1.6623892E-1,1.0714419E0,-1.108801E0,4.2512722E-2,-9.809998E-2,-1.1936266E-1,-1.1157179E0,6.5549225E-2,-6.188308E-1,1.171885E0,1.01169795E-1,1.212559E0,-8.791874E-2,2.5088146E-2,1.2882257E0,-3.3212395E-3,-1.309121E0,-9.649968E-1,-1.195192E0,9.1878235E-2,-6.5547526E-1,2.0776002E-1,1.0679649E0,-8.57805E-2,-1.2095962E0,-6.915801E-1,7.576908E-1,-5.226607E-2,-1.2587343E0,6.113214E-2,-5.2239746E-1,6.741383E-1,-6.395959E-1,7.199271E-1,-1.3105377E0,6.9912046E-4,1.618952E0,1.0419546E0,1.7366232E0,-3.348209E-2,-4.111325E-1,-1.1557693E0,6.0447747E-1,1.3932061E0,1.4704577E0,-5.566675E-1,7.30794E-1,1.385621E0,-4.6874177E-1,-9.7773904E-1,-4.20597E-1,1.7969489E-1,6.091381E-1,1.2348268E0,-1.2779845E0,4.310474E-1,-9.982494E-1,2.6279941E-2,7.707812E-1,1.3418225E0,-1.3448212E0,-2.6915642E-2,-1.0844738E-1,-3.3149123E-2,2.6085427E-2,-8.142106E-2,-1.02034785E-1,6.356124E-3,-6.8356805E-2,2.990523E-2,-9.702993E-2,-5.9425416E-3,-6.6372536E-2,5.4939076E-2,-1.0161939E-1,-2.9923018E-2,-1.6019044E-2,-1.0000832E-1,7.837852E-2,-3.2210805E-2,-1.0839416E-1,-2.7352674E-2,-9.3470804E-2,-3.5996854E-2,-7.682501E-2,-1.9172166E-2,7.28041E-2,-4.50451E-2,-2.4279522E-2,9.90611E-2,9.1200605E-2,1.2739664E-3,-9.878262E-2,-1.742596E-2,9.730691E-2,7.110419E-3,3.3293217E-2,8.67678E-2,-4.7483135E-2,1.15386166E-1,6.364107E-2,-8.362513E-2,-1.0400276E-1,-2.4825634E-2,-1.0253373E-1,-2.75949E-2,-9.4329566E-2,2.0936148E-2,6.085971E-2,-4.355413E-2,-1.0690826E-1,-6.8734884E-2,-8.266056E-2,1.6693396E-2,8.679943E-2,-1.6057128E-2,-3.730891E-2,9.297454E-2,-9.169596E-2,-4.346113E-2,2.7408738E-2,-2.7396692E-2,-8.995801E-2,-2.2075627E-2,8.746268E-2,-5.0419368E-2,7.3921536E-3,-6.5837204E-2,1.2715581E-1,4.599539E-3,-1.9591196E-2,9.861833E-2,1.04889646E-1,-2.0402541E-2,2.15129E-2,1.13545276E-1,-9.948657E-2,-4.0664826E-2,-7.536E-2,7.596618E-3,1.4900682E-2,-1.07331194E-1,-4.5438625E-2,4.0336072E-2,-5.8193546E-2,6.991464E-2,2.7502054E-2,-5.805217E-2,-3.424796E-2,9.656247E-2,-9.399402E-2,5.834302E-3,1.2325872E-2,-6.776606E-2,8.4677055E-2,-2.8535426E-3,-3.463997E-3,-1.0795552E-1,-8.443145E-2,1.4707495E-2,-2.6521109E-2,7.340599E-2,5.0900195E-2,-9.313821E-2,7.889609E-2,-4.0440947E-2,-1.02124594E-1,-2.6968172E-2,9.751344E-2,1.2596649E-1,5.543858E-2,1.0272294E-1,1.3351199E-1,1.1992377E-1,-7.551441E-2,1.0056112E-1,-9.152899E-2,3.147513E-2,3.209173E-2,7.373565E-2,5.1858936E-2,1.1086806E-1,1.8210016E-2,1.13212034E-1,-8.583363E-2,6.954139E-2,1.3498801E-1,2.2014918E-2,7.076831E-2,1.1116486E-1,-7.054581E-2,3.2687418E-3,-1.0905521E-1,-4.8425958E-2,-1.5198383E-2,-5.8123495E-2,2.1475641E-2,-7.329071E-2,2.2058258E-2,8.426555E-2,5.719922E-2,1.0617576E-1,-9.939764E-2,4.0382307E-2,4.518493E-2,-8.6946085E-2,-8.379371E-2,-1.3615151E-2,4.3534502E-2,9.7832024E-2,1.11607604E-1,7.4878685E-2,-1.0429628E-1,-2.7841624E-2],"categories":[],"categories_nodes":[],"categories_segments":[],"categories_sizes":[],"default_left":[0,0,0,0,0,0,0,0,0,0,0,0,0,0,0,0,0,0,0,0,0,0,0,0,0,0,0,0,0,0,0,0,0,0,0,0,0,0,0,0,0,0,0,0,0,0,0,0,0,0,0,0,0,0,0,0,0,0,0,0,0,0,0,0,0,0,0,0,0,0,0,0,0,0,0,0,0,0,0,0,0,0,0,0,0,0,0,0,0,0,0,0,0,0,0,0,0,0,0,0,0,0,0,0,0,0,0,0,0,0,0,0,0,0,0,0,0,0,0,0,0,0,0,0,0,0,0,0,0,0,0,0,0,0,0,0,0,0,0,0,0,0,0,0,0,0,0,0,0,0,0,0,0,0,0,0,0,0,0,0,0,0,0,0,0,0,0,0,0,0,0,0,0,0,0,0,0,0,0,0,0,0,0,0,0,0,0,0,0,0,0,0,0,0,0,0,0,0,0,0,0,0,0,0,0,0,0,0,0,0,0,0,0,0,0,0,0,0,0,0,0,0,0,0,0,0,0,0,0,0,0,0,0,0,0,0,0,0,0,0,0,0,0,0,0,0,0,0,0,0,0,0,0,0,0,0,0,0,0,0,0,0,0,0,0,0,0,0,0,0,0,0,0,0,0,0,0,0,0,0,0,0,0,0,0,0,0,0,0,0,0,0,0,0,0,0,0,0,0,0,0,0,0,0,0,0,0,0,0,0,0,0,0,0,0,0,0,0,0,0,0,0,0,0,0,0,0,0,0,0,0,0,0,0,0,0,0,0,0,0,0,0,0,0,0,0,0,0,0,0,0,0,0,0,0,0,0,0,0,0,0,0,0,0,0,0,0,0,0,0,0],"id":3,"left_children":[1,3,5,7,9,11,13,15,17,19,21,23,25,27,29,31,33,35,37,-1,39,41,43,45,47,49,51,53,55,57,59,61,63,65,67,69,71,73,75,77,79,81,83,85,87,89,91,93,95,-1,97,99,101,103,105,107,109,111,113,115,117,119,-1,121,123,125,127,129,131,133,-1,135,137,139,141,143,145,147,149,-1,151,153,-1,155,-1,157,-1,159,161,163,165,167,169,-1,171,173,175,177,179,181,183,185,187,189,191,193,195,197,199,201,203,205,207,209,211,213,-1,215,217,219,221,223,-1,-1,-1,225,-1,227,229,231,-1,233,235,237,239,241,243,245,247,249,251,253,255,-1,-1,-1,-1,-1,-1,257,259,261,-1,263,265,267,269,271,273,275,-1,-1,277,279,281,283,285,287,289,-1,-1,291,-1,293,295,297,299,301,303,305,-1,307,309,311,-1,313,-1,315,317,319,321,323,-1,325,327,329,-1,331,333,335,337,339,341,343,345,347,349,351,353,355,357,359,361,363,-1,365,367,369,-1,-1,-1,-1,-1,-1,-1,-1,-1,-1,-1,-1,-1,-1,-1,-1,-1,-1,-1,-1,-1,-1,-1,-1,-1,-1,-1,-1,-1,-1,-1,-1,-1,-1,-1,-1,-1,-1,-1,-1,-1,-1,-1,-1,-1,-1,-1,-1,-1,-1,-1,-1,-1,-1,-1,-1,-1,-1,-1,-1,-1,-1,-1,-1,-1,-1,-1,-1,-1,-1,-1,-1,-1,-1,-1,-1,-1,-1,-1,-1,-1,-1,-1,-1,-1,-1,-1,-1,-1,-1,-1,-1,-1,-1,-1,-1,-1,-1,-1,-1,-1,-1,-1,-1,-1,-1,-1,-1,-1,-1,-1,-1,-1,-1,-1,-1,-1,-1,-1,-1,-1,-1,-1,-1,-1,-1,-1,-1,-1,-1,-1,-1,-1,-1,-1,-1,-1,-1,-1,-1,-1,-1,-1,-1,-1,-1,-1,-1,-1,-1,-1,-1,-1],"loss_changes":[9.974732E3,1.99681E3,3.4374536E3,4.8935602E2,1.2167969E2,8.831012E1,1.3962529E3,1.0333984E1,2.796849E2,1.7021484E0,4.3005203E1,5.062628E1,5.9510765E1,5.0068848E2,4.9764944E2,2.5598297E0,9.453278E0,4.654723E1,1.01189545E2,0E0,4.0270996E-1,2.8371735E0,2.6384163E1,4.6960777E1,2.1295898E1,3.539217E1,1.9476364E1,1.3852051E2,2.0683691E2,1.8741417E2,9.847217E1,1.648819E0,3.8964233E0,6.4192047E0,1.0239765E1,6.2607574E0,4.838952E1,7.223413E1,2.1395283E0,4.066162E-1,2.9736404E0,3.3608027E0,2.0466003E0,2.6053165E1,2.3990028E1,1.0399712E1,7.1851597E0,9.1044235E0,1.9213501E1,0E0,2.169981E1,7.3136597E0,1.4984532E1,1.3327359E1,5.6269043E1,1.3605103E2,7.548181E1,8.451904E1,8.962905E1,2.8306293E0,8.939484E1,9.0797424E-1,0E0,4.804371E0,3.3994257E0,4.7835655E0,3.4231262E0,1.5705776E0,1.9899794E1,4.2322617E0,0E0,1.4454342E1,8.257864E0,2.0064547E1,3.5324768E1,3.2951927E-1,2.4877372E0,1.1779785E-2,7.277466E0,0E0,1.9858866E0,3.5958347E0,0E0,5.6695557E-1,0E0,6.6286783E0,0E0,6.8545303E0,8.657966E0,8.604553E0,1.4592606E1,9.83969E0,2.6988575E0,0E0,1.86379E0,1.2331299E1,1.8282955E1,1.53558445E1,1.230368E1,6.504776E0,3.4839747E0,7.271269E0,1.126759E1,6.8381114E0,1.9385738E0,8.2767334E1,7.4421387E0,5.246475E0,8.681976E1,1.8665303E2,4.3279785E1,1.0994919E1,5.8510746E1,1.6976501E1,1.6297578E2,2.939083E0,0E0,6.132428E1,2.4032784E-1,2.645111E-1,2.4198098E0,4.3030167E0,0E0,0E0,0E0,4.320124E0,0E0,1.8019943E0,3.107346E0,9.144306E-2,0E0,1.762269E0,3.284092E0,3.8822556E-1,4.519127E0,1.3948282E1,4.3868833E0,6.2573943E0,6.2900352E0,4.0855036E0,9.630465E0,2.3655258E1,8.159454E0,0E0,0E0,0E0,0E0,0E0,0E0,1.3032328E1,4.4049072E-1,2.1277237E-1,0E0,3.7511387E0,2.2400553E0,9.3096924E-1,2.7718902E0,7.3327475E0,4.717861E0,4.2440567E0,0E0,0E0,7.2023897E0,5.5671616E0,6.8956003E0,9.055632E0,2.8624268E0,8.63402E0,4.4351234E0,0E0,0E0,8.059654E-1,0E0,6.298828E0,6.4833527E0,7.259741E0,7.7091184E0,6.2246466E0,1.1620174E1,1.0863831E1,0E0,5.330902E0,7.5596848E0,1.1998508E0,0E0,3.0917568E0,0E0,6.273858E0,6.02038E0,6.1114106E0,4.080438E0,2.548256E-1,0E0,1.1593384E1,3.8273834E1,4.2956543E0,0E0,1.7808458E1,4.2867737E0,7.509213E1,8.541992E0,4.774948E0,7.000786E1,5.478193E1,3.8241577E1,1.4464034E1,2.8750275E1,3.0208366E1,3.443889E1,1.3254068E1,7.4929657E0,6.703232E0,7.703162E1,2.7652092E0,0E0,7.313458E1,1.1494415E1,2.6037216E-1,0E0,0E0,0E0,0E0,0E0,0E0,0E0,0E0,0E0,0E0,0E0,0E0,0E0,0E0,0E0,0E0,0E0,0E0,0E0,0E0,0E0,0E0,0E0,0E0,0E0,0E0,0E0,0E0,0E0,0E0,0E0,0E0,0E0,0E0,0E0,0E0,0E0,0E0,0E0,0E0,0E0,0E0,0E0,0E0,0E0,0E0,0E0,0E0,0E0,0E0,0E0,0E0,0E0,0E0,0E0,0E0,0E0,0E0,0E0,0E0,0E0,0E0,0E0,0E0,0E0,0E0,0E0,0E0,0E0,0E0,0E0,0E0,0E0,0E0,0E0,0E0,0E0,0E0,0E0,0E0,0E0,0E0,0E0,0E0,0E0,0E0,0E0,0E0,0E0,0E0,0E0,0E0,0E0,0E0,0E0,0E0,0E0,0E0,0E0,0E0,0E0,0E0,0E0,0E0,0E0,0E0,0E0,0E0,0E0,0E0,0E0,0E0,0E0,0E0,0E0,0E0,0E0,0E0,0E0,0E0,0E0,0E0,0E0,0E0,0E0,0E0,0E0,0E0,0E0,0E0,0E0,0E0,0E0,0E0,0E0,0E0,0E0,0E0,0E0,0E0,0E0,0E0,0E0,0E0,0E0,0E0,0E0,0E0,0E0,0E0,0E0,0E0,0E0],"parents":[2147483647,0,0,1,1,2,2,3,3,4,4,5,5,6,6,7,7,8,8,9,9,10,10,11,11,12,12,13,13,14,14,15,15,16,16,17,17,18,18,20,20,21,21,22,22,23,23,24,24,25,25,26,26,27,27,28,28,29,29,30,30,31,31,32,32,33,33,34,34,35,35,36,36,37,37,38,38,39,39,40,40,41,41,42,42,43,43,44,44,45,45,46,46,47,47,48,48,50,50,51,51,52,52,53,53,54,54,55,55,56,56,57,57,58,58,59,59,60,60,61,61,63,63,64,64,65,65,66,66,67,67,68,68,69,69,71,71,72,72,73,73,74,74,75,75,76,76,77,77,78,78,80,80,81,81,83,83,85,85,87,87,88,88,89,89,90,90,91,91,92,92,94,94,95,95,96,96,97,97,98,98,99,99,100,100,101,101,102,102,103,103,104,104,105,105,106,106,107,107,108,108,109,109,110,110,111,111,112,112,113,113,114,114,115,115,117,117,118,118,119,119,120,120,121,121,125,125,127,127,128,128,129,129,131,131,132,132,133,133,134,134,135,135,136,136,137,137,138,138,139,139,140,140,141,141,142,142,149,149,150,150,151,151,153,153,154,154,155,155,156,156,157,157,158,158,159,159,162,162,163,163,164,164,165,165,166,166,167,167,168,168,171,171,173,173,174,174,175,175,176,176,177,177,178,178,179,179,181,181,182,182,183,183,185,185,187,187,188,188,189,189,190,190,191,191,193,193,194,194,195,195,197,197,198,198,199,199,200,200,201,201,202,202,203,203,204,204,205,205,206,206,207,207,208,208,209,209,210,210,211,211,212,212,213,213,215,215,216,216,217,217],"right_children":[2,4,6,8,10,12,14,16,18,20,22,24,26,28,30,32,34,36,38,-1,40,42,44,46,48,50,52,54,56,58,60,62,64,66,68,70,72,74,76,78,80,82,84,86,88,90,92,94,96,-1,98,100,102,104,106,108,110,112,114,116,118,120,-1,122,124,126,128,130,132,134,-1,136,138,140,142,144,146,148,150,-1,152,154,-1,156,-1,158,-1,160,162,164,166,168,170,-1,172,174,176,178,180,182,184,186,188,190,192,194,196,198,200,202,204,206,208,210,212,214,-1,216,218,220,222,224,-1,-1,-1,226,-1,228,230,232,-1,234,236,238,240,242,244,246,248,250,252,254,256,-1,-1,-1,-1,-1,-1,258,260,262,-1,264,266,268,270,272,274,276,-1,-1,278,280,282,284,286,288,290,-1,-1,292,-1,294,296,298,300,302,304,306,-1,308,310,312,-1,314,-1,316,318,320,322,324,-1,326,328,330,-1,332,334,336,338,340,342,344,346,348,350,352,354,356,358,360,362,364,-1,366,368,370,-1,-1,-1,-1,-1,-1,-1,-1,-1,-1,-1,-1,-1,-1,-1,-1,-1,-1,-1,-1,-1,-1,-1,-1,-1,-1,-1,-1,-1,-1,-1,-1,-1,-1,-1,-1,-1,-1,-1,-1,-1,-1,-1,-1,-1,-1,-1,-1,-1,-1,-1,-1,-1,-1,-1,-1,-1,-1,-1,-1,-1,-1,-1,-1,-1,-1,-1,-1,-1,-1,-1,-1,-1,-1,-1,-1,-1,-1,-1,-1,-1,-1,-1,-1,-1,-1,-1,-1,-1,-1,-1,-1,-1,-1,-1,-1,-1,-1,-1,-1,-1,-1,-1,-1,-1,-1,-1,-1,-1,-1,-1,-1,-1,-1,-1,-1,-1,-1,-1,-1,-1,-1,-1,-1,-1,-1,-1,-1,-1,-1,-1,-1,-1,-1,-1,-1,-1,-1,-1,-1,-1,-1,-1,-1,-1,-1,-1,-1,-1,-1,-1,-1,-1],"split_conditions":[3.9270833E0,2E0,2E0,2E0,3.1215277E0,1.4034722E1,2E0,1.0152777E0,3.764E3,1.9118055E0,2E0,3E0,3.5E1,1.8E2,1.3734028E1,3.018841E-1,1.6E1,8.784722E-1,4E0,-1.1183065E-1,4.5347E-1,3E0,2.7E2,1.7E1,1E0,3E1,3.0737713E-1,1E0,1.7E1,1.6E1,1E0,5.553474E-1,3.5652322E-1,3E0,6E1,4.8247138E-1,1.7E1,1.2E1,9.7152776E-1,2E0,4.5502135E-1,4.8546708E-1,6.3467157E-1,4E0,3.7666667E0,3.5E1,1.154E3,8E0,2E0,-1.0638972E-1,1.7E1,2E0,1.2E1,4E0,1.7E1,1E0,3E0,1.2E1,2E0,1.8E1,4E0,1.9E1,-1.4240288E-2,1.8E1,4E0,4.3948606E-1,4.3E1,3.015903E-1,3.925E3,2.035E3,5.5565406E-2,2E0,2.008E3,1E0,1.7E1,4.8476723E-1,1.2E2,6.386161E-1,9E1,1.7871626E-2,2.7610353E-1,3.1893563E-1,3.7449144E-2,4.0008476E-1,-1.5718997E-3,4.762E3,-1.03634015E-1,5.186646E-1,1.602E3,4.2541423E-1,3.9779064E-1,4E0,2.5865304E-1,-7.9237185E-2,3.1239903E-1,1.7E1,3E0,2E0,5.375776E-1,1.6E1,2.6943056E1,3E0,4.388E3,2E0,4.7015527E-1,6E1,6.8565553E-1,3E0,2E0,2E0,2E0,2E0,3.843E3,2.3E1,3E0,5.536361E-1,1.5915763E-2,1.7E1,4.34483E-1,6.175131E-1,1E1,4.0459418E-1,2.3412539E-2,-6.271116E-2,6.4522885E-2,3.0954736E-1,6.828828E-2,4.3547904E-1,6E0,3.1551185E-1,-2.9767256E-3,8.21E2,2.018E3,4.5121053E-1,1.3E1,2E0,3.6687016E-1,1.9E1,1.42E3,4.74E3,9E1,4.197E3,3E0,-1.0714438E-1,-2.761488E-2,-7.471275E-2,2.9858558E-2,-1.11389585E-1,-4.1931503E-2,1E0,6.7053854E-1,3.2922474E-1,3.4395882E-3,3.6495647E-1,1.2E1,3.8042882E-1,7E0,2E0,2E0,3.0263394E-1,4.2512722E-2,-9.809998E-2,8.13E2,3.9971706E-1,5.1145835E0,6E0,4E0,3.6540094E-1,6E0,-8.791874E-2,2.5088146E-2,1.3E1,-3.3212395E-3,3.8718528E-1,1.669E3,2E0,5.036111E0,2E0,3.8188836E-1,9E0,-8.57805E-2,6E0,3.3E2,1.24557294E-1,-5.226607E-2,3.112E3,6.113214E-2,1.7E2,1.2E1,1E0,2.7E1,3.7246457E-1,6.9912046E-4,1.604861E1,2.5E1,9E1,-3.348209E-2,2E0,2.7654E4,2.788889E1,1E0,3E0,1.2984028E1,2.6E1,3.487E3,1.1E1,3E0,4E0,4E0,1.8E1,2E0,4E0,4E0,4.1E1,2.6279941E-2,6.7964584E1,4E0,3.7203324E-1,-2.6915642E-2,-1.0844738E-1,-3.3149123E-2,2.6085427E-2,-8.142106E-2,-1.02034785E-1,6.356124E-3,-6.8356805E-2,2.990523E-2,-9.702993E-2,-5.9425416E-3,-6.6372536E-2,5.4939076E-2,-1.0161939E-1,-2.9923018E-2,-1.6019044E-2,-1.0000832E-1,7.837852E-2,-3.2210805E-2,-1.0839416E-1,-2.7352674E-2,-9.3470804E-2,-3.5996854E-2,-7.682501E-2,-1.9172166E-2,7.28041E-2,-4.50451E-2,-2.4279522E-2,9.90611E-2,9.1200605E-2,1.2739664E-3,-9.878262E-2,-1.742596E-2,9.730691E-2,7.110419E-3,3.3293217E-2,8.67678E-2,-4.7483135E-2,1.15386166E-1,6.364107E-2,-8.362513E-2,-1.0400276E-1,-2.4825634E-2,-1.0253373E-1,-2.75949E-2,-9.4329566E-2,2.0936148E-2,6.085971E-2,-4.355413E-2,-1.0690826E-1,-6.8734884E-2,-8.266056E-2,1.6693396E-2,8.679943E-2,-1.6057128E-2,-3.730891E-2,9.297454E-2,-9.169596E-2,-4.346113E-2,2.7408738E-2,-2.7396692E-2,-8.995801E-2,-2.2075627E-2,8.746268E-2,-5.0419368E-2,7.3921536E-3,-6.5837204E-2,1.2715581E-1,4.599539E-3,-1.9591196E-2,9.861833E-2,1.04889646E-1,-2.0402541E-2,2.15129E-2,1.13545276E-1,-9.948657E-2,-4.0664826E-2,-7.536E-2,7.596618E-3,1.4900682E-2,-1.07331194E-1,-4.5438625E-2,4.0336072E-2,-5.8193546E-2,6.991464E-2,2.7502054E-2,-5.805217E-2,-3.424796E-2,9.656247E-2,-9.399402E-2,5.834302E-3,1.2325872E-2,-6.776606E-2,8.4677055E-2,-2.8535426E-3,-3.463997E-3,-1.0795552E-1,-8.443145E-2,1.4707495E-2,-2.6521109E-2,7.340599E-2,5.0900195E-2,-9.313821E-2,7.889609E-2,-4.0440947E-2,-1.02124594E-1,-2.6968172E-2,9.751344E-2,1.2596649E-1,5.543858E-2,1.0272294E-1,1.3351199E-1,1.1992377E-1,-7.551441E-2,1.0056112E-1,-9.152899E-2,3.147513E-2,3.209173E-2,7.373565E-2,5.1858936E-2,1.1086806E-1,1.8210016E-2,1.13212034E-1,-8.583363E-2,6.954139E-2,1.3498801E-1,2.2014918E-2,7.076831E-2,1.1116486E-1,-7.054581E-2,3.2687418E-3,-1.0905521E-1,-4.8425958E-2,-1.5198383E-2,-5.8123495E-2,2.1475641E-2,-7.329071E-2,2.2058258E-2,8.426555E-2,5.719922E-2,1.0617576E-1,-9.939764E-2,4.0382307E-2,4.518493E-2,-8.6946085E-2,-8.379371E-2,-1.3615151E-2,4.3534502E-2,9.7832024E-2,1.11607604E-1,7.4878685E-2,-1.0429628E-1,-2.7841624E-2],"split_indices":[31,20,2,2,31,31,21,31,1,31,2,14,22,22,31,57,9,31,2,0,40,14,3,9,15,3,56,9,9,9,9,52,50,14,3,58,9,9,31,2,40,60,97,2,31,3,16,9,10,0,9,10,9,8,9,9,20,9,20,29,2,9,0,9,12,62,14,45,1,1,0,10,11,9,9,69,3,94,3,0,57,47,0,33,0,1,0,87,1,49,42,0,54,0,57,9,20,8,71,9,31,15,1,8,67,22,85,8,10,20,15,20,1,27,20,67,0,9,52,74,0,34,0,0,0,43,0,36,6,54,0,16,7,60,9,8,47,9,16,1,22,1,19,0,0,0,0,0,0,21,45,34,0,38,9,47,6,28,12,56,0,0,16,45,31,6,8,40,8,0,0,13,0,56,16,20,31,15,48,13,0,19,3,32,0,1,0,17,29,8,0,43,0,31,27,22,0,8,18,31,8,19,31,13,1,9,20,8,2,9,8,19,2,14,0,31,8,48,0,0,0,0,0,0,0,0,0,0,0,0,0,0,0,0,0,0,0,0,0,0,0,0,0,0,0,0,0,0,0,0,0,0,0,0,0,0,0,0,0,0,0,0,0,0,0,0,0,0,0,0,0,0,0,0,0,0,0,0,0,0,0,0,0,0,0,0,0,0,0,0,0,0,0,0,0,0,0,0,0,0,0,0,0,0,0,0,0,0,0,0,0,0,0,0,0,0,0,0,0,0,0,0,0,0,0,0,0,0,0,0,0,0,0,0,0,0,0,0,0,0,0,0,0,0,0,0,0,0,0,0,0,0,0,0,0,0,0,0,0,0,0,0,0,0,0,0,0,0,0,0,0],"split_type":[0,0,0,0,0,0,0,0,0,0,0,0,0,0,0,0,0,0,0,0,0,0,0,0,0,0,0,0,0,0,0,0,0,0,0,0,0,0,0,0,0,0,0,0,0,0,0,0,0,0,0,0,0,0,0,0,0,0,0,0,0,0,0,0,0,0,0,0,0,0,0,0,0,0,0,0,0,0,0,0,0,0,0,0,0,0,0,0,0,0,0,0,0,0,0,0,0,0,0,0,0,0,0,0,0,0,0,0,0,0,0,0,0,0,0,0,0,0,0,0,0,0,0,0,0,0,0,0,0,0,0,0,0,0,0,0,0,0,0,0,0,0,0,0,0,0,0,0,0,0,0,0,0,0,0,0,0,0,0,0,0,0,0,0,0,0,0,0,0,0,0,0,0,0,0,0,0,0,0,0,0,0,0,0,0,0,0,0,0,0,0,0,0,0,0,0,0,0,0,0,0,0,0,0,0,0,0,0,0,0,0,0,0,0,0,0,0,0,0,0,0,0,0,0,0,0,0,0,0,0,0,0,0,0,0,0,0,0,0,0,0,0,0,0,0,0,0,0,0,0,0,0,0,0,0,0,0,0,0,0,0,0,0,0,0,0,0,0,0,0,0,0,0,0,0,0,0,0,0,0,0,0,0,0,0,0,0,0,0,0,0,0,0,0,0,0,0,0,0,0,0,0,0,0,0,0,0,0,0,0,0,0,0,0,0,0,0,0,0,0,0,0,0,0,0,0,0,0,0,0,0,0,0,0,0,0,0,0,0,0,0,0,0,0,0,0,0,0,0,0,0,0,0,0,0,0,0,0,0,0,0,0,0,0,0,0,0,0,0,0,0],"sum_hessian":[1.3641834E4,5.037941E3,8.603894E3,9.616078E2,4.076333E3,1.2310776E3,7.372816E3,2.2425835E2,7.373494E2,3.7567922E3,3.195407E2,9.0437067E2,3.2670697E2,4.895345E3,2.4774707E3,1.24731995E2,9.952635E1,2.4030003E2,4.9704938E2,3.2125537E3,5.442386E2,1.3250969E2,1.8703102E2,1.7835492E2,7.2601575E2,1.4522177E2,1.814852E2,2.3277468E3,2.5675984E3,1.4432799E3,1.0341907E3,9.923085E1,2.5501144E1,6.998355E1,2.9542797E1,6.2334335E1,1.779657E2,4.7811322E2,1.8936174E1,5.325225E2,1.1716094E1,1.9230228E1,1.1327946E2,3.970446E1,1.4732657E2,1.4299062E2,3.5364315E1,7.7812843E0,7.182345E2,1.4167376E1,1.310544E2,1.3675392E2,4.4731277E1,2.8537252E1,2.2992097E3,1.3384128E3,1.2291855E3,9.133632E2,5.2991675E2,3.2723625E1,1.00146704E3,9.777844E1,1.45241E0,2.2705503E1,2.7956412E0,1.3977956E1,5.6005596E1,9.875328E0,1.9667469E1,6.108965E1,1.2446846E0,1.317031E2,4.626261E1,5.1948223E1,4.26165E2,1.5601858E1,3.3343158E0,2.3000995E2,3.0251254E2,1.4390675E0,1.0277026E1,1.805328E1,1.176949E0,1.12070625E2,1.2088301E0,3.233551E1,7.3689485E0,8.315059E1,6.417597E1,9.161652E1,5.137409E1,3.1535E1,3.8293147E0,2.0764642E0,5.70482E0,6.7529004E2,4.2944443E1,9.942059E1,3.1633797E1,1.3196344E2,4.7904887E0,1.4643147E1,3.008813E1,1.3039792E1,1.549746E1,1.1071525E3,1.1920571E3,5.0848316E1,1.2875646E3,1.8433475E2,1.0448507E3,2.4536465E2,6.6799854E2,1.8222E2,3.4769672E2,3.0772753E1,1.9508721E0,9.8390906E2,1.755795E1,9.4249405E1,3.529037E0,2.0822578E1,1.8829242E0,1.1460013E0,1.6496398E0,1.2496245E1,1.4817109E0,5.3245018E1,2.7605798E0,8.662391E0,1.2129374E0,8.083799E0,1.1583669E1,2.6853373E1,3.423628E1,1.2126803E2,1.043506E1,1.1135913E1,3.5126698E1,1.5541354E1,3.6406868E1,2.2104248E2,2.0512251E2,1.4455295E1,1.1465628E0,1.637746E0,1.6965698E0,2.2842012E2,1.5898317E0,1.5779996E1,2.8673254E2,9.102598E0,1.1744279E0,1.5402468E1,2.6508121E0,1.0324715E2,8.823481E0,1.779582E1,1.4539691E1,8.120971E1,1.9408801E0,5.8872232E0,5.8288754E1,8.50903E1,6.526221E0,4.727197E1,4.10212E0,1.7848894E1,1.3686107E1,2.5978131E0,1.2315015E0,4.4871078E0,1.2177124E0,5.25928E2,1.4936205E2,2.0214766E1,2.2729677E1,2.7770197E1,7.16504E1,2.9701544E1,1.9322526E0,9.2114265E1,3.984917E1,2.9152179E0,1.8752707E0,1.3416315E1,1.2268322E0,1.2963026E1,1.7125105E1,5.636189E0,7.4036036E0,1.4312594E1,1.184866E0,7.1217847E2,3.949741E2,1.1908611E3,1.1959933E0,1.4769612E1,3.60787E1,1.12829E3,1.5927452E2,1.0628554E2,7.804921E1,1.17322586E2,9.2752814E2,5.8660904E1,1.8670375E2,3.9213873E2,2.7585983E2,8.282854E1,9.939147E1,6.868941E1,2.790073E2,2.9538746E1,1.2340055E0,7.265377E2,2.573714E2,1.6417791E1,1.1401575E0,9.29041E1,1.34531E0,1.2303708E0,2.2986662E0,1.86476E1,2.174978E0,9.850796E0,2.6454492E0,5.185631E1,1.3887043E0,1.3620846E0,1.3984952E0,7.495238E0,1.1671524E0,2.3240879E0,5.7597117E0,1.0397411E1,1.1862575E0,2.5708527E1,1.1448469E0,1.4162098E1,2.007418E1,3.1569134E1,8.96989E1,8.982165E0,1.4528939E0,9.136092E0,1.9998214E0,2.9999226E1,5.1274724E0,9.639185E0,5.9021697E0,7.7475915E0,2.8659279E1,6.9581604E1,1.5146088E2,1.243583E0,2.0387894E2,3.7399588E0,1.2040037E1,2.8560968E2,1.1228575E0,7.957712E0,1.1448863E0,1.3989616E1,1.4128507E0,1.225208E0,1.4256041E0,9.1943985E1,1.1303157E1,7.2391763E0,1.5843042E0,4.368727E0,1.3427093E1,1.218466E0,1.3321225E1,6.576042E1,1.5449282E1,1.9453222E1,3.883553E1,7.680169E1,8.288611E0,2.3861334E0,4.1400876E0,1.2703727E1,3.456824E1,2.4299788E0,1.6721411E0,1.4349392E1,3.4995015E0,1.2214066E1,1.4720408E0,1.2430471E0,3.2440605E0,5.135689E2,1.2359079E1,1.4404277E2,5.3192763E0,2.9487114E0,1.7266054E1,8.722914E0,1.4006763E1,2.628736E1,1.4828367E0,6.2206745E1,9.443652E0,3.6025872E0,2.6098957E1,8.9118614E1,2.9956455E0,7.954308E0,3.1894863E1,1.7020853E0,1.2131327E0,1.9026557E0,1.15136595E1,6.7380023E0,6.2250237E0,3.8784077E0,1.3246698E1,1.7276406E0,3.9085486E0,5.988939E0,1.4146644E0,1.3172563E1,1.1400313E0,1.1735013E2,5.948283E2,2.0698242E2,1.8799167E2,8.956314E2,2.952297E2,1.133917E1,3.430442E0,3.4873714E1,1.2049896E0,7.7091077E2,3.5737927E2,1.8201004E1,1.4107352E2,3.4979284E0,1.02787605E2,5.6068653E1,2.1980558E1,3.3152657E1,8.416993E1,1.6824124E2,7.592869E2,3.0100937E1,2.8559967E1,7.5303696E1,1.1140005E2,2.437809E2,1.4835783E2,2.5326553E2,2.25943E1,5.2344013E1,3.0484522E1,2.8970676E1,7.042079E1,6.7209E1,1.4804058E0,2.5242058E2,2.6586731E1,2.5460957E1,4.0777907E0,5.370795E2,1.8945815E2,1.7815726E2,7.921414E1,1.5271149E1,1.146643E0],"tree_param":{"num_deleted":"0","num_feature":"98","num_nodes":"371","size_leaf_vector":"1"}},{"base_weights":[-5.114881E-3,-1.0741966E0,6.0571873E-1,1.6181098E-1,-1.3733265E0,-8.5007554E-1,8.446724E-1,-1.0657094E0,5.2835983E-1,-1.4238865E0,-7.870099E-1,-1.0056635E0,-4.2287886E-1,1.1337956E0,2.7463767E-1,-1.2521495E0,-8.036523E-1,-3.153868E-1,9.169074E-1,-1.07769825E-1,-1.3445804E0,-1.2110391E0,-4.868922E-1,-5.4062635E-1,-1.1205117E0,-5.335064E-2,-8.6470515E-1,1.5033888E0,8.839381E-1,-5.618248E-2,7.981461E-1,-1.2835361E0,1.7273764E-1,-1.0384206E0,-3.7540329E-1,-1.0137635E0,-6.376905E-2,1.0014973E0,-1.1870462E0,-1.3881608E0,-1.2469506E0,-1.3583406E0,-9.958991E-1,-7.881538E-1,-6.486877E-2,-7.8215873E-1,4.177819E-1,4.005356E-1,-1.1378903E0,-3.914391E-1,4.8677167E-1,-1.0420927E0,-2.3398153E-1,-5.281855E-1,1.5282277E0,6.059643E-1,1.176183E0,-3.0200422E-1,3.728278E-1,-8.1062275E-1,8.520045E-1,-1.303603E0,1.1514556E-2,6.1815135E-2,-3.792511E-2,-1.1258618E0,4.4487062E-1,-6.212051E-1,9.636936E-1,-1.0613217E0,5.3166695E-2,-4.3051955E-1,5.608001E-1,5.944603E-1,1.3377835E0,-1.2683783E0,5.3109373E-3,-1.390755E0,-2.1058917E-2,-2.1296652E-1,-1.289306E0,-2.1993913E-2,-1.3702571E0,-4.3399784E-1,-1.1828315E0,9.282446E-2,-9.698365E-1,-1.777994E-1,1.1683444E0,-1.7149587E-1,-8.967627E-1,7.413127E-1,-1.3294473E-1,-7.646767E-2,9.8341954E-1,-1.178386E0,-4.9799663E-1,-2.4735872E-1,-1.1765976E0,-3.3889353E-1,8.279234E-1,-1.2374542E0,-2.6018465E-1,4.358174E-1,-7.01993E-1,3.2838163E-1,-1.1833888E0,1.3713235E0,1.6296123E0,-9.025167E-1,6.635343E-1,6.762449E-1,1.2623547E0,-7.7651256E-1,-1.3263905E-1,8.777347E-1,9.6531436E-2,-8.6858356E-1,2.5150675E-2,8.8795483E-1,-1.2178835E0,-1.3235124E0,8.556148E-3,-1.2123104E0,-4.1283938E-1,-6.456573E-2,1.0476272E-1,-7.1503204E-1,6.7474246E-2,-5.875396E-3,1.3031673E0,-1.1788949E0,-3.640284E-1,-6.6811246E-1,1.09097786E-1,2.5578415E-1,1.0210166E0,-8.9811826E-1,7.095598E-1,1.6258513E0,1.1771146E0,-1.0481833E-1,-2.5760463E-1,-1.3933651E0,-2.1058917E-2,-8.2228523E-1,6.1558586E-1,-1.3400496E0,-8.7701875E-1,-1.3825357E0,-2.1993913E-2,3.8148272E-1,-7.2236353E-1,-1.3047451E0,-1.7209648E-1,6.176537E-1,-9.238576E-2,-1.1057328E0,-4.2065266E-1,-9.447394E-2,-6.6905506E-2,-6.1992854E-3,1.0976342E-1,2.6615572E-1,-1.0072904E0,-9.4438636E-1,5.876443E-1,9.2133486E-1,-4.6517846E-1,-3.9040586E-1,8.379413E-2,1.219275E0,-3.1854352E-3,-1.2528349E0,-9.125454E-1,-1.1450292E0,8.4673174E-2,-4.098555E-1,5.943697E-1,-1.3171536E0,2.673809E-2,-7.687428E-1,3.1789485E-1,1.1083101E0,4.7327485E-2,-1.272139E0,7.033704E-2,-9.868391E-1,1.9801919E-1,-8.5154325E-1,1.0291927E0,-8.886173E-1,7.555142E-2,-5.294903E-1,8.9141643E-1,-8.372252E-4,-1.2923082E0,9.160538E-1,1.5386207E0,1.6320686E0,-3.224578E-2,-9.9396324E-1,2.0104536E-1,5.753325E-1,1.2982631E0,1.4117984E0,-4.6715686E-1,1.1123444E0,1.4822665E0,-3.6140952E-1,-9.2008305E-1,3.0943245E-1,-3.1827205E-1,6.516169E-1,1.2597545E0,-1.2221982E0,4.1243136E-1,-9.360972E-1,1.6098063E-2,7.5066435E-1,1.259421E0,-5.695269E-1,-1.02008685E-1,-1.00292414E-1,4.0302137E-3,-9.327305E-2,5.302569E-3,3.8345676E-2,-8.741721E-2,-6.50059E-2,3.5737146E-2,2.6037635E-2,1.1718887E-1,-9.070094E-2,4.927758E-3,-8.573214E-2,8.533576E-3,-5.6295488E-2,8.6632244E-2,-5.9866827E-2,3.3289038E-2,4.623453E-2,-2.2534858E-2,9.534636E-3,1.086903E-1,-9.473372E-2,-1.6367834E-2,8.952122E-2,3.6976725E-2,1.24844864E-1,-4.9362086E-2,9.072584E-2,-3.7698466E-2,-6.437929E-2,3.430641E-2,-1.04699366E-1,-2.1058917E-2,-8.247712E-2,-2.9935485E-3,8.127384E-2,-2.326998E-2,-1.01398714E-1,-1.7832514E-2,3.647406E-2,-8.68864E-2,-1.04610026E-1,-2.3567328E-2,8.300252E-2,-2.891512E-2,-7.333016E-2,4.2762857E-2,-1.0137976E-1,-2.3345998E-2,6.7215554E-2,-5.262518E-2,8.6078726E-2,1.6481649E-3,-8.553031E-2,3.9653353E-2,4.484917E-2,-5.389789E-2,2.2595513E-3,-9.902578E-2,-1.3371029E-2,1.1093829E-1,-8.926546E-2,4.6649594E-3,-7.330227E-2,7.245171E-2,-3.552391E-2,9.329436E-2,1.5901744E-2,9.338824E-2,2.5718136E-2,-7.5669624E-2,-5.820462E-2,5.650643E-2,2.0570576E-2,1.0743572E-1,-9.525766E-2,-3.8186442E-2,-7.1073346E-2,1.9725215E-2,1.4045458E-2,-1.0340947E-1,-5.819151E-2,3.29038E-2,-1.2431269E-2,-6.1008748E-2,8.1735924E-2,-9.085164E-2,-1.0622797E-1,-2.2655005E-2,-8.478232E-2,2.9191667E-2,1.027999E-1,-4.183311E-2,9.078816E-2,-3.420178E-2,-4.502232E-2,6.349965E-2,-9.783155E-2,-1.6988397E-2,-5.9714563E-2,6.563568E-2,-8.538837E-2,3.5805637E-3,-7.7486604E-2,3.7292894E-2,8.066377E-3,-8.66373E-2,2.0161651E-2,1.1738115E-1,-8.0847226E-2,1.5989441E-2,5.3558275E-2,-8.34486E-2,8.5901916E-2,-1.3645693E-2,-1.0176981E-1,-2.3935009E-2,9.1555655E-2,2.0688444E-2,1.16184555E-1,2.2123525E-2,1.2408636E-1,1.06611446E-1,-7.967886E-2,6.743321E-3,-4.9574222E-2,6.735972E-2,3.5533126E-2,8.433028E-2,8.202012E-2,1.1741119E-1,8.522287E-2,1.2248941E-1,-7.550595E-2,6.771066E-2,9.207854E-2,4.9150746E-2,8.903045E-2,1.1491505E-1,-7.887817E-2,-4.2366493E-3,-1.0514688E-1,-4.4913664E-2,3.367513E-2,-7.124394E-2,-3.1335846E-2,3.2527547E-2,2.7715586E-2,8.160761E-2,9.736384E-2,-1.3321669E-2,-9.5079206E-2,3.8476296E-2,4.285732E-2,-8.337426E-2,-3.193652E-2,-8.859406E-2,4.2478453E-2,9.084086E-2,1.032398E-1,7.2808184E-2,2.0911165E-2,-7.735767E-2],"categories":[],"categories_nodes":[],"categories_segments":[],"categories_sizes":[],"default_left":[0,0,0,0,0,0,0,0,0,0,0,0,0,0,0,0,0,0,0,0,0,0,0,0,0,0,0,0,0,0,0,0,0,0,0,0,0,0,0,0,0,0,0,0,0,0,0,0,0,0,0,0,0,0,0,0,0,0,0,0,0,0,0,0,0,0,0,0,0,0,0,0,0,0,0,0,0,0,0,0,0,0,0,0,0,0,0,0,0,0,0,0,0,0,0,0,0,0,0,0,0,0,0,0,0,0,0,0,0,0,0,0,0,0,0,0,0,0,0,0,0,0,0,0,0,0,0,0,0,0,0,0,0,0,0,0,0,0,0,0,0,0,0,0,0,0,0,0,0,0,0,0,0,0,0,0,0,0,0,0,0,0,0,0,0,0,0,0,0,0,0,0,0,0,0,0,0,0,0,0,0,0,0,0,0,0,0,0,0,0,0,0,0,0,0,0,0,0,0,0,0,0,0,0,0,0,0,0,0,0,0,0,0,0,0,0,0,0,0,0,0,0,0,0,0,0,0,0,0,0,0,0,0,0,0,0,0,0,0,0,0,0,0,0,0,0,0,0,0,0,0,0,0,0,0,0,0,0,0,0,0,0,0,0,0,0,0,0,0,0,0,0,0,0,0,0,0,0,0,0,0,0,0,0,0,0,0,0,0,0,0,0,0,0,0,0,0,0,0,0,0,0,0,0,0,0,0,0,0,0,0,0,0,0,0,0,0,0,0,0,0,0,0,0,0,0,0,0,0,0,0,0,0,0,0,0,0,0,0,0,0,0,0,0,0,0,0,0,0,0,0,0,0,0,0,0,0,0,0,0,0,0,0,0,0,0,0,0,0,0,0,0,0,0,0,0,0,0,0,0,0,0,0,0,0,0,0],"id":4,"left_children":[1,3,5,7,9,11,13,15,17,19,21,23,25,27,29,31,33,35,37,-1,39,41,43,45,47,49,51,53,55,57,59,61,63,65,67,69,71,73,75,77,79,81,83,85,87,89,91,93,95,97,99,101,103,105,107,109,111,113,115,117,119,121,-1,-1,-1,123,125,127,129,131,-1,133,135,137,139,141,-1,143,-1,145,147,-1,149,151,153,155,157,159,161,163,165,167,169,-1,171,173,175,177,179,181,183,185,187,189,191,193,195,197,199,201,203,205,207,209,211,213,215,217,-1,219,221,223,-1,225,227,-1,-1,229,-1,-1,231,233,235,237,239,241,243,245,247,249,251,-1,253,255,-1,257,259,261,263,265,-1,267,269,271,273,275,-1,277,279,-1,281,-1,-1,283,285,287,289,291,293,295,-1,297,-1,299,301,303,305,307,309,311,-1,313,315,317,319,321,323,325,327,329,331,333,-1,335,337,-1,339,341,343,345,-1,347,349,351,353,355,357,359,361,363,365,367,369,371,373,375,377,379,-1,381,383,385,-1,-1,-1,-1,-1,-1,-1,-1,-1,-1,-1,-1,-1,-1,-1,-1,-1,-1,-1,-1,-1,-1,-1,-1,-1,-1,-1,-1,-1,-1,-1,-1,-1,-1,-1,-1,-1,-1,-1,-1,-1,-1,-1,-1,-1,-1,-1,-1,-1,-1,-1,-1,-1,-1,-1,-1,-1,-1,-1,-1,-1,-1,-1,-1,-1,-1,-1,-1,-1,-1,-1,-1,-1,-1,-1,-1,-1,-1,-1,-1,-1,-1,-1,-1,-1,-1,-1,-1,-1,-1,-1,-1,-1,-1,-1,-1,-1,-1,-1,-1,-1,-1,-1,-1,-1,-1,-1,-1,-1,-1,-1,-1,-1,-1,-1,-1,-1,-1,-1,-1,-1,-1,-1,-1,-1,-1,-1,-1,-1,-1,-1,-1,-1,-1,-1,-1,-1,-1,-1,-1,-1,-1,-1,-1,-1,-1,-1,-1,-1,-1,-1,-1,-1,-1,-1,-1,-1,-1,-1,-1,-1,-1,-1,-1,-1],"loss_changes":[8.760507E3,1.8037041E3,2.970557E3,4.2863098E2,1.1530615E2,7.961548E1,1.2084155E3,9.698288E0,2.4068454E2,1.8076172E0,3.9373367E1,4.6500854E1,5.272535E1,4.479956E2,4.2770776E2,5.866806E0,9.047791E0,4.0694588E1,9.0589966E1,0E0,5.0738525E-1,2.7503204E0,2.3540184E1,4.1211014E1,1.9128296E1,3.2526466E1,1.6219032E1,9.9770996E1,2.3532104E2,1.5978902E2,8.354773E1,3.765152E0,2.0086513E0,8.291382E0,1.2054705E1,5.779995E0,3.954431E1,6.538068E1,2.1229324E0,6.2908936E-1,7.2666626E0,5.387726E-1,5.407448E0,1.7404816E1,1.112305E1,9.742958E0,6.548976E0,8.220109E0,1.751764E1,1.2091877E1,1.9608107E1,1.7176872E1,1.0835203E1,1.4100188E1,2.8590332E1,1.3009778E2,6.0119995E1,7.7297165E1,7.691979E1,2.3828468E0,6.9972046E1,3.5952148E0,0E0,0E0,0E0,3.0132751E0,6.2498775E0,4.926341E0,2.1501904E0,4.4996185E0,0E0,1.4005293E1,8.710562E0,3.8521484E1,1.03020935E1,2.0845432E0,0E0,6.338501E-1,0E0,4.5318704E0,2.281311E0,0E0,5.601196E-1,3.9559731E0,4.915966E0,1.42532625E1,6.234604E0,8.633932E0,2.5976562E0,8.894122E0,8.955513E0,5.4147873E0,5.0213637E0,0E0,1.6707401E0,1.1846924E1,1.6427166E1,1.306729E1,4.069504E0,6.1085443E0,1.0638088E1,4.2349243E0,8.24177E0,1.1901606E1,7.325016E0,5.964529E0,1.780735E0,